{"learner":{"attributes":{},"feature_names":["day_of_week","hour_of_day"],"feature_types":[],"gradient_booster":{"model":{"cats":{"enc":[],"feature_segments":[],"sorted_idx":[]},"gbtree_model_param":{"num_parallel_tree":"1","num_trees":"50"},"iteration_indptr":[0,1,2,3,4,5,6,7,8,9,10,11,12,13,14,15,16,17,18,19,20,21,22,23,24,25,26,27,28,29,30,31,32,33,34,35,36,37,38,39,40,41,42,43,44,45,46,47,48,49,50],"tree_info":[0,0,0,0,0,0,0,0,0,0,0,0,0,0,0,0,0,0,0,0,0,0,0,0,0,0,0,0,0,0,0,0,0,0,0,0,0,0,0,0,0,0,0,0,0,0,0,0,0,0],"trees":[{"base_weights":[5.0073186E-7,-1.1437592E1,1.015694E0,-1.250254E0,-8.333478E0,3.3736508E0,-4.022809E0,-9.5516855E-1,-6.733203E-1,-2.816137E0,4.172509E0,-1.8907148E0,-8.202032E0,2.11793E-2,-5.122299E-1,4.9882776E-1,1.0439924E-1,-4.5101604E-1,-6.231342E-2,-1.1286272E0,-6.861767E-1],"categories":[],"categories_nodes":[],"categories_segments":[],"categories_sizes":[],"default_left":[0,0,0,0,0,0,0,0,0,0,0,0,0,0,0,0,0,0,0,0,0],"id":0,"left_children":[1,3,5,-1,7,9,11,-1,-1,13,15,17,19,-1,-1,-1,-1,-1,-1,-1,-1],"loss_changes":[2.620815E4,5.0406445E2,2.4630117E4,0E0,3.3159668E1,6.993758E3,5.874332E3,0E0,0E0,1.1323145E3,3.1875254E3,1.4548267E3,8.443711E2,0E0,0E0,0E0,0E0,0E0,0E0,0E0,0E0],"parents":[2147483647,0,0,1,1,2,2,4,4,5,5,6,6,9,9,10,10,11,11,12,12],"right_children":[2,4,6,-1,8,10,12,-1,-1,14,16,18,20,-1,-1,-1,-1,-1,-1,-1,-1],"split_conditions":[3E0,6E0,1.9E1,-1.250254E0,7E0,5E0,2.2E1,-9.5516855E-1,-6.733203E-1,3E0,7E0,4E0,4E0,2.11793E-2,-5.122299E-1,4.9882776E-1,1.0439924E-1,-4.5101604E-1,-6.231342E-2,-1.1286272E0,-6.861767E-1],"split_indices":[1,0,1,0,0,1,1,0,0,0,0,0,0,0,0,0,0,0,0,0,0],"split_type":[0,0,0,0,0,0,0,0,0,0,0,0,0,0,0,0,0,0,0,0,0],"sum_hessian":[2.254E3,1.83E2,2.071E3,1.34E2,4.9E1,1.411E3,6.6E2,2.5E1,2.4E1,1.61E2,1.25E3,4.38E2,2.22E2,7E1,9.1E1,9.91E2,2.59E2,1.42E2,2.96E2,6.5E1,1.57E2],"tree_param":{"num_deleted":"0","num_feature":"2","num_nodes":"21","size_leaf_vector":"1"}},{"base_weights":[-2.2591555E-3,-1.0309478E1,9.1305476E-1,-1.1261548E0,-7.5327E0,2.6696975E0,-4.6151695E0,-8.633254E-1,-6.086816E-1,-2.5375545E0,3.2652395E0,-2.372741E0,-7.3899674E0,-9.174979E-2,-6.3660747E-1,4.0008035E-1,-1.202131E-2,-5.2652085E-1,-8.4241554E-2,-1.0174745E0,-6.1799335E-1],"categories":[],"categories_nodes":[],"categories_segments":[],"categories_sizes":[],"default_left":[0,0,0,0,0,0,0,0,0,0,0,0,0,0,0,0,0,0,0,0,0],"id":1,"left_children":[1,3,5,-1,7,9,11,-1,-1,13,15,17,19,-1,-1,-1,-1,-1,-1,-1,-1],"loss_changes":[2.1283852E4,4.0160742E2,2.0133752E4,0E0,2.7014893E1,4.886372E3,3.0936094E3,0E0,0E0,9.9895105E2,3.516669E3,1.226108E3,6.885576E2,0E0,0E0,0E0,0E0,0E0,0E0,0E0,0E0],"parents":[2147483647,0,0,1,1,2,2,4,4,5,5,6,6,9,9,10,10,11,11,12,12],"right_children":[2,4,6,-1,8,10,12,-1,-1,14,16,18,20,-1,-1,-1,-1,-1,-1,-1,-1],"split_conditions":[3E0,6E0,2E1,-1.1261548E0,7E0,5E0,2.2E1,-8.633254E-1,-6.086816E-1,6E0,1.8E1,4E0,4E0,-9.174979E-2,-6.3660747E-1,4.0008035E-1,-1.202131E-2,-5.2652085E-1,-8.4241554E-2,-1.0174745E0,-6.1799335E-1],"split_indices":[1,0,1,0,0,1,1,0,0,0,1,0,0,0,0,0,0,0,0,0,0],"split_type":[0,0,0,0,0,0,0,0,0,0,0,0,0,0,0,0,0,0,0,0,0],"sum_hessian":[2.254E3,1.83E2,2.071E3,1.34E2,4.9E1,1.572E3,4.99E2,2.5E1,2.4E1,1.61E2,1.411E3,2.77E2,2.22E2,1.14E2,4.7E1,1.159E3,2.52E2,9.5E1,1.82E2,6.5E1,1.57E2],"tree_param":{"num_deleted":"0","num_feature":"2","num_nodes":"21","size_leaf_vector":"1"}},{"base_weights":[-4.3327305E-3,-9.29265E0,8.205007E-1,-1.0143734E0,-6.8088703E0,2.4025111E0,-4.158145E0,-7.8031343E-1,-5.5024815E-1,-2.288295E0,2.9389899E0,-2.1376638E0,-6.6583047E0,2.8136982E-2,-4.2465335E-1,3.6010677E-1,-1.0823961E-2,-4.744172E-1,-7.586341E-2,-5.533717E-1,-9.1403246E-1],"categories":[],"categories_nodes":[],"categories_segments":[],"categories_sizes":[],"default_left":[0,0,0,0,0,0,0,0,0,0,0,0,0,0,0,0,0,0,0,0,0],"id":2,"left_children":[1,3,5,-1,7,9,11,-1,-1,13,15,17,19,-1,-1,-1,-1,-1,-1,-1,-1],"loss_changes":[1.7283889E4,3.198916E2,1.6329621E4,0E0,2.20083E1,3.965208E3,2.5115293E3,0E0,0E0,8.163814E2,2.8491035E3,9.9565857E2,5.7186914E2,0E0,0E0,0E0,0E0,0E0,0E0,0E0,0E0],"parents":[2147483647,0,0,1,1,2,2,4,4,5,5,6,6,9,9,10,10,11,11,12,12],"right_children":[2,4,6,-1,8,10,12,-1,-1,14,16,18,20,-1,-1,-1,-1,-1,-1,-1,-1],"split_conditions":[3E0,6E0,2E1,-1.0143734E0,7E0,5E0,2.2E1,-7.8031343E-1,-5.5024815E-1,3E0,1.8E1,4E0,7E0,2.8136982E-2,-4.2465335E-1,3.6010677E-1,-1.0823961E-2,-4.744172E-1,-7.586341E-2,-5.533717E-1,-9.1403246E-1],"split_indices":[1,0,1,0,0,1,1,0,0,0,1,0,0,0,0,0,0,0,0,0,0],"split_type":[0,0,0,0,0,0,0,0,0,0,0,0,0,0,0,0,0,0,0,0,0],"sum_hessian":[2.254E3,1.83E2,2.071E3,1.34E2,4.9E1,1.572E3,4.99E2,2.5E1,2.4E1,1.61E2,1.411E3,2.77E2,2.22E2,7E1,9.1E1,1.159E3,2.52E2,9.5E1,1.82E2,1.55E2,6.7E1],"tree_param":{"num_deleted":"0","num_feature":"2","num_nodes":"21","size_leaf_vector":"1"}},{"base_weights":[-5.8547277E-3,-8.376129E0,7.3745435E-1,-8.855323E0,-4.9742433E-1,1.9131552E0,-4.7117505E0,-9.136874E-1,-7.052832E-1,2.6059506E0,-5.593488E-1,-3.6117353E0,-7.925648E0,3.2498226E-1,-2.2149796E-2,-6.379258E-1,3.3774283E-2,-6.491825E-1,3.577185E-2,-6.047614E-1,-9.7130394E-1],"categories":[],"categories_nodes":[],"categories_segments":[],"categories_sizes":[],"default_left":[0,0,0,0,0,0,0,0,0,0,0,0,0,0,0,0,0,0,0,0,0],"id":3,"left_children":[1,3,5,7,-1,9,11,-1,-1,13,15,17,19,-1,-1,-1,-1,-1,-1,-1,-1],"loss_changes":[1.4036113E4,2.5590039E2,1.32835625E4,1.6757812E1,0E0,2.922019E3,1.2723784E3,0E0,0E0,2.4256455E3,1.9548055E3,3.1576602E3,2.5343994E2,0E0,0E0,0E0,0E0,0E0,0E0,0E0,0E0],"parents":[2147483647,0,0,1,1,2,2,3,3,5,5,6,6,9,9,10,10,11,11,12,12],"right_children":[2,4,6,8,-1,10,12,-1,-1,14,16,18,20,-1,-1,-1,-1,-1,-1,-1,-1],"split_conditions":[3E0,7E0,2.1E1,6E0,-4.9742433E-1,7E0,7E0,-9.136874E-1,-7.052832E-1,1.8E1,8E0,5E0,2.3E1,3.2498226E-1,-2.2149796E-2,-6.379258E-1,3.3774283E-2,-6.491825E-1,3.577185E-2,-6.047614E-1,-9.7130394E-1],"split_indices":[1,0,1,0,0,0,0,0,0,1,1,0,1,0,0,0,0,0,0,0,0],"split_type":[0,0,0,0,0,0,0,0,0,0,0,0,0,0,0,0,0,0,0,0,0],"sum_hessian":[2.254E3,1.83E2,2.071E3,1.59E2,2.4E1,1.704E3,3.67E2,1.34E2,2.5E1,1.331E3,3.73E2,2.75E2,9.2E1,1.084E3,2.47E2,4.9E1,3.24E2,1.59E2,1.16E2,4.7E1,4.5E1],"tree_param":{"num_deleted":"0","num_feature":"2","num_nodes":"21","size_leaf_vector":"1"}},{"base_weights":[-7.3126256E-3,-7.5500183E0,6.6250646E-1,-7.979909E0,-4.496716E-1,2.2362092E0,-2.7001722E0,-8.229955E-1,-6.3746756E-1,-2.2481806E0,2.8151338E0,-1.2775038E0,-5.488743E0,-1.0033535E-1,-5.1837426E-1,3.4571436E-1,3.54793E-2,-3.069666E-1,-4.1030973E-2,-7.9883546E-1,-4.4098625E-1],"categories":[],"categories_nodes":[],"categories_segments":[],"categories_sizes":[],"default_left":[0,0,0,0,0,0,0,0,0,0,0,0,0,0,0,0,0,0,0,0,0],"id":4,"left_children":[1,3,5,7,-1,9,11,-1,-1,13,15,17,19,-1,-1,-1,-1,-1,-1,-1,-1],"loss_changes":[1.1397822E4,2.0563281E2,1.0970764E4,1.17578125E1,0E0,3.6720562E3,2.6153145E3,0E0,0E0,5.8679016E2,1.9748066E3,6.810134E2,5.661553E2,0E0,0E0,0E0,0E0,0E0,0E0,0E0,0E0],"parents":[2147483647,0,0,1,1,2,2,3,3,5,5,6,6,9,9,10,10,11,11,12,12],"right_children":[2,4,6,8,-1,10,12,-1,-1,14,16,18,20,-1,-1,-1,-1,-1,-1,-1,-1],"split_conditions":[3E0,7E0,1.9E1,6E0,-4.496716E-1,5E0,2.2E1,-8.229955E-1,-6.3746756E-1,6E0,7E0,4E0,4E0,-1.0033535E-1,-5.1837426E-1,3.4571436E-1,3.54793E-2,-3.069666E-1,-4.1030973E-2,-7.9883546E-1,-4.4098625E-1],"split_indices":[1,0,1,0,0,1,1,0,0,0,0,0,0,0,0,0,0,0,0,0,0],"split_type":[0,0,0,0,0,0,0,0,0,0,0,0,0,0,0,0,0,0,0,0,0],"sum_hessian":[2.254E3,1.83E2,2.071E3,1.59E2,2.4E1,1.411E3,6.6E2,1.34E2,2.5E1,1.61E2,1.25E3,4.38E2,2.22E2,1.14E2,4.7E1,9.91E2,2.59E2,1.42E2,2.96E2,6.5E1,1.57E2],"tree_param":{"num_deleted":"0","num_feature":"2","num_nodes":"21","size_leaf_vector":"1"}},{"base_weights":[-8.2380185E-3,-6.805398E0,5.9537476E-1,-7.191046E0,-4.065031E-1,1.7656E0,-3.0873446E0,-7.413056E-1,-5.761726E-1,-2.0271819E0,2.1994987E0,-2.2078397E0,-6.2970414E0,3.2145435E-3,-3.594411E-1,2.6966453E-1,-8.860181E-3,-4.2230842E-1,-7.525217E-2,-4.6860763E-1,-8.331451E-1],"categories":[],"categories_nodes":[],"categories_segments":[],"categories_sizes":[],"default_left":[0,0,0,0,0,0,0,0,0,0,0,0,0,0,0,0,0,0,0,0,0],"id":5,"left_children":[1,3,5,7,-1,9,11,-1,-1,13,15,17,19,-1,-1,-1,-1,-1,-1,-1,-1],"loss_changes":[9.255983E3,1.6522266E2,8.934966E3,8.060547E0,0E0,2.5931182E3,1.3975693E3,0E0,0E0,5.229604E2,1.6064199E3,1.1523534E3,3.1163623E2,0E0,0E0,0E0,0E0,0E0,0E0,0E0,0E0],"parents":[2147483647,0,0,1,1,2,2,3,3,5,5,6,6,9,9,10,10,11,11,12,12],"right_children":[2,4,6,8,-1,10,12,-1,-1,14,16,18,20,-1,-1,-1,-1,-1,-1,-1,-1],"split_conditions":[3E0,7E0,2E1,6E0,-4.065031E-1,5E0,2.3E1,-7.413056E-1,-5.761726E-1,3E0,1.8E1,5E0,7E0,3.2145435E-3,-3.594411E-1,2.6966453E-1,-8.860181E-3,-4.2230842E-1,-7.525217E-2,-4.6860763E-1,-8.331451E-1],"split_indices":[1,0,1,0,0,1,1,0,0,0,1,0,0,0,0,0,0,0,0,0,0],"split_type":[0,0,0,0,0,0,0,0,0,0,0,0,0,0,0,0,0,0,0,0,0],"sum_hessian":[2.254E3,1.83E2,2.071E3,1.59E2,2.4E1,1.572E3,4.99E2,1.34E2,2.5E1,1.61E2,1.411E3,3.93E2,1.06E2,7E1,9.1E1,1.159E3,2.52E2,1.64E2,2.29E2,6.1E1,4.5E1],"tree_param":{"num_deleted":"0","num_feature":"2","num_nodes":"21","size_leaf_vector":"1"}},{"base_weights":[-9.018572E-3,-6.1342278E0,5.3492326E-1,-6.480176E0,-3.6747885E-1,1.4071672E0,-3.5077689E0,-6.677242E-1,-5.207714E-1,1.9720243E0,-6.083328E-1,-2.5271971E0,-6.380135E0,-1.1342114E-1,2.3319864E-1,-4.5726138E-1,3.356823E-2,-4.8885188E-1,7.23561E-2,-5.1582783E-1,-7.5164175E-1],"categories":[],"categories_nodes":[],"categories_segments":[],"categories_sizes":[],"default_left":[0,0,0,0,0,0,0,0,0,0,0,0,0,0,0,0,0,0,0,0,0],"id":6,"left_children":[1,3,5,7,-1,9,11,-1,-1,13,15,17,19,-1,-1,-1,-1,-1,-1,-1,-1],"loss_changes":[7.516395E3,1.3274072E2,7.3112505E3,5.3476562E0,0E0,1.9422905E3,1.0203706E3,0E0,0E0,1.4919902E3,1.4011703E3,2.1221367E3,9.034717E1,0E0,0E0,0E0,0E0,0E0,0E0,0E0,0E0],"parents":[2147483647,0,0,1,1,2,2,3,3,5,5,6,6,9,9,10,10,11,11,12,12],"right_children":[2,4,6,8,-1,10,12,-1,-1,14,16,18,20,-1,-1,-1,-1,-1,-1,-1,-1],"split_conditions":[3E0,7E0,2.1E1,6E0,-3.6747885E-1,7E0,7E0,-6.677242E-1,-5.207714E-1,5E0,1E1,5E0,2.3E1,-1.1342114E-1,2.3319864E-1,-4.5726138E-1,3.356823E-2,-4.8885188E-1,7.23561E-2,-5.1582783E-1,-7.5164175E-1],"split_indices":[1,0,1,0,0,0,0,0,0,1,1,0,1,0,0,0,0,0,0,0,0],"split_type":[0,0,0,0,0,0,0,0,0,0,0,0,0,0,0,0,0,0,0,0,0],"sum_hessian":[2.254E3,1.83E2,2.071E3,1.59E2,2.4E1,1.704E3,3.67E2,1.34E2,2.5E1,1.331E3,3.73E2,2.75E2,9.2E1,1.38E2,1.193E3,7.1E1,3.02E2,1.59E2,1.16E2,4.7E1,4.5E1],"tree_param":{"num_deleted":"0","num_feature":"2","num_nodes":"21","size_leaf_vector":"1"}},{"base_weights":[-9.688118E-3,-5.5292616E0,4.8047173E-1,-5.8395867E0,-3.3220094E-1,1.6800439E0,-2.08273E0,-6.119053E-1,-5.06002E-1,6.2381785E-2,2.6998837E0,-1.0274253E0,-4.150874E0,6.881139E-2,-2.9604346E-1,3.1708625E-1,1.00750186E-1,-2.3695944E-1,-3.777364E-2,-6.275506E-1,-3.2370985E-1],"categories":[],"categories_nodes":[],"categories_segments":[],"categories_sizes":[],"default_left":[0,0,0,0,0,0,0,0,0,0,0,0,0,0,0,0,0,0,0,0,0],"id":7,"left_children":[1,3,5,7,-1,9,11,-1,-1,13,15,17,19,-1,-1,-1,-1,-1,-1,-1,-1],"loss_changes":[6.103499E3,1.06634766E2,6.374372E3,3.8950195E0,0E0,2.3292869E3,1.4383826E3,0E0,0E0,1.0366729E3,6.8707275E2,3.8190955E2,4.1262573E2,0E0,0E0,0E0,0E0,0E0,0E0,0E0,0E0],"parents":[2147483647,0,0,1,1,2,2,3,3,5,5,6,6,9,9,10,10,11,11,12,12],"right_children":[2,4,6,8,-1,10,12,-1,-1,14,16,18,20,-1,-1,-1,-1,-1,-1,-1,-1],"split_conditions":[3E0,7E0,1.9E1,5E0,-3.3220094E-1,1.1E1,2.2E1,-6.119053E-1,-5.06002E-1,7E0,7E0,4E0,4E0,6.881139E-2,-2.9604346E-1,3.1708625E-1,1.00750186E-1,-2.3695944E-1,-3.777364E-2,-6.275506E-1,-3.2370985E-1],"split_indices":[1,0,1,0,0,1,1,0,0,0,0,0,0,0,0,0,0,0,0,0,0],"split_type":[0,0,0,0,0,0,0,0,0,0,0,0,0,0,0,0,0,0,0,0,0],"sum_hessian":[2.254E3,1.83E2,2.071E3,1.59E2,2.4E1,1.411E3,6.6E2,1.12E2,4.7E1,5.46E2,8.65E2,4.38E2,2.22E2,4.53E2,9.3E1,6.76E2,1.89E2,1.42E2,2.96E2,6.5E1,1.57E2],"tree_param":{"num_deleted":"0","num_feature":"2","num_nodes":"21","size_leaf_vector":"1"}},{"base_weights":[-9.821727E-3,-4.984216E0,4.319246E-1,-5.262615E0,-3.0030963E-1,1.5121741E0,-1.8763118E0,-5.4243493E-1,-4.2204314E-1,5.572817E-2,2.430377E0,-9.253082E-1,-3.7400527E0,7.718916E-2,-2.0931688E-1,2.8542438E-1,9.0728216E-2,-2.134292E-1,-3.4008946E-2,-5.228295E-1,-2.6744595E-1],"categories":[],"categories_nodes":[],"categories_segments":[],"categories_sizes":[],"default_left":[0,0,0,0,0,0,0,0,0,0,0,0,0,0,0,0,0,0,0,0,0],"id":8,"left_children":[1,3,5,7,-1,9,11,-1,-1,13,15,17,19,-1,-1,-1,-1,-1,-1,-1,-1],"loss_changes":[4.957336E3,8.567969E1,5.16931E3,4.0756836E0,0E0,1.8881506E3,1.1681113E3,0E0,0E0,8.4342755E2,5.5648975E2,3.098754E2,3.396643E2,0E0,0E0,0E0,0E0,0E0,0E0,0E0,0E0],"parents":[2147483647,0,0,1,1,2,2,3,3,5,5,6,6,9,9,10,10,11,11,12,12],"right_children":[2,4,6,8,-1,10,12,-1,-1,14,16,18,20,-1,-1,-1,-1,-1,-1,-1,-1],"split_conditions":[3E0,7E0,1.9E1,6E0,-3.0030963E-1,1.1E1,2.2E1,-5.4243493E-1,-4.2204314E-1,6E0,7E0,4E0,5E0,7.718916E-2,-2.0931688E-1,2.8542438E-1,9.0728216E-2,-2.134292E-1,-3.4008946E-2,-5.228295E-1,-2.6744595E-1],"split_indices":[1,0,1,0,0,1,1,0,0,0,0,0,0,0,0,0,0,0,0,0,0],"split_type":[0,0,0,0,0,0,0,0,0,0,0,0,0,0,0,0,0,0,0,0,0],"sum_hessian":[2.254E3,1.83E2,2.071E3,1.59E2,2.4E1,1.411E3,6.6E2,1.34E2,2.5E1,5.46E2,8.65E2,4.38E2,2.22E2,4.1E2,1.36E2,6.76E2,1.89E2,1.42E2,2.96E2,9.1E1,1.31E2],"tree_param":{"num_deleted":"0","num_feature":"2","num_nodes":"21","size_leaf_vector":"1"}},{"base_weights":[-9.752507E-3,-3.1827533E0,5.6308633E-1,-4.4926686E0,-1.6753019E0,1.8953747E0,-1.4927881E0,-4.7423816E0,-2.7147993E-1,-3.1447343E-3,-2.9475613E0,2.2767084E0,1.9902723E-1,-7.0029753E-1,-3.3695915E0,-4.9749276E-1,-4.0961295E-1,-3.571576E-2,6.2330663E-2,-2.2471295E-1,-4.8384872E-1,1.4564703E-1,2.959007E-1,-2.954252E-1,1.1286155E-1,-2.0157841E-1,-1.0010282E-2,-2.5743788E-1,-5.14435E-1],"categories":[],"categories_nodes":[],"categories_segments":[],"categories_sizes":[],"default_left":[0,0,0,0,0,0,0,0,0,0,0,0,0,0,0,0,0,0,0,0,0,0,0,0,0,0,0,0,0],"id":9,"left_children":[1,3,5,7,9,11,13,15,-1,17,19,21,23,25,27,-1,-1,-1,-1,-1,-1,-1,-1,-1,-1,-1,-1,-1,-1],"loss_changes":[4.100521E3,6.737224E2,5.237092E3,6.881323E1,3.4463232E2,7.499214E2,1.1161268E3,3.6677246E0,0E0,1.5968419E1,1.1097809E2,5.256763E2,6.306221E2,4.182587E2,3.0147876E2,0E0,0E0,0E0,0E0,0E0,0E0,0E0,0E0,0E0,0E0,0E0,0E0,0E0,0E0],"parents":[2147483647,0,0,1,1,2,2,3,3,4,4,5,5,6,6,7,7,9,9,10,10,11,11,12,12,13,13,14,14],"right_children":[2,4,6,8,10,12,14,16,-1,18,20,22,24,26,28,-1,-1,-1,-1,-1,-1,-1,-1,-1,-1,-1,-1,-1,-1],"split_conditions":[5E0,3E0,1.8E1,7E0,3E0,7E0,2.2E1,5E0,-2.7147993E-1,2E0,7E0,1.2E1,1E1,4E0,7E0,-4.9749276E-1,-4.0961295E-1,-3.571576E-2,6.2330663E-2,-2.2471295E-1,-4.8384872E-1,1.4564703E-1,2.959007E-1,-2.954252E-1,1.1286155E-1,-2.0157841E-1,-1.0010282E-2,-2.5743788E-1,-5.14435E-1],"split_indices":[1,1,1,0,0,0,1,0,0,0,0,1,1,0,0,0,0,0,0,0,0,0,0,0,0,0,0,0,0],"split_type":[0,0,0,0,0,0,0,0,0,0,0,0,0,0,0,0,0,0,0,0,0,0,0,0,0,0,0,0,0],"sum_hessian":[2.254E3,3.44E2,1.91E3,1.83E2,1.61E2,1.159E3,7.51E2,1.59E2,2.4E1,7E1,9.1E1,9.46E2,2.13E2,5.29E2,2.22E2,1.12E2,4.7E1,4.5E1,2.5E1,6.8E1,2.3E1,4.31E2,5.15E2,4.8E1,1.65E2,1.65E2,3.64E2,1.55E2,6.7E1],"tree_param":{"num_deleted":"0","num_feature":"2","num_nodes":"29","size_leaf_vector":"1"}},{"base_weights":[-9.923483E-3,-2.8698707E0,5.0639874E-1,-4.049807E0,-1.5119809E0,1.7060605E0,-1.3448169E0,-4.273813E0,-2.4541791E-1,-2.4549188E-3,-2.6605065E0,2.0495038E0,1.782714E-1,-6.306668E-1,-3.036094E0,-4.406446E-1,-3.4207624E-1,-3.2221787E-2,5.6337394E-2,-2.025673E-1,-4.3747994E-1,1.3111603E-1,2.66368E-1,-2.6648557E-1,1.0164338E-1,-2.6757464E-1,-2.92922E-2,-4.8890185E-1,-2.2428715E-1],"categories":[],"categories_nodes":[],"categories_segments":[],"categories_sizes":[],"default_left":[0,0,0,0,0,0,0,0,0,0,0,0,0,0,0,0,0,0,0,0,0,0,0,0,0,0,0,0,0],"id":10,"left_children":[1,3,5,7,9,11,13,15,-1,17,19,21,23,25,27,-1,-1,-1,-1,-1,-1,-1,-1,-1,-1,-1,-1,-1,-1],"loss_changes":[3.3313083E3,5.4664404E2,4.2463057E3,5.5278564E1,2.8085764E2,6.082971E2,9.0637E2,3.0292969E0,0E0,1.3027637E1,9.12608E1,4.2594653E2,5.126711E2,3.6529514E2,3.167959E2,0E0,0E0,0E0,0E0,0E0,0E0,0E0,0E0,0E0,0E0,0E0,0E0,0E0,0E0],"parents":[2147483647,0,0,1,1,2,2,3,3,4,4,5,5,6,6,7,7,9,9,10,10,11,11,12,12,13,13,14,14],"right_children":[2,4,6,8,10,12,14,16,-1,18,20,22,24,26,28,-1,-1,-1,-1,-1,-1,-1,-1,-1,-1,-1,-1,-1,-1],"split_conditions":[5E0,3E0,1.8E1,7E0,3E0,7E0,2.2E1,6E0,-2.4541791E-1,2E0,7E0,1.2E1,1E1,2E0,4E0,-4.406446E-1,-3.4207624E-1,-3.2221787E-2,5.6337394E-2,-2.025673E-1,-4.3747994E-1,1.3111603E-1,2.66368E-1,-2.6648557E-1,1.0164338E-1,-2.6757464E-1,-2.92922E-2,-4.8890185E-1,-2.2428715E-1],"split_indices":[1,1,1,0,0,0,1,0,0,0,0,1,1,0,0,0,0,0,0,0,0,0,0,0,0,0,0,0,0],"split_type":[0,0,0,0,0,0,0,0,0,0,0,0,0,0,0,0,0,0,0,0,0,0,0,0,0,0,0,0,0],"sum_hessian":[2.254E3,3.44E2,1.91E3,1.83E2,1.61E2,1.159E3,7.51E2,1.59E2,2.4E1,7E1,9.1E1,9.46E2,2.13E2,5.29E2,2.22E2,1.34E2,2.5E1,4.5E1,2.5E1,6.8E1,2.3E1,4.31E2,5.15E2,4.8E1,1.65E2,7.4E1,4.55E2,6.5E1,1.57E2],"tree_param":{"num_deleted":"0","num_feature":"2","num_nodes":"29","size_leaf_vector":"1"}},{"base_weights":[-1.0005372E-2,-2.587649E0,4.5535156E-1,-3.650414E0,-1.3645849E0,1.5356543E0,-1.2116785E0,-3.8513231E0,-2.2185782E-1,-1.8697658E-3,-2.401413E0,6.056318E-1,1.9968841E0,-7.9715586E-1,-3.7029867E0,-4.0450922E-1,-3.3149233E-1,-2.9069645E-2,5.092032E-2,-1.8260415E-1,-3.9555475E-1,1.0337972E-1,-1.3085355E-1,2.5873277E-1,1.4073761E-1,-1.9355987E-1,-4.4907173E-3,-2.3247214E-1,-5.480149E-1],"categories":[],"categories_nodes":[],"categories_segments":[],"categories_sizes":[],"default_left":[0,0,0,0,0,0,0,0,0,0,0,0,0,0,0,0,0,0,0,0,0,0,0,0,0,0,0,0,0],"id":11,"left_children":[1,3,5,7,9,11,13,15,-1,17,19,21,23,25,27,-1,-1,-1,-1,-1,-1,-1,-1,-1,-1,-1,-1,-1,-1],"loss_changes":[2.7061057E3,4.4345972E2,3.4433755E3,4.438672E1,2.2888553E2,4.963772E2,7.7364136E2,3.2207031E0,0E0,1.062844E1,7.504382E1,3.177107E2,2.66114E2,5.5314246E2,2.4934595E2,0E0,0E0,0E0,0E0,0E0,0E0,0E0,0E0,0E0,0E0,0E0,0E0,0E0,0E0],"parents":[2147483647,0,0,1,1,2,2,3,3,4,4,5,5,6,6,7,7,9,9,10,10,11,11,12,12,13,13,14,14],"right_children":[2,4,6,8,10,12,14,16,-1,18,20,22,24,26,28,-1,-1,-1,-1,-1,-1,-1,-1,-1,-1,-1,-1,-1,-1],"split_conditions":[5E0,3E0,1.8E1,7E0,3E0,1.1E1,2.3E1,5E0,-2.2185782E-1,2E0,7E0,7E0,5E0,5E0,7E0,-4.0450922E-1,-3.3149233E-1,-2.9069645E-2,5.092032E-2,-1.8260415E-1,-3.9555475E-1,1.0337972E-1,-1.3085355E-1,2.5873277E-1,1.4073761E-1,-1.9355987E-1,-4.4907173E-3,-2.3247214E-1,-5.480149E-1],"split_indices":[1,1,1,0,0,1,1,0,0,0,0,0,0,0,0,0,0,0,0,0,0,0,0,0,0,0,0,0,0],"split_type":[0,0,0,0,0,0,0,0,0,0,0,0,0,0,0,0,0,0,0,0,0,0,0,0,0,0,0,0,0],"sum_hessian":[2.254E3,3.44E2,1.91E3,1.83E2,1.61E2,1.159E3,7.51E2,1.59E2,2.4E1,7E1,9.1E1,3.85E2,7.74E2,6.45E2,1.06E2,1.12E2,4.7E1,4.5E1,2.5E1,6.8E1,2.3E1,3.15E2,7E1,3.85E2,3.89E2,2.56E2,3.89E2,6.1E1,4.5E1],"tree_param":{"num_deleted":"0","num_feature":"2","num_nodes":"29","size_leaf_vector":"1"}},{"base_weights":[-9.945188E-3,-2.3332732E0,4.0949914E-1,-3.2905784E0,-1.2315606E0,1.2921621E0,-1.2616367E0,-3.5794517E-1,-2.4448092E0,-1.3749835E-3,-2.1675563E0,1.6066432E0,8.732562E-2,-6.4349824E-1,-2.8605964E0,-2.7731E-1,-2.0055945E-1,-2.622587E-2,4.602414E-2,-1.646084E-1,-3.5764742E-1,1.0480555E-1,2.0339218E-1,-3.4868324E-1,4.9935527E-2,-2.048657E-1,1.2538652E-1,3.905609E-2,-4.0109354E-1],"categories":[],"categories_nodes":[],"categories_segments":[],"categories_sizes":[],"default_left":[0,0,0,0,0,0,0,0,0,0,0,0,0,0,0,0,0,0,0,0,0,0,0,0,0,0,0,0,0],"id":12,"left_children":[1,3,5,7,9,11,13,-1,15,17,19,21,23,25,27,-1,-1,-1,-1,-1,-1,-1,-1,-1,-1,-1,-1,-1,-1],"loss_changes":[2.198468E3,3.5981042E2,2.8204502E3,3.6203857E1,1.865317E2,4.7386133E2,6.514774E2,0E0,1.6477966E0,8.6711035E0,6.170627E1,2.3463159E2,3.8463254E2,1.2769628E3,6.8971423E2,0E0,0E0,0E0,0E0,0E0,0E0,0E0,0E0,0E0,0E0,0E0,0E0,0E0,0E0],"parents":[2147483647,0,0,1,1,2,2,3,3,4,4,5,5,6,6,8,8,9,9,10,10,11,11,12,12,13,13,14,14],"right_children":[2,4,6,8,10,12,14,-1,16,18,20,22,24,26,28,-1,-1,-1,-1,-1,-1,-1,-1,-1,-1,-1,-1,-1,-1],"split_conditions":[5E0,3E0,1.9E1,6E0,3E0,7E0,7E0,-3.5794517E-1,7E0,2E0,7E0,1.2E1,8E0,5E0,2E1,-2.7731E-1,-2.0055945E-1,-2.622587E-2,4.602414E-2,-1.646084E-1,-3.5764742E-1,1.0480555E-1,2.0339218E-1,-3.4868324E-1,4.9935527E-2,-2.048657E-1,1.2538652E-1,3.905609E-2,-4.0109354E-1],"split_indices":[1,1,1,0,0,0,0,0,0,0,0,1,1,0,1,0,0,0,0,0,0,0,0,0,0,0,0,0,0],"split_type":[0,0,0,0,0,0,0,0,0,0,0,0,0,0,0,0,0,0,0,0,0,0,0,0,0,0,0,0,0],"sum_hessian":[2.254E3,3.44E2,1.91E3,1.83E2,1.61E2,1.25E3,6.6E2,1.34E2,4.9E1,7E1,9.1E1,9.91E2,2.59E2,4.77E2,1.83E2,2.5E1,2.4E1,4.5E1,2.5E1,6.8E1,2.3E1,4.31E2,5.6E2,2.6E1,2.33E2,2.74E2,2.03E2,4.8E1,1.35E2],"tree_param":{"num_deleted":"0","num_feature":"2","num_nodes":"29","size_leaf_vector":"1"}},{"base_weights":[-9.735598E-3,-2.103825E0,3.683233E-1,-2.966063E0,-1.1115062E0,1.2529356E0,-9.967281E-1,-3.224158E-1,-2.2098856E0,-9.585904E-4,-1.9564776E0,4.7726405E-1,1.6376535E0,-4.2601785E-1,-2.3486552E0,-2.506456E-1,-1.8130574E-1,-2.3660278E-2,4.1598722E-2,-1.4838617E-1,-3.2337284E-1,8.262708E-2,-1.0827839E-1,2.1442795E-1,1.1320247E-1,-2.1438257E-1,-1.425494E-2,-3.6362678E-1,-1.4334354E-1],"categories":[],"categories_nodes":[],"categories_segments":[],"categories_sizes":[],"default_left":[0,0,0,0,0,0,0,0,0,0,0,0,0,0,0,0,0,0,0,0,0,0,0,0,0,0,0,0,0],"id":13,"left_children":[1,3,5,7,9,11,13,-1,15,17,19,21,23,25,27,-1,-1,-1,-1,-1,-1,-1,-1,-1,-1,-1,-1,-1,-1],"loss_changes":[1.7860338E3,2.9189038E2,2.3088604E3,2.87854E1,1.5201582E2,3.453794E2,5.792114E2,0E0,1.3400116E0,7.074235E0,5.0737305E1,2.1105902E2,1.9610034E2,2.577749E2,2.5758167E2,0E0,0E0,0E0,0E0,0E0,0E0,0E0,0E0,0E0,0E0,0E0,0E0,0E0,0E0],"parents":[2147483647,0,0,1,1,2,2,3,3,4,4,5,5,6,6,8,8,9,9,10,10,11,11,12,12,13,13,14,14],"right_children":[2,4,6,8,10,12,14,-1,16,18,20,22,24,26,28,-1,-1,-1,-1,-1,-1,-1,-1,-1,-1,-1,-1,-1,-1],"split_conditions":[5E0,3E0,1.8E1,6E0,3E0,1.1E1,2.2E1,-3.224158E-1,7E0,2E0,7E0,7E0,5E0,2E0,5E0,-2.506456E-1,-1.8130574E-1,-2.3660278E-2,4.1598722E-2,-1.4838617E-1,-3.2337284E-1,8.262708E-2,-1.0827839E-1,2.1442795E-1,1.1320247E-1,-2.1438257E-1,-1.425494E-2,-3.6362678E-1,-1.4334354E-1],"split_indices":[1,1,1,0,0,1,1,0,0,0,0,0,0,0,0,0,0,0,0,0,0,0,0,0,0,0,0,0,0],"split_type":[0,0,0,0,0,0,0,0,0,0,0,0,0,0,0,0,0,0,0,0,0,0,0,0,0,0,0,0,0],"sum_hessian":[2.254E3,3.44E2,1.91E3,1.83E2,1.61E2,1.159E3,7.51E2,1.34E2,4.9E1,7E1,9.1E1,3.85E2,7.74E2,5.29E2,2.22E2,2.5E1,2.4E1,4.5E1,2.5E1,6.8E1,2.3E1,3.15E2,7E1,3.85E2,3.89E2,7.4E1,4.55E2,9.1E1,1.31E2],"tree_param":{"num_deleted":"0","num_feature":"2","num_nodes":"29","size_leaf_vector":"1"}},{"base_weights":[-9.490119E-3,-1.8969444E0,3.3126405E-1,-2.6735566E0,-1.0031568E0,1.051732E0,-1.0327854E0,-2.8184958E0,-1.6390036E-1,-6.0959934E-4,-1.7659578E0,1.3140464E0,4.685663E-2,-4.5994115E-1,-2.515322E0,-2.969823E-1,-2.403528E-1,-2.1345628E-2,3.7598874E-2,-1.3376263E-1,-2.9238296E-1,8.364455E-2,1.6794823E-1,-3.046795E-1,4.0361624E-2,-1.6776085E-1,1.18377686E-1,3.6626574E-2,-3.5350463E-1],"categories":[],"categories_nodes":[],"categories_segments":[],"categories_sizes":[],"default_left":[0,0,0,0,0,0,0,0,0,0,0,0,0,0,0,0,0,0,0,0,0,0,0,0,0,0,0,0,0],"id":14,"left_children":[1,3,5,7,9,11,13,15,-1,17,19,21,23,25,27,-1,-1,-1,-1,-1,-1,-1,-1,-1,-1,-1,-1,-1,-1],"loss_changes":[1.4509493E3,2.3679163E2,1.8791288E3,2.2970825E1,1.2388745E2,3.2969348E2,5.602057E2,2.9093018E0,0E0,5.7714543E0,4.1716705E1,1.7173157E2,2.8818912E2,9.5870374E2,5.4196484E2,0E0,0E0,0E0,0E0,0E0,0E0,0E0,0E0,0E0,0E0,0E0,0E0,0E0,0E0],"parents":[2147483647,0,0,1,1,2,2,3,3,4,4,5,5,6,6,7,7,9,9,10,10,11,11,12,12,13,13,14,14],"right_children":[2,4,6,8,10,12,14,16,-1,18,20,22,24,26,28,-1,-1,-1,-1,-1,-1,-1,-1,-1,-1,-1,-1,-1,-1],"split_conditions":[5E0,3E0,1.9E1,7E0,3E0,7E0,7E0,5E0,-1.6390036E-1,2E0,7E0,1.2E1,8E0,5E0,2E1,-2.969823E-1,-2.403528E-1,-2.1345628E-2,3.7598874E-2,-1.3376263E-1,-2.9238296E-1,8.364455E-2,1.6794823E-1,-3.046795E-1,4.0361624E-2,-1.6776085E-1,1.18377686E-1,3.6626574E-2,-3.5350463E-1],"split_indices":[1,1,1,0,0,0,0,0,0,0,0,1,1,0,1,0,0,0,0,0,0,0,0,0,0,0,0,0,0],"split_type":[0,0,0,0,0,0,0,0,0,0,0,0,0,0,0,0,0,0,0,0,0,0,0,0,0,0,0,0,0],"sum_hessian":[2.254E3,3.44E2,1.91E3,1.83E2,1.61E2,1.25E3,6.6E2,1.59E2,2.4E1,7E1,9.1E1,9.91E2,2.59E2,4.77E2,1.83E2,1.12E2,4.7E1,4.5E1,2.5E1,6.8E1,2.3E1,4.31E2,5.6E2,2.6E1,2.33E2,2.74E2,2.03E2,4.8E1,1.35E2],"tree_param":{"num_deleted":"0","num_feature":"2","num_nodes":"29","size_leaf_vector":"1"}},{"base_weights":[-9.201892E-3,-1.7104706E0,2.9793933E-1,-2.410012E0,-9.0537125E-1,1.0225836E0,-8.202591E-1,-2.6185766E-1,-1.7986876E0,-3.1936E-4,-1.5939941E0,3.7713408E-1,1.3427396E0,-5.078051E-1,-2.6989975E0,-2.0343423E-1,-1.4816593E-1,-1.9257434E-2,3.3983633E-2,-1.2058025E-1,-2.643629E-1,6.605258E-2,-8.8947035E-2,1.7781825E-1,9.083198E-2,-1.2984018E-1,1.4479965E-3,-1.6415149E-1,-4.0656263E-1],"categories":[],"categories_nodes":[],"categories_segments":[],"categories_sizes":[],"default_left":[0,0,0,0,0,0,0,0,0,0,0,0,0,0,0,0,0,0,0,0,0,0,0,0,0,0,0,0,0],"id":15,"left_children":[1,3,5,7,9,11,13,-1,15,17,19,21,23,25,27,-1,-1,-1,-1,-1,-1,-1,-1,-1,-1,-1,-1,-1,-1],"loss_changes":[1.1788142E3,1.9212213E2,1.5493145E3,1.8750122E1,1.0096428E2,2.3920117E2,4.4006793E2,0E0,7.2125244E-1,4.7086043E0,3.429857E1,1.3914038E2,1.449878E2,2.6676306E2,1.4796112E2,0E0,0E0,0E0,0E0,0E0,0E0,0E0,0E0,0E0,0E0,0E0,0E0,0E0,0E0],"parents":[2147483647,0,0,1,1,2,2,3,3,4,4,5,5,6,6,8,8,9,9,10,10,11,11,12,12,13,13,14,14],"right_children":[2,4,6,8,10,12,14,-1,16,18,20,22,24,26,28,-1,-1,-1,-1,-1,-1,-1,-1,-1,-1,-1,-1,-1,-1],"split_conditions":[5E0,3E0,1.8E1,6E0,3E0,1.1E1,2.3E1,-2.6185766E-1,7E0,2E0,7E0,7E0,5E0,5E0,7E0,-2.0343423E-1,-1.4816593E-1,-1.9257434E-2,3.3983633E-2,-1.2058025E-1,-2.643629E-1,6.605258E-2,-8.8947035E-2,1.7781825E-1,9.083198E-2,-1.2984018E-1,1.4479965E-3,-1.6415149E-1,-4.0656263E-1],"split_indices":[1,1,1,0,0,1,1,0,0,0,0,0,0,0,0,0,0,0,0,0,0,0,0,0,0,0,0,0,0],"split_type":[0,0,0,0,0,0,0,0,0,0,0,0,0,0,0,0,0,0,0,0,0,0,0,0,0,0,0,0,0],"sum_hessian":[2.254E3,3.44E2,1.91E3,1.83E2,1.61E2,1.159E3,7.51E2,1.34E2,4.9E1,7E1,9.1E1,3.85E2,7.74E2,6.45E2,1.06E2,2.5E1,2.4E1,4.5E1,2.5E1,6.8E1,2.3E1,3.15E2,7E1,3.85E2,3.89E2,2.56E2,3.89E2,6.1E1,4.5E1],"tree_param":{"num_deleted":"0","num_feature":"2","num_nodes":"29","size_leaf_vector":"1"}},{"base_weights":[-8.919008E-3,-1.5422747E0,2.679081E-1,-2.172345E0,-8.171191E-1,6.6992575E-1,-1.4195461E0,-2.3586586E-1,-1.625851E0,-3.4831125E-1,-1.9232814E0,9.282494E-1,-2.1072488E-1,-7.299621E-1,-3.4507897E0,-1.8387327E-1,-1.3394202E-1,-7.9813135E-6,-8.900028E-2,-1.3980304E-1,-2.3902813E-1,1.0715692E-2,1.1074399E-1,6.490355E-3,-2.1353348E-1,-1.6942143E-1,2.1873485E-1,-4.7610387E-1,-2.8990653E-1],"categories":[],"categories_nodes":[],"categories_segments":[],"categories_sizes":[],"default_left":[0,0,0,0,0,0,0,0,0,0,0,0,0,0,0,0,0,0,0,0,0,0,0,0,0,0,0,0,0],"id":16,"left_children":[1,3,5,7,9,11,13,-1,15,17,19,21,23,25,27,-1,-1,-1,-1,-1,-1,-1,-1,-1,-1,-1,-1,-1,-1],"loss_changes":[9.57603E2,1.558551E2,1.2973474E3,1.4899902E1,8.3339676E1,3.514447E2,5.129434E2,0E0,5.8595276E-1,2.169284E1,8.432343E0,1.7555688E2,1.8633606E2,7.801003E2,5.342688E1,0E0,0E0,0E0,0E0,0E0,0E0,0E0,0E0,0E0,0E0,0E0,0E0,0E0,0E0],"parents":[2147483647,0,0,1,1,2,2,3,3,4,4,5,5,6,6,8,8,9,9,10,10,11,11,12,12,13,13,14,14],"right_children":[2,4,6,8,10,12,14,-1,16,18,20,22,24,26,28,-1,-1,-1,-1,-1,-1,-1,-1,-1,-1,-1,-1,-1,-1],"split_conditions":[5E0,3E0,2.1E1,6E0,6E0,7E0,7E0,-2.3586586E-1,7E0,3E0,7E0,2E0,2E1,6E0,2.2E1,-1.8387327E-1,-1.3394202E-1,-7.9813135E-6,-8.900028E-2,-1.3980304E-1,-2.3902813E-1,1.0715692E-2,1.1074399E-1,6.490355E-3,-2.1353348E-1,-1.6942143E-1,2.1873485E-1,-4.7610387E-1,-2.8990653E-1],"split_indices":[1,1,1,0,0,0,0,0,0,0,0,0,1,0,1,0,0,0,0,0,0,0,0,0,0,0,0,0,0],"split_type":[0,0,0,0,0,0,0,0,0,0,0,0,0,0,0,0,0,0,0,0,0,0,0,0,0,0,0,0,0],"sum_hessian":[2.254E3,3.44E2,1.91E3,1.83E2,1.61E2,1.543E3,3.67E2,1.34E2,4.9E1,1.14E2,4.7E1,1.193E3,3.5E2,2.75E2,9.2E1,2.5E1,2.4E1,7E1,4.4E1,2.4E1,2.3E1,2.14E2,9.79E2,3.07E2,4.3E1,2.07E2,6.8E1,2.5E1,6.7E1],"tree_param":{"num_deleted":"0","num_feature":"2","num_nodes":"29","size_leaf_vector":"1"}},{"base_weights":[-8.836069E-3,-1.3910081E0,2.4069728E-1,-1.9581196E0,-7.382952E-1,8.431731E-1,-6.889738E-1,-2.1821499E-1,-1.5793205E0,-3.1425413E-1,-1.7388457E0,1.8410076E-1,1.0994778E0,-4.229744E-1,-2.2884748E0,-1.7383371E-1,-1.2108362E-1,-7.22912E-6,-8.029799E-2,-1.2638196E-1,-2.1612127E-1,5.300947E-2,-1.7826425E-1,1.4244395E-1,7.915683E-2,-1.3164352E-1,-5.0588115E-3,-1.4385341E-1,-3.3842978E-1],"categories":[],"categories_nodes":[],"categories_segments":[],"categories_sizes":[],"default_left":[0,0,0,0,0,0,0,0,0,0,0,0,0,0,0,0,0,0,0,0,0,0,0,0,0,0,0,0,0],"id":17,"left_children":[1,3,5,7,9,11,13,-1,15,17,19,21,23,25,27,-1,-1,-1,-1,-1,-1,-1,-1,-1,-1,-1,-1,-1,-1],"loss_changes":[7.7807983E2,1.2625989E2,1.0709403E3,1.2168335E1,6.818603E1,1.957486E2,3.1898267E2,0E0,2.1140137E0,1.7658047E1,6.899109E0,2.2278183E2,8.242163E1,2.1486574E2,9.478967E1,0E0,0E0,0E0,0E0,0E0,0E0,0E0,0E0,0E0,0E0,0E0,0E0,0E0,0E0],"parents":[2147483647,0,0,1,1,2,2,3,3,4,4,5,5,6,6,8,8,9,9,10,10,11,11,12,12,13,13,14,14],"right_children":[2,4,6,8,10,12,14,-1,16,18,20,22,24,26,28,-1,-1,-1,-1,-1,-1,-1,-1,-1,-1,-1,-1,-1,-1],"split_conditions":[5E0,3E0,1.8E1,5E0,6E0,1E1,2.3E1,-2.1821499E-1,7E0,3E0,7E0,6E0,5E0,4E0,7E0,-1.7383371E-1,-1.2108362E-1,-7.22912E-6,-8.029799E-2,-1.2638196E-1,-2.1612127E-1,5.300947E-2,-1.7826425E-1,1.4244395E-1,7.915683E-2,-1.3164352E-1,-5.0588115E-3,-1.4385341E-1,-3.3842978E-1],"split_indices":[1,1,1,0,0,1,1,0,0,0,0,0,0,0,0,0,0,0,0,0,0,0,0,0,0,0,0,0,0],"split_type":[0,0,0,0,0,0,0,0,0,0,0,0,0,0,0,0,0,0,0,0,0,0,0,0,0,0,0,0,0],"sum_hessian":[2.254E3,3.44E2,1.91E3,1.83E2,1.61E2,1.159E3,7.51E2,1.12E2,7.1E1,1.14E2,4.7E1,3.25E2,8.34E2,6.45E2,1.06E2,4.7E1,2.4E1,7E1,4.4E1,2.4E1,2.3E1,2.77E2,4.8E1,4.04E2,4.3E2,1.89E2,4.56E2,6.1E1,4.5E1],"tree_param":{"num_deleted":"0","num_feature":"2","num_nodes":"29","size_leaf_vector":"1"}},{"base_weights":[-8.599286E-3,-1.2546201E0,2.1635403E-1,-1.7650964E0,-6.6707534E-1,5.488034E-1,-1.1790757E0,-1.965866E-1,-1.4254847E0,-2.835266E-1,-1.5720967E0,7.687928E-1,-2.0110026E-1,-5.788764E-1,-2.9476342E0,-1.5681247E-1,-1.0945963E-1,-6.476926E-6,-7.244658E-2,-1.14249304E-1,-1.9540966E-1,4.673719E-3,9.264185E-2,-2.502335E-1,-9.3020016E-4,-1.8559888E-1,1.1725499E-1,-4.2983818E-1,-2.3878244E-1],"categories":[],"categories_nodes":[],"categories_segments":[],"categories_sizes":[],"default_left":[0,0,0,0,0,0,0,0,0,0,0,0,0,0,0,0,0,0,0,0,0,0,0,0,0,0,0,0,0],"id":18,"left_children":[1,3,5,7,9,11,13,-1,15,17,19,21,23,25,27,-1,-1,-1,-1,-1,-1,-1,-1,-1,-1,-1,-1,-1,-1],"loss_changes":[6.323401E2,1.0229767E2,8.871785E2,9.743469E0,5.578768E1,2.548696E2,3.8892117E2,0E0,1.6817932E0,1.437374E1,5.644661E0,1.3585126E2,1.5489857E2,6.1952423E2,6.0059265E1,0E0,0E0,0E0,0E0,0E0,0E0,0E0,0E0,0E0,0E0,0E0,0E0,0E0,0E0],"parents":[2147483647,0,0,1,1,2,2,3,3,4,4,5,5,6,6,8,8,9,9,10,10,11,11,12,12,13,13,14,14],"right_children":[2,4,6,8,10,12,14,-1,16,18,20,22,24,26,28,-1,-1,-1,-1,-1,-1,-1,-1,-1,-1,-1,-1,-1,-1],"split_conditions":[5E0,3E0,2.1E1,5E0,6E0,7E0,7E0,-1.965866E-1,7E0,3E0,7E0,2E0,8E0,5E0,2.2E1,-1.5681247E-1,-1.0945963E-1,-6.476926E-6,-7.244658E-2,-1.14249304E-1,-1.9540966E-1,4.673719E-3,9.264185E-2,-2.502335E-1,-9.3020016E-4,-1.8559888E-1,1.1725499E-1,-4.2983818E-1,-2.3878244E-1],"split_indices":[1,1,1,0,0,0,0,0,0,0,0,0,1,0,1,0,0,0,0,0,0,0,0,0,0,0,0,0,0],"split_type":[0,0,0,0,0,0,0,0,0,0,0,0,0,0,0,0,0,0,0,0,0,0,0,0,0,0,0,0,0],"sum_hessian":[2.254E3,3.44E2,1.91E3,1.83E2,1.61E2,1.543E3,3.67E2,1.12E2,7.1E1,1.14E2,4.7E1,1.193E3,3.5E2,2.75E2,9.2E1,4.7E1,2.4E1,7E1,4.4E1,2.4E1,2.3E1,2.14E2,9.79E2,2.6E1,3.24E2,1.59E2,1.16E2,2.5E1,6.7E1],"tree_param":{"num_deleted":"0","num_feature":"2","num_nodes":"29","size_leaf_vector":"1"}},{"base_weights":[-8.509033E-3,1.4964089E-1,-1.4502592E0,-1.1316072E0,4.112637E-1,-2.8315644E0,-8.640795E-1,-1.5911022E0,-6.027264E-1,6.54045E-1,-4.3827313E-1,-3.3715847E-1,-2.4427055E-1,1.08231656E-1,-2.1525536E0,-1.7265251E-1,-1.19363844E-1,-2.5580382E-2,-1.4213382E-1,-7.958413E-3,8.1639014E-2,6.732642E-3,-2.6888004E-1,-1.210557E-1,1.6085204E-1,-7.248043E-2,-2.8196335E-1],"categories":[],"categories_nodes":[],"categories_segments":[],"categories_sizes":[],"default_left":[0,0,0,0,0,0,0,0,0,0,0,0,0,0,0,0,0,0,0,0,0,0,0,0,0,0,0],"id":19,"left_children":[1,3,5,7,9,11,13,15,17,19,21,-1,-1,23,25,-1,-1,-1,-1,-1,-1,-1,-1,-1,-1,-1,-1],"loss_changes":[5.1438556E2,6.8193463E2,1.781149E2,8.28822E1,3.4864563E2,5.623657E0,1.9817499E2,7.8430786E0,4.56436E1,1.5656378E2,4.2801852E2,0E0,0E0,1.8199652E2,6.27211E1,0E0,0E0,0E0,0E0,0E0,0E0,0E0,0E0,0E0,0E0,0E0,0E0],"parents":[2147483647,0,0,1,1,2,2,3,3,4,4,5,5,6,6,7,7,8,8,9,9,10,10,13,13,14,14],"right_children":[2,4,6,8,10,12,14,16,18,20,22,-1,-1,24,26,-1,-1,-1,-1,-1,-1,-1,-1,-1,-1,-1,-1],"split_conditions":[2.2E1,5E0,4E0,3E0,7E0,2.3E1,7E0,6E0,6E0,2E0,2E1,-3.3715847E-1,-2.4427055E-1,6E0,2.3E1,-1.7265251E-1,-1.19363844E-1,-2.5580382E-2,-1.4213382E-1,-7.958413E-3,8.1639014E-2,6.732642E-3,-2.6888004E-1,-1.210557E-1,1.6085204E-1,-7.248043E-2,-2.8196335E-1],"split_indices":[1,1,0,1,0,1,0,0,0,0,1,0,0,0,1,0,0,0,0,0,0,0,0,0,0,0,0],"split_type":[0,0,0,0,0,0,0,0,0,0,0,0,0,0,0,0,0,0,0,0,0,0,0,0,0,0,0],"sum_hessian":[2.254E3,2.032E3,2.22E2,3.44E2,1.688E3,6.5E1,1.57E2,1.83E2,1.61E2,1.313E3,3.75E2,2.4E1,4.1E1,9E1,6.7E1,1.34E2,4.9E1,1.14E2,4.7E1,2.38E2,1.075E3,3.07E2,6.8E1,4.8E1,4.2E1,2.2E1,4.5E1],"tree_param":{"num_deleted":"0","num_feature":"2","num_nodes":"27","size_leaf_vector":"1"}},{"base_weights":[-8.342747E-3,1.3435821E-1,-1.3092517E0,-1.0197791E0,3.7002605E-1,-2.2848694E0,-6.1935705E-1,-1.4335791E0,-5.4348904E-1,6.464368E-1,-2.3564659E-1,-2.5572176E0,-1.5345053E-1,7.7439374E-1,-1.9425106E0,-1.5998945E-1,-1.1526457E-1,2.5161877E-3,-9.7643174E-2,7.3289275E-3,8.6943045E-2,-1.5005326E-1,-2.7089359E-3,-3.0479124E-1,-2.2042511E-1,-5.2499928E-2,1.4514087E-1,-6.554754E-2,-2.5437996E-1],"categories":[],"categories_nodes":[],"categories_segments":[],"categories_sizes":[],"default_left":[0,0,0,0,0,0,0,0,0,0,0,0,0,0,0,0,0,0,0,0,0,0,0,0,0,0,0,0,0],"id":20,"left_children":[1,3,5,7,9,11,13,15,17,19,21,23,-1,25,27,-1,-1,-1,-1,-1,-1,-1,-1,-1,-1,-1,-1,-1,-1],"loss_changes":[4.1879626E2,5.5333923E2,1.4868024E2,6.721652E1,2.8291525E2,1.4877106E1,2.4493158E2,6.7530212E0,3.990788E1,1.4819382E2,1.3977396E2,4.712738E0,0E0,5.7943047E1,5.095642E1,0E0,0E0,0E0,0E0,0E0,0E0,0E0,0E0,0E0,0E0,0E0,0E0,0E0,0E0],"parents":[2147483647,0,0,1,1,2,2,3,3,4,4,5,5,6,6,7,7,8,8,9,9,10,10,11,11,13,13,14,14],"right_children":[2,4,6,8,10,12,14,16,18,20,22,24,-1,26,28,-1,-1,-1,-1,-1,-1,-1,-1,-1,-1,-1,-1,-1,-1],"split_conditions":[2.2E1,5E0,5E0,3E0,1.8E1,4E0,7E0,5E0,3E0,1E1,2E0,2.3E1,-1.5345053E-1,6E0,2.3E1,-1.5998945E-1,-1.1526457E-1,2.5161877E-3,-9.7643174E-2,7.3289275E-3,8.6943045E-2,-1.5005326E-1,-2.7089359E-3,-3.0479124E-1,-2.2042511E-1,-5.2499928E-2,1.4514087E-1,-6.554754E-2,-2.5437996E-1],"split_indices":[1,1,0,1,1,0,0,0,0,1,0,1,0,0,1,0,0,0,0,0,0,0,0,0,0,0,0,0,0],"split_type":[0,0,0,0,0,0,0,0,0,0,0,0,0,0,0,0,0,0,0,0,0,0,0,0,0,0,0,0,0],"sum_hessian":[2.254E3,2.032E3,2.22E2,3.44E2,1.688E3,9.1E1,1.31E2,1.83E2,1.61E2,1.159E3,5.29E2,6.5E1,2.6E1,6.4E1,6.7E1,1.12E2,7.1E1,7E1,9.1E1,3.25E2,8.34E2,7.4E1,4.55E2,2.4E1,4.1E1,2.2E1,4.2E1,2.2E1,4.5E1],"tree_param":{"num_deleted":"0","num_feature":"2","num_nodes":"29","size_leaf_vector":"1"}},{"base_weights":[-8.100083E-3,1.6432276E-1,-8.9268225E-1,-9.1887474E-1,4.0625206E-1,-4.1696826E-1,-2.29488E0,-1.2917172E0,-4.8972723E-1,5.828E-1,-1.954702E-1,-1.112399E0,1.6854455E0,-3.6239323E-1,-1.7529645E0,-1.3660574E-1,-7.642717E-2,-1.9461814E-2,-1.1865568E-1,7.2056785E-2,5.4376945E-3,-2.2749102E-1,-2.2115274E-3,-3.2203298E-2,-1.7612794E-1,2.2215214E-1,1.3096434E-1,-5.9277784E-2,-2.29495E-1],"categories":[],"categories_nodes":[],"categories_segments":[],"categories_sizes":[],"default_left":[0,0,0,0,0,0,0,0,0,0,0,0,0,0,0,0,0,0,0,0,0,0,0,0,0,0,0,0,0],"id":21,"left_children":[1,3,5,7,9,11,13,15,17,19,21,23,25,-1,27,-1,-1,-1,-1,-1,-1,-1,-1,-1,-1,-1,-1,-1,-1],"loss_changes":[3.4408417E2,4.951372E2,2.4451572E2,5.456897E1,1.6413742E2,4.0540982E2,6.062915E1,6.1706543E0,3.308287E1,8.688364E1,1.26478584E2,1.0610623E2,1.0991241E1,0E0,4.1398285E1,0E0,0E0,0E0,0E0,0E0,0E0,0E0,0E0,0E0,0E0,0E0,0E0,0E0,0E0],"parents":[2147483647,0,0,1,1,2,2,3,3,4,4,5,5,6,6,7,7,8,8,9,9,10,10,11,11,12,12,14,14],"right_children":[2,4,6,8,10,12,14,16,18,20,22,24,26,-1,28,-1,-1,-1,-1,-1,-1,-1,-1,-1,-1,-1,-1,-1,-1],"split_conditions":[2.1E1,5E0,7E0,3E0,7E0,6E0,2.2E1,7E0,6E0,1.8E1,8E0,2.2E1,2.2E1,-3.6239323E-1,2.3E1,-1.3660574E-1,-7.642717E-2,-1.9461814E-2,-1.1865568E-1,7.2056785E-2,5.4376945E-3,-2.2749102E-1,-2.2115274E-3,-3.2203298E-2,-1.7612794E-1,2.2215214E-1,1.3096434E-1,-5.9277784E-2,-2.29495E-1],"split_indices":[1,1,0,1,0,0,1,0,0,1,1,1,1,0,1,0,0,0,0,0,0,0,0,0,0,0,0,0,0],"split_type":[0,0,0,0,0,0,0,0,0,0,0,0,0,0,0,0,0,0,0,0,0,0,0,0,0,0,0,0,0],"sum_hessian":[2.254E3,1.887E3,3.67E2,3.44E2,1.543E3,2.75E2,9.2E1,1.83E2,1.61E2,1.193E3,3.5E2,2.07E2,6.8E1,2.5E1,6.7E1,1.59E2,2.4E1,1.14E2,4.7E1,9.46E2,2.47E2,2.6E1,3.24E2,9.4E1,1.13E2,2.6E1,4.2E1,2.2E1,4.5E1],"tree_param":{"num_deleted":"0","num_feature":"2","num_nodes":"29","size_leaf_vector":"1"}},{"base_weights":[-7.7382834E-3,1.4762333E-1,-8.0478984E-1,-8.2800514E-1,3.655276E-1,-3.7474662E-1,-2.0723937E0,-1.1637033E0,-4.4160715E-1,5.245841E-1,-1.7657791E-1,-1.0021604E0,1.5220189E0,-3.2754773E-1,-1.5819145E0,-1.305924E-1,-9.2433326E-2,4.1869073E-3,-8.099246E-2,-1.2464302E-3,6.418707E-2,3.4944718E-3,-1.6532232E-1,-2.9016828E-2,-1.5866964E-1,2.0075975E-1,1.1817249E-1,-5.360771E-2,-2.070444E-1],"categories":[],"categories_nodes":[],"categories_segments":[],"categories_sizes":[],"default_left":[0,0,0,0,0,0,0,0,0,0,0,0,0,0,0,0,0,0,0,0,0,0,0,0,0,0,0,0,0],"id":22,"left_children":[1,3,5,7,9,11,13,15,17,19,21,23,25,-1,27,-1,-1,-1,-1,-1,-1,-1,-1,-1,-1,-1,-1,-1,-1],"loss_changes":[2.793582E2,4.0167938E2,1.9982913E2,4.423709E1,1.3322472E2,3.2998102E2,4.9696625E1,5.056885E0,2.8881697E1,7.521634E1,1.09690475E2,8.610608E1,9.0290985E0,0E0,3.3632782E1,0E0,0E0,0E0,0E0,0E0,0E0,0E0,0E0,0E0,0E0,0E0,0E0,0E0,0E0],"parents":[2147483647,0,0,1,1,2,2,3,3,4,4,5,5,6,6,7,7,8,8,9,9,10,10,11,11,12,12,14,14],"right_children":[2,4,6,8,10,12,14,16,18,20,22,24,26,-1,28,-1,-1,-1,-1,-1,-1,-1,-1,-1,-1,-1,-1,-1,-1],"split_conditions":[2.1E1,5E0,7E0,3E0,7E0,6E0,2.2E1,5E0,3E0,2E0,2E1,2.2E1,2.2E1,-3.2754773E-1,2.3E1,-1.305924E-1,-9.2433326E-2,4.1869073E-3,-8.099246E-2,-1.2464302E-3,6.418707E-2,3.4944718E-3,-1.6532232E-1,-2.9016828E-2,-1.5866964E-1,2.0075975E-1,1.1817249E-1,-5.360771E-2,-2.070444E-1],"split_indices":[1,1,0,1,0,0,1,0,0,0,1,1,1,0,1,0,0,0,0,0,0,0,0,0,0,0,0,0,0],"split_type":[0,0,0,0,0,0,0,0,0,0,0,0,0,0,0,0,0,0,0,0,0,0,0,0,0,0,0,0,0],"sum_hessian":[2.254E3,1.887E3,3.67E2,3.44E2,1.543E3,2.75E2,9.2E1,1.83E2,1.61E2,1.193E3,3.5E2,2.07E2,6.8E1,2.5E1,6.7E1,1.12E2,7.1E1,7E1,9.1E1,2.14E2,9.79E2,3.07E2,4.3E1,9.4E1,1.13E2,2.6E1,4.2E1,2.2E1,4.5E1],"tree_param":{"num_deleted":"0","num_feature":"2","num_nodes":"29","size_leaf_vector":"1"}},{"base_weights":[-7.344292E-3,1.3264938E-1,-7.2555274E-1,-5.553305E-1,3.8630816E-1,-3.3679664E-1,-1.8714788E0,-1.0485451E0,-2.7524823E-1,6.6350645E-1,-2.9435985E-2,-1.1931412E0,8.371514E-1,-2.9605272E-1,-1.4275562E0,-1.11173846E-1,-6.0216572E-2,-6.625158E-4,-1.7579152E-1,3.7133668E-2,1.4544992E-1,-1.163548E-1,2.942884E-2,-4.565694E-2,-1.7326011E-1,6.3477987E-3,1.374439E-1,-4.8479993E-2,-1.8679005E-1],"categories":[],"categories_nodes":[],"categories_segments":[],"categories_sizes":[],"default_left":[0,0,0,0,0,0,0,0,0,0,0,0,0,0,0,0,0,0,0,0,0,0,0,0,0,0,0,0,0],"id":23,"left_children":[1,3,5,7,9,11,13,15,17,19,21,23,25,-1,27,-1,-1,-1,-1,-1,-1,-1,-1,-1,-1,-1,-1,-1,-1],"loss_changes":[2.268244E2,3.2969345E2,1.6330843E2,7.002498E1,1.5905565E2,2.7846274E2,4.0734833E1,4.520874E0,1.2982718E2,1.9081421E2,2.0337067E2,6.278511E1,4.8547913E1,0E0,2.7323776E1,0E0,0E0,0E0,0E0,0E0,0E0,0E0,0E0,0E0,0E0,0E0,0E0,0E0,0E0],"parents":[2147483647,0,0,1,1,2,2,3,3,4,4,5,5,6,6,7,7,8,8,9,9,10,10,11,11,12,12,14,14],"right_children":[2,4,6,8,10,12,14,16,18,20,22,24,26,-1,28,-1,-1,-1,-1,-1,-1,-1,-1,-1,-1,-1,-1,-1,-1],"split_conditions":[2.1E1,8E0,7E0,3E0,1.7E1,5E0,2.2E1,7E0,7E0,1.5E1,3E0,2.2E1,6E0,-2.9605272E-1,2.3E1,-1.11173846E-1,-6.0216572E-2,-6.625158E-4,-1.7579152E-1,3.7133668E-2,1.4544992E-1,-1.163548E-1,2.942884E-2,-4.565694E-2,-1.7326011E-1,6.3477987E-3,1.374439E-1,-4.8479993E-2,-1.8679005E-1],"split_indices":[1,1,0,1,1,0,1,0,0,1,0,1,0,0,1,0,0,0,0,0,0,0,0,0,0,0,0,0,0],"split_type":[0,0,0,0,0,0,0,0,0,0,0,0,0,0,0,0,0,0,0,0,0,0,0,0,0,0,0,0,0],"sum_hessian":[2.254E3,1.887E3,3.67E2,5.08E2,1.379E3,2.75E2,9.2E1,1.83E2,3.25E2,8.27E2,5.52E2,1.59E2,1.16E2,2.5E1,6.7E1,1.59E2,2.4E1,2.76E2,4.9E1,6.05E2,2.22E2,1.22E2,4.3E2,6.8E1,9.1E1,4.8E1,6.8E1,2.2E1,4.5E1],"tree_param":{"num_deleted":"0","num_feature":"2","num_nodes":"29","size_leaf_vector":"1"}},{"base_weights":[-6.9907573E-3,8.808951E-2,-8.737674E-1,-6.786634E-1,2.446565E-1,-1.8090937E0,-4.7753128E-1,-9.446221E-1,-3.7239757E-1,4.1870227E-1,-3.642286E-1,-2.2675772E-1,-1.4931133E-1,1.3353594E-1,-1.2882605E0,-1.0662973E-1,-7.405398E-2,3.8394902E-3,-6.853744E-2,-9.215973E-3,5.317853E-2,-1.5557835E-4,-1.9778372E-1,-5.6992896E-2,9.3205325E-2,-4.3842774E-2,-1.6851711E-1],"categories":[],"categories_nodes":[],"categories_segments":[],"categories_sizes":[],"default_left":[0,0,0,0,0,0,0,0,0,0,0,0,0,0,0,0,0,0,0,0,0,0,0,0,0,0,0],"id":24,"left_children":[1,3,5,7,9,11,13,15,17,19,21,-1,-1,23,25,-1,-1,-1,-1,-1,-1,-1,-1,-1,-1,-1,-1],"loss_changes":[1.8591908E2,2.4422404E2,8.1782135E1,2.7749878E1,1.791424E2,6.1757965E0,7.844681E1,3.7794037E0,2.0854416E1,7.595854E1,2.2003664E2,0E0,0E0,5.1648525E1,2.2198105E1,0E0,0E0,0E0,0E0,0E0,0E0,0E0,0E0,0E0,0E0,0E0,0E0],"parents":[2147483647,0,0,1,1,2,2,3,3,4,4,5,5,6,6,7,7,8,8,9,9,10,10,13,13,14,14],"right_children":[2,4,6,8,10,12,14,16,18,20,22,-1,-1,24,26,-1,-1,-1,-1,-1,-1,-1,-1,-1,-1,-1,-1],"split_conditions":[2.2E1,5E0,4E0,3E0,7E0,2.3E1,7E0,5E0,3E0,2E0,2E1,-2.2675772E-1,-1.4931133E-1,6E0,2.3E1,-1.0662973E-1,-7.405398E-2,3.8394902E-3,-6.853744E-2,-9.215973E-3,5.317853E-2,-1.5557835E-4,-1.9778372E-1,-5.6992896E-2,9.3205325E-2,-4.3842774E-2,-1.6851711E-1],"split_indices":[1,1,0,1,0,1,0,0,0,0,1,0,0,0,1,0,0,0,0,0,0,0,0,0,0,0,0],"split_type":[0,0,0,0,0,0,0,0,0,0,0,0,0,0,0,0,0,0,0,0,0,0,0,0,0,0,0],"sum_hessian":[2.254E3,2.032E3,2.22E2,3.44E2,1.688E3,6.5E1,1.57E2,1.83E2,1.61E2,1.313E3,3.75E2,2.4E1,4.1E1,9E1,6.7E1,1.12E2,7.1E1,7E1,9.1E1,2.38E2,1.075E3,3.07E2,6.8E1,4.8E1,4.2E1,2.2E1,4.5E1],"tree_param":{"num_deleted":"0","num_feature":"2","num_nodes":"27","size_leaf_vector":"1"}},{"base_weights":[-6.71372E-3,1.6457778E-1,-4.200318E-1,-4.67044E-1,4.6019042E-1,-1.8828698E-1,-1.0197817E0,-3.3989033E-1,-1.2099084E0,1.6312225E0,4.0570027E-1,-7.8333104E-1,6.147787E-1,2.9460339E-2,-1.4858484E0,-9.048653E-2,-1.2323965E-3,-8.0227494E-2,-1.8897788E-1,2.3029469E-1,8.635422E-2,-6.028237E-2,5.305108E-2,2.2422967E-3,-1.05332844E-1,-1.4871846E-1,1.20211355E-1,-1.7829202E-1,-1.1625574E-1],"categories":[],"categories_nodes":[],"categories_segments":[],"categories_sizes":[],"default_left":[0,0,0,0,0,0,0,0,0,0,0,0,0,0,0,0,0,0,0,0,0,0,0,0,0,0,0,0,0],"id":25,"left_children":[1,3,5,7,9,11,13,15,17,19,21,23,25,-1,27,-1,-1,-1,-1,-1,-1,-1,-1,-1,-1,-1,-1,-1,-1],"loss_changes":[1.5971834E2,2.9802594E2,9.1679665E1,4.7667847E1,6.869934E1,2.288984E2,1.13154526E2,8.0677956E1,1.8992088E1,2.276345E1,1.3122919E2,5.9850266E1,2.5363724E2,0E0,1.098877E1,0E0,0E0,0E0,0E0,0E0,0E0,0E0,0E0,0E0,0E0,0E0,0E0,0E0,0E0],"parents":[2147483647,0,0,1,1,2,2,3,3,4,4,5,5,6,6,7,7,8,8,9,9,10,10,11,11,12,12,14,14],"right_children":[2,4,6,8,10,12,14,16,18,20,22,24,26,-1,28,-1,-1,-1,-1,-1,-1,-1,-1,-1,-1,-1,-1,-1,-1],"split_conditions":[1.9E1,8E0,7E0,7E0,9E0,5E0,2E1,3E0,5E0,2E0,1E1,2E1,2E1,2.9460339E-2,2.2E1,-9.048653E-2,-1.2323965E-3,-8.0227494E-2,-1.8897788E-1,2.3029469E-1,8.635422E-2,-6.028237E-2,5.305108E-2,2.2422967E-3,-1.05332844E-1,-1.4871846E-1,1.20211355E-1,-1.7829202E-1,-1.1625574E-1],"split_indices":[1,1,0,0,1,0,1,1,1,0,1,1,1,0,1,0,0,0,0,0,0,0,0,0,0,0,0,0,0],"split_type":[0,0,0,0,0,0,0,0,0,0,0,0,0,0,0,0,0,0,0,0,0,0,0,0,0,0,0,0,0],"sum_hessian":[2.254E3,1.594E3,6.6E2,5.08E2,1.086E3,4.77E2,1.83E2,4.35E2,7.3E1,4.7E1,1.039E3,2.74E2,2.03E2,4.8E1,1.35E2,1.59E2,2.76E2,4.7E1,2.6E1,2.4E1,2.3E1,1.14E2,9.25E2,6.9E1,2.05E2,4.4E1,1.59E2,6.8E1,6.7E1],"tree_param":{"num_deleted":"0","num_feature":"2","num_nodes":"29","size_leaf_vector":"1"}},{"base_weights":[-6.2411134E-3,1.0211469E-1,-5.6213653E-1,-4.2104882E-1,2.9500464E-1,-2.733007E-1,-1.4132823E0,-1.7645437E-1,-7.6287943E-1,5.20336E-1,-4.2914625E-2,-7.0889163E-1,1.0437458E0,-2.3142496E-1,-1.0480113E0,-5.426073E-2,6.364914E-2,-4.0639576E-2,-1.9097587E-1,2.6132463E-2,1.221863E-1,-1.07059024E-1,2.5046593E-2,-2.2487367E-2,-1.1060216E-1,1.5149514E-1,7.235994E-2,-2.8529003E-2,-1.406589E-1],"categories":[],"categories_nodes":[],"categories_segments":[],"categories_sizes":[],"default_left":[0,0,0,0,0,0,0,0,0,0,0,0,0,0,0,0,0,0,0,0,0,0,0,0,0,0,0,0,0],"id":26,"left_children":[1,3,5,7,9,11,13,15,17,19,21,23,25,-1,27,-1,-1,-1,-1,-1,-1,-1,-1,-1,-1,-1,-1,-1,-1],"loss_changes":[1.3588622E2,1.9064792E2,9.008338E1,4.24228E1,1.0510077E2,1.5907932E2,2.818068E1,8.9048775E1,8.589874E1,1.5013118E2,1.6699767E2,3.9732628E1,9.312759E0,0E0,1.8196358E1,0E0,0E0,0E0,0E0,0E0,0E0,0E0,0E0,0E0,0E0,0E0,0E0,0E0,0E0],"parents":[2147483647,0,0,1,1,2,2,3,3,4,4,5,5,6,6,7,7,8,8,9,9,10,10,11,11,12,12,14,14],"right_children":[2,4,6,8,10,12,14,16,18,20,22,24,26,-1,28,-1,-1,-1,-1,-1,-1,-1,-1,-1,-1,-1,-1,-1,-1],"split_conditions":[2.1E1,8E0,7E0,5E0,1.7E1,6E0,2.2E1,5E0,7E0,1.5E1,3E0,2.2E1,2.2E1,-2.3142496E-1,2.3E1,-5.426073E-2,6.364914E-2,-4.0639576E-2,-1.9097587E-1,2.6132463E-2,1.221863E-1,-1.07059024E-1,2.5046593E-2,-2.2487367E-2,-1.1060216E-1,1.5149514E-1,7.235994E-2,-2.8529003E-2,-1.406589E-1],"split_indices":[1,1,0,0,1,0,1,1,1,1,0,1,1,0,1,0,0,0,0,0,0,0,0,0,0,0,0,0,0],"split_type":[0,0,0,0,0,0,0,0,0,0,0,0,0,0,0,0,0,0,0,0,0,0,0,0,0,0,0,0,0],"sum_hessian":[2.254E3,1.887E3,3.67E2,5.08E2,1.379E3,2.75E2,9.2E1,2.97E2,2.11E2,8.27E2,5.52E2,2.07E2,6.8E1,2.5E1,6.7E1,2.05E2,9.2E1,1.62E2,4.9E1,6.05E2,2.22E2,1.22E2,4.3E2,9.4E1,1.13E2,2.6E1,4.2E1,2.2E1,4.5E1],"tree_param":{"num_deleted":"0","num_feature":"2","num_nodes":"29","size_leaf_vector":"1"}},{"base_weights":[-5.8235447E-3,1.1543308E-1,-4.4283044E-1,-7.650239E-1,2.0302342E-1,-1.3095903E-1,-1.2536504E0,-8.171448E-1,-6.263846E-2,2.835891E-1,-5.4815865E-1,-8.914868E-1,1.5035492E-1,-1.5389707E0,-9.4569814E-1,-6.8317465E-2,-8.867726E-2,3.9934763E-3,4.405533E-2,-1.20583415E-1,3.911385E-2,-3.5723425E-2,-1.06460944E-1,1.2147509E-1,-9.637035E-3,-1.1773664E-1,-2.0917253E-1,-2.5800114E-2,-1.2689881E-1],"categories":[],"categories_nodes":[],"categories_segments":[],"categories_sizes":[],"default_left":[0,0,0,0,0,0,0,0,0,0,0,0,0,0,0,0,0,0,0,0,0,0,0,0,0,0,0,0,0],"id":27,"left_children":[1,3,5,7,9,11,13,15,-1,17,19,21,23,25,27,-1,-1,-1,-1,-1,-1,-1,-1,-1,-1,-1,-1,-1,-1],"loss_changes":[1.1954352E2,1.3634842E2,1.2374289E2,6.4431E-1,9.741029E1,7.608525E1,1.0494247E1,4.4824982E-1,0E0,5.551416E1,9.684109E1,8.49884E0,6.8396545E1,1.1328888E1,1.4790726E1,0E0,0E0,0E0,0E0,0E0,0E0,0E0,0E0,0E0,0E0,0E0,0E0,0E0,0E0],"parents":[2147483647,0,0,1,1,2,2,3,3,4,4,5,5,6,6,7,7,9,9,10,10,11,11,12,12,13,13,14,14],"right_children":[2,4,6,8,10,12,14,16,-1,18,20,22,24,26,28,-1,-1,-1,-1,-1,-1,-1,-1,-1,-1,-1,-1,-1,-1],"split_conditions":[7E0,3E0,2E1,5E0,2.2E1,1E1,2.2E1,2E0,-6.263846E-2,1.2E1,5E0,1E0,1.2E1,2.1E1,2.3E1,-6.8317465E-2,-8.867726E-2,3.9934763E-3,4.405533E-2,-1.20583415E-1,3.911385E-2,-3.5723425E-2,-1.06460944E-1,1.2147509E-1,-9.637035E-3,-1.1773664E-1,-2.0917253E-1,-2.5800114E-2,-1.2689881E-1],"split_indices":[0,1,1,0,1,1,1,0,0,1,0,1,1,1,1,0,0,0,0,0,0,0,0,0,0,0,0,0,0],"split_type":[0,0,0,0,0,0,0,0,0,0,0,0,0,0,0,0,0,0,0,0,0,0,0,0,0,0,0,0,0],"sum_hessian":[2.254E3,1.765E3,4.89E2,1.59E2,1.606E3,3.54E2,1.35E2,1.12E2,4.7E1,1.451E3,1.55E2,9.5E1,2.59E2,6.8E1,6.7E1,4.2E1,7E1,5.69E2,8.82E2,9.1E1,6.4E1,2.4E1,7.1E1,4.8E1,2.11E2,4.3E1,2.5E1,2.2E1,4.5E1],"tree_param":{"num_deleted":"0","num_feature":"2","num_nodes":"29","size_leaf_vector":"1"}},{"base_weights":[-5.5796974E-3,1.2969483E-1,-3.3199012E-1,-2.5402924E-1,4.071953E-1,-7.540771E-1,-1.3787983E-1,-1.2633292E-1,-7.155067E-1,5.427137E-1,5.7972312E-2,-4.9570286E-1,-1.3024625E0,2.916869E-1,-7.698075E-1,-7.1485564E-2,7.6669357E-3,-4.3902155E-2,-8.5205615E-2,1.2576573E-1,1.6853426E-2,-1.2618561E-1,5.7994734E-2,-9.6193135E-2,-2.2679437E-2,-1.7268324E-1,-1.01885036E-1,-7.215362E-2,6.2141497E-2,2.506496E-2,-1.1318119E-1],"categories":[],"categories_nodes":[],"categories_segments":[],"categories_sizes":[],"default_left":[0,0,0,0,0,0,0,0,0,0,0,0,0,0,0,0,0,0,0,0,0,0,0,0,0,0,0,0,0,0,0],"id":28,"left_children":[1,3,5,7,9,11,13,15,17,19,21,23,25,27,29,-1,-1,-1,-1,-1,-1,-1,-1,-1,-1,-1,-1,-1,-1,-1,-1],"loss_changes":[9.961262E1,1.699448E2,5.4052704E1,3.939202E1,4.3792557E1,2.8825607E1,1.23465164E2,6.289679E1,5.1002426E0,1.7822202E2,1.7985034E2,1.7710148E1,6.1841354E0,9.098626E1,6.8255104E1,0E0,0E0,0E0,0E0,0E0,0E0,0E0,0E0,0E0,0E0,0E0,0E0,0E0,0E0,0E0,0E0],"parents":[2147483647,0,0,1,1,2,2,3,3,4,4,5,5,6,6,7,7,8,8,9,9,10,10,11,11,12,12,13,13,14,14],"right_children":[2,4,6,8,10,12,14,16,18,20,22,24,26,28,30,-1,-1,-1,-1,-1,-1,-1,-1,-1,-1,-1,-1,-1,-1,-1,-1],"split_conditions":[1.9E1,1E1,4E0,6E0,1.7E1,2.2E1,7E0,3E0,3E0,4E0,3E0,2E0,2.3E1,2E1,2E1,-7.1485564E-2,7.6669357E-3,-4.3902155E-2,-8.5205615E-2,1.2576573E-1,1.6853426E-2,-1.2618561E-1,5.7994734E-2,-9.6193135E-2,-2.2679437E-2,-1.7268324E-1,-1.01885036E-1,-7.215362E-2,6.2141497E-2,2.506496E-2,-1.1318119E-1],"split_indices":[1,1,0,0,1,1,0,1,1,0,0,0,1,1,1,0,0,0,0,0,0,0,0,0,0,0,0,0,0,0,0],"split_type":[0,0,0,0,0,0,0,0,0,0,0,0,0,0,0,0,0,0,0,0,0,0,0,0,0,0,0,0,0,0,0],"sum_hessian":[2.254E3,1.594E3,6.6E2,6.69E2,9.25E2,2.07E2,4.53E2,5.25E2,1.44E2,6.66E2,2.59E2,1.42E2,6.5E1,2.7E2,1.83E2,1.34E2,3.91E2,4.9E1,9.5E1,2.28E2,4.38E2,7.3E1,1.86E2,5.1E1,9.1E1,2.4E1,4.1E1,6.6E1,2.04E2,4.8E1,1.35E2],"tree_param":{"num_deleted":"0","num_feature":"2","num_nodes":"31","size_leaf_vector":"1"}},{"base_weights":[-5.2922037E-3,9.5718175E-2,-3.6933106E-1,-6.231655E-1,1.6723384E-1,-1.1922606E-1,-1.019463E0,-6.6596687E-1,-5.094214E-2,2.3626637E-1,-4.7637174E-1,-8.4690547E-1,7.214806E-2,-1.2782706E0,-7.4185723E-1,-5.46623E-2,-7.288657E-2,1.6347714E-3,3.7796214E-2,-1.01367E-1,2.9144078E-2,-2.8079405E-2,-1.1130231E-1,6.40713E-2,-1.1860787E-2,-9.516966E-2,-1.7817701E-1,-1.2506253E-2,-1.03412725E-1],"categories":[],"categories_nodes":[],"categories_segments":[],"categories_sizes":[],"default_left":[0,0,0,0,0,0,0,0,0,0,0,0,0,0,0,0,0,0,0,0,0,0,0,0,0,0,0,0,0],"id":29,"left_children":[1,3,5,7,9,11,13,15,-1,17,19,21,23,25,27,-1,-1,-1,-1,-1,-1,-1,-1,-1,-1,-1,-1,-1,-1],"loss_changes":[8.295554E1,9.089682E1,7.955306E1,4.3968964E-1,7.1511116E1,4.949805E1,8.82283E0,4.498291E-1,0E0,4.524037E1,6.4652336E1,1.0835735E1,3.0660904E1,9.649956E0,1.212907E1,0E0,0E0,0E0,0E0,0E0,0E0,0E0,0E0,0E0,0E0,0E0,0E0,0E0,0E0],"parents":[2147483647,0,0,1,1,2,2,3,3,4,4,5,5,6,6,7,7,9,9,10,10,11,11,12,12,13,13,14,14],"right_children":[2,4,6,8,10,12,14,16,-1,18,20,22,24,26,28,-1,-1,-1,-1,-1,-1,-1,-1,-1,-1,-1,-1,-1,-1],"split_conditions":[7E0,3E0,2E1,5E0,2.2E1,8E0,2.2E1,2E0,-5.094214E-2,1.2E1,5E0,1E0,1.2E1,2.1E1,2.3E1,-5.46623E-2,-7.288657E-2,1.6347714E-3,3.7796214E-2,-1.01367E-1,2.9144078E-2,-2.8079405E-2,-1.1130231E-1,6.40713E-2,-1.1860787E-2,-9.516966E-2,-1.7817701E-1,-1.2506253E-2,-1.03412725E-1],"split_indices":[0,1,1,0,1,1,1,0,0,1,0,1,1,1,1,0,0,0,0,0,0,0,0,0,0,0,0,0,0],"split_type":[0,0,0,0,0,0,0,0,0,0,0,0,0,0,0,0,0,0,0,0,0,0,0,0,0,0,0,0,0],"sum_hessian":[2.254E3,1.765E3,4.89E2,1.59E2,1.606E3,3.54E2,1.35E2,1.12E2,4.7E1,1.451E3,1.55E2,7.3E1,2.81E2,6.8E1,6.7E1,4.2E1,7E1,5.69E2,8.82E2,9.1E1,6.4E1,2.4E1,4.9E1,7E1,2.11E2,4.3E1,2.5E1,2.2E1,4.5E1],"tree_param":{"num_deleted":"0","num_feature":"2","num_nodes":"29","size_leaf_vector":"1"}},{"base_weights":[-5.0678924E-3,1.23852625E-1,-2.629022E-1,-1.842864E-1,4.139399E-1,-7.5358385E-1,-4.5257818E-2,-5.231536E-1,-6.996125E-2,7.372369E-1,9.289739E-2,-1.0771358E0,-5.9422094E-1,3.441924E-1,-5.4118675E-1,-5.619645E-2,-2.538377E-2,5.514042E-3,-3.3620674E-2,-2.5243629E-2,1.2349812E-1,8.044005E-2,-2.301371E-2,-1.2295406E-1,-7.2314456E-2,-2.4174675E-2,-1.0765453E-1,-1.2980963E-2,8.8487945E-2,7.3533616E-4,-9.203789E-2],"categories":[],"categories_nodes":[],"categories_segments":[],"categories_sizes":[],"default_left":[0,0,0,0,0,0,0,0,0,0,0,0,0,0,0,0,0,0,0,0,0,0,0,0,0,0,0,0,0,0,0],"id":30,"left_children":[1,3,5,7,9,11,13,15,17,19,21,23,25,27,29,-1,-1,-1,-1,-1,-1,-1,-1,-1,-1,-1,-1,-1,-1,-1,-1],"loss_changes":[7.498906E1,1.3451463E2,8.0275055E1,2.8244366E1,8.037038E1,1.1270813E1,1.0100516E2,1.78059E0,1.823788E1,1.9045694E2,8.982275E1,3.1571121E0,2.643082E1,7.520689E1,4.7847244E1,0E0,0E0,0E0,0E0,0E0,0E0,0E0,0E0,0E0,0E0,0E0,0E0,0E0,0E0,0E0,0E0],"parents":[2147483647,0,0,1,1,2,2,3,3,4,4,5,5,6,6,7,7,8,8,9,9,10,10,11,11,12,12,13,13,14,14],"right_children":[2,4,6,8,10,12,14,16,18,20,22,24,26,28,30,-1,-1,-1,-1,-1,-1,-1,-1,-1,-1,-1,-1,-1,-1,-1,-1],"split_conditions":[1.8E1,1.1E1,4E0,3E0,5E0,2E0,7E0,7E0,9E0,1.3E1,1.3E1,2.1E1,2.2E1,6E0,2E1,-5.619645E-2,-2.538377E-2,5.514042E-3,-3.3620674E-2,-2.5243629E-2,1.2349812E-1,8.044005E-2,-2.301371E-2,-1.2295406E-1,-7.2314456E-2,-2.4174675E-2,-1.0765453E-1,-1.2980963E-2,8.8487945E-2,7.3533616E-4,-9.203789E-2],"split_indices":[1,1,0,1,0,0,0,0,1,1,1,1,1,0,1,0,0,0,0,0,0,0,0,0,0,0,0,0,0,0,0],"split_type":[0,0,0,0,0,0,0,0,0,0,0,0,0,0,0,0,0,0,0,0,0,0,0,0,0,0,0,0,0,0,0],"sum_hessian":[2.254E3,1.503E3,7.51E2,7.29E2,7.74E2,2.3E2,5.21E2,1.83E2,5.46E2,3.85E2,3.89E2,7.4E1,1.56E2,2.92E2,2.29E2,1.59E2,2.4E1,3.72E2,1.74E2,1.29E2,2.56E2,1.21E2,2.68E2,5E1,2.4E1,9.1E1,6.5E1,1.56E2,1.36E2,9.4E1,1.35E2],"tree_param":{"num_deleted":"0","num_feature":"2","num_nodes":"31","size_leaf_vector":"1"}},{"base_weights":[-4.692774E-3,1.11497834E-1,-2.3706776E-1,-2.6890543E-1,3.057888E-1,-6.7964137E-1,-4.0762052E-2,-6.7182206E-2,-5.511914E-1,1.4306908E0,2.485695E-1,-1.2881276E-1,-6.061639E-1,3.1003127E-1,-4.87465E-1,-3.0691555E-2,7.03612E-2,-2.3327386E-2,-1.5765786E-1,2.0387183E-1,7.377167E-2,-5.2187026E-2,3.5438027E-2,-4.3375988E-2,-9.705218E-2,-1.1691098E-2,7.9703785E-2,6.625738E-4,-8.290176E-2],"categories":[],"categories_nodes":[],"categories_segments":[],"categories_sizes":[],"default_left":[0,0,0,0,0,0,0,0,0,0,0,0,0,0,0,0,0,0,0,0,0,0,0,0,0,0,0,0,0],"id":31,"left_children":[1,3,5,7,9,11,13,15,17,19,21,-1,23,25,27,-1,-1,-1,-1,-1,-1,-1,-1,-1,-1,-1,-1,-1,-1],"loss_changes":[6.0910965E1,1.1124122E2,6.530585E1,2.8947285E1,6.3752983E1,9.547195E0,8.1948746E1,5.52819E1,6.874181E1,1.872068E1,7.754821E1,0E0,1.2644913E1,6.1014816E1,3.8819828E1,0E0,0E0,0E0,0E0,0E0,0E0,0E0,0E0,0E0,0E0,0E0,0E0,0E0,0E0],"parents":[2147483647,0,0,1,1,2,2,3,3,4,4,5,5,6,6,7,7,8,8,9,9,10,10,12,12,13,13,14,14],"right_children":[2,4,6,8,10,12,14,16,18,20,22,-1,24,26,28,-1,-1,-1,-1,-1,-1,-1,-1,-1,-1,-1,-1,-1,-1],"split_conditions":[1.8E1,8E0,4E0,5E0,9E0,1.9E1,7E0,6E0,7E0,2E0,1E1,-1.2881276E-1,2.2E1,6E0,2E1,-3.0691555E-2,7.03612E-2,-2.3327386E-2,-1.5765786E-1,2.0387183E-1,7.377167E-2,-5.2187026E-2,3.5438027E-2,-4.3375988E-2,-9.705218E-2,-1.1691098E-2,7.9703785E-2,6.625738E-4,-8.290176E-2],"split_indices":[1,1,0,0,1,1,0,1,1,0,1,0,1,0,1,0,0,0,0,0,0,0,0,0,0,0,0,0,0],"split_type":[0,0,0,0,0,0,0,0,0,0,0,0,0,0,0,0,0,0,0,0,0,0,0,0,0,0,0,0,0],"sum_hessian":[2.254E3,1.503E3,7.51E2,5.08E2,9.95E2,2.3E2,5.21E2,2.97E2,2.11E2,4.7E1,9.48E2,2.3E1,2.07E2,2.92E2,2.29E2,2.27E2,7E1,1.62E2,4.9E1,2.4E1,2.3E1,1.14E2,8.34E2,1.42E2,6.5E1,1.56E2,1.36E2,9.4E1,1.35E2],"tree_param":{"num_deleted":"0","num_feature":"2","num_nodes":"29","size_leaf_vector":"1"}},{"base_weights":[-4.296414E-3,1.0042718E-1,-2.1373789E-1,-4.787501E-2,5.226988E-1,-6.128428E-1,-3.6713038E-2,7.5646625E-3,-9.2830443E-1,1.2853009E0,1.6371775E-1,-9.0302736E-1,-4.7031617E-1,2.7926037E-1,-4.3907607E-1,-6.1656176E-3,9.765483E-2,1.4223705E-1,-2.2187205E-1,1.9463964E-1,4.3597966E-2,3.161005E-2,-6.374412E-2,-1.02794126E-1,-6.120819E-2,-1.7493036E-2,-8.7494016E-2,-1.0529432E-2,7.179161E-2,5.969891E-4,-7.467253E-2],"categories":[],"categories_nodes":[],"categories_segments":[],"categories_sizes":[],"default_left":[0,0,0,0,0,0,0,0,0,0,0,0,0,0,0,0,0,0,0,0,0,0,0,0,0,0,0,0,0,0,0],"id":32,"left_children":[1,3,5,7,9,11,13,15,17,19,21,23,25,27,29,-1,-1,-1,-1,-1,-1,-1,-1,-1,-1,-1,-1,-1,-1,-1,-1],"loss_changes":[4.948143E1,9.421124E1,5.310742E1,5.438216E1,1.0682962E2,9.129227E0,6.6487625E1,7.0420685E1,2.0335686E2,6.93367E1,3.27976E1,2.0965462E0,1.8611618E1,4.9500916E1,3.1495613E1,0E0,0E0,0E0,0E0,0E0,0E0,0E0,0E0,0E0,0E0,0E0,0E0,0E0,0E0,0E0,0E0],"parents":[2147483647,0,0,1,1,2,2,3,3,4,4,5,5,6,6,7,7,8,8,9,9,10,10,11,11,12,12,13,13,14,14],"right_children":[2,4,6,8,10,12,14,16,18,20,22,24,26,28,30,-1,-1,-1,-1,-1,-1,-1,-1,-1,-1,-1,-1,-1,-1,-1,-1],"split_conditions":[1.8E1,1.5E1,4E0,1.4E1,1.6E1,2E0,7E0,1.3E1,3E0,5E0,7E0,2.1E1,2.2E1,6E0,2E1,-6.1656176E-3,9.765483E-2,1.4223705E-1,-2.2187205E-1,1.9463964E-1,4.3597966E-2,3.161005E-2,-6.374412E-2,-1.02794126E-1,-6.120819E-2,-1.7493036E-2,-8.7494016E-2,-1.0529432E-2,7.179161E-2,5.969891E-4,-7.467253E-2],"split_indices":[1,1,0,1,1,0,0,1,0,0,0,1,1,0,1,0,0,0,0,0,0,0,0,0,0,0,0,0,0,0,0],"split_type":[0,0,0,0,0,0,0,0,0,0,0,0,0,0,0,0,0,0,0,0,0,0,0,0,0,0,0,0,0,0,0],"sum_hessian":[2.254E3,1.503E3,7.51E2,1.113E3,3.9E2,2.3E2,5.21E2,1.048E3,6.5E1,1.24E2,2.66E2,7.4E1,1.56E2,2.92E2,2.29E2,9.79E2,6.9E1,2.3E1,4.2E1,6.9E1,5.5E1,2.24E2,4.2E1,5E1,2.4E1,9.1E1,6.5E1,1.56E2,1.36E2,9.4E1,1.35E2],"tree_param":{"num_deleted":"0","num_feature":"2","num_nodes":"31","size_leaf_vector":"1"}},{"base_weights":[-3.8948925E-3,-3.2788694E-1,5.4598644E-2,-1.6279005E-1,-4.3324545E-1,2.5465173E-1,-1.6117011E-1,-4.506763E-1,1.0711534E-1,-5.9060134E-2,-3.5034895E-1,8.458944E-2,8.407204E-1,-5.763734E-1,4.3664522E-2,-4.0234234E-2,-5.1849645E-2,-6.737243E-3,4.1170467E-2,-2.4245199E-2,-5.5210035E-2,1.7071597E-2,-8.366803E-2,2.0156474E-1,-1.5309246E-3,-7.2560385E-2,-3.382791E-2,3.60421E-2,-4.1655984E-2],"categories":[],"categories_nodes":[],"categories_segments":[],"categories_sizes":[],"default_left":[0,0,0,0,0,0,0,0,0,0,0,0,0,0,0,0,0,0,0,0,0,0,0,0,0,0,0,0,0],"id":33,"left_children":[1,3,5,7,9,11,13,15,17,-1,19,21,23,25,27,-1,-1,-1,-1,-1,-1,-1,-1,-1,-1,-1,-1,-1,-1],"loss_changes":[4.2753395E1,5.9305267E0,8.252975E1,1.0615752E1,2.532383E0,9.879973E1,7.826934E1,7.736206E-3,3.8011823E0,0E0,2.9137135E0,6.1239082E1,2.2431805E2,1.0555939E1,9.00958E1,0E0,0E0,0E0,0E0,0E0,0E0,0E0,0E0,0E0,0E0,0E0,0E0,0E0,0E0],"parents":[2147483647,0,0,1,1,2,2,3,3,4,4,5,5,6,6,7,7,8,8,10,10,11,11,12,12,13,13,14,14],"right_children":[2,4,6,8,10,12,14,16,18,-1,20,22,24,26,28,-1,-1,-1,-1,-1,-1,-1,-1,-1,-1,-1,-1,-1,-1],"split_conditions":[5E0,3E0,1.7E1,3E0,5E0,1.5E1,4E0,2E0,2E0,-5.9060134E-2,4E0,1.4E1,5E0,3E0,7E0,-4.0234234E-2,-5.1849645E-2,-6.737243E-3,4.1170467E-2,-2.4245199E-2,-5.5210035E-2,1.7071597E-2,-8.366803E-2,2.0156474E-1,-1.5309246E-3,-7.2560385E-2,-3.382791E-2,3.60421E-2,-4.1655984E-2],"split_indices":[1,0,1,1,0,1,0,0,0,0,1,1,0,0,0,0,0,0,0,0,0,0,0,0,0,0,0,0,0],"split_type":[0,0,0,0,0,0,0,0,0,0,0,0,0,0,0,0,0,0,0,0,0,0,0,0,0,0,0,0,0],"sum_hessian":[2.254E3,3.44E2,1.91E3,1.35E2,2.09E2,9.91E2,9.19E2,6.5E1,7E1,7E1,1.39E2,7.69E2,2.22E2,3.03E2,6.16E2,4.2E1,2.3E1,4.5E1,2.5E1,9.2E1,4.7E1,7.04E2,6.5E1,9.3E1,1.29E2,1.85E2,1.18E2,3.65E2,2.51E2],"tree_param":{"num_deleted":"0","num_feature":"2","num_nodes":"29","size_leaf_vector":"1"}},{"base_weights":[-3.582599E-3,-2.9566672E-1,4.9150318E-2,-1.4693472E-1,-3.9058048E-1,2.2932164E-1,-1.4517479E-1,-4.0700388E-1,9.68892E-2,-5.3237308E-2,-3.158815E-1,7.604463E-2,7.5754577E-1,-5.190859E-1,3.928897E-2,-3.6304377E-2,-4.6880722E-2,-6.078131E-3,3.721182E-2,-2.184674E-2,-4.9804043E-2,1.536693E-2,-7.5428024E-2,1.8162268E-1,-1.3789426E-3,-6.534334E-2,-3.0473528E-2,3.2447755E-2,-3.7506938E-2],"categories":[],"categories_nodes":[],"categories_segments":[],"categories_sizes":[],"default_left":[0,0,0,0,0,0,0,0,0,0,0,0,0,0,0,0,0,0,0,0,0,0,0,0,0,0,0,0,0],"id":34,"left_children":[1,3,5,7,9,11,13,15,17,-1,19,21,23,25,27,-1,-1,-1,-1,-1,-1,-1,-1,-1,-1,-1,-1,-1,-1],"loss_changes":[3.4747055E1,4.8128757E0,6.6940865E1,8.663341E0,2.0561028E0,8.025929E1,6.3475594E1,9.117126E-3,3.1036983E0,0E0,2.375473E0,4.9745255E1,1.821264E2,8.555298E0,7.303276E1,0E0,0E0,0E0,0E0,0E0,0E0,0E0,0E0,0E0,0E0,0E0,0E0,0E0,0E0],"parents":[2147483647,0,0,1,1,2,2,3,3,4,4,5,5,6,6,7,7,8,8,10,10,11,11,12,12,13,13,14,14],"right_children":[2,4,6,8,10,12,14,16,18,-1,20,22,24,26,28,-1,-1,-1,-1,-1,-1,-1,-1,-1,-1,-1,-1,-1,-1],"split_conditions":[5E0,3E0,1.7E1,3E0,5E0,1.5E1,4E0,2E0,2E0,-5.3237308E-2,4E0,1.4E1,5E0,3E0,7E0,-3.6304377E-2,-4.6880722E-2,-6.078131E-3,3.721182E-2,-2.184674E-2,-4.9804043E-2,1.536693E-2,-7.5428024E-2,1.8162268E-1,-1.3789426E-3,-6.534334E-2,-3.0473528E-2,3.2447755E-2,-3.7506938E-2],"split_indices":[1,0,1,1,0,1,0,0,0,0,1,1,0,0,0,0,0,0,0,0,0,0,0,0,0,0,0,0,0],"split_type":[0,0,0,0,0,0,0,0,0,0,0,0,0,0,0,0,0,0,0,0,0,0,0,0,0,0,0,0,0],"sum_hessian":[2.254E3,3.44E2,1.91E3,1.35E2,2.09E2,9.91E2,9.19E2,6.5E1,7E1,7E1,1.39E2,7.69E2,2.22E2,3.03E2,6.16E2,4.2E1,2.3E1,4.5E1,2.5E1,9.2E1,4.7E1,7.04E2,6.5E1,9.3E1,1.29E2,1.85E2,1.18E2,3.65E2,2.51E2],"tree_param":{"num_deleted":"0","num_feature":"2","num_nodes":"29","size_leaf_vector":"1"}},{"base_weights":[-3.294426E-3,3.5870403E-2,-3.6032942E-1,-2.0505925E-1,1.1626209E-1,-6.549354E-1,-1.5226822E-1,-2.4055006E-2,-4.585225E-1,1.2676806E0,7.878959E-2,-8.212611E-1,-4.3737477E-1,1.3317074E-1,-4.3972492E-1,-2.2087926E-2,6.0833912E-2,-1.5224365E-2,-1.4478211E-1,1.8177795E-1,6.418409E-2,-3.920668E-2,1.50659485E-2,-1.1215023E-1,-5.1284302E-2,-5.6037392E-2,-3.000859E-2,-2.7186004E-2,3.3722714E-2,-4.287829E-3,-6.113348E-2],"categories":[],"categories_nodes":[],"categories_segments":[],"categories_sizes":[],"default_left":[0,0,0,0,0,0,0,0,0,0,0,0,0,0,0,0,0,0,0,0,0,0,0,0,0,0,0,0,0,0,0],"id":35,"left_children":[1,3,5,7,9,11,13,15,17,19,21,23,25,27,29,-1,-1,-1,-1,-1,-1,-1,-1,-1,-1,-1,-1,-1,-1,-1,-1],"loss_changes":[3.1545076E1,3.9400494E1,1.35693E1,2.3340832E1,6.569858E1,2.9699059E0,1.0889336E1,3.7226578E1,6.401584E1,1.5358406E1,5.0075172E1,4.147434E0,5.4106903E-1,5.6291695E0,4.4685717E0,0E0,0E0,0E0,0E0,0E0,0E0,0E0,0E0,0E0,0E0,0E0,0E0,0E0,0E0,0E0,0E0],"parents":[2147483647,0,0,1,1,2,2,3,3,4,4,5,5,6,6,7,7,8,8,9,9,10,10,11,11,12,12,13,13,14,14],"right_children":[2,4,6,8,10,12,14,16,18,20,22,24,26,28,30,-1,-1,-1,-1,-1,-1,-1,-1,-1,-1,-1,-1,-1,-1,-1,-1],"split_conditions":[2.2E1,8E0,5E0,5E0,9E0,2.3E1,2.3E1,6E0,7E0,2E0,2E0,4E0,3E0,6E0,7E0,-2.2087926E-2,6.0833912E-2,-1.5224365E-2,-1.4478211E-1,1.8177795E-1,6.418409E-2,-3.920668E-2,1.50659485E-2,-1.1215023E-1,-5.1284302E-2,-5.6037392E-2,-3.000859E-2,-2.7186004E-2,3.3722714E-2,-4.287829E-3,-6.113348E-2],"split_indices":[1,1,0,0,1,1,1,1,1,0,0,0,0,0,0,0,0,0,0,0,0,0,0,0,0,0,0,0,0,0,0],"split_type":[0,0,0,0,0,0,0,0,0,0,0,0,0,0,0,0,0,0,0,0,0,0,0,0,0,0,0,0,0,0,0],"sum_hessian":[2.254E3,2.032E3,2.22E2,5.08E2,1.524E3,9.1E1,1.31E2,2.97E2,2.11E2,4.7E1,1.477E3,5E1,4.1E1,6.6E1,6.5E1,2.27E2,7E1,1.62E2,4.9E1,2.4E1,2.3E1,1.95E2,1.282E3,2.4E1,2.6E1,2E1,2.1E1,2.2E1,4.4E1,2E1,4.5E1],"tree_param":{"num_deleted":"0","num_feature":"2","num_nodes":"31","size_leaf_vector":"1"}},{"base_weights":[-3.0571907E-3,6.924222E-2,-1.775118E-1,-1.2883314E-1,2.361311E-1,-3.4958327E-1,-5.478011E-2,-3.4186476E-1,-5.693799E-2,4.0508375E-1,8.47386E-2,9.236002E-2,-4.9806115E-1,-6.022745E-1,1.1800551E-1,-3.7091132E-2,-1.4229215E-2,6.3951924E-3,-3.1428084E-2,7.6463304E-2,-4.672028E-2,6.4847216E-2,-1.1959444E-2,-1.7300202E-2,6.421434E-2,-8.4767096E-2,-3.922504E-2,-2.6847613E-1,5.0474063E-4,7.1633674E-2,-5.8678128E-2],"categories":[],"categories_nodes":[],"categories_segments":[],"categories_sizes":[],"default_left":[0,0,0,0,0,0,0,0,0,0,0,0,0,0,0,0,0,0,0,0,0,0,0,0,0,0,0,0,0,0,0],"id":36,"left_children":[1,3,5,7,9,11,13,15,17,19,21,23,25,27,29,-1,-1,-1,-1,-1,-1,-1,-1,-1,-1,-1,-1,-1,-1,-1,-1],"loss_changes":[2.8454525E1,5.275566E1,1.3940254E1,1.1161173E1,2.2116356E1,1.8091175E1,3.668094E1,1.0138512E0,1.7037354E1,1.2863193E2,5.283429E1,1.0323507E1,7.2879486E0,1.1763435E2,1.24820625E2,0E0,0E0,0E0,0E0,0E0,0E0,0E0,0E0,0E0,0E0,0E0,0E0,0E0,0E0,0E0,0E0],"parents":[2147483647,0,0,1,1,2,2,3,3,4,4,5,5,6,6,7,7,8,8,9,9,10,10,11,11,12,12,13,13,14,14],"right_children":[2,4,6,8,10,12,14,16,18,20,22,24,26,28,30,-1,-1,-1,-1,-1,-1,-1,-1,-1,-1,-1,-1,-1,-1,-1,-1],"split_conditions":[1.9E1,1.1E1,5E0,3E0,5E0,2E1,2E1,7E0,9E0,1.7E1,1.3E1,4E0,2.1E1,6E0,7E0,-3.7091132E-2,-1.4229215E-2,6.3951924E-3,-3.1428084E-2,7.6463304E-2,-4.672028E-2,6.4847216E-2,-1.1959444E-2,-1.7300202E-2,6.421434E-2,-8.4767096E-2,-3.922504E-2,-2.6847613E-1,5.0474063E-4,7.1633674E-2,-5.8678128E-2],"split_indices":[1,1,0,1,0,1,1,0,1,1,1,0,1,0,0,0,0,0,0,0,0,0,0,0,0,0,0,0,0,0,0],"split_type":[0,0,0,0,0,0,0,0,0,0,0,0,0,0,0,0,0,0,0,0,0,0,0,0,0,0,0,0,0,0,0],"sum_hessian":[2.254E3,1.594E3,6.6E2,7.29E2,8.65E2,2.74E2,3.86E2,1.83E2,5.46E2,4.08E2,4.57E2,6.9E1,2.05E2,9.2E1,2.94E2,1.59E2,2.4E1,3.72E2,1.74E2,2.89E2,1.19E2,1.21E2,3.36E2,4.7E1,2.2E1,4.6E1,1.59E2,2E1,7.2E1,1.59E2,1.35E2],"tree_param":{"num_deleted":"0","num_feature":"2","num_nodes":"31","size_leaf_vector":"1"}},{"base_weights":[-2.8961182E-3,4.380112E-2,-2.4246538E-1,-1.7661749E-1,1.2506871E-1,-1.4172548E-1,-5.3882825E-1,-1.1549242E-2,-4.0781426E-1,1.1397747E0,8.8436335E-2,-3.2712036E-1,4.1920003E-1,-1.252382E-1,-2.58075E-1,-1.8389372E-2,5.4205764E-2,-1.27892895E-2,-1.3122016E-1,1.6371332E-1,5.7420224E-2,-2.095005E-2,1.8746184E-2,-1.0422918E-2,-5.0999355E-2,8.4987186E-2,1.3902937E-2,2.2525135E-2,-4.9412787E-2],"categories":[],"categories_nodes":[],"categories_segments":[],"categories_sizes":[],"default_left":[0,0,0,0,0,0,0,0,0,0,0,0,0,0,0,0,0,0,0,0,0,0,0,0,0,0,0,0,0],"id":37,"left_children":[1,3,5,7,9,11,13,15,17,19,21,23,25,-1,27,-1,-1,-1,-1,-1,-1,-1,-1,-1,-1,-1,-1,-1,-1],"loss_changes":[2.5237808E1,3.384162E1,1.0910484E1,1.9420385E1,5.1195297E1,2.8839123E1,1.8307713E1,2.8532187E1,5.3501534E1,1.2561981E1,3.9367233E1,8.425093E0,8.207495E0,0E0,7.8694615E0,0E0,0E0,0E0,0E0,0E0,0E0,0E0,0E0,0E0,0E0,0E0,0E0,0E0,0E0],"parents":[2147483647,0,0,1,1,2,2,3,3,4,4,5,5,6,6,7,7,8,8,9,9,10,10,11,11,12,12,14,14],"right_children":[2,4,6,8,10,12,14,16,18,20,22,24,26,-1,28,-1,-1,-1,-1,-1,-1,-1,-1,-1,-1,-1,-1,-1,-1],"split_conditions":[2.1E1,8E0,7E0,5E0,9E0,6E0,2.2E1,6E0,7E0,2E0,3E0,2.2E1,2.2E1,-1.252382E-1,2.3E1,-1.8389372E-2,5.4205764E-2,-1.27892895E-2,-1.3122016E-1,1.6371332E-1,5.7420224E-2,-2.095005E-2,1.8746184E-2,-1.0422918E-2,-5.0999355E-2,8.4987186E-2,1.3902937E-2,2.2525135E-2,-4.9412787E-2],"split_indices":[1,1,0,0,1,0,1,1,1,0,0,1,1,0,1,0,0,0,0,0,0,0,0,0,0,0,0,0,0],"split_type":[0,0,0,0,0,0,0,0,0,0,0,0,0,0,0,0,0,0,0,0,0,0,0,0,0,0,0,0,0],"sum_hessian":[2.254E3,1.887E3,3.67E2,5.08E2,1.379E3,2.75E2,9.2E1,2.97E2,2.11E2,4.7E1,1.332E3,2.07E2,6.8E1,2.5E1,6.7E1,2.27E2,7E1,1.62E2,4.9E1,2.4E1,2.3E1,3.32E2,1E3,9.4E1,1.13E2,2.6E1,4.2E1,2.2E1,4.5E1],"tree_param":{"num_deleted":"0","num_feature":"2","num_nodes":"29","size_leaf_vector":"1"}},{"base_weights":[-2.607986E-3,5.94309E-2,-1.5230453E-1,-4.7110002E-2,3.055453E-1,-2.9621795E-1,-4.9646936E-2,-4.8233913E-3,-7.184971E-1,8.952409E-1,9.879252E-2,7.779191E-2,-4.218707E-1,-5.634729E-1,1.1250718E-1,-6.245367E-3,8.020695E-2,1.3708884E-1,-1.8679565E-1,5.716753E-2,1.9466417E-1,2.5045732E-2,-3.624242E-2,-1.562234E-2,5.6278944E-2,-7.6025024E-2,-3.1983506E-2,-2.4469231E-1,-1.3939728E-3,6.3135915E-2,-4.9873423E-2],"categories":[],"categories_nodes":[],"categories_segments":[],"categories_sizes":[],"default_left":[0,0,0,0,0,0,0,0,0,0,0,0,0,0,0,0,0,0,0,0,0,0,0,0,0,0,0,0,0,0,0],"id":38,"left_children":[1,3,5,7,9,11,13,15,17,19,21,23,25,27,29,-1,-1,-1,-1,-1,-1,-1,-1,-1,-1,-1,-1,-1,-1,-1,-1],"loss_changes":[2.0951254E1,4.1837288E1,9.750778E0,3.162376E1,5.8677574E1,1.2956543E1,3.230785E1,4.8830128E1,1.6107056E2,4.141178E1,2.5132994E1,8.0327E0,6.869362E0,9.62226E1,9.387231E1,0E0,0E0,0E0,0E0,0E0,0E0,0E0,0E0,0E0,0E0,0E0,0E0,0E0,0E0,0E0,0E0],"parents":[2147483647,0,0,1,1,2,2,3,3,4,4,5,5,6,6,7,7,8,8,9,9,10,10,11,11,12,12,13,13,14,14],"right_children":[2,4,6,8,10,12,14,16,18,20,22,24,26,28,30,-1,-1,-1,-1,-1,-1,-1,-1,-1,-1,-1,-1,-1,-1,-1,-1],"split_conditions":[1.9E1,1.5E1,5E0,1.4E1,1.6E1,2E1,2E1,1.3E1,3E0,7E0,7E0,4E0,2.1E1,6E0,7E0,-6.245367E-3,8.020695E-2,1.3708884E-1,-1.8679565E-1,5.716753E-2,1.9466417E-1,2.5045732E-2,-3.624242E-2,-1.562234E-2,5.6278944E-2,-7.6025024E-2,-3.1983506E-2,-2.4469231E-1,-1.3939728E-3,6.3135915E-2,-4.9873423E-2],"split_indices":[1,1,0,1,1,1,1,1,0,0,0,0,1,0,0,0,0,0,0,0,0,0,0,0,0,0,0,0,0,0,0],"split_type":[0,0,0,0,0,0,0,0,0,0,0,0,0,0,0,0,0,0,0,0,0,0,0,0,0,0,0,0,0,0,0],"sum_hessian":[2.254E3,1.594E3,6.6E2,1.113E3,4.81E2,2.74E2,3.86E2,1.048E3,6.5E1,1.24E2,3.57E2,6.9E1,2.05E2,9.2E1,2.94E2,9.79E2,6.9E1,2.3E1,4.2E1,9.6E1,2.8E1,2.69E2,8.8E1,4.7E1,2.2E1,4.6E1,1.59E2,2E1,7.2E1,1.59E2,1.35E2],"tree_param":{"num_deleted":"0","num_feature":"2","num_nodes":"31","size_leaf_vector":"1"}},{"base_weights":[-2.3630052E-3,3.8527917E-2,-2.1214479E-1,-1.21685006E-1,1.2655428E-1,-1.3552745E-1,-4.3724415E-1,-5.0523646E-2,-4.646766E-1,2.4649471E-1,-1.834053E-2,-2.8482467E-1,3.164921E-1,-1.08400516E-1,-1.8352312E-1,-1.5293523E-2,1.0365184E-1,-1.6671501E-1,3.6113396E-2,7.109595E-2,3.6497595E-4,-6.51752E-2,1.624668E-2,-8.830221E-3,-4.4609495E-2,5.229814E-2,-1.8038724E-2,2.5141029E-2,-3.9700016E-2],"categories":[],"categories_nodes":[],"categories_segments":[],"categories_sizes":[],"default_left":[0,0,0,0,0,0,0,0,0,0,0,0,0,0,0,0,0,0,0,0,0,0,0,0,0,0,0,0,0],"id":39,"left_children":[1,3,5,7,9,11,13,15,17,19,21,23,25,-1,27,-1,-1,-1,-1,-1,-1,-1,-1,-1,-1,-1,-1,-1,-1],"loss_changes":[1.9351948E1,2.6641788E1,6.2874584E0,1.6329716E1,2.1189215E1,1.8716078E1,1.5062069E1,6.2055607E1,1.1479883E2,7.5230286E1,6.3438454E1,6.552799E0,7.1737576E0,0E0,6.413494E0,0E0,0E0,0E0,0E0,0E0,0E0,0E0,0E0,0E0,0E0,0E0,0E0,0E0,0E0],"parents":[2147483647,0,0,1,1,2,2,3,3,4,4,5,5,6,6,7,7,8,8,9,9,10,10,11,11,12,12,14,14],"right_children":[2,4,6,8,10,12,14,16,18,20,22,24,26,-1,28,-1,-1,-1,-1,-1,-1,-1,-1,-1,-1,-1,-1,-1,-1],"split_conditions":[2.1E1,1E1,7E0,9E0,1.7E1,6E0,2.2E1,8E0,3E0,4E0,3E0,2.2E1,2.3E1,-1.08400516E-1,2.3E1,-1.5293523E-2,1.0365184E-1,-1.6671501E-1,3.6113396E-2,7.109595E-2,3.6497595E-4,-6.51752E-2,1.624668E-2,-8.830221E-3,-4.4609495E-2,5.229814E-2,-1.8038724E-2,2.5141029E-2,-3.9700016E-2],"split_indices":[1,1,0,1,1,0,1,1,0,0,0,1,1,0,1,0,0,0,0,0,0,0,0,0,0,0,0,0,0],"split_type":[0,0,0,0,0,0,0,0,0,0,0,0,0,0,0,0,0,0,0,0,0,0,0,0,0,0,0,0,0],"sum_hessian":[2.254E3,1.887E3,3.67E2,6.69E2,1.218E3,2.75E2,9.2E1,5.55E2,1.14E2,6.66E2,5.52E2,2.07E2,6.8E1,2.5E1,6.7E1,5.08E2,4.7E1,4.6E1,6.8E1,2.28E2,4.38E2,1.22E2,4.3E2,9.4E1,1.13E2,4.8E1,2E1,2.2E1,4.5E1],"tree_param":{"num_deleted":"0","num_feature":"2","num_nodes":"29","size_leaf_vector":"1"}},{"base_weights":[-2.1984698E-3,3.4664713E-2,-1.9131666E-1,-1.9469848E-1,8.589246E-2,-1.220443E-1,-3.9484197E-1,-5.6628067E-2,-2.8318837E-1,1.3176602E-1,-7.0400774E-2,-2.5659922E-1,2.8533927E-1,-9.797741E-2,-1.6538495E-1,-2.6995827E-2,1.4247644E-2,-2.1108544E-2,-4.2137463E-2,9.639335E-3,5.6459974E-2,-6.250482E-2,1.952703E-3,-7.956509E-3,-4.0187683E-2,6.5687284E-2,4.541497E-3,2.273622E-2,-3.581632E-2],"categories":[],"categories_nodes":[],"categories_segments":[],"categories_sizes":[],"default_left":[0,0,0,0,0,0,0,0,0,0,0,0,0,0,0,0,0,0,0,0,0,0,0,0,0,0,0,0,0],"id":40,"left_children":[1,3,5,7,9,11,13,15,17,19,21,23,25,-1,27,-1,-1,-1,-1,-1,-1,-1,-1,-1,-1,-1,-1,-1,-1],"loss_changes":[1.5727362E1,2.2200266E1,5.1401243E0,4.1991177E0,1.1079335E1,1.5202286E1,1.232012E1,5.8150635E0,2.003418E0,1.8226297E1,1.7519463E1,5.3175964E0,6.1208224E0,0E0,5.2299237E0,0E0,0E0,0E0,0E0,0E0,0E0,0E0,0E0,0E0,0E0,0E0,0E0,0E0,0E0],"parents":[2147483647,0,0,1,1,2,2,3,3,4,4,5,5,6,6,7,7,8,8,9,9,10,10,11,11,12,12,14,14],"right_children":[2,4,6,8,10,12,14,16,18,20,22,24,26,-1,28,-1,-1,-1,-1,-1,-1,-1,-1,-1,-1,-1,-1,-1,-1],"split_conditions":[2.1E1,5E0,7E0,3E0,7E0,6E0,2.2E1,3E0,4E0,2E1,1E1,2.2E1,2.2E1,-9.797741E-2,2.3E1,-2.6995827E-2,1.4247644E-2,-2.1108544E-2,-4.2137463E-2,9.639335E-3,5.6459974E-2,-6.250482E-2,1.952703E-3,-7.956509E-3,-4.0187683E-2,6.5687284E-2,4.541497E-3,2.273622E-2,-3.581632E-2],"split_indices":[1,1,0,0,0,0,1,1,1,1,1,1,1,0,1,0,0,0,0,0,0,0,0,0,0,0,0,0,0],"split_type":[0,0,0,0,0,0,0,0,0,0,0,0,0,0,0,0,0,0,0,0,0,0,0,0,0,0,0,0,0],"sum_hessian":[2.254E3,1.887E3,3.67E2,3.44E2,1.543E3,2.75E2,9.2E1,1.35E2,2.09E2,1.193E3,3.5E2,2.07E2,6.8E1,2.5E1,6.7E1,6.5E1,7E1,1.39E2,7E1,1.104E3,8.9E1,4.8E1,3.02E2,9.4E1,1.13E2,2.6E1,4.2E1,2.2E1,4.5E1],"tree_param":{"num_deleted":"0","num_feature":"2","num_nodes":"29","size_leaf_vector":"1"}},{"base_weights":[-2.0495926E-3,4.9360972E-2,-1.2610073E-1,-4.2266615E-2,2.6102856E-1,-2.3877929E-1,-4.570614E-2,-2.136204E-3,-6.7945653E-1,7.740661E-1,8.116621E-2,7.066634E-2,-3.427716E-1,-5.3141254E-1,1.0756979E-1,-5.0049904E-3,6.686862E-2,1.16213955E-1,-1.6915227E-1,4.7238283E-2,1.7564528E-1,2.2002924E-2,-3.4101564E-2,-1.2895553E-2,4.8419606E-2,-7.1022876E-2,-2.3268875E-2,-2.238537E-1,-3.3042294E-3,5.3816404E-2,-3.9980263E-2],"categories":[],"categories_nodes":[],"categories_segments":[],"categories_sizes":[],"default_left":[0,0,0,0,0,0,0,0,0,0,0,0,0,0,0,0,0,0,0,0,0,0,0,0,0,0,0,0,0,0,0],"id":41,"left_children":[1,3,5,7,9,11,13,15,17,19,21,23,25,27,29,-1,-1,-1,-1,-1,-1,-1,-1,-1,-1,-1,-1,-1,-1,-1,-1],"loss_changes":[1.4387575E1,3.0945404E1,5.9769163E0,2.84843E1,4.441427E1,8.873714E0,2.8868189E1,3.374999E1,1.2497772E2,3.6216484E1,2.1062944E1,5.8409095E0,8.167585E0,7.904858E1,6.466429E1,0E0,0E0,0E0,0E0,0E0,0E0,0E0,0E0,0E0,0E0,0E0,0E0,0E0,0E0,0E0,0E0],"parents":[2147483647,0,0,1,1,2,2,3,3,4,4,5,5,6,6,7,7,8,8,9,9,10,10,11,11,12,12,13,13,14,14],"right_children":[2,4,6,8,10,12,14,16,18,20,22,24,26,28,30,-1,-1,-1,-1,-1,-1,-1,-1,-1,-1,-1,-1,-1,-1,-1,-1],"split_conditions":[1.9E1,1.5E1,5E0,1.4E1,1.6E1,2E1,2E1,1.3E1,3E0,7E0,7E0,4E0,2.1E1,6E0,7E0,-5.0049904E-3,6.686862E-2,1.16213955E-1,-1.6915227E-1,4.7238283E-2,1.7564528E-1,2.2002924E-2,-3.4101564E-2,-1.2895553E-2,4.8419606E-2,-7.1022876E-2,-2.3268875E-2,-2.238537E-1,-3.3042294E-3,5.3816404E-2,-3.9980263E-2],"split_indices":[1,1,0,1,1,1,1,1,0,0,0,0,1,0,0,0,0,0,0,0,0,0,0,0,0,0,0,0,0,0,0],"split_type":[0,0,0,0,0,0,0,0,0,0,0,0,0,0,0,0,0,0,0,0,0,0,0,0,0,0,0,0,0,0,0],"sum_hessian":[2.254E3,1.594E3,6.6E2,1.113E3,4.81E2,2.74E2,3.86E2,1.048E3,6.5E1,1.24E2,3.57E2,6.9E1,2.05E2,9.2E1,2.94E2,9.79E2,6.9E1,2.3E1,4.2E1,9.6E1,2.8E1,2.69E2,8.8E1,4.7E1,2.2E1,4.6E1,1.59E2,2E1,7.2E1,1.59E2,1.35E2],"tree_param":{"num_deleted":"0","num_feature":"2","num_nodes":"31","size_leaf_vector":"1"}},{"base_weights":[-1.867911E-3,3.0776333E-2,-1.69342E-1,-1.7045857E-1,7.572145E-2,-1.1897365E-1,-3.170014E-1,-4.6091016E-2,-2.5018966E-1,-1.3628514E-1,1.0993626E-1,-2.2580281E-1,2.0478635E-1,-8.471222E-2,-1.0964638E-1,-2.3844235E-2,1.3336362E-2,-1.8515846E-2,-3.748964E-2,6.5584265E-2,-3.381301E-2,2.8424773E-2,4.811497E-3,-6.976565E-3,-3.5385307E-2,3.8213834E-2,-2.1878669E-2,2.438568E-2,-2.8401434E-2],"categories":[],"categories_nodes":[],"categories_segments":[],"categories_sizes":[],"default_left":[0,0,0,0,0,0,0,0,0,0,0,0,0,0,0,0,0,0,0,0,0,0,0,0,0,0,0,0,0],"id":42,"left_children":[1,3,5,7,9,11,13,15,17,19,21,23,25,-1,27,-1,-1,-1,-1,-1,-1,-1,-1,-1,-1,-1,-1,-1,-1],"loss_changes":[1.2333443E1,1.7088974E1,2.699234E0,3.4094734E0,1.1214796E1,9.592256E0,1.0129975E1,4.726293E0,1.6336498E0,3.4597466E1,1.4318615E1,4.131277E0,5.266991E0,0E0,4.2607536E0,0E0,0E0,0E0,0E0,0E0,0E0,0E0,0E0,0E0,0E0,0E0,0E0,0E0,0E0],"parents":[2147483647,0,0,1,1,2,2,3,3,4,4,5,5,6,6,7,7,8,8,9,9,10,10,11,11,12,12,14,14],"right_children":[2,4,6,8,10,12,14,16,18,20,22,24,26,-1,28,-1,-1,-1,-1,-1,-1,-1,-1,-1,-1,-1,-1,-1,-1],"split_conditions":[2.1E1,5E0,7E0,3E0,2E0,6E0,2.2E1,3E0,4E0,9E0,4E0,2.2E1,2.3E1,-8.471222E-2,2.3E1,-2.3844235E-2,1.3336362E-2,-1.8515846E-2,-3.748964E-2,6.5584265E-2,-3.381301E-2,2.8424773E-2,4.811497E-3,-6.976565E-3,-3.5385307E-2,3.8213834E-2,-2.1878669E-2,2.438568E-2,-2.8401434E-2],"split_indices":[1,1,0,0,0,0,1,1,1,1,0,1,1,0,1,0,0,0,0,0,0,0,0,0,0,0,0,0,0],"split_type":[0,0,0,0,0,0,0,0,0,0,0,0,0,0,0,0,0,0,0,0,0,0,0,0,0,0,0,0,0],"sum_hessian":[2.254E3,1.887E3,3.67E2,3.44E2,1.543E3,2.75E2,9.2E1,1.35E2,2.09E2,2.14E2,1.329E3,2.07E2,6.8E1,2.5E1,6.7E1,6.5E1,7E1,1.39E2,7E1,4.3E1,1.71E2,3.47E2,9.82E2,9.4E1,1.13E2,4.8E1,2E1,2.2E1,4.5E1],"tree_param":{"num_deleted":"0","num_feature":"2","num_nodes":"29","size_leaf_vector":"1"}},{"base_weights":[-1.7328843E-3,4.1844208E-2,-1.06882244E-1,-4.042737E-2,2.3190375E-1,-2.598971E-1,-5.7091665E-2,-3.591576E-3,-6.2528074E-1,6.966206E-1,6.899449E-2,-4.818348E-1,2.6175177E-2,-2.8702986E-1,1.0366888E-1,-4.6961415E-3,6.0363747E-2,1.0235262E-1,-1.5310037E-1,1.1412811E-1,1.2835524E-2,1.9434419E-2,-3.1205505E-2,4.350951E-3,-1.2883297E-1,-6.2323708E-2,-1.8647505E-2,4.806603E-2,-3.4061275E-2],"categories":[],"categories_nodes":[],"categories_segments":[],"categories_sizes":[],"default_left":[0,0,0,0,0,0,0,0,0,0,0,0,0,0,0,0,0,0,0,0,0,0,0,0,0,0,0,0,0],"id":43,"left_children":[1,3,5,7,9,11,13,15,17,19,21,23,-1,25,27,-1,-1,-1,-1,-1,-1,-1,-1,-1,-1,-1,-1,-1,-1],"loss_changes":[1.0337115E1,2.4949589E1,5.021123E0,2.3997257E1,3.644256E1,1.8881435E1,1.8512253E1,2.7654207E1,1.0012894E2,3.1439163E1,1.7160315E1,4.8356434E1,0E0,6.848076E0,4.9573376E1,0E0,0E0,0E0,0E0,0E0,0E0,0E0,0E0,0E0,0E0,0E0,0E0,0E0,0E0],"parents":[2147483647,0,0,1,1,2,2,3,3,4,4,5,5,6,6,7,7,8,8,9,9,10,10,11,11,13,13,14,14],"right_children":[2,4,6,8,10,12,14,16,18,20,22,24,-1,26,28,-1,-1,-1,-1,-1,-1,-1,-1,-1,-1,-1,-1,-1,-1],"split_conditions":[1.9E1,1.5E1,2E1,1.4E1,1.6E1,7E0,5E0,1.3E1,3E0,5E0,7E0,5E0,2.6175177E-2,2.1E1,7E0,-4.6961415E-3,6.0363747E-2,1.0235262E-1,-1.5310037E-1,1.1412811E-1,1.2835524E-2,1.9434419E-2,-3.1205505E-2,4.350951E-3,-1.2883297E-1,-6.2323708E-2,-1.8647505E-2,4.806603E-2,-3.4061275E-2],"split_indices":[1,1,1,1,1,0,0,1,0,0,0,0,0,1,0,0,0,0,0,0,0,0,0,0,0,0,0,0,0],"split_type":[0,0,0,0,0,0,0,0,0,0,0,0,0,0,0,0,0,0,0,0,0,0,0,0,0,0,0,0,0],"sum_hessian":[2.254E3,1.594E3,6.6E2,1.113E3,4.81E2,1.61E2,4.99E2,1.048E3,6.5E1,1.24E2,3.57E2,1.13E2,4.8E1,2.05E2,2.94E2,9.79E2,6.9E1,2.3E1,4.2E1,6.9E1,5.5E1,2.69E2,8.8E1,6.9E1,4.4E1,4.6E1,1.59E2,1.59E2,1.35E2],"tree_param":{"num_deleted":"0","num_feature":"2","num_nodes":"29","size_leaf_vector":"1"}},{"base_weights":[-1.5796638E-3,2.7603695E-2,-1.512987E-1,-8.8951886E-2,9.1643594E-2,-1.1662977E-1,-2.5256026E-1,-2.2203915E-2,-4.1089034E-1,1.8171439E-1,-1.716086E-2,5.3153235E-2,-2.4757281E-1,-7.329168E-2,-6.518039E-2,-1.091254E-2,8.9998856E-2,-1.4986366E-1,3.359932E-2,5.424747E-2,-6.886578E-4,-5.8997046E-2,1.4634899E-2,-6.267018E-3,4.5871142E-2,-3.131688E-2,-6.790969E-3,2.5311207E-2,-2.2290966E-2],"categories":[],"categories_nodes":[],"categories_segments":[],"categories_sizes":[],"default_left":[0,0,0,0,0,0,0,0,0,0,0,0,0,0,0,0,0,0,0,0,0,0,0,0,0,0,0,0,0],"id":44,"left_children":[1,3,5,7,9,11,13,15,17,19,21,23,25,-1,27,-1,-1,-1,-1,-1,-1,-1,-1,-1,-1,-1,-1,-1,-1],"loss_changes":[9.856958E0,1.4100575E1,1.262455E0,1.4388331E1,1.1949445E1,6.1491637E0,8.323078E0,4.4666245E1,9.39318E1,4.5386246E1,5.1880325E1,5.7124968E0,1.8172207E0,0E0,3.4702957E0,0E0,0E0,0E0,0E0,0E0,0E0,0E0,0E0,0E0,0E0,0E0,0E0,0E0,0E0],"parents":[2147483647,0,0,1,1,2,2,3,3,4,4,5,5,6,6,7,7,8,8,9,9,10,10,11,11,12,12,14,14],"right_children":[2,4,6,8,10,12,14,16,18,20,22,24,26,-1,28,-1,-1,-1,-1,-1,-1,-1,-1,-1,-1,-1,-1,-1,-1],"split_conditions":[2.1E1,1E1,7E0,9E0,1.7E1,2.2E1,2.2E1,8E0,3E0,4E0,3E0,6E0,6E0,-7.329168E-2,2.3E1,-1.091254E-2,8.9998856E-2,-1.4986366E-1,3.359932E-2,5.424747E-2,-6.886578E-4,-5.8997046E-2,1.4634899E-2,-6.267018E-3,4.5871142E-2,-3.131688E-2,-6.790969E-3,2.5311207E-2,-2.2290966E-2],"split_indices":[1,1,0,1,1,1,1,1,0,0,0,0,0,0,1,0,0,0,0,0,0,0,0,0,0,0,0,0,0],"split_type":[0,0,0,0,0,0,0,0,0,0,0,0,0,0,0,0,0,0,0,0,0,0,0,0,0,0,0,0,0],"sum_hessian":[2.254E3,1.887E3,3.67E2,6.69E2,1.218E3,2.75E2,9.2E1,5.55E2,1.14E2,6.66E2,5.52E2,1.2E2,1.55E2,2.5E1,6.7E1,5.08E2,4.7E1,4.6E1,6.8E1,2.28E2,4.38E2,1.22E2,4.3E2,9.4E1,2.6E1,1.13E2,4.2E1,2.2E1,4.5E1],"tree_param":{"num_deleted":"0","num_feature":"2","num_nodes":"29","size_leaf_vector":"1"}},{"base_weights":[-1.4646209E-3,-2.0653412E-1,1.674689E-2,-2.3160043E-1,-3.784832E-3,6.631033E-2,-8.915376E-2,-1.6098928E-2,-2.553689E-1,-5.4047797E-3,2.0469303E-1,-2.3905958E-1,-4.0405966E-2,-2.9820774E-2,-1.8668296E-2,3.854425E-3,-5.8198746E-2,6.088801E-2,6.2994496E-3,-4.3504015E-2,2.21774E-2,-2.364344E-2,9.661865E-3],"categories":[],"categories_nodes":[],"categories_segments":[],"categories_sizes":[],"default_left":[0,0,0,0,0,0,0,0,0,0,0,0,0,0,0,0,0,0,0,0,0,0,0],"id":45,"left_children":[1,3,5,7,-1,9,11,-1,13,15,17,19,21,-1,-1,-1,-1,-1,-1,-1,-1,-1,-1],"loss_changes":[8.425039E0,7.6924706E-1,1.0881428E1,2.2741985E-1,0E0,1.401398E1,4.8206506E0,0E0,2.9153585E-1,2.3614202E1,2.7567091E1,1.4727417E1,1.3453204E1,0E0,0E0,0E0,0E0,0E0,0E0,0E0,0E0,0E0,0E0],"parents":[2147483647,0,0,1,1,2,2,3,3,5,5,6,6,8,8,9,9,10,10,11,11,12,12],"right_children":[2,4,6,8,-1,10,12,-1,14,16,18,20,22,-1,-1,-1,-1,-1,-1,-1,-1,-1,-1],"split_conditions":[3E0,7E0,1.9E1,2E0,-3.784832E-3,1.5E1,2E1,-1.6098928E-2,5E0,1.4E1,1.6E1,7E0,5E0,-2.9820774E-2,-1.8668296E-2,3.854425E-3,-5.8198746E-2,6.088801E-2,6.2994496E-3,-4.3504015E-2,2.21774E-2,-2.364344E-2,9.661865E-3],"split_indices":[1,0,1,0,0,1,1,0,0,1,1,0,0,0,0,0,0,0,0,0,0,0,0],"split_type":[0,0,0,0,0,0,0,0,0,0,0,0,0,0,0,0,0,0,0,0,0,0,0],"sum_hessian":[2.254E3,1.83E2,2.071E3,1.59E2,2.4E1,1.411E3,6.6E2,4.2E1,1.17E2,9.3E2,4.81E2,1.61E2,4.99E2,7E1,4.7E1,8.65E2,6.5E1,1.24E2,3.57E2,1.13E2,4.8E1,2.05E2,2.94E2],"tree_param":{"num_deleted":"0","num_feature":"2","num_nodes":"23","size_leaf_vector":"1"}},{"base_weights":[-1.3586372E-3,2.4028368E-2,-1.3160132E-1,-7.733837E-2,7.972294E-2,-9.540159E-2,-2.3761772E-1,-2.1174695E-2,-4.1292974E-1,1.5485941E-1,-1.1046951E-2,5.729979E-2,-2.1323149E-1,-6.7173414E-2,-6.8137646E-2,4.8373356E-3,-3.8214818E-2,-3.421509E-3,-5.3869277E-2,4.793955E-2,-1.4784383E-3,-5.22221E-2,1.3485896E-2,-4.21899E-3,4.052339E-2,-2.6511783E-2,-7.0713493E-3,2.196599E-2,-2.1055518E-2],"categories":[],"categories_nodes":[],"categories_segments":[],"categories_sizes":[],"default_left":[0,0,0,0,0,0,0,0,0,0,0,0,0,0,0,0,0,0,0,0,0,0,0,0,0,0,0,0,0],"id":46,"left_children":[1,3,5,7,9,11,13,15,17,19,21,23,25,-1,27,-1,-1,-1,-1,-1,-1,-1,-1,-1,-1,-1,-1,-1,-1],"loss_changes":[7.459256E0,1.0665015E1,1.3896279E0,1.2619444E1,8.315449E0,4.9782276E0,6.7966185E0,1.4453861E1,4.5538845E0,3.6729126E1,4.1314995E1,4.205615E0,1.1348324E0,0E0,2.833394E0,0E0,0E0,0E0,0E0,0E0,0E0,0E0,0E0,0E0,0E0,0E0,0E0,0E0,0E0],"parents":[2147483647,0,0,1,1,2,2,3,3,4,4,5,5,6,6,7,7,8,8,9,9,10,10,11,11,12,12,14,14],"right_children":[2,4,6,8,10,12,14,16,18,20,22,24,26,-1,28,-1,-1,-1,-1,-1,-1,-1,-1,-1,-1,-1,-1,-1,-1],"split_conditions":[2.1E1,1E1,7E0,7E0,1.7E1,2.2E1,2.2E1,9E0,1E0,4E0,3E0,6E0,6E0,-6.7173414E-2,2.3E1,4.8373356E-3,-3.8214818E-2,-3.421509E-3,-5.3869277E-2,4.793955E-2,-1.4784383E-3,-5.22221E-2,1.3485896E-2,-4.21899E-3,4.052339E-2,-2.6511783E-2,-7.0713493E-3,2.196599E-2,-2.1055518E-2],"split_indices":[1,1,0,0,1,1,1,1,1,0,0,0,0,0,1,0,0,0,0,0,0,0,0,0,0,0,0,0,0],"split_type":[0,0,0,0,0,0,0,0,0,0,0,0,0,0,0,0,0,0,0,0,0,0,0,0,0,0,0,0,0],"sum_hessian":[2.254E3,1.887E3,3.67E2,6.69E2,1.218E3,2.75E2,9.2E1,5.74E2,9.5E1,6.66E2,5.52E2,1.2E2,1.55E2,2.5E1,6.7E1,4.82E2,9.2E1,2.4E1,7.1E1,2.28E2,4.38E2,1.22E2,4.3E2,9.4E1,2.6E1,1.13E2,4.2E1,2.2E1,4.5E1],"tree_param":{"num_deleted":"0","num_feature":"2","num_nodes":"29","size_leaf_vector":"1"}},{"base_weights":[-1.2876437E-3,-1.8998618E-1,1.5469992E-2,-2.1365121E-1,-3.0930596E-3,4.979412E-2,-1.0292989E-1,-1.4998962E-2,-2.3503932E-1,7.5750984E-2,-1.9212358E-1,-4.855718E-1,-3.2921925E-2,-2.9199341E-2,-1.9181376E-2,-1.1488912E-2,1.2200081E-2,-2.3883864E-2,-6.380636E-3,-5.720645E-2,-2.7643247E-2,8.820052E-2,-1.6202426E-2],"categories":[],"categories_nodes":[],"categories_segments":[],"categories_sizes":[],"default_left":[0,0,0,0,0,0,0,0,0,0,0,0,0,0,0,0,0,0,0,0,0,0,0],"id":47,"left_children":[1,3,5,7,-1,9,11,-1,13,15,17,19,21,-1,-1,-1,-1,-1,-1,-1,-1,-1,-1],"loss_changes":[7.133568E0,6.8597794E-1,8.425676E0,1.8260288E-1,0E0,1.0105589E1,1.2467214E1,0E0,2.3449278E-1,1.2816403E1,9.198785E-1,1.1442719E0,4.679999E1,0E0,0E0,0E0,0E0,0E0,0E0,0E0,0E0,0E0,0E0],"parents":[2147483647,0,0,1,1,2,2,3,3,5,5,6,6,8,8,9,9,10,10,11,11,12,12],"right_children":[2,4,6,8,-1,10,12,-1,14,16,18,20,22,-1,-1,-1,-1,-1,-1,-1,-1,-1,-1],"split_conditions":[3E0,7E0,7E0,2E0,-3.0930596E-3,2.2E1,1E1,-1.4998962E-2,4E0,2E0,6E0,8E0,1.2E1,-2.9199341E-2,-1.9181376E-2,-1.1488912E-2,1.2200081E-2,-2.3883864E-2,-6.380636E-3,-5.720645E-2,-2.7643247E-2,8.820052E-2,-1.6202426E-2],"split_indices":[1,0,0,0,0,1,1,0,0,0,0,1,1,0,0,0,0,0,0,0,0,0,0],"split_type":[0,0,0,0,0,0,0,0,0,0,0,0,0,0,0,0,0,0,0,0,0,0,0],"sum_hessian":[2.254E3,1.83E2,2.071E3,1.59E2,2.4E1,1.606E3,4.65E2,4.2E1,1.17E2,1.451E3,1.55E2,7.1E1,3.94E2,4.8E1,6.9E1,2.83E2,1.168E3,1.13E2,4.2E1,4.9E1,2.2E1,4.8E1,3.46E2],"tree_param":{"num_deleted":"0","num_feature":"2","num_nodes":"23","size_leaf_vector":"1"}},{"base_weights":[-1.2070143E-3,-1.7134881E-1,1.3902686E-2,-1.9268222E-1,-2.7961084E-3,4.479652E-2,-9.2664465E-2,-1.353395E-2,-2.119454E-1,6.817659E-2,-1.7310517E-1,-4.3819305E-1,-2.9447448E-2,-2.4789225E-2,-1.54358465E-2,-1.0344121E-2,1.09811565E-2,-2.1516433E-2,-5.7573807E-3,-5.1600225E-2,-2.499908E-2,7.95605E-2,-1.4586856E-2],"categories":[],"categories_nodes":[],"categories_segments":[],"categories_sizes":[],"default_left":[0,0,0,0,0,0,0,0,0,0,0,0,0,0,0,0,0,0,0,0,0,0,0],"id":48,"left_children":[1,3,5,7,-1,9,11,-1,13,15,17,19,21,-1,-1,-1,-1,-1,-1,-1,-1,-1,-1],"loss_changes":[5.799517E0,5.574589E-1,6.82573E0,1.4805174E-1,0E0,8.198757E0,1.0166068E1,0E0,2.0600414E-1,1.0386335E1,7.456398E-1,9.2536163E-1,3.8057194E1,0E0,0E0,0E0,0E0,0E0,0E0,0E0,0E0,0E0,0E0],"parents":[2147483647,0,0,1,1,2,2,3,3,5,5,6,6,8,8,9,9,10,10,11,11,12,12],"right_children":[2,4,6,8,-1,10,12,-1,14,16,18,20,22,-1,-1,-1,-1,-1,-1,-1,-1,-1,-1],"split_conditions":[3E0,7E0,7E0,2E0,-2.7961084E-3,2.2E1,1E1,-1.353395E-2,5E0,2E0,6E0,8E0,1.2E1,-2.4789225E-2,-1.54358465E-2,-1.0344121E-2,1.09811565E-2,-2.1516433E-2,-5.7573807E-3,-5.1600225E-2,-2.499908E-2,7.95605E-2,-1.4586856E-2],"split_indices":[1,0,0,0,0,1,1,0,0,0,0,1,1,0,0,0,0,0,0,0,0,0,0],"split_type":[0,0,0,0,0,0,0,0,0,0,0,0,0,0,0,0,0,0,0,0,0,0,0],"sum_hessian":[2.254E3,1.83E2,2.071E3,1.59E2,2.4E1,1.606E3,4.65E2,4.2E1,1.17E2,1.451E3,1.55E2,7.1E1,3.94E2,7E1,4.7E1,2.83E2,1.168E3,1.13E2,4.2E1,4.9E1,2.2E1,4.8E1,3.46E2],"tree_param":{"num_deleted":"0","num_feature":"2","num_nodes":"23","size_leaf_vector":"1"}},{"base_weights":[-1.128256E-3,-1.545213E-1,1.2494066E-2,-1.7375001E-1,-2.5276756E-3,5.988878E-2,-4.6917453E-2,-1.2212033E-2,-1.9109176E-1,-1.791052E-2,3.8442355E-1,-2.0302874E-1,6.9884755E-2,-2.3910666E-2,-1.5475146E-2,2.2364238E-3,-5.4609276E-2,1.05788484E-1,-4.1046217E-2,-4.087103E-2,-1.1253851E-2,2.8230831E-2,-1.6304692E-2],"categories":[],"categories_nodes":[],"categories_segments":[],"categories_sizes":[],"default_left":[0,0,0,0,0,0,0,0,0,0,0,0,0,0,0,0,0,0,0,0,0,0,0],"id":49,"left_children":[1,3,5,7,-1,9,11,-1,13,15,17,19,21,-1,-1,-1,-1,-1,-1,-1,-1,-1,-1],"loss_changes":[4.713909E0,4.5288658E-1,5.8371315E0,1.199193E-1,0E0,2.91185E1,1.67896E1,0E0,1.6889334E-1,1.9816828E1,1.1981163E2,7.287201E0,2.6122082E1,0E0,0E0,0E0,0E0,0E0,0E0,0E0,0E0,0E0,0E0],"parents":[2147483647,0,0,1,1,2,2,3,3,5,5,6,6,8,8,9,9,10,10,11,11,12,12],"right_children":[2,4,6,8,-1,10,12,-1,14,16,18,20,22,-1,-1,-1,-1,-1,-1,-1,-1,-1,-1],"split_conditions":[3E0,7E0,1.7E1,2E0,-2.5276756E-3,1.5E1,5E0,-1.2212033E-2,4E0,1.4E1,6E0,1.9E1,7E0,-2.3910666E-2,-1.5475146E-2,2.2364238E-3,-5.4609276E-2,1.05788484E-1,-4.1046217E-2,-4.087103E-2,-1.1253851E-2,2.8230831E-2,-1.6304692E-2],"split_indices":[1,0,1,0,0,1,0,0,0,1,0,1,0,0,0,0,0,0,0,0,0,0,0],"split_type":[0,0,0,0,0,0,0,0,0,0,0,0,0,0,0,0,0,0,0,0,0,0,0],"sum_hessian":[2.254E3,1.83E2,2.071E3,1.59E2,2.4E1,1.152E3,9.19E2,4.2E1,1.17E2,9.3E2,2.22E2,3.93E2,5.26E2,4.8E1,6.9E1,8.65E2,6.5E1,1.2E2,1.02E2,1.19E2,2.74E2,2.75E2,2.51E2],"tree_param":{"num_deleted":"0","num_feature":"2","num_nodes":"23","size_leaf_vector":"1"}}]},"name":"gbtree"},"learner_model_param":{"base_score":"[1.4013753E1]","boost_from_average":"1","num_class":"0","num_feature":"2","num_target":"1"},"objective":{"name":"reg:squarederror","reg_loss_param":{"scale_pos_weight":"1"}}},"version":[3,2,0]}