{"learner":{"attributes":{},"feature_names":["day_of_week","hour_of_day"],"feature_types":[],"gradient_booster":{"model":{"cats":{"enc":[],"feature_segments":[],"sorted_idx":[]},"gbtree_model_param":{"num_parallel_tree":"1","num_trees":"50"},"iteration_indptr":[0,1,2,3,4,5,6,7,8,9,10,11,12,13,14,15,16,17,18,19,20,21,22,23,24,25,26,27,28,29,30,31,32,33,34,35,36,37,38,39,40,41,42,43,44,45,46,47,48,49,50],"tree_info":[0,0,0,0,0,0,0,0,0,0,0,0,0,0,0,0,0,0,0,0,0,0,0,0,0,0,0,0,0,0,0,0,0,0,0,0,0,0,0,0,0,0,0,0,0,0,0,0,0,0],"trees":[{"base_weights":[7.067069E-8,-1.1444826E1,9.958486E-1,-1.2192131E0,-8.132124E-1,3.7196357E0,-4.5099955E0,-1.8613539E0,4.396856E0,-2.080217E0,-8.594955E0,1.4515583E-1,-4.422345E-1,2.58603E-1,5.336353E-1,-4.0309468E-1,-8.793347E-2,-1.122848E0,-6.6116136E-1],"categories":[],"categories_nodes":[],"categories_segments":[],"categories_sizes":[],"default_left":[0,0,0,0,0,0,0,0,0,0,0,0,0,0,0,0,0,0,0],"id":0,"left_children":[1,3,5,-1,-1,7,9,11,13,15,17,-1,-1,-1,-1,-1,-1,-1,-1],"loss_changes":[2.8618656E4,3.984453E2,3.4659266E4,0E0,0E0,5.851381E3,7.575166E3,1.4317881E3,2.332246E3,1.1232441E3,1.4143672E3,0E0,0E0,0E0,0E0,0E0,0E0,0E0,0E0],"parents":[2147483647,0,0,1,1,2,2,5,5,6,6,7,7,8,8,9,9,10,10],"right_children":[2,4,6,-1,-1,8,10,12,14,16,18,-1,-1,-1,-1,-1,-1,-1,-1],"split_conditions":[3E0,6E0,1.9E1,-1.2192131E0,-8.132124E-1,5E0,2.2E1,3E0,1.1E1,4E0,4E0,1.4515583E-1,-4.422345E-1,2.58603E-1,5.336353E-1,-4.0309468E-1,-8.793347E-2,-1.122848E0,-6.6116136E-1],"split_indices":[1,0,1,0,0,1,1,0,1,0,0,0,0,0,0,0,0,0,0],"split_type":[0,0,0,0,0,0,0,0,0,0,0,0,0,0,0,0,0,0,0],"sum_hessian":[2.509E3,2E2,2.309E3,1.61E2,3.9E1,1.545E3,7.64E2,1.67E2,1.378E3,4.8E2,2.84E2,7.3E1,9.4E1,4.72E2,9.06E2,1.82E2,2.98E2,1.2E2,1.64E2],"tree_param":{"num_deleted":"0","num_feature":"2","num_nodes":"19","size_leaf_vector":"1"}},{"base_weights":[-1.5188727E-3,-1.0310455E1,8.9549315E-1,-1.0980443E0,-7.3392427E-1,3.3479924E0,-4.06197E0,-1.6769872E0,3.9577448E0,-1.8732162E0,-7.74172E0,1.3083638E-1,-3.984766E-1,4.5607987E-1,1.16172485E-1,-3.630055E-1,-7.9169534E-2,-1.0114912E0,-5.95446E-1],"categories":[],"categories_nodes":[],"categories_segments":[],"categories_sizes":[],"default_left":[0,0,0,0,0,0,0,0,0,0,0,0,0,0,0,0,0,0,0],"id":1,"left_children":[1,3,5,-1,-1,7,9,11,13,15,17,-1,-1,-1,-1,-1,-1,-1,-1],"loss_changes":[2.3219805E4,3.1953906E2,2.8098982E4,0E0,0E0,4.7435703E3,6.1468604E3,1.1626543E3,2.3199043E3,9.1105396E2,1.1486016E3,0E0,0E0,0E0,0E0,0E0,0E0,0E0,0E0],"parents":[2147483647,0,0,1,1,2,2,5,5,6,6,7,7,8,8,9,9,10,10],"right_children":[2,4,6,-1,-1,8,10,12,14,16,18,-1,-1,-1,-1,-1,-1,-1,-1],"split_conditions":[3E0,6E0,1.9E1,-1.0980443E0,-7.3392427E-1,5E0,2.2E1,3E0,7E0,4E0,4E0,1.3083638E-1,-3.984766E-1,4.5607987E-1,1.16172485E-1,-3.630055E-1,-7.9169534E-2,-1.0114912E0,-5.95446E-1],"split_indices":[1,0,1,0,0,1,1,0,0,0,0,0,0,0,0,0,0,0,0],"split_type":[0,0,0,0,0,0,0,0,0,0,0,0,0,0,0,0,0,0,0],"sum_hessian":[2.509E3,2E2,2.309E3,1.61E2,3.9E1,1.545E3,7.64E2,1.67E2,1.378E3,4.8E2,2.84E2,7.3E1,9.4E1,1.133E3,2.45E2,1.82E2,2.98E2,1.2E2,1.64E2],"tree_param":{"num_deleted":"0","num_feature":"2","num_nodes":"19","size_leaf_vector":"1"}},{"base_weights":[-2.7917954E-3,-9.288524E0,8.051887E-1,-9.8891765E-1,-6.623666E-1,3.0133905E0,-3.6584518E0,1.0257924E0,4.412563E0,-1.6868138E0,-6.973187E0,-1.5108816E-1,1.9245987E-1,5.0625354E-1,1.6453648E-1,-3.269033E-1,-7.127908E-2,-9.111781E-1,-5.362623E-1],"categories":[],"categories_nodes":[],"categories_segments":[],"categories_sizes":[],"default_left":[0,0,0,0,0,0,0,0,0,0,0,0,0,0,0,0,0,0,0],"id":2,"left_children":[1,3,5,-1,-1,7,9,11,13,15,17,-1,-1,-1,-1,-1,-1,-1,-1],"loss_changes":[1.883923E4,2.5623047E2,2.2779812E4,0E0,0E0,4.2948887E3,4.9878623E3,1.4620942E3,1.623002E3,7.3894763E2,9.327744E2,0E0,0E0,0E0,0E0,0E0,0E0,0E0,0E0],"parents":[2147483647,0,0,1,1,2,2,5,5,6,6,7,7,8,8,9,9,10,10],"right_children":[2,4,6,-1,-1,8,10,12,14,16,18,-1,-1,-1,-1,-1,-1,-1,-1],"split_conditions":[3E0,6E0,1.9E1,-9.8891765E-1,-6.623666E-1,1.1E1,2.2E1,5E0,7E0,4E0,4E0,-1.5108816E-1,1.9245987E-1,5.0625354E-1,1.6453648E-1,-3.269033E-1,-7.127908E-2,-9.111781E-1,-5.362623E-1],"split_indices":[1,0,1,0,0,1,1,1,0,0,0,0,0,0,0,0,0,0,0],"split_type":[0,0,0,0,0,0,0,0,0,0,0,0,0,0,0,0,0,0,0],"sum_hessian":[2.509E3,2E2,2.309E3,1.61E2,3.9E1,1.545E3,7.64E2,6.39E2,9.06E2,4.8E2,2.84E2,1.67E2,4.72E2,7.33E2,1.73E2,1.82E2,2.98E2,1.2E2,1.64E2],"tree_param":{"num_deleted":"0","num_feature":"2","num_nodes":"19","size_leaf_vector":"1"}},{"base_weights":[-3.6219668E-3,-8.3678875E0,7.2417927E-1,-8.906364E-1,-5.977859E-1,2.7125123E0,-3.2950191E0,9.2327756E-1,3.9720466E0,-1.5189601E0,-6.2809467E0,-1.3606931E-1,1.7325456E-1,4.556972E-1,1.4817737E-1,-2.943916E-1,-6.417498E-2,-8.2081336E-1,-4.8296103E-1],"categories":[],"categories_nodes":[],"categories_segments":[],"categories_sizes":[],"default_left":[0,0,0,0,0,0,0,0,0,0,0,0,0,0,0,0,0,0,0],"id":3,"left_children":[1,3,5,-1,-1,7,9,11,13,15,17,-1,-1,-1,-1,-1,-1,-1,-1],"loss_changes":[1.5285741E4,2.0544043E2,1.8469312E4,0E0,0E0,3.4804023E3,4.0473945E3,1.1852979E3,1.3144062E3,5.99354E2,7.575029E2,0E0,0E0,0E0,0E0,0E0,0E0,0E0,0E0],"parents":[2147483647,0,0,1,1,2,2,5,5,6,6,7,7,8,8,9,9,10,10],"right_children":[2,4,6,-1,-1,8,10,12,14,16,18,-1,-1,-1,-1,-1,-1,-1,-1],"split_conditions":[3E0,6E0,1.9E1,-8.906364E-1,-5.977859E-1,1.1E1,2.2E1,5E0,7E0,4E0,4E0,-1.3606931E-1,1.7325456E-1,4.556972E-1,1.4817737E-1,-2.943916E-1,-6.417498E-2,-8.2081336E-1,-4.8296103E-1],"split_indices":[1,0,1,0,0,1,1,1,0,0,0,0,0,0,0,0,0,0,0],"split_type":[0,0,0,0,0,0,0,0,0,0,0,0,0,0,0,0,0,0,0],"sum_hessian":[2.509E3,2E2,2.309E3,1.61E2,3.9E1,1.545E3,7.64E2,6.39E2,9.06E2,4.8E2,2.84E2,1.67E2,4.72E2,7.33E2,1.73E2,1.82E2,2.98E2,1.2E2,1.64E2],"tree_param":{"num_deleted":"0","num_feature":"2","num_nodes":"19","size_leaf_vector":"1"}},{"base_weights":[-4.259783E-3,-7.538503E0,6.513191E-1,-8.0212253E-1,-5.395018E-1,2.1566112E0,-3.7009335E0,-1.2254337E0,2.52179E0,-1.8902829E0,-5.6574273E0,-2.2647556E-2,-6.9304156E-1,3.0770555E-1,-2.450166E-2,-3.7793228E-1,-7.096266E-2,-7.394104E-1,-4.3495765E-1],"categories":[],"categories_nodes":[],"categories_segments":[],"categories_sizes":[],"default_left":[0,0,0,0,0,0,0,0,0,0,0,0,0,0,0,0,0,0,0],"id":4,"left_children":[1,3,5,-1,-1,7,9,11,13,15,17,-1,-1,-1,-1,-1,-1,-1,-1],"loss_changes":[1.240253E4,1.6470215E2,1.5141741E4,0E0,0E0,2.1236714E3,2.0935674E3,9.55869E2,2.382038E3,6.8871313E2,6.151621E2,0E0,0E0,0E0,0E0,0E0,0E0,0E0,0E0],"parents":[2147483647,0,0,1,1,2,2,5,5,6,6,7,7,8,8,9,9,10,10],"right_children":[2,4,6,-1,-1,8,10,12,14,16,18,-1,-1,-1,-1,-1,-1,-1,-1],"split_conditions":[3E0,6E0,2E1,-8.0212253E-1,-5.395018E-1,5E0,2.2E1,7E0,1.8E1,4E0,4E0,-2.2647556E-2,-6.9304156E-1,3.0770555E-1,-2.450166E-2,-3.7793228E-1,-7.096266E-2,-7.394104E-1,-4.3495765E-1],"split_indices":[1,0,1,0,0,1,1,0,1,0,0,0,0,0,0,0,0,0,0],"split_type":[0,0,0,0,0,0,0,0,0,0,0,0,0,0,0,0,0,0,0],"sum_hessian":[2.509E3,2E2,2.309E3,1.61E2,3.9E1,1.716E3,5.93E2,1.67E2,1.549E3,3.09E2,2.84E2,1.43E2,2.4E1,1.29E3,2.59E2,1.18E2,1.91E2,1.2E2,1.64E2],"tree_param":{"num_deleted":"0","num_feature":"2","num_nodes":"19","size_leaf_vector":"1"}},{"base_weights":[-5.1875194E-3,-6.791328E0,5.852971E-1,-7.083159E-1,-3.952628E-1,1.9406979E0,-3.3335726E0,2.4206142E0,-2.1975929E-1,-1.7027023E0,-5.095805E0,2.808455E-1,-3.7599146E-2,-5.512517E-1,7.5973086E-2,-3.4045658E-1,-6.390332E-2,-6.411739E-1,-3.6870754E-1],"categories":[],"categories_nodes":[],"categories_segments":[],"categories_sizes":[],"default_left":[0,0,0,0,0,0,0,0,0,0,0,0,0,0,0,0,0,0,0],"id":5,"left_children":[1,3,5,-1,-1,7,9,11,13,15,17,-1,-1,-1,-1,-1,-1,-1,-1],"loss_changes":[1.0061824E4,1.3851562E2,1.2276356E4,0E0,0E0,1.7807842E3,1.6984634E3,1.5249717E3,1.6268438E3,5.589925E2,5.0469092E2,0E0,0E0,0E0,0E0,0E0,0E0,0E0,0E0],"parents":[2147483647,0,0,1,1,2,2,5,5,6,6,7,7,8,8,9,9,10,10],"right_children":[2,4,6,-1,-1,8,10,12,14,16,18,-1,-1,-1,-1,-1,-1,-1,-1],"split_conditions":[3E0,7E0,2E1,-7.083159E-1,-3.952628E-1,7E0,2.2E1,1.8E1,8E0,4E0,5E0,2.808455E-1,-3.7599146E-2,-5.512517E-1,7.5973086E-2,-3.4045658E-1,-6.390332E-2,-6.411739E-1,-3.6870754E-1],"split_indices":[1,0,1,0,0,0,1,1,1,0,0,0,0,0,0,0,0,0,0],"split_type":[0,0,0,0,0,0,0,0,0,0,0,0,0,0,0,0,0,0,0],"sum_hessian":[2.509E3,2E2,2.309E3,1.8E2,2E1,1.716E3,5.93E2,1.404E3,3.12E2,3.09E2,2.84E2,1.233E3,1.71E2,4.8E1,2.64E2,1.18E2,1.91E2,1.45E2,1.39E2],"tree_param":{"num_deleted":"0","num_feature":"2","num_nodes":"19","size_leaf_vector":"1"}},{"base_weights":[-5.7640984E-3,-6.117686E0,5.26055E-1,-6.520111E-1,-4.3349214E0,1.7464933E0,-3.0025961E0,-4.9148464E-1,-3.5761875E-1,4.324898E-1,2.5249867E0,-1.5337366E0,-4.589768E0,8.9717895E-2,-2.1780606E-1,3.3938342E-1,-2.2159418E-2,-7.897695E-2,-3.9382634E-1,-6.024929E-1,-3.5094994E-1],"categories":[],"categories_nodes":[],"categories_segments":[],"categories_sizes":[],"default_left":[0,0,0,0,0,0,0,0,0,0,0,0,0,0,0,0,0,0,0,0,0],"id":6,"left_children":[1,3,5,-1,7,9,11,-1,-1,13,15,17,19,-1,-1,-1,-1,-1,-1,-1,-1],"loss_changes":[8.161813E3,1.15938965E2,9.953263E3,0E0,2.4047852E-2,1.7553013E3,1.377772E3,0E0,0E0,7.783346E2,2.5732476E3,5.514451E2,4.20708E2,0E0,0E0,0E0,0E0,0E0,0E0,0E0,0E0],"parents":[2147483647,0,0,1,1,2,2,4,4,5,5,6,6,9,9,10,10,11,11,12,12],"right_children":[2,4,6,-1,8,10,12,-1,-1,14,16,18,20,-1,-1,-1,-1,-1,-1,-1,-1],"split_conditions":[3E0,6E0,2E1,-6.520111E-1,7E0,1.1E1,2.2E1,-4.9148464E-1,-3.5761875E-1,7E0,1.8E1,7E0,4E0,8.9717895E-2,-2.1780606E-1,3.3938342E-1,-2.2159418E-2,-7.897695E-2,-3.9382634E-1,-6.024929E-1,-3.5094994E-1],"split_indices":[1,0,1,0,0,1,1,0,0,0,1,0,0,0,0,0,0,0,0,0,0],"split_type":[0,0,0,0,0,0,0,0,0,0,0,0,0,0,0,0,0,0,0,0,0],"sum_hessian":[2.509E3,2E2,2.309E3,1.61E2,3.9E1,1.716E3,5.93E2,1.9E1,2E1,6.39E2,1.077E3,3.09E2,2.84E2,5.43E2,9.6E1,8.18E2,2.59E2,2.37E2,7.2E1,1.2E2,1.64E2],"tree_param":{"num_deleted":"0","num_feature":"2","num_nodes":"21","size_leaf_vector":"1"}},{"base_weights":[-6.2787565E-3,-5.513386E0,4.7291377E-1,-5.872125E-1,-3.9226573E0,1.571954E0,-2.7047377E0,-4.447936E-1,-3.2355985E-1,-1.3127049E0,1.8835996E0,-1.9264318E0,-5.2149124E0,1.11935794E-1,-3.193336E-1,2.301669E-1,-1.9951982E-2,-3.4640923E-1,-4.7217913E-2,-4.0577006E-1,-7.418379E-1],"categories":[],"categories_nodes":[],"categories_segments":[],"categories_sizes":[],"default_left":[0,0,0,0,0,0,0,0,0,0,0,0,0,0,0,0,0,0,0,0,0],"id":7,"left_children":[1,3,5,-1,7,9,11,-1,-1,13,15,17,19,-1,-1,-1,-1,-1,-1,-1,-1],"loss_changes":[6.6264077E3,9.166797E1,8.0716187E3,0E0,4.4128418E-2,1.546041E3,1.1504419E3,0E0,0E0,7.7197504E2,1.3503354E3,1.01581104E3,3.2688135E2,0E0,0E0,0E0,0E0,0E0,0E0,0E0,0E0],"parents":[2147483647,0,0,1,1,2,2,4,4,5,5,6,6,9,9,10,10,11,11,12,12],"right_children":[2,4,6,-1,8,10,12,-1,-1,14,16,18,20,-1,-1,-1,-1,-1,-1,-1,-1],"split_conditions":[3E0,6E0,2E1,-5.872125E-1,7E0,5E0,2.3E1,-4.447936E-1,-3.2355985E-1,3E0,1.8E1,5E0,7E0,1.11935794E-1,-3.193336E-1,2.301669E-1,-1.9951982E-2,-3.4640923E-1,-4.7217913E-2,-4.0577006E-1,-7.418379E-1],"split_indices":[1,0,1,0,0,1,1,0,0,0,1,0,0,0,0,0,0,0,0,0,0],"split_type":[0,0,0,0,0,0,0,0,0,0,0,0,0,0,0,0,0,0,0,0,0],"sum_hessian":[2.509E3,2E2,2.309E3,1.61E2,3.9E1,1.716E3,5.93E2,1.9E1,2E1,1.67E2,1.549E3,4.54E2,1.39E2,7.3E1,9.4E1,1.29E3,2.59E2,2.2E2,2.34E2,9.3E1,4.6E1],"tree_param":{"num_deleted":"0","num_feature":"2","num_nodes":"21","size_leaf_vector":"1"}},{"base_weights":[-6.8039107E-3,-4.968791E0,4.2495635E-1,-5.288537E-1,-3.5496004E0,1.6094018E0,-1.9692628E0,-4.025382E-1,-2.9274464E-1,2.5342742E-1,2.564434E0,-8.9459854E-1,-3.7760847E0,6.644559E-2,-2.0543347E-1,3.019322E-1,6.3080154E-2,-3.948038E-2,-2.463825E-1,-4.8483855E-1,-2.6308566E-1],"categories":[],"categories_nodes":[],"categories_segments":[],"categories_sizes":[],"default_left":[0,0,0,0,0,0,0,0,0,0,0,0,0,0,0,0,0,0,0,0,0],"id":8,"left_children":[1,3,5,-1,7,9,11,-1,-1,13,15,17,19,-1,-1,-1,-1,-1,-1,-1,-1],"loss_changes":[5.379508E3,7.24375E1,6.553918E3,0E0,5.630493E-2,2.0014187E3,1.482043E3,0E0,0E0,6.084408E2,7.958799E2,3.762713E2,3.372329E2,0E0,0E0,0E0,0E0,0E0,0E0,0E0,0E0],"parents":[2147483647,0,0,1,1,2,2,4,4,5,5,6,6,9,9,10,10,11,11,12,12],"right_children":[2,4,6,-1,8,10,12,-1,-1,14,16,18,20,-1,-1,-1,-1,-1,-1,-1,-1],"split_conditions":[3E0,6E0,1.9E1,-5.288537E-1,7E0,1.1E1,2.2E1,-4.025382E-1,-2.9274464E-1,7E0,7E0,7E0,5E0,6.644559E-2,-2.0543347E-1,3.019322E-1,6.3080154E-2,-3.948038E-2,-2.463825E-1,-4.8483855E-1,-2.6308566E-1],"split_indices":[1,0,1,0,0,1,1,0,0,0,0,0,0,0,0,0,0,0,0,0,0],"split_type":[0,0,0,0,0,0,0,0,0,0,0,0,0,0,0,0,0,0,0,0,0],"sum_hessian":[2.509E3,2E2,2.309E3,1.61E2,3.9E1,1.545E3,7.64E2,1.9E1,2E1,6.39E2,9.06E2,4.8E2,2.84E2,5.43E2,9.6E1,7.33E2,1.73E2,3.65E2,1.15E2,1.45E2,1.39E2],"tree_param":{"num_deleted":"0","num_feature":"2","num_nodes":"21","size_leaf_vector":"1"}},{"base_weights":[-6.9327615E-3,-4.478002E0,3.8211134E-1,-4.7629476E-1,-3.2120223E0,1.279094E0,-2.2113254E0,-3.6429706E-1,-2.6486418E-1,-1.2098787E0,1.5480413E0,-1.5532461E0,-4.3342876E0,9.433874E-2,-2.8744242E-1,1.8949229E-1,-1.8031305E-2,-2.922764E-1,-2.58707E-2,-3.2379028E-1,-6.434838E-1],"categories":[],"categories_nodes":[],"categories_segments":[],"categories_sizes":[],"default_left":[0,0,0,0,0,0,0,0,0,0,0,0,0,0,0,0,0,0,0,0,0],"id":9,"left_children":[1,3,5,-1,7,9,11,-1,-1,13,15,17,19,-1,-1,-1,-1,-1,-1,-1,-1],"loss_changes":[4.3677134E3,5.7208984E1,5.376507E3,0E0,6.2561035E-2,1.151237E3,8.231316E2,0E0,0E0,6.0485876E2,9.296196E2,8.059109E2,3.0158618E2,0E0,0E0,0E0,0E0,0E0,0E0,0E0,0E0],"parents":[2147483647,0,0,1,1,2,2,4,4,5,5,6,6,9,9,10,10,11,11,12,12],"right_children":[2,4,6,-1,8,10,12,-1,-1,14,16,18,20,-1,-1,-1,-1,-1,-1,-1,-1],"split_conditions":[3E0,6E0,2E1,-4.7629476E-1,7E0,5E0,2.3E1,-3.6429706E-1,-2.6486418E-1,3E0,1.8E1,5E0,7E0,9.433874E-2,-2.8744242E-1,1.8949229E-1,-1.8031305E-2,-2.922764E-1,-2.58707E-2,-3.2379028E-1,-6.434838E-1],"split_indices":[1,0,1,0,0,1,1,0,0,0,1,0,0,0,0,0,0,0,0,0,0],"split_type":[0,0,0,0,0,0,0,0,0,0,0,0,0,0,0,0,0,0,0,0,0],"sum_hessian":[2.509E3,2E2,2.309E3,1.61E2,3.9E1,1.716E3,5.93E2,1.9E1,2E1,1.67E2,1.549E3,4.54E2,1.39E2,7.3E1,9.4E1,1.29E3,2.59E2,2.2E2,2.34E2,9.3E1,4.6E1],"tree_param":{"num_deleted":"0","num_feature":"2","num_nodes":"21","size_leaf_vector":"1"}},{"base_weights":[-7.2009047E-3,-4.0357013E0,3.4333408E-1,-4.203601E-1,-2.3963904E-1,1.0042897E0,-2.5487611E0,1.3789802E0,-5.880715E-1,-1.8251827E0,-5.1157527E0,1.752054E-1,-2.1326814E-2,-4.466264E-1,2.4852871E-3,-3.490615E-1,1.0637504E-1,-4.3342423E-1,-5.805045E-1],"categories":[],"categories_nodes":[],"categories_segments":[],"categories_sizes":[],"default_left":[0,0,0,0,0,0,0,0,0,0,0,0,0,0,0,0,0,0,0],"id":10,"left_children":[1,3,5,-1,-1,7,9,11,13,15,17,-1,-1,-1,-1,-1,-1,-1,-1],"loss_changes":[3.5458328E3,4.5249756E1,4.418233E3,0E0,0E0,1.1230952E3,7.89353E2,9.0507544E2,8.534679E2,1.6251287E3,2.5476318E1,0E0,0E0,0E0,0E0,0E0,0E0,0E0,0E0],"parents":[2147483647,0,0,1,1,2,2,5,5,6,6,7,7,8,8,9,9,10,10],"right_children":[2,4,6,-1,-1,8,10,12,14,16,18,-1,-1,-1,-1,-1,-1,-1,-1],"split_conditions":[3E0,7E0,2.1E1,-4.203601E-1,-2.3963904E-1,7E0,7E0,1.8E1,8E0,5E0,2.3E1,1.752054E-1,-2.1326814E-2,-4.466264E-1,2.4852871E-3,-3.490615E-1,1.0637504E-1,-4.3342423E-1,-5.805045E-1],"split_indices":[1,0,1,0,0,0,0,1,1,0,1,0,0,0,0,0,0,0,0],"split_type":[0,0,0,0,0,0,0,0,0,0,0,0,0,0,0,0,0,0,0],"sum_hessian":[2.509E3,2E2,2.309E3,1.8E2,2E1,1.88E3,4.29E2,1.522E3,3.58E2,3.36E2,9.3E1,1.233E3,2.89E2,4.8E1,3.1E2,2.13E2,1.23E2,4.7E1,4.6E1],"tree_param":{"num_deleted":"0","num_feature":"2","num_nodes":"19","size_leaf_vector":"1"}},{"base_weights":[-7.359944E-3,-3.6354148E0,3.0833113E-1,-3.8718274E-1,-2.5870585E-1,9.037066E-1,-2.2968075E0,1.2411833E0,-5.3050154E-1,-1.6433846E0,-4.614964E0,3.0824471E-2,1.757793E-1,-4.0287519E-1,2.2375581E-3,-3.1431848E-1,9.582335E-2,-3.909848E-1,-5.236892E-1],"categories":[],"categories_nodes":[],"categories_segments":[],"categories_sizes":[],"default_left":[0,0,0,0,0,0,0,0,0,0,0,0,0,0,0,0,0,0,0],"id":11,"left_children":[1,3,5,-1,-1,7,9,11,13,15,17,-1,-1,-1,-1,-1,-1,-1,-1],"loss_changes":[2.8759358E3,3.980005E1,3.584968E3,0E0,0E0,9.110846E2,6.4375244E2,7.3349097E2,6.944329E2,1.3179546E3,2.074646E1,0E0,0E0,0E0,0E0,0E0,0E0,0E0,0E0],"parents":[2147483647,0,0,1,1,2,2,5,5,6,6,7,7,8,8,9,9,10,10],"right_children":[2,4,6,-1,-1,8,10,12,14,16,18,-1,-1,-1,-1,-1,-1,-1,-1],"split_conditions":[3E0,6E0,2.1E1,-3.8718274E-1,-2.5870585E-1,7E0,7E0,1.1E1,8E0,5E0,2.3E1,3.0824471E-2,1.757793E-1,-4.0287519E-1,2.2375581E-3,-3.1431848E-1,9.582335E-2,-3.909848E-1,-5.236892E-1],"split_indices":[1,0,1,0,0,0,0,1,1,0,1,0,0,0,0,0,0,0,0],"split_type":[0,0,0,0,0,0,0,0,0,0,0,0,0,0,0,0,0,0,0],"sum_hessian":[2.509E3,2E2,2.309E3,1.61E2,3.9E1,1.88E3,4.29E2,1.522E3,3.58E2,3.36E2,9.3E1,5.43E2,9.79E2,4.8E1,3.1E2,2.13E2,1.23E2,4.7E1,4.6E1],"tree_param":{"num_deleted":"0","num_feature":"2","num_nodes":"19","size_leaf_vector":"1"}},{"base_weights":[-7.410067E-3,-3.0999856E0,2.9549518E-1,-3.2750866E0,-1.5043478E-1,1.2130792E0,-1.2485008E0,-3.4870347E-1,-2.3348203E0,6.6948794E-2,2.0750444E0,-5.793295E-1,-2.5801148E0,-2.651776E-1,-1.9217758E-1,4.5024797E-2,-2.1824835E-1,2.6719645E-1,8.845114E-2,-1.7036904E-1,4.4170823E-3,-3.60496E-1,-1.8129244E-1],"categories":[],"categories_nodes":[],"categories_segments":[],"categories_sizes":[],"default_left":[0,0,0,0,0,0,0,0,0,0,0,0,0,0,0,0,0,0,0,0,0,0,0],"id":12,"left_children":[1,3,5,7,-1,9,11,-1,13,15,17,19,21,-1,-1,-1,-1,-1,-1,-1,-1,-1,-1],"loss_changes":[2.352177E3,5.7658203E1,3.241613E3,3.1915283E1,0E0,1.4175325E3,7.585947E2,0E0,1.4056396E-1,5.3296344E2,5.7966113E2,3.989667E2,2.1754626E2,0E0,0E0,0E0,0E0,0E0,0E0,0E0,0E0,0E0,0E0],"parents":[2147483647,0,0,1,1,2,2,3,3,5,5,6,6,8,8,9,9,10,10,11,11,12,12],"right_children":[2,4,6,8,-1,10,12,-1,14,16,18,20,22,-1,-1,-1,-1,-1,-1,-1,-1,-1,-1],"split_conditions":[4E0,3E0,1.8E1,6E0,-1.5043478E-1,1.1E1,2.2E1,-3.4870347E-1,7E0,1E1,6E0,4E0,4E0,-2.651776E-1,-1.9217758E-1,4.5024797E-2,-2.1824835E-1,2.6719645E-1,8.845114E-2,-1.7036904E-1,4.4170823E-3,-3.60496E-1,-1.8129244E-1],"split_indices":[1,1,1,0,0,1,1,0,0,1,0,0,0,0,0,0,0,0,0,0,0,0,0],"split_type":[0,0,0,0,0,0,0,0,0,0,0,0,0,0,0,0,0,0,0,0,0,0,0],"sum_hessian":[2.509E3,2.23E2,2.286E3,2E2,2.3E1,1.434E3,8.52E2,1.61E2,3.9E1,6.16E2,8.18E2,5.68E2,2.84E2,1.9E1,2E1,5.27E2,8.9E1,5.44E2,2.74E2,2.02E2,3.66E2,1.2E2,1.64E2],"tree_param":{"num_deleted":"0","num_feature":"2","num_nodes":"23","size_leaf_vector":"1"}},{"base_weights":[-7.25955E-3,-2.1426463E0,3.5943648E-1,-2.9515884E0,-1.1620511E0,1.3396237E0,-1.1244805E0,-3.1404838E-1,-2.112772E0,6.026616E-1,-2.5244372E0,4.219527E-1,1.8679739E0,-5.2168834E-1,-2.3240042E0,-2.3998573E-1,-1.7387493E-1,-1.9804306E-2,2.0038156E-1,-1.9781974E-1,-3.9747813E-1,9.80685E-2,-1.9666602E-1,2.4052583E-1,7.963816E-2,-1.5341605E-1,3.976544E-3,-3.2474434E-1,-1.6327307E-1],"categories":[],"categories_nodes":[],"categories_segments":[],"categories_sizes":[],"default_left":[0,0,0,0,0,0,0,0,0,0,0,0,0,0,0,0,0,0,0,0,0,0,0,0,0,0,0,0,0],"id":13,"left_children":[1,3,5,7,9,11,13,-1,15,17,19,21,23,25,27,-1,-1,-1,-1,-1,-1,-1,-1,-1,-1,-1,-1,-1,-1],"loss_changes":[1.9661952E3,2.88484E2,3.1185352E3,2.5213135E1,4.054304E2,6.251553E2,6.155608E2,0E0,1.2231445E-1,8.341824E1,6.7399536E1,6.331922E2,4.6962378E2,3.2351263E2,1.7662732E2,0E0,0E0,0E0,0E0,0E0,0E0,0E0,0E0,0E0,0E0,0E0,0E0,0E0,0E0],"parents":[2147483647,0,0,1,1,2,2,3,3,4,4,5,5,6,6,8,8,9,9,10,10,11,11,12,12,13,13,14,14],"right_children":[2,4,6,8,10,12,14,-1,16,18,20,22,24,26,28,-1,-1,-1,-1,-1,-1,-1,-1,-1,-1,-1,-1,-1,-1],"split_conditions":[5E0,3E0,1.8E1,6E0,3E0,1.1E1,2.2E1,-3.1404838E-1,7E0,2E0,7E0,1E1,6E0,4E0,4E0,-2.3998573E-1,-1.7387493E-1,-1.9804306E-2,2.0038156E-1,-1.9781974E-1,-3.9747813E-1,9.80685E-2,-1.9666602E-1,2.4052583E-1,7.963816E-2,-1.5341605E-1,3.976544E-3,-3.2474434E-1,-1.6327307E-1],"split_indices":[1,1,1,0,0,1,1,0,0,0,0,1,0,0,0,0,0,0,0,0,0,0,0,0,0,0,0,0,0],"split_type":[0,0,0,0,0,0,0,0,0,0,0,0,0,0,0,0,0,0,0,0,0,0,0,0,0,0,0,0,0],"sum_hessian":[2.509E3,3.67E2,2.142E3,2E2,1.67E2,1.29E3,8.52E2,1.61E2,3.9E1,7.3E1,9.4E1,4.72E2,8.18E2,5.68E2,2.84E2,1.9E1,2E1,4.7E1,2.6E1,7E1,2.4E1,3.83E2,8.9E1,5.44E2,2.74E2,2.02E2,3.66E2,1.2E2,1.64E2],"tree_param":{"num_deleted":"0","num_feature":"2","num_nodes":"29","size_leaf_vector":"1"}},{"base_weights":[-7.1546594E-3,-1.9314867E0,3.232986E-1,-2.660051E0,-1.0483146E0,1.205833E0,-1.0127801E0,-2.7714586E0,-1.5731542E-1,5.448357E-1,-2.2782598E0,7.1130866E-1,2.0127769E0,-6.687898E-1,-2.759896E0,-2.8283742E-1,-2.1718705E-1,-1.7865146E-2,1.810856E-1,-1.7831638E-1,-3.5932022E-1,2.0297943E-1,5.31272E-2,2.8046677E-1,3.4661025E-2,-1.5173833E-1,4.8114485E-3,-1.9169283E-1,-4.3871102E-1],"categories":[],"categories_nodes":[],"categories_segments":[],"categories_sizes":[],"default_left":[0,0,0,0,0,0,0,0,0,0,0,0,0,0,0,0,0,0,0,0,0,0,0,0,0,0,0,0,0],"id":14,"left_children":[1,3,5,7,9,11,13,15,-1,17,19,21,23,25,27,-1,-1,-1,-1,-1,-1,-1,-1,-1,-1,-1,-1,-1,-1],"loss_changes":[1.5967379E3,2.3400012E2,2.528108E3,1.9978882E1,3.3043518E2,5.137462E2,5.1079944E2,3.3935547E-2,0E0,6.810376E1,5.543991E1,1.89297E2,6.455447E2,4.344422E2,1.8362671E2,0E0,0E0,0E0,0E0,0E0,0E0,0E0,0E0,0E0,0E0,0E0,0E0,0E0,0E0],"parents":[2147483647,0,0,1,1,2,2,3,3,4,4,5,5,6,6,7,7,9,9,10,10,11,11,12,12,13,13,14,14],"right_children":[2,4,6,8,10,12,14,16,-1,18,20,22,24,26,28,-1,-1,-1,-1,-1,-1,-1,-1,-1,-1,-1,-1,-1,-1],"split_conditions":[5E0,3E0,1.8E1,7E0,3E0,1.4E1,2.3E1,6E0,-1.5731542E-1,2E0,7E0,7E0,6E0,5E0,7E0,-2.8283742E-1,-2.1718705E-1,-1.7865146E-2,1.810856E-1,-1.7831638E-1,-3.5932022E-1,2.0297943E-1,5.31272E-2,2.8046677E-1,3.4661025E-2,-1.5173833E-1,4.8114485E-3,-1.9169283E-1,-4.3871102E-1],"split_indices":[1,1,1,0,0,1,1,0,0,0,0,1,0,0,0,0,0,0,0,0,0,0,0,0,0,0,0,0,0],"split_type":[0,0,0,0,0,0,0,0,0,0,0,0,0,0,0,0,0,0,0,0,0,0,0,0,0,0,0,0,0],"sum_hessian":[2.509E3,3.67E2,2.142E3,2E2,1.67E2,1.29E3,8.52E2,1.8E2,2E1,7.3E1,9.4E1,8.01E2,4.89E2,7.13E2,1.39E2,1.61E2,1.9E1,4.7E1,2.6E1,7E1,2.4E1,9.5E1,7.06E2,3.31E2,1.58E2,3.26E2,3.87E2,9.3E1,4.6E1],"tree_param":{"num_deleted":"0","num_feature":"2","num_nodes":"29","size_leaf_vector":"1"}},{"base_weights":[-6.932307E-3,-1.7411418E0,2.9087263E-1,-2.3973162E0,-9.457118E-1,1.0856922E0,-9.124133E-1,-2.4970753E-1,-1.4233303E-1,4.9255782E-1,-2.0560932E0,2.964369E-1,1.540188E0,-4.0635282E-1,-1.9195572E0,-1.6115857E-2,1.6364776E-1,-1.6073592E-1,-3.2482544E-1,7.9281025E-2,-1.8247166E-1,1.9740717E-1,6.747089E-2,-1.6248308E-1,-9.412858E-3,-2.7527753E-1,-1.296897E-1],"categories":[],"categories_nodes":[],"categories_segments":[],"categories_sizes":[],"default_left":[0,0,0,0,0,0,0,0,0,0,0,0,0,0,0,0,0,0,0,0,0,0,0,0,0,0,0],"id":15,"left_children":[1,3,5,7,9,11,13,-1,-1,15,17,19,21,23,25,-1,-1,-1,-1,-1,-1,-1,-1,-1,-1,-1,-1],"loss_changes":[1.2968114E3,1.8980713E2,2.0505454E3,1.597583E1,2.6931342E2,4.6264233E2,4.339734E2,0E0,0E0,5.560086E1,4.5600403E1,4.9946085E2,3.0621655E2,2.1631647E2,1.4429126E2,0E0,0E0,0E0,0E0,0E0,0E0,0E0,0E0,0E0,0E0,0E0,0E0],"parents":[2147483647,0,0,1,1,2,2,3,3,4,4,5,5,6,6,9,9,10,10,11,11,12,12,13,13,14,14],"right_children":[2,4,6,8,10,12,14,-1,-1,16,18,20,22,24,26,-1,-1,-1,-1,-1,-1,-1,-1,-1,-1,-1,-1],"split_conditions":[5E0,3E0,1.8E1,7E0,3E0,1.1E1,2.2E1,-2.4970753E-1,-1.4233303E-1,2E0,7E0,1E1,6E0,2E0,4E0,-1.6115857E-2,1.6364776E-1,-1.6073592E-1,-3.2482544E-1,7.9281025E-2,-1.8247166E-1,1.9740717E-1,6.747089E-2,-1.6248308E-1,-9.412858E-3,-2.7527753E-1,-1.296897E-1],"split_indices":[1,1,1,0,0,1,1,0,0,0,0,1,0,0,0,0,0,0,0,0,0,0,0,0,0,0,0],"split_type":[0,0,0,0,0,0,0,0,0,0,0,0,0,0,0,0,0,0,0,0,0,0,0,0,0,0,0],"sum_hessian":[2.509E3,3.67E2,2.142E3,2E2,1.67E2,1.29E3,8.52E2,1.8E2,2E1,7.3E1,9.4E1,4.72E2,8.18E2,5.68E2,2.84E2,4.7E1,2.6E1,7E1,2.4E1,3.83E2,8.9E1,5.44E2,2.74E2,1.15E2,4.53E2,1.2E2,1.64E2],"tree_param":{"num_deleted":"0","num_feature":"2","num_nodes":"27","size_leaf_vector":"1"}},{"base_weights":[-6.6952137E-3,-1.5690113E0,2.615918E-1,-2.1595352E0,-8.531525E-1,9.1756743E-1,-9.2122126E-1,-2.2991167E-1,-1.5402423E-1,4.4529605E-1,-1.855595E0,2.6657513E-1,1.2560478E0,-4.531129E-1,-2.4074833E0,-1.4537807E-2,1.478891E-1,-1.448887E-1,-2.9364222E-1,7.137359E-2,-1.6442727E-1,1.5935639E-1,4.98473E-2,-1.4335138E-1,1.295092E-1,-1.1220553E-1,-3.612601E-1],"categories":[],"categories_nodes":[],"categories_segments":[],"categories_sizes":[],"default_left":[0,0,0,0,0,0,0,0,0,0,0,0,0,0,0,0,0,0,0,0,0,0,0,0,0,0,0],"id":16,"left_children":[1,3,5,7,9,11,13,-1,-1,15,17,19,21,23,25,-1,-1,-1,-1,-1,-1,-1,-1,-1,-1,-1,-1],"loss_changes":[1.0524747E3,1.5372284E2,1.6635918E3,1.3833618E1,2.194985E2,3.0352515E2,5.31144E2,0E0,0E0,4.539331E1,3.7505646E1,4.0533136E2,2.3111975E2,1.0010844E3,2.794303E2,0E0,0E0,0E0,0E0,0E0,0E0,0E0,0E0,0E0,0E0,0E0,0E0],"parents":[2147483647,0,0,1,1,2,2,3,3,4,4,5,5,6,6,9,9,10,10,11,11,12,12,13,13,14,14],"right_children":[2,4,6,8,10,12,14,-1,-1,16,18,20,22,24,26,-1,-1,-1,-1,-1,-1,-1,-1,-1,-1,-1,-1],"split_conditions":[5E0,3E0,1.9E1,6E0,3E0,1.1E1,7E0,-2.2991167E-1,-1.5402423E-1,2E0,7E0,1E1,1.7E1,5E0,2.1E1,-1.4537807E-2,1.478891E-1,-1.448887E-1,-2.9364222E-1,7.137359E-2,-1.6442727E-1,1.5935639E-1,4.98473E-2,-1.4335138E-1,1.295092E-1,-1.1220553E-1,-3.612601E-1],"split_indices":[1,1,1,0,0,1,0,0,0,0,0,1,1,0,1,0,0,0,0,0,0,0,0,0,0,0,0],"split_type":[0,0,0,0,0,0,0,0,0,0,0,0,0,0,0,0,0,0,0,0,0,0,0,0,0,0,0],"sum_hessian":[2.509E3,3.67E2,2.142E3,2E2,1.67E2,1.378E3,7.64E2,1.61E2,3.9E1,7.3E1,9.4E1,4.72E2,9.06E2,5.82E2,1.82E2,4.7E1,2.6E1,7E1,2.4E1,3.83E2,8.9E1,6.26E2,2.8E2,3.73E2,2.09E2,8.9E1,9.3E1],"tree_param":{"num_deleted":"0","num_feature":"2","num_nodes":"27","size_leaf_vector":"1"}},{"base_weights":[-6.448143E-3,2.6278025E-1,-1.3093734E0,-1.4139829E0,6.226321E-1,-7.6273966E-1,-3.255184E0,-1.9454919E0,-7.696538E-1,8.62239E-1,-3.6626396E-1,-1.5569785E0,2.1821253E0,-4.5879927E-1,-2.6781101E0,-2.0706241E-1,-1.3900687E-1,4.025684E-2,-1.6746515E-1,1.10086344E-1,-3.845578E-3,-3.524277E-1,-1.1122669E-2,-6.186811E-2,-2.057805E-1,2.8187728E-1,1.7610034E-1,-8.491679E-2,-3.4772298E-1],"categories":[],"categories_nodes":[],"categories_segments":[],"categories_sizes":[],"default_left":[0,0,0,0,0,0,0,0,0,0,0,0,0,0,0,0,0,0,0,0,0,0,0,0,0,0,0,0,0],"id":17,"left_children":[1,3,5,7,9,11,13,15,17,19,21,23,25,-1,27,-1,-1,-1,-1,-1,-1,-1,-1,-1,-1,-1,-1,-1,-1],"loss_changes":[8.808131E2,1.2565272E3,4.548847E2,1.24530396E2,4.0644196E2,7.916156E2,6.0011047E1,1.1091431E1,1.7889838E2,2.966427E2,2.6942072E2,1.23726746E2,1.4339783E1,0E0,9.643219E1,0E0,0E0,0E0,0E0,0E0,0E0,0E0,0E0,0E0,0E0,0E0,0E0,0E0,0E0],"parents":[2147483647,0,0,1,1,2,2,3,3,4,4,5,5,6,6,7,7,8,8,9,9,10,10,11,11,12,12,14,14],"right_children":[2,4,6,8,10,12,14,16,18,20,22,24,26,-1,28,-1,-1,-1,-1,-1,-1,-1,-1,-1,-1,-1,-1,-1,-1],"split_conditions":[2.1E1,5E0,7E0,3E0,7E0,6E0,2.2E1,6E0,3E0,1.8E1,8E0,2.2E1,2.2E1,-4.5879927E-1,2.3E1,-2.0706241E-1,-1.3900687E-1,4.025684E-2,-1.6746515E-1,1.10086344E-1,-3.845578E-3,-3.524277E-1,-1.1122669E-2,-6.186811E-2,-2.057805E-1,2.8187728E-1,1.7610034E-1,-8.491679E-2,-3.4772298E-1],"split_indices":[1,1,0,1,0,0,1,0,0,1,1,1,1,0,1,0,0,0,0,0,0,0,0,0,0,0,0,0,0],"split_type":[0,0,0,0,0,0,0,0,0,0,0,0,0,0,0,0,0,0,0,0,0,0,0,0,0,0,0,0,0],"sum_hessian":[2.509E3,2.08E3,4.29E2,3.67E2,1.713E3,3.36E2,9.3E1,2E2,1.67E2,1.379E3,3.34E2,2.65E2,7.1E1,2.6E1,6.7E1,1.61E2,3.9E1,7.3E1,9.4E1,1.09E3,2.89E2,2.4E1,3.1E2,9.3E1,1.72E2,2.6E1,4.5E1,2.1E1,4.6E1],"tree_param":{"num_deleted":"0","num_feature":"2","num_nodes":"29","size_leaf_vector":"1"}},{"base_weights":[-6.3738627E-3,2.3615102E-1,-1.1800667E0,-1.2738705E0,5.602186E-1,-6.8590117E-1,-2.939149E0,-1.7526643E0,-6.934454E-1,7.7609193E-1,-3.3072317E-1,-1.402287E0,1.9702731E0,-4.1461858E-1,-2.4166613E0,-1.8292977E-1,-1.0086977E-1,3.62856E-2,-1.5089492E-1,9.90878E-2,-3.4623824E-3,-3.1859466E-1,-1.0014016E-2,-5.574716E-2,-1.853214E-1,2.547335E-1,1.588731E-1,-7.681107E-2,-3.136905E-1],"categories":[],"categories_nodes":[],"categories_segments":[],"categories_sizes":[],"default_left":[0,0,0,0,0,0,0,0,0,0,0,0,0,0,0,0,0,0,0,0,0,0,0,0,0,0,0,0,0],"id":18,"left_children":[1,3,5,7,9,11,13,15,17,19,21,23,25,-1,27,-1,-1,-1,-1,-1,-1,-1,-1,-1,-1,-1,-1,-1,-1],"loss_changes":[7.1474945E2,1.0190488E3,3.717735E2,1.01053345E2,3.2991132E2,6.44022E2,4.9262268E1,9.614319E0,1.4526572E2,2.4033423E2,2.2023355E2,1.0029962E2,1.180545E1,0E0,7.833087E1,0E0,0E0,0E0,0E0,0E0,0E0,0E0,0E0,0E0,0E0,0E0,0E0,0E0,0E0],"parents":[2147483647,0,0,1,1,2,2,3,3,4,4,5,5,6,6,7,7,8,8,9,9,10,10,11,11,12,12,14,14],"right_children":[2,4,6,8,10,12,14,16,18,20,22,24,26,-1,28,-1,-1,-1,-1,-1,-1,-1,-1,-1,-1,-1,-1,-1,-1],"split_conditions":[2.1E1,5E0,7E0,3E0,7E0,6E0,2.2E1,7E0,3E0,1.8E1,8E0,2.2E1,2.2E1,-4.1461858E-1,2.3E1,-1.8292977E-1,-1.0086977E-1,3.62856E-2,-1.5089492E-1,9.90878E-2,-3.4623824E-3,-3.1859466E-1,-1.0014016E-2,-5.574716E-2,-1.853214E-1,2.547335E-1,1.588731E-1,-7.681107E-2,-3.136905E-1],"split_indices":[1,1,0,1,0,0,1,0,0,1,1,1,1,0,1,0,0,0,0,0,0,0,0,0,0,0,0,0,0],"split_type":[0,0,0,0,0,0,0,0,0,0,0,0,0,0,0,0,0,0,0,0,0,0,0,0,0,0,0,0,0],"sum_hessian":[2.509E3,2.08E3,4.29E2,3.67E2,1.713E3,3.36E2,9.3E1,2E2,1.67E2,1.379E3,3.34E2,2.65E2,7.1E1,2.6E1,6.7E1,1.8E2,2E1,7.3E1,9.4E1,1.09E3,2.89E2,2.4E1,3.1E2,9.3E1,1.72E2,2.6E1,4.5E1,2.1E1,4.6E1],"tree_param":{"num_deleted":"0","num_feature":"2","num_nodes":"29","size_leaf_vector":"1"}},{"base_weights":[-6.2403996E-3,2.122321E-1,-1.0635312E0,-1.147566E0,5.0406027E-1,-6.167991E-1,-2.653799E0,-1.5788099E0,-6.2478286E-1,6.985515E-1,-2.9863214E-1,-1.2629646E0,1.7789903E0,-3.7469238E-1,-2.1807377E0,-1.6830394E-1,-1.1172102E-1,3.2706093E-2,-1.3596424E-1,2.5563357E-2,1.0222222E-1,-2.8800955E-1,-9.015879E-3,-9.280106E-2,-2.2246249E-1,2.3020366E-1,1.4333111E-1,-6.947913E-2,-2.8298888E-1],"categories":[],"categories_nodes":[],"categories_segments":[],"categories_sizes":[],"default_left":[0,0,0,0,0,0,0,0,0,0,0,0,0,0,0,0,0,0,0,0,0,0,0,0,0,0,0,0,0],"id":19,"left_children":[1,3,5,7,9,11,13,15,17,19,21,23,25,-1,27,-1,-1,-1,-1,-1,-1,-1,-1,-1,-1,-1,-1,-1,-1],"loss_changes":[5.80008E2,8.263762E2,3.0384534E2,8.197809E1,2.677925E2,5.2394855E2,4.0437744E1,7.790222E0,1.1795589E2,1.9757483E2,1.8002606E2,8.361731E1,9.718521E0,0E0,6.362686E1,0E0,0E0,0E0,0E0,0E0,0E0,0E0,0E0,0E0,0E0,0E0,0E0,0E0,0E0],"parents":[2147483647,0,0,1,1,2,2,3,3,4,4,5,5,6,6,7,7,8,8,9,9,10,10,11,11,12,12,14,14],"right_children":[2,4,6,8,10,12,14,16,18,20,22,24,26,-1,28,-1,-1,-1,-1,-1,-1,-1,-1,-1,-1,-1,-1,-1,-1],"split_conditions":[2.1E1,5E0,7E0,3E0,7E0,6E0,2.2E1,6E0,3E0,3E0,8E0,2.3E1,2.2E1,-3.7469238E-1,2.3E1,-1.6830394E-1,-1.1172102E-1,3.2706093E-2,-1.3596424E-1,2.5563357E-2,1.0222222E-1,-2.8800955E-1,-9.015879E-3,-9.280106E-2,-2.2246249E-1,2.3020366E-1,1.4333111E-1,-6.947913E-2,-2.8298888E-1],"split_indices":[1,1,0,1,0,0,1,0,0,0,1,1,1,0,1,0,0,0,0,0,0,0,0,0,0,0,0,0,0],"split_type":[0,0,0,0,0,0,0,0,0,0,0,0,0,0,0,0,0,0,0,0,0,0,0,0,0,0,0,0,0],"sum_hessian":[2.509E3,2.08E3,4.29E2,3.67E2,1.713E3,3.36E2,9.3E1,2E2,1.67E2,1.379E3,3.34E2,2.65E2,7.1E1,2.6E1,6.7E1,1.61E2,3.9E1,7.3E1,9.4E1,5.83E2,7.96E2,2.4E1,3.1E2,1.98E2,6.7E1,2.6E1,4.5E1,2.1E1,4.6E1],"tree_param":{"num_deleted":"0","num_feature":"2","num_nodes":"29","size_leaf_vector":"1"}},{"base_weights":[-6.103172E-3,2.4181302E-1,-8.06186E-1,-1.0338509E0,5.445243E-1,-3.9178354E-1,-2.1472356E0,-1.4223219E0,-5.629192E-1,5.938332E-2,7.568872E-1,-1.4080349E0,1.3526937E0,-1.6037112E-1,-2.3961549E0,-1.4859442E-1,-8.062302E-2,-6.1492873E-3,-1.7450556E-1,4.69516E-2,-1.6911758E-1,1.20684385E-1,1.3104714E-2,-1.9294648E-1,-1.0294572E-1,2.679266E-1,8.6036764E-2,-3.3861092E-1,-1.9678473E-1],"categories":[],"categories_nodes":[],"categories_segments":[],"categories_sizes":[],"default_left":[0,0,0,0,0,0,0,0,0,0,0,0,0,0,0,0,0,0,0,0,0,0,0,0,0,0,0,0,0],"id":20,"left_children":[1,3,5,7,9,11,13,15,17,19,21,23,25,-1,27,-1,-1,-1,-1,-1,-1,-1,-1,-1,-1,-1,-1,-1,-1],"loss_changes":[4.980622E2,7.4082764E2,3.292649E2,6.652252E1,1.5964526E2,8.0854114E2,1.5098389E1,6.6805725E0,9.947542E1,3.403898E2,3.0340753E2,5.4865417E1,1.0741672E2,0E0,3.3193115E1,0E0,0E0,0E0,0E0,0E0,0E0,0E0,0E0,0E0,0E0,0E0,0E0,0E0,0E0],"parents":[2147483647,0,0,1,1,2,2,3,3,4,4,5,5,6,6,7,7,8,8,9,9,10,10,11,11,12,12,14,14],"right_children":[2,4,6,8,10,12,14,16,18,20,22,24,26,-1,28,-1,-1,-1,-1,-1,-1,-1,-1,-1,-1,-1,-1,-1,-1],"split_conditions":[2E1,5E0,7E0,3E0,1.1E1,5E0,2.1E1,7E0,6E0,1E1,1.7E1,2E0,2.1E1,-1.6037112E-1,2.2E1,-1.4859442E-1,-8.062302E-2,-6.1492873E-3,-1.7450556E-1,4.69516E-2,-1.6911758E-1,1.20684385E-1,1.3104714E-2,-1.9294648E-1,-1.0294572E-1,2.679266E-1,8.6036764E-2,-3.3861092E-1,-1.9678473E-1],"split_indices":[1,1,0,1,1,0,1,0,0,1,1,0,1,0,1,0,0,0,0,0,0,0,0,0,0,0,0,0,0],"split_type":[0,0,0,0,0,0,0,0,0,0,0,0,0,0,0,0,0,0,0,0,0,0,0,0,0,0,0,0,0],"sum_hessian":[2.509E3,1.916E3,5.93E2,3.67E2,1.549E3,4.54E2,1.39E2,2E2,1.67E2,4.72E2,1.077E3,2.87E2,1.67E2,4.6E1,9.3E1,1.8E2,2E1,1.18E2,4.9E1,3.83E2,8.9E1,6.26E2,4.51E2,1.19E2,1.68E2,4.4E1,1.23E2,2.6E1,6.7E1],"tree_param":{"num_deleted":"0","num_feature":"2","num_nodes":"29","size_leaf_vector":"1"}},{"base_weights":[-5.9053847E-3,2.1742423E-1,-7.26641E-1,-9.3157965E-1,4.9007973E-1,-3.5247758E-1,-1.9374819E0,-1.2812302E0,-5.0770265E-1,5.318701E-2,6.8132293E-1,-1.2682589E0,1.2195314E0,-1.4467525E-1,-2.162235E0,-1.3680972E-1,-8.973883E-2,3.0086279E-2,-1.1321884E-1,4.2268693E-2,-1.523937E-1,1.0863526E-1,1.1797128E-2,-1.7381263E-1,-9.271208E-2,2.4172936E-1,7.7502474E-2,-3.0600396E-1,-1.7739563E-1],"categories":[],"categories_nodes":[],"categories_segments":[],"categories_sizes":[],"default_left":[0,0,0,0,0,0,0,0,0,0,0,0,0,0,0,0,0,0,0,0,0,0,0,0,0,0,0,0,0],"id":21,"left_children":[1,3,5,7,9,11,13,15,17,19,21,23,25,-1,27,-1,-1,-1,-1,-1,-1,-1,-1,-1,-1,-1,-1,-1,-1],"loss_changes":[4.0417163E2,6.0101855E2,2.684302E2,5.389038E1,1.2947052E2,6.565722E2,1.2312805E1,5.474243E0,8.517013E1,2.762836E2,2.4584357E2,4.455197E1,8.7571945E1,0E0,2.7339844E1,0E0,0E0,0E0,0E0,0E0,0E0,0E0,0E0,0E0,0E0,0E0,0E0,0E0,0E0],"parents":[2147483647,0,0,1,1,2,2,3,3,4,4,5,5,6,6,7,7,8,8,9,9,10,10,11,11,12,12,14,14],"right_children":[2,4,6,8,10,12,14,16,18,20,22,24,26,-1,28,-1,-1,-1,-1,-1,-1,-1,-1,-1,-1,-1,-1,-1,-1],"split_conditions":[2E1,5E0,7E0,3E0,1.1E1,5E0,2.1E1,6E0,3E0,1E1,1.7E1,2E0,2.1E1,-1.4467525E-1,2.2E1,-1.3680972E-1,-8.973883E-2,3.0086279E-2,-1.1321884E-1,4.2268693E-2,-1.523937E-1,1.0863526E-1,1.1797128E-2,-1.7381263E-1,-9.271208E-2,2.4172936E-1,7.7502474E-2,-3.0600396E-1,-1.7739563E-1],"split_indices":[1,1,0,1,1,0,1,0,0,1,1,0,1,0,1,0,0,0,0,0,0,0,0,0,0,0,0,0,0],"split_type":[0,0,0,0,0,0,0,0,0,0,0,0,0,0,0,0,0,0,0,0,0,0,0,0,0,0,0,0,0],"sum_hessian":[2.509E3,1.916E3,5.93E2,3.67E2,1.549E3,4.54E2,1.39E2,2E2,1.67E2,4.72E2,1.077E3,2.87E2,1.67E2,4.6E1,9.3E1,1.61E2,3.9E1,7.3E1,9.4E1,3.83E2,8.9E1,6.26E2,4.51E2,1.19E2,1.68E2,4.4E1,1.23E2,2.6E1,6.7E1],"tree_param":{"num_deleted":"0","num_feature":"2","num_nodes":"29","size_leaf_vector":"1"}},{"base_weights":[-5.6632375E-3,1.9552577E-1,-6.549455E-1,-8.3926314E-1,4.4107854E-1,-3.171139E-1,-1.74822E0,-1.1542342E0,-4.5742714E-1,5.736023E-1,-1.391502E-1,-1.1423583E0,1.0994785E0,-1.5103812E0,-2.1867011E-1,-1.2070578E-1,-6.439808E-2,-3.1037675E-3,-1.4630856E-1,1.9879092E-2,1.0182246E-1,-2.6892576E-1,1.0195105E-2,-1.565762E-1,-8.349573E-2,2.1809354E-1,6.981474E-2,-1.8631135E-1,-2.7129782E-2],"categories":[],"categories_nodes":[],"categories_segments":[],"categories_sizes":[],"default_left":[0,0,0,0,0,0,0,0,0,0,0,0,0,0,0,0,0,0,0,0,0,0,0,0,0,0,0,0,0],"id":22,"left_children":[1,3,5,7,9,11,13,15,17,19,21,23,25,27,-1,-1,-1,-1,-1,-1,-1,-1,-1,-1,-1,-1,-1,-1,-1],"loss_changes":[3.2800546E2,4.8747083E2,2.1883514E2,4.3730377E1,1.19265686E2,5.331669E2,1.1297577E1,4.64032E0,7.199335E1,2.1010928E2,1.7796123E2,3.6177216E1,7.139313E1,4.0578613E1,0E0,0E0,0E0,0E0,0E0,0E0,0E0,0E0,0E0,0E0,0E0,0E0,0E0,0E0,0E0],"parents":[2147483647,0,0,1,1,2,2,3,3,4,4,5,5,6,6,7,7,8,8,9,9,10,10,11,11,12,12,13,13],"right_children":[2,4,6,8,10,12,14,16,18,20,22,24,26,28,-1,-1,-1,-1,-1,-1,-1,-1,-1,-1,-1,-1,-1,-1,-1],"split_conditions":[2E1,5E0,7E0,3E0,7E0,5E0,2.3E1,7E0,6E0,1.4E1,8E0,2E0,2.1E1,2.2E1,-2.1867011E-1,-1.2070578E-1,-6.439808E-2,-3.1037675E-3,-1.4630856E-1,1.9879092E-2,1.0182246E-1,-2.6892576E-1,1.0195105E-2,-1.565762E-1,-8.349573E-2,2.1809354E-1,6.981474E-2,-1.8631135E-1,-2.7129782E-2],"split_indices":[1,1,0,1,0,0,1,0,0,1,1,0,1,1,0,0,0,0,0,0,0,0,0,0,0,0,0,0,0],"split_type":[0,0,0,0,0,0,0,0,0,0,0,0,0,0,0,0,0,0,0,0,0,0,0,0,0,0,0,0,0],"sum_hessian":[2.509E3,1.916E3,5.93E2,3.67E2,1.549E3,4.54E2,1.39E2,2E2,1.67E2,1.261E3,2.88E2,2.87E2,1.67E2,9.3E1,4.6E1,1.8E2,2E1,1.18E2,4.9E1,6.85E2,5.76E2,2.4E1,2.64E2,1.19E2,1.68E2,4.4E1,1.23E2,7.2E1,2.1E1],"tree_param":{"num_deleted":"0","num_feature":"2","num_nodes":"29","size_leaf_vector":"1"}},{"base_weights":[-5.4375646E-3,1.1417691E-1,-9.3967044E-1,-7.562457E-1,2.8642076E-1,-1.4162303E0,-5.844982E-1,-1.0397316E0,-4.1257346E-1,4.6130797E-1,-4.4056636E-1,-1.0938823E0,-1.6513856E-1,1.706896E-2,-1.4428672E0,-1.11217104E-1,-7.203586E-2,2.7424505E-2,-9.432261E-2,7.630856E-3,7.3880896E-2,-1.2613015E-2,-1.679354E-1,-9.099781E-2,-1.2106732E-1,-8.926174E-2,1.06481485E-1,-2.4540128E-2,-1.9726838E-1],"categories":[],"categories_nodes":[],"categories_segments":[],"categories_sizes":[],"default_left":[0,0,0,0,0,0,0,0,0,0,0,0,0,0,0,0,0,0,0,0,0,0,0,0,0,0,0,0,0],"id":23,"left_children":[1,3,5,7,9,11,13,15,17,19,21,23,-1,25,27,-1,-1,-1,-1,-1,-1,-1,-1,-1,-1,-1,-1,-1,-1],"loss_changes":[2.8059418E2,3.339495E2,4.741159E1,3.542389E1,2.3655789E2,7.3655853E0,8.522511E1,3.848999E0,6.1488293E1,1.6009332E2,1.4040479E2,5.8135986E-2,0E0,9.435624E1,4.265764E1,0E0,0E0,0E0,0E0,0E0,0E0,0E0,0E0,0E0,0E0,0E0,0E0,0E0,0E0],"parents":[2147483647,0,0,1,1,2,2,3,3,4,4,5,5,6,6,7,7,8,8,9,9,10,10,11,11,13,13,14,14],"right_children":[2,4,6,8,10,12,14,16,18,20,22,24,-1,26,28,-1,-1,-1,-1,-1,-1,-1,-1,-1,-1,-1,-1,-1,-1],"split_conditions":[2.2E1,5E0,4E0,3E0,7E0,2.3E1,7E0,6E0,3E0,3E0,2E1,2E0,-1.6513856E-1,6E0,2.3E1,-1.11217104E-1,-7.203586E-2,2.7424505E-2,-9.432261E-2,7.630856E-3,7.3880896E-2,-1.2613015E-2,-1.679354E-1,-9.099781E-2,-1.2106732E-1,-8.926174E-2,1.06481485E-1,-2.4540128E-2,-1.9726838E-1],"split_indices":[1,1,0,1,0,1,0,0,0,0,1,0,0,0,1,0,0,0,0,0,0,0,0,0,0,0,0,0,0],"split_type":[0,0,0,0,0,0,0,0,0,0,0,0,0,0,0,0,0,0,0,0,0,0,0,0,0,0,0,0,0],"sum_hessian":[2.509E3,2.225E3,2.84E2,3.67E2,1.858E3,1.2E2,1.64E2,2E2,1.67E2,1.498E3,3.6E2,5.3E1,6.7E1,9.7E1,6.7E1,1.61E2,3.9E1,7.3E1,9.4E1,6.28E2,8.7E2,2.88E2,7.2E1,2.4E1,2.9E1,5.2E1,4.5E1,2.1E1,4.6E1],"tree_param":{"num_deleted":"0","num_feature":"2","num_nodes":"29","size_leaf_vector":"1"}},{"base_weights":[-5.264925E-3,2.0198117E-1,-4.782668E-1,-2.928951E-1,6.600783E-1,-2.6233253E-1,-1.163575E0,-1.5655543E-1,-1.4273195E0,9.4090605E-1,1.9556588E-1,-6.3505536E-1,1.2436727E0,-6.5504897E-1,-1.6380833E0,-6.8130106E-2,3.4673344E-2,-9.5286036E-1,1.3338105E-1,1.475722E-1,-3.210042E-2,2.0120063E-1,-7.846551E-3,-3.376152E-2,-1.14029944E-1,1.3596708E-1,8.109507E-2,-3.1607877E-2,-9.584456E-2,-2.4242428E-1,-1.3018423E-1],"categories":[],"categories_nodes":[],"categories_segments":[],"categories_sizes":[],"default_left":[0,0,0,0,0,0,0,0,0,0,0,0,0,0,0,0,0,0,0,0,0,0,0,0,0,0,0,0,0,0,0],"id":24,"left_children":[1,3,5,7,9,11,13,15,17,19,21,23,25,27,29,-1,-1,-1,-1,-1,-1,-1,-1,-1,-1,-1,-1,-1,-1,-1,-1],"loss_changes":[2.4614636E2,3.9601398E2,1.12900635E2,1.2969687E2,1.18132355E2,3.2804083E2,4.3084824E1,1.985743E2,2.0258922E3,3.8178632E2,1.7089014E2,6.9946014E1,4.719986E0,8.952873E0,2.1691895E1,0E0,0E0,0E0,0E0,0E0,0E0,0E0,0E0,0E0,0E0,0E0,0E0,0E0,0E0,0E0,0E0],"parents":[2147483647,0,0,1,1,2,2,3,3,4,4,5,5,6,6,7,7,8,8,9,9,10,10,11,11,12,12,13,13,14,14],"right_children":[2,4,6,8,10,12,14,16,18,20,22,24,26,28,30,-1,-1,-1,-1,-1,-1,-1,-1,-1,-1,-1,-1,-1,-1,-1,-1],"split_conditions":[1.9E1,1.1E1,7E0,1E1,6E0,6E0,2.1E1,5E0,3E0,1.7E1,1.2E1,2.2E1,2.3E1,2E1,2.2E1,-6.8130106E-2,3.4673344E-2,-9.5286036E-1,1.3338105E-1,1.475722E-1,-3.210042E-2,2.0120063E-1,-7.846551E-3,-3.376152E-2,-1.14029944E-1,1.3596708E-1,8.109507E-2,-3.1607877E-2,-9.584456E-2,-2.4242428E-1,-1.3018423E-1],"split_indices":[1,1,0,1,0,0,1,1,0,1,1,1,1,1,1,0,0,0,0,0,0,0,0,0,0,0,0,0,0,0,0],"split_type":[0,0,0,0,0,0,0,0,0,0,0,0,0,0,0,0,0,0,0,0,0,0,0,0,0,0,0,0,0,0,0],"sum_hessian":[2.509E3,1.745E3,7.64E2,8.39E2,9.06E2,5.82E2,1.82E2,7.5E2,8.9E1,5.64E2,3.42E2,4.67E2,1.15E2,8.9E1,9.3E1,3.67E2,3.83E2,2.2E1,6.7E1,3.96E2,1.68E2,4.4E1,2.98E2,2.95E2,1.72E2,8.9E1,2.6E1,4.3E1,4.6E1,2.6E1,6.7E1],"tree_param":{"num_deleted":"0","num_feature":"2","num_nodes":"31","size_leaf_vector":"1"}},{"base_weights":[-5.126685E-3,1.814716E-1,-4.3100312E-1,-1.405628E-1,8.3246946E-1,-2.3598024E-1,-1.0499504E0,-8.688792E-1,1.0657169E-2,1.7504318E0,3.3465338E-1,-5.718653E-1,1.1211767E0,-5.909605E-1,-1.4782389E0,-9.127757E-2,-4.4915777E-2,2.6483068E-2,-1.3936433E-2,4.8036978E-1,9.240912E-2,-8.6548515E-2,8.8690855E-2,-3.0396728E-2,-1.02692865E-1,1.2252142E-1,7.328596E-2,-2.8518945E-2,-8.646406E-2,-2.1907973E-1,-1.1735727E-1],"categories":[],"categories_nodes":[],"categories_segments":[],"categories_sizes":[],"default_left":[0,0,0,0,0,0,0,0,0,0,0,0,0,0,0,0,0,0,0,0,0,0,0,0,0,0,0,0,0,0,0],"id":25,"left_children":[1,3,5,7,9,11,13,15,17,19,21,23,25,27,29,-1,-1,-1,-1,-1,-1,-1,-1,-1,-1,-1,-1,-1,-1,-1,-1],"loss_changes":[1.9954245E2,3.661549E2,9.20945E1,1.2875824E2,2.6354654E2,2.66401E2,3.51006E1,3.2933044E0,3.698632E1,5.077376E2,2.4997389E2,5.674199E1,3.7884521E0,7.2849197E0,1.7835632E1,0E0,0E0,0E0,0E0,0E0,0E0,0E0,0E0,0E0,0E0,0E0,0E0,0E0,0E0,0E0,0E0],"parents":[2147483647,0,0,1,1,2,2,3,3,4,4,5,5,6,6,7,7,8,8,9,9,10,10,11,11,12,12,13,13,14,14],"right_children":[2,4,6,8,10,12,14,16,18,20,22,24,26,28,30,-1,-1,-1,-1,-1,-1,-1,-1,-1,-1,-1,-1,-1,-1,-1,-1],"split_conditions":[1.9E1,1.4E1,7E0,3E0,1.6E1,6E0,2.1E1,7E0,8E0,2E0,3E0,2.2E1,2.3E1,2E1,2.2E1,-9.127757E-2,-4.4915777E-2,2.6483068E-2,-1.3936433E-2,4.8036978E-1,9.240912E-2,-8.6548515E-2,8.8690855E-2,-3.0396728E-2,-1.02692865E-1,1.2252142E-1,7.328596E-2,-2.8518945E-2,-8.646406E-2,-2.1907973E-1,-1.1735727E-1],"split_indices":[1,1,0,1,1,0,1,0,1,0,0,1,1,1,1,0,0,0,0,0,0,0,0,0,0,0,0,0,0,0,0],"split_type":[0,0,0,0,0,0,0,0,0,0,0,0,0,0,0,0,0,0,0,0,0,0,0,0,0,0,0,0,0,0,0],"sum_hessian":[2.509E3,1.745E3,7.64E2,1.168E3,5.77E2,5.82E2,1.82E2,2E2,9.68E2,2.02E2,3.75E2,4.67E2,1.15E2,8.9E1,9.3E1,1.8E2,2E1,3.59E2,6.09E2,4.2E1,1.6E2,1.18E2,2.57E2,2.95E2,1.72E2,8.9E1,2.6E1,4.3E1,4.6E1,2.6E1,6.7E1],"tree_param":{"num_deleted":"0","num_feature":"2","num_nodes":"31","size_leaf_vector":"1"}},{"base_weights":[-4.589185E-3,1.22323014E-1,-5.528294E-1,-8.220024E-1,2.1420068E-1,-1.6268922E0,-3.6801958E-1,-9.201174E-2,-7.170855E-1,4.55206E-1,-2.6122233E-1,-4.0638093E-2,-2.1167667E0,1.32809E0,-7.152325E-1,-5.6977924E-2,-8.582769E-2,5.8895843E-3,1.2632994E-1,-6.2003285E-2,1.00036584E-1,-1.6711716E-1,-2.477691E-1,-3.1995963E-2,2.3951684E-1,-4.729328E-2,-1.3339941E-1],"categories":[],"categories_nodes":[],"categories_segments":[],"categories_sizes":[],"default_left":[0,0,0,0,0,0,0,0,0,0,0,0,0,0,0,0,0,0,0,0,0,0,0,0,0,0,0],"id":26,"left_children":[1,3,5,7,9,11,13,-1,15,17,19,-1,21,23,25,-1,-1,-1,-1,-1,-1,-1,-1,-1,-1,-1,-1],"loss_changes":[1.7470932E2,1.7708463E2,9.3092026E1,1.203392E0,2.1312216E2,4.03947E1,2.3886998E2,0E0,1.4244232E0,3.9512103E2,2.8399237E2,0E0,3.7398224E0,1.2210964E2,4.9744156E1,0E0,0E0,0E0,0E0,0E0,0E0,0E0,0E0,0E0,0E0,0E0,0E0],"parents":[2147483647,0,0,1,1,2,2,3,3,4,4,5,5,6,6,8,8,9,9,10,10,12,12,13,13,14,14],"right_children":[2,4,6,8,10,12,14,-1,16,18,20,-1,22,24,26,-1,-1,-1,-1,-1,-1,-1,-1,-1,-1,-1,-1],"split_conditions":[7E0,3E0,8E0,1E0,1.8E1,1E0,1.2E1,-9.201174E-2,3E0,1.4E1,6E0,-4.0638093E-2,5E0,1E1,2.1E1,-5.6977924E-2,-8.582769E-2,5.8895843E-3,1.2632994E-1,-6.2003285E-2,1.00036584E-1,-1.6711716E-1,-2.477691E-1,-3.1995963E-2,2.3951684E-1,-4.729328E-2,-1.3339941E-1],"split_indices":[0,1,1,1,1,1,1,0,0,1,0,0,1,1,1,0,0,0,0,0,0,0,0,0,0,0,0],"split_type":[0,0,0,0,0,0,0,0,0,0,0,0,0,0,0,0,0,0,0,0,0,0,0,0,0,0,0],"sum_hessian":[2.509E3,2.038E3,4.71E2,1.8E2,1.858E3,6.8E1,4.03E2,8.9E1,9.1E1,1.233E3,6.25E2,2E1,4.8E1,6.8E1,3.35E2,4.7E1,4.4E1,8.28E2,4.05E2,4.87E2,1.38E2,2.4E1,2.4E1,2.7E1,4.1E1,2.42E2,9.3E1],"tree_param":{"num_deleted":"0","num_feature":"2","num_nodes":"27","size_leaf_vector":"1"}},{"base_weights":[-4.326833E-3,1.10059E-1,-4.9845478E-1,-7.4109954E-1,1.9287214E-1,-1.4708048E0,-3.3115128E-1,-8.291282E-2,-6.4692914E-1,4.0979254E-1,-2.3503941E-1,-3.676781E-2,-1.9135569E0,1.1982883E0,-6.4424706E-1,-5.1398825E-2,-7.743565E-2,5.3013056E-3,1.1372812E-1,-7.084969E-2,5.665798E-2,-1.5107392E-1,-2.2398324E-1,-2.8910613E-2,2.1613541E-1,-1.6112456E-1,-5.043888E-2],"categories":[],"categories_nodes":[],"categories_segments":[],"categories_sizes":[],"default_left":[0,0,0,0,0,0,0,0,0,0,0,0,0,0,0,0,0,0,0,0,0,0,0,0,0,0,0],"id":27,"left_children":[1,3,5,7,9,11,13,-1,15,17,19,-1,21,23,25,-1,-1,-1,-1,-1,-1,-1,-1,-1,-1,-1,-1],"loss_changes":[1.4192316E2,1.4386613E2,7.629674E1,9.640579E-1,1.7265378E2,3.299684E1,1.9423187E2,0E0,1.1604996E0,3.2022815E2,2.3798885E2,0E0,3.056244E0,9.946449E1,4.462886E1,0E0,0E0,0E0,0E0,0E0,0E0,0E0,0E0,0E0,0E0,0E0,0E0],"parents":[2147483647,0,0,1,1,2,2,3,3,4,4,5,5,6,6,8,8,9,9,10,10,12,12,13,13,14,14],"right_children":[2,4,6,8,10,12,14,-1,16,18,20,-1,22,24,26,-1,-1,-1,-1,-1,-1,-1,-1,-1,-1,-1,-1],"split_conditions":[7E0,3E0,8E0,1E0,1.8E1,1E0,1.2E1,-8.291282E-2,3E0,1.4E1,5E0,-3.676781E-2,5E0,1E1,1.5E1,-5.1398825E-2,-7.743565E-2,5.3013056E-3,1.1372812E-1,-7.084969E-2,5.665798E-2,-1.5107392E-1,-2.2398324E-1,-2.8910613E-2,2.1613541E-1,-1.6112456E-1,-5.043888E-2],"split_indices":[0,1,1,1,1,1,1,0,0,1,0,0,1,1,1,0,0,0,0,0,0,0,0,0,0,0,0],"split_type":[0,0,0,0,0,0,0,0,0,0,0,0,0,0,0,0,0,0,0,0,0,0,0,0,0,0,0],"sum_hessian":[2.509E3,2.038E3,4.71E2,1.8E2,1.858E3,6.8E1,4.03E2,8.9E1,9.1E1,1.233E3,6.25E2,2E1,4.8E1,6.8E1,3.35E2,4.7E1,4.4E1,8.28E2,4.05E2,3.93E2,2.32E2,2.4E1,2.4E1,2.7E1,4.1E1,4.1E1,2.94E2],"tree_param":{"num_deleted":"0","num_feature":"2","num_nodes":"27","size_leaf_vector":"1"}},{"base_weights":[-4.1102343E-3,4.9549676E-2,-9.128498E-1,-4.820096E-1,1.4713663E-1,-6.8085796E-1,-1.357411E-1,-2.3272783E-1,-6.857128E-1,3.677076E-1,-1.2058372E-1,-1.14424065E-1,5.113969E-2,-6.317119E-2,2.772348E-2,-5.295377E-2,-9.60341E-2,7.0350464E-3,1.1667436E-1,-8.544173E-2,1.7449712E-2],"categories":[],"categories_nodes":[],"categories_segments":[],"categories_sizes":[],"default_left":[0,0,0,0,0,0,0,0,0,0,0,0,0,0,0,0,0,0,0,0,0],"id":28,"left_children":[1,3,5,7,9,11,-1,13,15,17,19,-1,-1,-1,-1,-1,-1,-1,-1,-1,-1],"loss_changes":[1.2244006E2,1.2306241E2,1.3514648E1,1.8527267E1,1.18383224E2,5.2517357E1,0E0,3.4154118E1,8.155258E0,2.6103928E2,1.9633453E2,0E0,0E0,0E0,0E0,0E0,0E0,0E0,0E0,0E0,0E0],"parents":[2147483647,0,0,1,1,2,2,3,3,4,4,5,5,7,7,8,8,9,9,10,10],"right_children":[2,4,6,8,10,12,-1,14,16,18,20,-1,-1,-1,-1,-1,-1,-1,-1,-1,-1],"split_conditions":[2.3E1,5E0,7E0,3E0,1.7E1,4E0,-1.357411E-1,3E0,4E0,1.4E1,3E0,-1.14424065E-1,5.113969E-2,-6.317119E-2,2.772348E-2,-5.295377E-2,-9.60341E-2,7.0350464E-3,1.1667436E-1,-8.544173E-2,1.7449712E-2],"split_indices":[1,1,0,0,1,0,0,1,1,1,0,0,0,0,0,0,0,0,0,0,0],"split_type":[0,0,0,0,0,0,0,0,0,0,0,0,0,0,0,0,0,0,0,0,0],"sum_hessian":[2.509E3,2.37E3,1.39E2,3.67E2,2.003E3,9.3E1,4.6E1,1.66E2,2.01E2,1.098E3,9.05E2,6.7E1,2.6E1,9.3E1,7.3E1,1.3E2,7.1E1,8.01E2,2.97E2,2.59E2,6.46E2],"tree_param":{"num_deleted":"0","num_feature":"2","num_nodes":"21","size_leaf_vector":"1"}},{"base_weights":[-3.829601E-3,1.0041687E-1,-4.5415738E-1,-6.102484E-1,1.6955619E-1,-1.2833879E0,-3.1140724E-1,-6.8954885E-2,-5.260387E-1,3.9407352E-1,-1.2945002E-1,-2.8222889E-2,-1.6862644E0,1.07424E0,-5.95033E-1,-4.018053E-2,-6.468647E-2,4.6378733E-3,1.62418E-1,-6.690818E-2,4.749374E-2,-1.2735155E-1,-2.0315628E-1,-2.6801243E-2,1.9434978E-1,-1.5052016E-1,-4.6343263E-2],"categories":[],"categories_nodes":[],"categories_segments":[],"categories_sizes":[],"default_left":[0,0,0,0,0,0,0,0,0,0,0,0,0,0,0,0,0,0,0,0,0,0,0,0,0,0,0],"id":29,"left_children":[1,3,5,7,9,11,13,-1,15,17,19,-1,21,23,25,-1,-1,-1,-1,-1,-1,-1,-1,-1,-1,-1,-1],"loss_changes":[1.17877754E2,1.00289566E2,5.547229E1,8.459625E-1,1.2484953E2,2.735479E1,1.5941333E2,0E0,1.1210651E0,4.5414377E2,2.605828E2,0E0,4.3963165E0,8.1027565E1,3.9548027E1,0E0,0E0,0E0,0E0,0E0,0E0,0E0,0E0,0E0,0E0,0E0,0E0],"parents":[2147483647,0,0,1,1,2,2,3,3,4,4,5,5,6,6,8,8,9,9,10,10,12,12,13,13,14,14],"right_children":[2,4,6,8,10,12,14,-1,16,18,20,-1,22,24,26,-1,-1,-1,-1,-1,-1,-1,-1,-1,-1,-1,-1],"split_conditions":[7E0,3E0,8E0,1E0,1.7E1,1E0,1.2E1,-6.8954885E-2,3E0,1.4E1,4E0,-2.8222889E-2,5E0,1E1,1.5E1,-4.018053E-2,-6.468647E-2,4.6378733E-3,1.62418E-1,-6.690818E-2,4.749374E-2,-1.2735155E-1,-2.0315628E-1,-2.6801243E-2,1.9434978E-1,-1.5052016E-1,-4.6343263E-2],"split_indices":[0,1,1,1,1,1,1,0,0,1,0,0,1,1,1,0,0,0,0,0,0,0,0,0,0,0,0],"split_type":[0,0,0,0,0,0,0,0,0,0,0,0,0,0,0,0,0,0,0,0,0,0,0,0,0,0,0],"sum_hessian":[2.509E3,2.038E3,4.71E2,1.8E2,1.858E3,6.8E1,4.03E2,8.9E1,9.1E1,1.061E3,7.97E2,2E1,4.8E1,6.8E1,3.35E2,4.7E1,4.4E1,8.28E2,2.33E2,4.21E2,3.76E2,2.4E1,2.4E1,2.7E1,4.1E1,4.1E1,2.94E2],"tree_param":{"num_deleted":"0","num_feature":"2","num_nodes":"27","size_leaf_vector":"1"}},{"base_weights":[-3.611946E-3,9.0362035E-2,-4.0956393E-1,-5.501839E-1,1.5267965E-1,-1.9193268E-1,-9.2428994E-1,-6.2136006E-2,-4.7457474E-1,3.5482296E-1,-1.1652945E-1,-1.1602479E0,6.091897E-2,-6.560845E-2,-1.0485598E0,-3.6246177E-2,-5.836158E-2,4.174589E-3,1.4624557E-1,-6.0233243E-2,4.275697E-2,-2.5534987E-2,-1.5243828E-1,9.692444E-2,-2.5753468E-2,-1.7749791E-1,-7.447087E-2],"categories":[],"categories_nodes":[],"categories_segments":[],"categories_sizes":[],"default_left":[0,0,0,0,0,0,0,0,0,0,0,0,0,0,0,0,0,0,0,0,0,0,0,0,0,0,0],"id":30,"left_children":[1,3,5,7,9,11,13,-1,15,17,19,21,23,-1,25,-1,-1,-1,-1,-1,-1,-1,-1,-1,-1,-1,-1],"loss_changes":[9.579081E1,8.1475365E1,5.269626E1,6.7918396E-1,1.01205925E2,8.1602425E1,3.9782333E0,0E0,9.131527E-1,3.6821335E2,2.1118886E2,2.2346603E1,7.690339E1,0E0,1.9426147E1,0E0,0E0,0E0,0E0,0E0,0E0,0E0,0E0,0E0,0E0,0E0,0E0],"parents":[2147483647,0,0,1,1,2,2,3,3,4,4,5,5,6,6,8,8,9,9,10,10,11,11,12,12,14,14],"right_children":[2,4,6,8,10,12,14,-1,16,18,20,22,24,-1,26,-1,-1,-1,-1,-1,-1,-1,-1,-1,-1,-1,-1],"split_conditions":[7E0,3E0,2E1,1E0,1.7E1,8E0,2.1E1,-6.2136006E-2,3E0,1.4E1,4E0,1E0,1.2E1,-6.560845E-2,2.2E1,-3.6246177E-2,-5.836158E-2,4.174589E-3,1.4624557E-1,-6.0233243E-2,4.275697E-2,-2.5534987E-2,-1.5243828E-1,9.692444E-2,-2.5753468E-2,-1.7749791E-1,-7.447087E-2],"split_indices":[0,1,1,1,1,1,1,0,0,1,0,1,1,0,1,0,0,0,0,0,0,0,0,0,0,0,0],"split_type":[0,0,0,0,0,0,0,0,0,0,0,0,0,0,0,0,0,0,0,0,0,0,0,0,0,0,0],"sum_hessian":[2.509E3,2.038E3,4.71E2,1.8E2,1.858E3,3.32E2,1.39E2,8.9E1,9.1E1,1.061E3,7.97E2,6.8E1,2.64E2,4.6E1,9.3E1,4.7E1,4.4E1,8.28E2,2.33E2,4.21E2,3.76E2,2E1,4.8E1,6.8E1,1.96E2,2.6E1,6.7E1],"tree_param":{"num_deleted":"0","num_feature":"2","num_nodes":"27","size_leaf_vector":"1"}},{"base_weights":[-3.4294918E-3,6.121818E-2,-5.083498E-1,-3.6038783E-1,1.4464465E-1,-7.035836E-1,-2.049534E-1,-1.5590088E-1,-5.276598E-1,1.1360894E0,9.060647E-2,-5.6694794E-1,-9.0622765E-1,4.8893282E-1,-6.71333E-1,-4.6684854E-2,2.4119345E-2,-3.8596906E-2,-7.781297E-2,2.3628977E-1,7.394316E-2,-3.0215314E-2,1.9758018E-2,-2.829476E-2,-6.466194E-2,-8.1259705E-2,-1.06506445E-1,6.179678E-2,3.7524275E-2,2.8846094E-2,-1.1063146E-1],"categories":[],"categories_nodes":[],"categories_segments":[],"categories_sizes":[],"default_left":[0,0,0,0,0,0,0,0,0,0,0,0,0,0,0,0,0,0,0,0,0,0,0,0,0,0,0,0,0,0,0],"id":31,"left_children":[1,3,5,7,9,11,13,15,17,19,21,23,25,27,29,-1,-1,-1,-1,-1,-1,-1,-1,-1,-1,-1,-1,-1,-1,-1,-1],"loss_changes":[8.196235E1,7.834744E1,1.6737274E1,1.2505157E1,9.949461E1,4.276306E0,3.689666E1,2.0733017E1,6.868496E0,4.496859E1,7.417407E1,2.215477E0,1.4582443E-1,4.4293213E-1,2.870863E1,0E0,0E0,0E0,0E0,0E0,0E0,0E0,0E0,0E0,0E0,0E0,0E0,0E0,0E0,0E0,0E0],"parents":[2147483647,0,0,1,1,2,2,3,3,4,4,5,5,6,6,7,7,8,8,9,9,10,10,11,11,12,12,13,13,14,14],"right_children":[2,4,6,8,10,12,14,16,18,20,22,24,26,28,30,-1,-1,-1,-1,-1,-1,-1,-1,-1,-1,-1,-1,-1,-1,-1,-1],"split_conditions":[2.2E1,5E0,6E0,3E0,7E0,2.3E1,7E0,3E0,4E0,3E0,1.1E1,2E0,3E0,2.3E1,2.3E1,-4.6684854E-2,2.4119345E-2,-3.8596906E-2,-7.781297E-2,2.3628977E-1,7.394316E-2,-3.0215314E-2,1.9758018E-2,-2.829476E-2,-6.466194E-2,-8.1259705E-2,-1.06506445E-1,6.179678E-2,3.7524275E-2,2.8846094E-2,-1.1063146E-1],"split_indices":[1,1,0,0,1,1,0,1,1,0,1,0,0,1,1,0,0,0,0,0,0,0,0,0,0,0,0,0,0,0,0],"split_type":[0,0,0,0,0,0,0,0,0,0,0,0,0,0,0,0,0,0,0,0,0,0,0,0,0,0,0,0,0,0,0],"sum_hessian":[2.509E3,2.225E3,2.84E2,3.67E2,1.858E3,1.72E2,1.12E2,1.66E2,2.01E2,9.5E1,1.763E3,1.05E2,6.7E1,4.5E1,6.7E1,9.3E1,7.3E1,1.3E2,7.1E1,2.2E1,7.3E1,3.77E2,1.386E3,2.4E1,8.1E1,4.6E1,2.1E1,1.9E1,2.6E1,2.1E1,4.6E1],"tree_param":{"num_deleted":"0","num_feature":"2","num_nodes":"31","size_leaf_vector":"1"}},{"base_weights":[-3.1273915E-3,7.991645E-2,-3.618631E-1,1.385495E-1,-4.1049337E-1,-1.7141724E-1,-8.122675E-1,-1.0897884E-1,3.5897306E-1,-6.348479E-1,4.4219851E-1,-9.9803984E-1,4.4463422E-2,-9.938367E-1,-6.0540247E-1,1.2769467E-2,-8.695124E-2,8.905979E-2,6.9886405E-4,-5.1113006E-2,-8.183662E-2,5.5926044E-2,3.3910826E-2,-1.942716E-2,-1.3221438E-1,8.8901676E-2,-2.5157033E-2,-6.1121017E-2,-1.6230816E-1,2.609258E-2,-9.980369E-2],"categories":[],"categories_nodes":[],"categories_segments":[],"categories_sizes":[],"default_left":[0,0,0,0,0,0,0,0,0,0,0,0,0,0,0,0,0,0,0,0,0,0,0,0,0,0,0,0,0,0,0],"id":32,"left_children":[1,3,5,7,9,11,13,15,17,19,21,23,25,27,29,-1,-1,-1,-1,-1,-1,-1,-1,-1,-1,-1,-1,-1,-1,-1,-1],"loss_changes":[7.48038E1,5.8686737E1,4.0347816E1,9.944939E1,4.1985283E1,5.9468834E1,4.6567764E0,1.5472945E2,1.8038101E2,3.5095825E0,3.6547565E-1,1.7717957E1,6.647796E1,1.6583855E1,2.3390638E1,0E0,0E0,0E0,0E0,0E0,0E0,0E0,0E0,0E0,0E0,0E0,0E0,0E0,0E0,0E0,0E0],"parents":[2147483647,0,0,1,1,2,2,3,3,4,4,5,5,6,6,7,7,8,8,9,9,10,10,11,11,12,12,13,13,14,14],"right_children":[2,4,6,8,10,12,14,16,18,20,22,24,26,28,30,-1,-1,-1,-1,-1,-1,-1,-1,-1,-1,-1,-1,-1,-1,-1,-1],"split_conditions":[7E0,2.2E1,2E1,1.2E1,6E0,8E0,2.2E1,1E1,1.7E1,2.3E1,2.3E1,1E0,1.2E1,2.1E1,2.3E1,1.2769467E-2,-8.695124E-2,8.905979E-2,6.9886405E-4,-5.1113006E-2,-8.183662E-2,5.5926044E-2,3.3910826E-2,-1.942716E-2,-1.3221438E-1,8.8901676E-2,-2.5157033E-2,-6.1121017E-2,-1.6230816E-1,2.609258E-2,-9.980369E-2],"split_indices":[0,1,1,1,0,1,1,1,1,1,1,1,1,1,1,0,0,0,0,0,0,0,0,0,0,0,0,0,0,0,0],"split_type":[0,0,0,0,0,0,0,0,0,0,0,0,0,0,0,0,0,0,0,0,0,0,0,0,0,0,0,0,0,0,0],"sum_hessian":[2.509E3,2.038E3,4.71E2,1.821E3,2.17E2,3.32E2,1.39E2,8.58E2,9.63E2,1.72E2,4.5E1,6.8E1,2.64E2,7.2E1,6.7E1,6.55E2,2.03E2,3.83E2,5.8E2,1.05E2,6.7E1,1.9E1,2.6E1,2E1,4.8E1,6.8E1,1.96E2,4.6E1,2.6E1,2.1E1,4.6E1],"tree_param":{"num_deleted":"0","num_feature":"2","num_nodes":"31","size_leaf_vector":"1"}},{"base_weights":[-2.9790623E-3,7.191121E-2,-3.2649237E-1,-4.6619105E-1,1.2426441E-1,-1.5453917E-1,-7.331633E-1,-4.8849413E-1,-2.6222676E-2,5.650005E-1,3.535361E-2,-7.615845E-1,9.096879E-2,-8.975139E-1,-5.4594624E-1,-4.445311E-2,-5.998213E-2,-8.269653E-3,1.1135411E-1,-7.519291E-2,1.7471647E-2,-1.7576931E-2,-9.1343366E-2,1.5780728E-1,-2.2654055E-2,-5.5138964E-2,-1.4667852E-1,2.3601932E-2,-9.003568E-2],"categories":[],"categories_nodes":[],"categories_segments":[],"categories_sizes":[],"default_left":[0,0,0,0,0,0,0,0,0,0,0,0,0,0,0,0,0,0,0,0,0,0,0,0,0,0,0,0,0],"id":33,"left_children":[1,3,5,7,9,11,13,15,-1,17,19,21,23,25,27,-1,-1,-1,-1,-1,-1,-1,-1,-1,-1,-1,-1,-1,-1],"loss_changes":[6.083576E1,5.7499367E1,3.289289E1,6.95282E-1,7.282717E1,4.9697758E1,3.8177032E0,5.262337E-1,0E0,1.10941986E2,1.6997481E2,8.379177E0,1.1273381E2,1.357505E1,1.9057806E1,0E0,0E0,0E0,0E0,0E0,0E0,0E0,0E0,0E0,0E0,0E0,0E0,0E0,0E0],"parents":[2147483647,0,0,1,1,2,2,3,3,4,4,5,5,6,6,7,7,9,9,10,10,11,11,12,12,13,13,14,14],"right_children":[2,4,6,8,10,12,14,16,-1,18,20,22,24,26,28,-1,-1,-1,-1,-1,-1,-1,-1,-1,-1,-1,-1,-1,-1],"split_conditions":[7E0,3E0,2E1,6E0,8E0,1E1,2.2E1,4E0,-2.6222676E-2,5E0,1.1E1,1E0,1.2E1,2.1E1,2.3E1,-4.445311E-2,-5.998213E-2,-8.269653E-3,1.1135411E-1,-7.519291E-2,1.7471647E-2,-1.7576931E-2,-9.1343366E-2,1.5780728E-1,-2.2654055E-2,-5.5138964E-2,-1.4667852E-1,2.3601932E-2,-9.003568E-2],"split_indices":[0,1,1,0,1,1,1,0,0,1,1,1,1,1,1,0,0,0,0,0,0,0,0,0,0,0,0,0,0],"split_type":[0,0,0,0,0,0,0,0,0,0,0,0,0,0,0,0,0,0,0,0,0,0,0,0,0,0,0,0,0],"sum_hessian":[2.509E3,2.038E3,4.71E2,1.8E2,1.858E3,3.32E2,1.39E2,1.61E2,1.9E1,3.11E2,1.547E3,9.5E1,2.37E2,7.2E1,6.7E1,1.19E2,4.2E1,1.43E2,1.68E2,2.32E2,1.315E3,2E1,7.5E1,4.1E1,1.96E2,4.6E1,2.6E1,2.1E1,4.6E1],"tree_param":{"num_deleted":"0","num_feature":"2","num_nodes":"29","size_leaf_vector":"1"}},{"base_weights":[-2.8114878E-3,4.9773015E-2,-4.1351426E-1,-2.93556E-1,1.1771024E-1,-5.895021E-1,-1.404221E-1,-1.2476902E-1,-4.3164444E-1,6.9075954E-1,5.129379E-2,-4.7780597E-1,-7.5494754E-1,3.828401E-1,-4.9232858E-1,-4.246037E-2,2.5778813E-2,-3.1943094E-2,-6.298157E-2,2.0545955E-1,-1.1978925E-2,-4.875803E-2,1.6043028E-2,-2.2348894E-2,-5.4951478E-2,-6.700706E-2,-9.019598E-2,4.8953265E-2,2.896293E-2,2.1349017E-2,-8.1223674E-2],"categories":[],"categories_nodes":[],"categories_segments":[],"categories_sizes":[],"default_left":[0,0,0,0,0,0,0,0,0,0,0,0,0,0,0,0,0,0,0,0,0,0,0,0,0,0,0,0,0,0,0],"id":34,"left_children":[1,3,5,7,9,11,13,15,17,19,21,23,25,27,29,-1,-1,-1,-1,-1,-1,-1,-1,-1,-1,-1,-1,-1,-1,-1,-1],"loss_changes":[5.422805E1,5.1955605E1,1.3614578E1,8.523315E0,7.071791E1,2.836258E0,2.0996231E1,1.9265007E1,4.2907906E0,2.1359906E2,9.811588E1,1.8102875E0,2.4412155E-1,3.156824E-1,1.5527611E1,0E0,0E0,0E0,0E0,0E0,0E0,0E0,0E0,0E0,0E0,0E0,0E0,0E0,0E0,0E0,0E0],"parents":[2147483647,0,0,1,1,2,2,3,3,4,4,5,5,6,6,7,7,8,8,9,9,10,10,11,11,12,12,13,13,14,14],"right_children":[2,4,6,8,10,12,14,16,18,20,22,24,26,28,30,-1,-1,-1,-1,-1,-1,-1,-1,-1,-1,-1,-1,-1,-1,-1,-1],"split_conditions":[2.2E1,5E0,6E0,3E0,8E0,2.3E1,7E0,2E0,4E0,3E0,1.1E1,2E0,3E0,2.3E1,2.3E1,-4.246037E-2,2.5778813E-2,-3.1943094E-2,-6.298157E-2,2.0545955E-1,-1.1978925E-2,-4.875803E-2,1.6043028E-2,-2.2348894E-2,-5.4951478E-2,-6.700706E-2,-9.019598E-2,4.8953265E-2,2.896293E-2,2.1349017E-2,-8.1223674E-2],"split_indices":[1,1,0,0,1,1,0,0,1,0,1,0,0,1,1,0,0,0,0,0,0,0,0,0,0,0,0,0,0,0,0],"split_type":[0,0,0,0,0,0,0,0,0,0,0,0,0,0,0,0,0,0,0,0,0,0,0,0,0,0,0,0,0,0,0],"sum_hessian":[2.509E3,2.225E3,2.84E2,3.67E2,1.858E3,1.72E2,1.12E2,1.66E2,2.01E2,1.92E2,1.666E3,1.05E2,6.7E1,4.5E1,6.7E1,9.3E1,7.3E1,1.3E2,7.1E1,7.1E1,1.21E2,2.8E2,1.386E3,2.4E1,8.1E1,4.6E1,2.1E1,1.9E1,2.6E1,2.1E1,4.6E1],"tree_param":{"num_deleted":"0","num_feature":"2","num_nodes":"31","size_leaf_vector":"1"}},{"base_weights":[-2.5968708E-3,6.325258E-2,-2.8705543E-1,1.6330825E-1,-1.6285278E-1,-1.3506365E-1,-6.465283E-1,-5.364565E-2,7.0208454E-1,-3.9354825E-1,6.4824253E-1,-7.9646343E-1,3.7659556E-2,-8.263505E-1,-4.4397613E-1,1.2443438E-2,-3.8349554E-2,9.760788E-2,-5.2015793E-2,-2.6544717E-1,-2.9125566E-2,7.8912996E-2,3.4624998E-2,-4.239827E-2,-1.4350702E-1,7.7264555E-2,-2.1996325E-2,-5.1312562E-2,-1.3409883E-1,1.9311162E-2,-7.327411E-2],"categories":[],"categories_nodes":[],"categories_segments":[],"categories_sizes":[],"default_left":[0,0,0,0,0,0,0,0,0,0,0,0,0,0,0,0,0,0,0,0,0,0,0,0,0,0,0,0,0,0,0],"id":35,"left_children":[1,3,5,7,9,11,13,15,17,19,21,23,25,27,29,-1,-1,-1,-1,-1,-1,-1,-1,-1,-1,-1,-1,-1,-1,-1,-1],"loss_changes":[4.703407E1,4.6155144E1,2.5701302E1,1.653196E2,1.1738973E2,3.807161E1,4.732399E0,5.9316055E1,1.3647202E2,1.1208944E2,5.640789E0,1.5804497E1,5.034747E1,1.1079311E1,1.2651368E1,0E0,0E0,0E0,0E0,0E0,0E0,0E0,0E0,0E0,0E0,0E0,0E0,0E0,0E0,0E0,0E0],"parents":[2147483647,0,0,1,1,2,2,3,3,4,4,5,5,6,6,7,7,8,8,9,9,10,10,11,11,12,12,13,13,14,14],"right_children":[2,4,6,8,10,12,14,16,18,20,22,24,26,28,30,-1,-1,-1,-1,-1,-1,-1,-1,-1,-1,-1,-1,-1,-1,-1,-1],"split_conditions":[7E0,1.8E1,2E1,1.4E1,6E0,8E0,2.2E1,1E1,6E0,1.9E1,2.2E1,5E0,1.2E1,2.1E1,2.3E1,1.2443438E-2,-3.8349554E-2,9.760788E-2,-5.2015793E-2,-2.6544717E-1,-2.9125566E-2,7.8912996E-2,3.4624998E-2,-4.239827E-2,-1.4350702E-1,7.7264555E-2,-2.1996325E-2,-5.1312562E-2,-1.3409883E-1,1.9311162E-2,-7.327411E-2],"split_indices":[0,1,1,1,0,1,1,1,0,1,1,1,1,1,1,0,0,0,0,0,0,0,0,0,0,0,0,0,0,0,0],"split_type":[0,0,0,0,0,0,0,0,0,0,0,0,0,0,0,0,0,0,0,0,0,0,0,0,0,0,0,0,0,0,0],"sum_hessian":[2.509E3,2.038E3,4.71E2,1.413E3,6.25E2,3.32E2,1.39E2,1.008E3,4.05E2,4.87E2,1.38E2,6.8E1,2.64E2,7.2E1,6.7E1,6.55E2,3.53E2,3.31E2,7.4E1,2E1,4.67E2,9.3E1,4.5E1,4.4E1,2.4E1,6.8E1,1.96E2,4.6E1,2.6E1,2.1E1,4.6E1],"tree_param":{"num_deleted":"0","num_feature":"2","num_nodes":"31","size_leaf_vector":"1"}},{"base_weights":[-2.5491074E-3,4.1989252E-2,-3.5040817E-1,-2.703561E-1,1.03797264E-1,-5.029503E-1,-1.13769315E-1,-1.24760956E-1,-3.8938597E-1,6.296994E-1,4.2847704E-2,-4.0190387E-1,-6.530675E-1,3.123776E-1,-4.003721E-1,-3.9490607E-2,2.2008233E-2,-2.917072E-2,-5.6169894E-2,1.5891473E-1,-2.9734341E-2,-2.8341701E-2,2.0682326E-2,-1.7407356E-2,-4.664631E-2,-5.759835E-2,-7.8806214E-2,4.1013356E-2,2.2839624E-2,1.7467834E-2,-6.610261E-2],"categories":[],"categories_nodes":[],"categories_segments":[],"categories_sizes":[],"default_left":[0,0,0,0,0,0,0,0,0,0,0,0,0,0,0,0,0,0,0,0,0,0,0,0,0,0,0,0,0,0,0],"id":36,"left_children":[1,3,5,7,9,11,13,15,17,19,21,23,25,27,29,-1,-1,-1,-1,-1,-1,-1,-1,-1,-1,-1,-1,-1,-1,-1,-1],"loss_changes":[3.8902325E1,4.300198E1,1.0230537E1,6.3289185E0,5.9560486E1,2.3617325E0,1.392631E1,1.5644252E1,3.2360764E0,1.7213622E2,8.924218E1,1.4779072E0,2.5369263E-1,2.8397226E-1,1.0307933E1,0E0,0E0,0E0,0E0,0E0,0E0,0E0,0E0,0E0,0E0,0E0,0E0,0E0,0E0,0E0,0E0],"parents":[2147483647,0,0,1,1,2,2,3,3,4,4,5,5,6,6,7,7,8,8,9,9,10,10,11,11,12,12,13,13,14,14],"right_children":[2,4,6,8,10,12,14,16,18,20,22,24,26,28,30,-1,-1,-1,-1,-1,-1,-1,-1,-1,-1,-1,-1,-1,-1,-1,-1],"split_conditions":[2.2E1,5E0,6E0,3E0,8E0,2.3E1,7E0,2E0,4E0,4E0,3E0,2E0,3E0,2.3E1,2.3E1,-3.9490607E-2,2.2008233E-2,-2.917072E-2,-5.6169894E-2,1.5891473E-1,-2.9734341E-2,-2.8341701E-2,2.0682326E-2,-1.7407356E-2,-4.664631E-2,-5.759835E-2,-7.8806214E-2,4.1013356E-2,2.2839624E-2,1.7467834E-2,-6.610261E-2],"split_indices":[1,1,0,0,1,1,0,0,1,0,0,0,0,1,1,0,0,0,0,0,0,0,0,0,0,0,0,0,0,0,0],"split_type":[0,0,0,0,0,0,0,0,0,0,0,0,0,0,0,0,0,0,0,0,0,0,0,0,0,0,0,0,0,0,0],"sum_hessian":[2.509E3,2.225E3,2.84E2,3.67E2,1.858E3,1.72E2,1.12E2,1.66E2,2.01E2,1.92E2,1.666E3,1.05E2,6.7E1,4.5E1,6.7E1,9.3E1,7.3E1,1.3E2,7.1E1,9.4E1,9.8E1,5.57E2,1.109E3,2.4E1,8.1E1,4.6E1,2.1E1,1.9E1,2.6E1,2.1E1,4.6E1],"tree_param":{"num_deleted":"0","num_feature":"2","num_nodes":"31","size_leaf_vector":"1"}},{"base_weights":[-2.3604443E-3,5.7879664E-2,-2.625876E-1,-3.9487475E-1,1.0193059E-1,-1.3040291E-1,-5.751227E-1,-4.1759732E-1,-1.9107843E-2,2.616726E-1,-1.10786125E-1,-3.4747943E-1,3.1888723E-1,-7.666544E-1,-3.6105016E-1,-3.8684886E-2,-4.9369548E-2,2.2541278E-3,1.10773325E-1,-6.293535E-2,2.1130802E-2,-1.1956569E-2,-2.0872977E-1,5.902351E-2,-9.538209E-3,-4.831472E-2,-1.2317723E-1,1.5800443E-2,-5.9632998E-2],"categories":[],"categories_nodes":[],"categories_segments":[],"categories_sizes":[],"default_left":[0,0,0,0,0,0,0,0,0,0,0,0,0,0,0,0,0,0,0,0,0,0,0,0,0,0,0,0,0],"id":37,"left_children":[1,3,5,7,9,11,13,15,-1,17,19,21,23,25,27,-1,-1,-1,-1,-1,-1,-1,-1,-1,-1,-1,-1,-1,-1],"loss_changes":[3.9362244E1,4.070658E1,1.9424438E1,7.5837517E-1,6.3197426E1,3.258841E1,5.4634323E0,1.8807983E-1,0E0,2.1483844E2,1.3342096E2,8.8969345E1,1.230911E1,9.03096E0,8.398589E0,0E0,0E0,0E0,0E0,0E0,0E0,0E0,0E0,0E0,0E0,0E0,0E0,0E0,0E0],"parents":[2147483647,0,0,1,1,2,2,3,3,4,4,5,5,6,6,7,7,9,9,10,10,11,11,12,12,13,13,14,14],"right_children":[2,4,6,8,10,12,14,16,-1,18,20,22,24,26,28,-1,-1,-1,-1,-1,-1,-1,-1,-1,-1,-1,-1,-1,-1],"split_conditions":[7E0,3E0,2E1,6E0,1.7E1,1.7E1,2.2E1,4E0,-1.9107843E-2,1.4E1,3E0,1.6E1,1.9E1,2.1E1,2.3E1,-3.8684886E-2,-4.9369548E-2,2.2541278E-3,1.10773325E-1,-6.293535E-2,2.1130802E-2,-1.1956569E-2,-2.0872977E-1,5.902351E-2,-9.538209E-3,-4.831472E-2,-1.2317723E-1,1.5800443E-2,-5.9632998E-2],"split_indices":[0,1,1,0,1,1,1,0,0,1,0,1,1,1,1,0,0,0,0,0,0,0,0,0,0,0,0,0,0],"split_type":[0,0,0,0,0,0,0,0,0,0,0,0,0,0,0,0,0,0,0,0,0,0,0,0,0,0,0,0,0],"sum_hessian":[2.509E3,2.038E3,4.71E2,1.8E2,1.858E3,3.32E2,1.39E2,1.61E2,1.9E1,1.061E3,7.97E2,2.24E2,1.08E2,7.2E1,6.7E1,1.19E2,4.2E1,8.28E2,2.33E2,3.05E2,4.92E2,1.99E2,2.5E1,6.5E1,4.3E1,4.6E1,2.6E1,2.1E1,4.6E1],"tree_param":{"num_deleted":"0","num_feature":"2","num_nodes":"29","size_leaf_vector":"1"}},{"base_weights":[-2.2927993E-3,5.2073944E-2,-2.3714766E-1,-3.5597938E-1,9.177571E-2,-1.1787663E-1,-5.191484E-1,-3.7638116E-1,-1.72926E-2,2.3561153E-1,-9.9759914E-2,-5.803059E-1,6.914473E-2,-6.92338E-1,-3.2558978E-1,-3.4848638E-2,-4.4547405E-2,2.0289503E-3,9.974336E-2,-4.5209657E-2,2.9489744E-2,-4.9059186E-3,-7.194621E-2,1.3568203E-1,-2.0573607E-2,-4.3586012E-2,-1.1131574E-1,1.4292215E-2,-5.379658E-2],"categories":[],"categories_nodes":[],"categories_segments":[],"categories_sizes":[],"default_left":[0,0,0,0,0,0,0,0,0,0,0,0,0,0,0,0,0,0,0,0,0,0,0,0,0,0,0,0,0],"id":38,"left_children":[1,3,5,7,9,11,13,15,-1,17,19,21,23,25,27,-1,-1,-1,-1,-1,-1,-1,-1,-1,-1,-1,-1,-1,-1],"loss_changes":[3.206077E1,3.3065357E1,1.5814301E1,6.10878E-1,5.123837E1,2.8839346E1,4.4677086E0,1.5698814E-1,0E0,1.741871E2,1.1109701E2,7.0616302E0,8.452098E1,7.393772E0,6.8429337E0,0E0,0E0,0E0,0E0,0E0,0E0,0E0,0E0,0E0,0E0,0E0,0E0,0E0,0E0],"parents":[2147483647,0,0,1,1,2,2,3,3,4,4,5,5,6,6,7,7,9,9,10,10,11,11,12,12,13,13,14,14],"right_children":[2,4,6,8,10,12,14,16,-1,18,20,22,24,26,28,-1,-1,-1,-1,-1,-1,-1,-1,-1,-1,-1,-1,-1,-1],"split_conditions":[7E0,3E0,2E1,6E0,1.7E1,1E1,2.2E1,4E0,-1.72926E-2,1.4E1,4E0,1E0,1.2E1,2.1E1,2.3E1,-3.4848638E-2,-4.4547405E-2,2.0289503E-3,9.974336E-2,-4.5209657E-2,2.9489744E-2,-4.9059186E-3,-7.194621E-2,1.3568203E-1,-2.0573607E-2,-4.3586012E-2,-1.1131574E-1,1.4292215E-2,-5.379658E-2],"split_indices":[0,1,1,0,1,1,1,0,0,1,0,1,1,1,1,0,0,0,0,0,0,0,0,0,0,0,0,0,0],"split_type":[0,0,0,0,0,0,0,0,0,0,0,0,0,0,0,0,0,0,0,0,0,0,0,0,0,0,0,0,0],"sum_hessian":[2.509E3,2.038E3,4.71E2,1.8E2,1.858E3,3.32E2,1.39E2,1.61E2,1.9E1,1.061E3,7.97E2,9.5E1,2.37E2,7.2E1,6.7E1,1.19E2,4.2E1,8.28E2,2.33E2,4.21E2,3.76E2,2E1,7.5E1,4.1E1,1.96E2,4.6E1,2.6E1,2.1E1,4.6E1],"tree_param":{"num_deleted":"0","num_feature":"2","num_nodes":"29","size_leaf_vector":"1"}},{"base_weights":[-2.1300565E-3,4.686127E-2,-2.1376391E-1,-3.2091558E-1,8.264435E-2,-6.179215E-1,-1.4420788E-1,-3.392331E-1,-1.564981E-2,4.3911657E-1,1.0743848E-2,-2.8736183E-1,-1.18821196E-1,6.354317E-1,-3.0388325E-1,-3.139281E-2,-4.019626E-2,9.5186114E-2,-6.0446153E-4,-6.252666E-2,1.233424E-2,-4.438709E-3,-4.7996614E-2,-2.7066827E-2,1.224369E-1,-1.2883624E-1,-1.6269E-2],"categories":[],"categories_nodes":[],"categories_segments":[],"categories_sizes":[],"default_left":[0,0,0,0,0,0,0,0,0,0,0,0,0,0,0,0,0,0,0,0,0,0,0,0,0,0,0],"id":39,"left_children":[1,3,5,7,9,11,13,15,-1,17,19,21,-1,23,25,-1,-1,-1,-1,-1,-1,-1,-1,-1,-1,-1,-1],"loss_changes":[2.6034256E1,2.6860147E1,1.31795635E1,4.920311E-1,4.764244E1,1.2666092E1,5.0486748E1,1.309681E-1,0E0,7.122099E1,1.10935356E2,2.0846052E0,0E0,3.715229E1,4.6494995E1,0E0,0E0,0E0,0E0,0E0,0E0,0E0,0E0,0E0,0E0,0E0,0E0],"parents":[2147483647,0,0,1,1,2,2,3,3,4,4,5,5,6,6,7,7,9,9,10,10,11,11,13,13,14,14],"right_children":[2,4,6,8,10,12,14,16,-1,18,20,22,-1,24,26,-1,-1,-1,-1,-1,-1,-1,-1,-1,-1,-1,-1],"split_conditions":[7E0,3E0,8E0,6E0,8E0,5E0,1.2E1,4E0,-1.564981E-2,3E0,1.1E1,1E0,-1.18821196E-1,1E1,1.5E1,-3.139281E-2,-4.019626E-2,9.5186114E-2,-6.0446153E-4,-6.252666E-2,1.233424E-2,-4.438709E-3,-4.7996614E-2,-2.7066827E-2,1.224369E-1,-1.2883624E-1,-1.6269E-2],"split_indices":[0,1,1,0,1,1,1,0,0,0,1,1,0,1,1,0,0,0,0,0,0,0,0,0,0,0,0],"split_type":[0,0,0,0,0,0,0,0,0,0,0,0,0,0,0,0,0,0,0,0,0,0,0,0,0,0,0],"sum_hessian":[2.509E3,2.038E3,4.71E2,1.8E2,1.858E3,6.8E1,4.03E2,1.61E2,1.9E1,3.11E2,1.547E3,4.4E1,2.4E1,6.8E1,3.35E2,1.19E2,4.2E1,1.44E2,1.67E2,2.32E2,1.315E3,2E1,2.4E1,2.7E1,4.1E1,4.1E1,2.94E2],"tree_param":{"num_deleted":"0","num_feature":"2","num_nodes":"27","size_leaf_vector":"1"}},{"base_weights":[-2.022237E-3,3.5096988E-2,-2.919358E-1,-2.0234804E-1,8.208175E-2,-4.3057504E-1,-7.709932E-2,-9.743836E-2,-2.8807858E-1,5.54166E-1,2.7376084E-2,-2.1118449E-1,-5.083765E-1,2.209424E-1,-2.7758196E-1,-3.5422366E-2,2.3006508E-2,-1.8878056E-2,-4.6474468E-2,1.5849228E-1,-5.8691837E-3,-4.0914815E-2,1.15794195E-2,-6.538418E-3,-3.6048114E-2,-4.5615446E-2,-5.904162E-2,3.1136418E-2,1.4578025E-2,1.4480925E-2,-4.69391E-2],"categories":[],"categories_nodes":[],"categories_segments":[],"categories_sizes":[],"default_left":[0,0,0,0,0,0,0,0,0,0,0,0,0,0,0,0,0,0,0,0,0,0,0,0,0,0,0,0,0,0,0],"id":40,"left_children":[1,3,5,7,9,11,13,15,17,19,21,23,25,27,29,-1,-1,-1,-1,-1,-1,-1,-1,-1,-1,-1,-1,-1,-1,-1,-1],"loss_changes":[2.7021276E1,2.4850527E1,8.45546E0,3.2817087E0,4.799477E1,2.845562E0,6.8133273E0,1.412587E1,3.4558678E0,1.2201254E2,6.4387985E1,9.9950266E-1,2.747841E-1,2.6723886E-1,5.5772266E0,0E0,0E0,0E0,0E0,0E0,0E0,0E0,0E0,0E0,0E0,0E0,0E0,0E0,0E0,0E0,0E0],"parents":[2147483647,0,0,1,1,2,2,3,3,4,4,5,5,6,6,7,7,8,8,9,9,10,10,11,11,12,12,13,13,14,14],"right_children":[2,4,6,8,10,12,14,16,18,20,22,24,26,28,30,-1,-1,-1,-1,-1,-1,-1,-1,-1,-1,-1,-1,-1,-1,-1,-1],"split_conditions":[2.2E1,5E0,6E0,3E0,8E0,2E0,7E0,2E0,4E0,3E0,1.1E1,2.3E1,2.3E1,2.3E1,2.3E1,-3.5422366E-2,2.3006508E-2,-1.8878056E-2,-4.6474468E-2,1.5849228E-1,-5.8691837E-3,-4.0914815E-2,1.15794195E-2,-6.538418E-3,-3.6048114E-2,-4.5615446E-2,-5.904162E-2,3.1136418E-2,1.4578025E-2,1.4480925E-2,-4.69391E-2],"split_indices":[1,1,0,0,1,0,0,0,1,0,1,1,1,1,1,0,0,0,0,0,0,0,0,0,0,0,0,0,0,0,0],"split_type":[0,0,0,0,0,0,0,0,0,0,0,0,0,0,0,0,0,0,0,0,0,0,0,0,0,0,0,0,0,0,0],"sum_hessian":[2.509E3,2.225E3,2.84E2,3.67E2,1.858E3,1.72E2,1.12E2,1.66E2,2.01E2,1.92E2,1.666E3,4.6E1,1.26E2,4.5E1,6.7E1,9.3E1,7.3E1,1.3E2,7.1E1,7.1E1,1.21E2,2.8E2,1.386E3,2.4E1,2.2E1,8.1E1,4.5E1,1.9E1,2.6E1,2.1E1,4.6E1],"tree_param":{"num_deleted":"0","num_feature":"2","num_nodes":"31","size_leaf_vector":"1"}},{"base_weights":[-1.8553747E-3,3.1607606E-2,-2.6321235E-1,7.807244E-2,-1.7750487E-1,-3.8836864E-1,-6.9272056E-2,-6.8973474E-2,2.0902097E-1,-1.1833869E-1,-1.0014484E-1,-1.909721E-1,-4.5836288E-1,1.9984204E-1,-2.5030112E-1,1.3077693E-2,-7.1097E-2,5.869263E-2,-4.110754E-3,-5.3493302E-2,-2.5530497E-3,-5.9107323E-3,-3.2600027E-2,-4.1109536E-2,-5.32658E-2,2.8178448E-2,1.3174238E-2,1.3098637E-2,-4.234506E-2],"categories":[],"categories_nodes":[],"categories_segments":[],"categories_sizes":[],"default_left":[0,0,0,0,0,0,0,0,0,0,0,0,0,0,0,0,0,0,0,0,0,0,0,0,0,0,0,0,0],"id":41,"left_children":[1,3,5,7,9,11,13,15,17,19,-1,21,23,25,27,-1,-1,-1,-1,-1,-1,-1,-1,-1,-1,-1,-1,-1,-1],"loss_changes":[2.1960232E1,2.1642513E1,6.8908615E0,3.509784E1,1.9625072E1,2.30274E0,5.5550947E0,1.1025032E2,9.114613E1,1.4639759E1,0E0,8.175876E-1,2.2701836E-1,2.1956885E-1,4.544807E0,0E0,0E0,0E0,0E0,0E0,0E0,0E0,0E0,0E0,0E0,0E0,0E0,0E0,0E0],"parents":[2147483647,0,0,1,1,2,2,3,3,4,4,5,5,6,6,7,7,8,8,9,9,11,11,12,12,13,13,14,14],"right_children":[2,4,6,8,10,12,14,16,18,20,-1,22,24,26,28,-1,-1,-1,-1,-1,-1,-1,-1,-1,-1,-1,-1,-1,-1],"split_conditions":[2.2E1,7E0,6E0,1.2E1,2.1E1,2E0,7E0,1E1,1.7E1,8E0,-1.0014484E-1,2.3E1,2.3E1,2.3E1,2.3E1,1.3077693E-2,-7.1097E-2,5.869263E-2,-4.110754E-3,-5.3493302E-2,-2.5530497E-3,-5.9107323E-3,-3.2600027E-2,-4.1109536E-2,-5.32658E-2,2.8178448E-2,1.3174238E-2,1.3098637E-2,-4.234506E-2],"split_indices":[1,0,0,1,1,0,0,1,1,1,0,1,1,1,1,0,0,0,0,0,0,0,0,0,0,0,0,0,0],"split_type":[0,0,0,0,0,0,0,0,0,0,0,0,0,0,0,0,0,0,0,0,0,0,0,0,0,0,0,0,0],"sum_hessian":[2.509E3,2.225E3,2.84E2,1.821E3,4.04E2,1.72E2,1.12E2,8.58E2,9.63E2,3.78E2,2.6E1,4.6E1,1.26E2,4.5E1,6.7E1,6.55E2,2.03E2,3.83E2,5.8E2,6.8E1,3.1E2,2.4E1,2.2E1,8.1E1,4.5E1,1.9E1,2.6E1,2.1E1,4.6E1],"tree_param":{"num_deleted":"0","num_feature":"2","num_nodes":"29","size_leaf_vector":"1"}},{"base_weights":[-1.781569E-3,2.8375117E-2,-2.3731491E-1,-1.8740717E-1,7.107523E-2,-3.5029998E-1,-6.2237617E-2,-3.3211686E-2,-1.3726129E-1,7.2319275E-1,3.554555E-2,-1.7269443E-1,-4.1326976E-1,1.8075705E-1,-2.257011E-1,1.9446848E-2,-2.5810657E-2,3.957391E-2,1.589578E-1,-1.9743485E-2,9.901422E-3,-5.343316E-3,-2.9481778E-2,-3.7048724E-2,-4.805501E-2,2.5501538E-2,1.1905617E-2,1.1848314E-2,-3.8200647E-2],"categories":[],"categories_nodes":[],"categories_segments":[],"categories_sizes":[],"default_left":[0,0,0,0,0,0,0,0,0,0,0,0,0,0,0,0,0,0,0,0,0,0,0,0,0,0,0,0,0],"id":42,"left_children":[1,3,5,7,9,11,13,-1,15,17,19,21,23,25,27,-1,-1,-1,-1,-1,-1,-1,-1,-1,-1,-1,-1,-1,-1],"loss_changes":[1.7835026E1,2.0523523E1,5.615816E0,2.6248398E0,4.304644E1,1.8634281E0,4.5292425E0,0E0,1.1074386E1,2.660624E1,2.6103737E1,6.6878235E-1,1.8752098E-1,1.804018E-1,3.7035148E0,0E0,0E0,0E0,0E0,0E0,0E0,0E0,0E0,0E0,0E0,0E0,0E0,0E0,0E0],"parents":[2147483647,0,0,1,1,2,2,3,3,4,4,5,5,6,6,8,8,9,9,10,10,11,11,12,12,13,13,14,14],"right_children":[2,4,6,8,10,12,14,-1,16,18,20,22,24,26,28,-1,-1,-1,-1,-1,-1,-1,-1,-1,-1,-1,-1,-1,-1],"split_conditions":[2.2E1,5E0,6E0,2E0,7E0,2E0,7E0,-3.3211686E-2,3E0,5E0,1.1E1,2.3E1,2.3E1,2.3E1,2.3E1,1.9446848E-2,-2.5810657E-2,3.957391E-2,1.589578E-1,-1.9743485E-2,9.901422E-3,-5.343316E-3,-2.9481778E-2,-3.7048724E-2,-4.805501E-2,2.5501538E-2,1.1905617E-2,1.1848314E-2,-3.8200647E-2],"split_indices":[1,1,0,0,1,0,0,0,0,0,1,1,1,1,1,0,0,0,0,0,0,0,0,0,0,0,0,0,0],"split_type":[0,0,0,0,0,0,0,0,0,0,0,0,0,0,0,0,0,0,0,0,0,0,0,0,0,0,0,0,0],"sum_hessian":[2.509E3,2.225E3,2.84E2,3.67E2,1.858E3,1.72E2,1.12E2,9.3E1,2.74E2,9.5E1,1.763E3,4.6E1,1.26E2,4.5E1,6.7E1,7.3E1,2.01E2,7E1,2.5E1,3.77E2,1.386E3,2.4E1,2.2E1,8.1E1,4.5E1,1.9E1,2.6E1,2.1E1,4.6E1],"tree_param":{"num_deleted":"0","num_feature":"2","num_nodes":"29","size_leaf_vector":"1"}},{"base_weights":[-1.5872184E-3,5.7680536E-2,-1.1678576E-1,-3.7040286E-2,2.8353965E-1,-3.228509E-1,5.996742E-2,-2.0872636E-1,7.910995E-2,7.214445E-1,-6.32611E-1,-2.2999673E-1,-2.1097313E-1,6.14522E-1,-3.7798483E-2,2.6267871E-2,-1.3874389E-1,-2.934358E-2,2.581116E-2,1.448198E-1,-1.808648E-2,-1.1208832E-1,6.292538E-2,2.2126058E-2,-3.4081116E-2,4.309853E-2,6.969211E-2,2.1587687E-2,-3.286948E-2],"categories":[],"categories_nodes":[],"categories_segments":[],"categories_sizes":[],"default_left":[0,0,0,0,0,0,0,0,0,0,0,0,0,0,0,0,0,0,0,0,0,0,0,0,0,0,0,0,0],"id":43,"left_children":[1,3,5,7,9,11,13,15,17,19,21,-1,23,25,27,-1,-1,-1,-1,-1,-1,-1,-1,-1,-1,-1,-1,-1,-1],"loss_changes":[1.7143908E1,3.5481026E1,3.1087902E1,2.3327984E1,1.9703793E2,8.666577E1,2.4962831E1,2.626317E2,4.6622776E1,2.1797302E2,9.867056E1,0E0,2.1064432E1,7.431431E-1,2.8997898E1,0E0,0E0,0E0,0E0,0E0,0E0,0E0,0E0,0E0,0E0,0E0,0E0,0E0,0E0],"parents":[2147483647,0,0,1,1,2,2,3,3,4,4,5,5,6,6,7,7,8,8,9,9,10,10,12,12,13,13,14,14],"right_children":[2,4,6,8,10,12,14,16,18,20,22,-1,24,26,28,-1,-1,-1,-1,-1,-1,-1,-1,-1,-1,-1,-1,-1,-1],"split_conditions":[1.8E1,1.4E1,5E0,3E0,6E0,1.9E1,1.9E1,1E1,6E0,1.7E1,1.7E1,-2.2999673E-1,2E1,7E0,7E0,2.6267871E-2,-1.3874389E-1,-2.934358E-2,2.581116E-2,1.448198E-1,-1.808648E-2,-1.1208832E-1,6.292538E-2,2.2126058E-2,-3.4081116E-2,4.309853E-2,6.969211E-2,2.1587687E-2,-3.286948E-2],"split_indices":[1,1,0,0,0,1,1,1,1,1,1,0,1,0,0,0,0,0,0,0,0,0,0,0,0,0,0,0,0],"split_type":[0,0,0,0,0,0,0,0,0,0,0,0,0,0,0,0,0,0,0,0,0,0,0,0,0,0,0,0,0],"sum_hessian":[2.509E3,1.657E3,8.52E2,1.168E3,4.89E2,3.93E2,4.59E2,4.71E2,6.97E2,3.31E2,1.58E2,2E1,3.73E2,6.8E1,3.91E2,3.37E2,1.34E2,2.26E2,4.71E2,1.83E2,1.48E2,1.14E2,4.4E1,8.6E1,2.87E2,2.3E1,4.5E1,2.09E2,1.82E2],"tree_param":{"num_deleted":"0","num_feature":"2","num_nodes":"29","size_leaf_vector":"1"}},{"base_weights":[-1.4994656E-3,5.1889677E-2,-1.05271675E-1,-8.611644E-2,1.9337106E-1,-2.5828424E-1,9.9032715E-2,4.9305763E-2,-1.2151827E0,5.4487795E-1,-2.3889656E-1,-2.0809229E-1,-1.759473E-1,4.423931E-1,-1.1073099E-1,2.58172E-2,-2.2675615E-2,-8.0208313E-1,1.1045982E-1,7.954399E-2,-1.1695563E-2,2.4986105E-2,-4.564631E-2,1.8338865E-3,-3.314468E-2,5.845034E-2,1.4237654E-2,6.287446E-2,-2.9600501E-2],"categories":[],"categories_nodes":[],"categories_segments":[],"categories_sizes":[],"default_left":[0,0,0,0,0,0,0,0,0,0,0,0,0,0,0,0,0,0,0,0,0,0,0,0,0,0,0,0,0],"id":44,"left_children":[1,3,5,7,9,11,13,15,17,19,21,-1,23,25,27,-1,-1,-1,-1,-1,-1,-1,-1,-1,-1,-1,-1,-1,-1],"loss_changes":[1.3911638E1,3.238959E1,2.6691334E1,1.2849644E2,1.2457315E2,7.286828E1,2.640997E1,4.336121E1,1.429745E3,7.5048325E1,3.9246178E1,0E0,1.414501E1,5.843107E0,3.1423393E1,0E0,0E0,0E0,0E0,0E0,0E0,0E0,0E0,0E0,0E0,0E0,0E0,0E0,0E0],"parents":[2147483647,0,0,1,1,2,2,3,3,4,4,5,5,6,6,7,7,8,8,9,9,10,10,12,12,13,13,14,14],"right_children":[2,4,6,8,10,12,14,16,18,20,22,-1,24,26,28,-1,-1,-1,-1,-1,-1,-1,-1,-1,-1,-1,-1,-1,-1],"split_conditions":[1.8E1,1.1E1,6E0,1E1,5E0,1.9E1,7E0,4E0,3E0,1.7E1,1.3E1,-2.0809229E-1,3E0,2.2E1,1.9E1,2.58172E-2,-2.2675615E-2,-8.0208313E-1,1.1045982E-1,7.954399E-2,-1.1695563E-2,2.4986105E-2,-4.564631E-2,1.8338865E-3,-3.314468E-2,5.845034E-2,1.4237654E-2,6.287446E-2,-2.9600501E-2],"split_indices":[1,1,0,1,0,1,0,0,0,1,1,0,0,1,1,0,0,0,0,0,0,0,0,0,0,0,0,0,0],"split_type":[0,0,0,0,0,0,0,0,0,0,0,0,0,0,0,0,0,0,0,0,0,0,0,0,0,0,0,0,0],"sum_hessian":[2.509E3,1.657E3,8.52E2,8.39E2,8.18E2,4.87E2,3.65E2,7.5E2,8.9E1,4.51E2,3.67E2,2E1,4.67E2,1.38E2,2.27E2,4.27E2,3.23E2,2.2E1,6.7E1,3.27E2,1.24E2,1.13E2,2.54E2,2.08E2,2.59E2,9.3E1,4.5E1,4.5E1,1.82E2],"tree_param":{"num_deleted":"0","num_feature":"2","num_nodes":"29","size_leaf_vector":"1"}},{"base_weights":[-1.6581733E-3,-2.4421385E-1,1.9448038E-2,-3.0866677E-1,2.2925759E-2,8.6334355E-2,-9.490096E-2,-3.2465033E-2,-1.627621E-2,-6.218224E-3,1.0288929E-2,2.1991344E-1,-1.0505026E-1,-2.6770443E-1,5.3315267E-2,-7.5523593E-3,7.5407095E-2,1.2073319E-2,-4.1099545E-2,-1.8827394E-1,-1.7630486E-2,4.942161E-2,-2.4428281E-3],"categories":[],"categories_nodes":[],"categories_segments":[],"categories_sizes":[],"default_left":[0,0,0,0,0,0,0,0,0,0,0,0,0,0,0,0,0,0,0,0,0,0,0],"id":45,"left_children":[1,3,5,7,9,11,13,-1,-1,-1,-1,15,17,19,21,-1,-1,-1,-1,-1,-1,-1,-1],"loss_changes":[1.2854522E1,3.4678783E0,1.7675957E1,3.24955E-1,2.786193E-1,3.7296844E1,2.1861546E1,0E0,0E0,0E0,0E0,1.3561565E2,4.1496037E1,5.7827774E1,1.5779583E1,0E0,0E0,0E0,0E0,0E0,0E0,0E0,0E0],"parents":[2147483647,0,0,1,1,2,2,3,3,4,4,5,5,6,6,11,11,12,12,13,13,14,14],"right_children":[2,4,6,8,10,12,14,-1,-1,-1,-1,16,18,20,22,-1,-1,-1,-1,-1,-1,-1,-1],"split_conditions":[3E0,6E0,1.8E1,5E0,7E0,5E0,5E0,-3.2465033E-2,-1.627621E-2,-6.218224E-3,1.0288929E-2,1.3E1,1.3E1,1.9E1,1.9E1,-7.5523593E-3,7.5407095E-2,1.2073319E-2,-4.1099545E-2,-1.8827394E-1,-1.7630486E-2,4.942161E-2,-2.4428281E-3],"split_indices":[1,0,1,0,0,0,0,0,0,0,0,1,1,1,1,0,0,0,0,0,0,0,0],"split_type":[0,0,0,0,0,0,0,0,0,0,0,0,0,0,0,0,0,0,0,0,0,0,0],"sum_hessian":[2.509E3,2E2,2.309E3,1.61E2,3.9E1,1.457E3,8.52E2,1.44E2,1.7E1,1.9E1,2E1,8.58E2,5.99E2,3.93E2,4.59E2,5.53E2,3.05E2,3.45E2,2.54E2,2E1,3.73E2,6.8E1,3.91E2],"tree_param":{"num_deleted":"0","num_feature":"2","num_nodes":"23","size_leaf_vector":"1"}},{"base_weights":[-1.5579424E-3,3.0954983E-2,-1.4200772E-1,-2.5512627E-1,5.8792397E-2,-5.6803748E-2,-3.436571E-1,-2.9240925E-2,-1.021221E-1,3.377275E-1,2.534941E-3,-2.1004874E-1,2.6004878E-1,-5.29067E-1,-1.3956042E-1,-1.4739016E-2,-5.627475E-3,2.7861565E-3,8.200772E-2,-4.5206986E-2,8.302155E-3,-1.8141357E-3,-1.6781805E-1,4.3288518E-2,-5.116029E-4,-3.322732E-2,-8.520388E-2,1.6913546E-2,-2.81087E-2],"categories":[],"categories_nodes":[],"categories_segments":[],"categories_sizes":[],"default_left":[0,0,0,0,0,0,0,0,0,0,0,0,0,0,0,0,0,0,0,0,0,0,0,0,0,0,0,0,0],"id":46,"left_children":[1,3,5,7,9,11,13,-1,15,17,19,21,23,25,27,-1,-1,-1,-1,-1,-1,-1,-1,-1,-1,-1,-1,-1,-1],"loss_changes":[1.1466143E1,1.625311E1,8.090066E0,1.0026436E0,2.9170908E1,1.622379E1,5.22398E0,0E0,6.849623E-2,4.6609833E1,5.6678226E1,6.3362247E1,4.9976997E0,4.3566856E0,3.018371E0,0E0,0E0,0E0,0E0,0E0,0E0,0E0,0E0,0E0,0E0,0E0,0E0,0E0,0E0],"parents":[2147483647,0,0,1,1,2,2,3,3,4,4,5,5,6,6,8,8,9,9,10,10,11,11,12,12,13,13,14,14],"right_children":[2,4,6,8,10,12,14,-1,16,18,20,22,24,26,28,-1,-1,-1,-1,-1,-1,-1,-1,-1,-1,-1,-1,-1,-1],"split_conditions":[7E0,3E0,2E1,5E0,8E0,1.7E1,2.2E1,-2.9240925E-2,6E0,6E0,1.1E1,1.6E1,1.9E1,2.1E1,2.3E1,-1.4739016E-2,-5.627475E-3,2.7861565E-3,8.200772E-2,-4.5206986E-2,8.302155E-3,-1.8141357E-3,-1.6781805E-1,4.3288518E-2,-5.116029E-4,-3.322732E-2,-8.520388E-2,1.6913546E-2,-2.81087E-2],"split_indices":[0,1,1,0,1,1,1,0,0,1,1,1,1,1,1,0,0,0,0,0,0,0,0,0,0,0,0,0,0],"split_type":[0,0,0,0,0,0,0,0,0,0,0,0,0,0,0,0,0,0,0,0,0,0,0,0,0,0,0,0,0],"sum_hessian":[2.509E3,2.038E3,4.71E2,1.8E2,1.858E3,3.32E2,1.39E2,1.44E2,3.6E1,3.11E2,1.547E3,2.24E2,1.08E2,7.2E1,6.7E1,1.7E1,1.9E1,1.9E2,1.21E2,2.32E2,1.315E3,1.99E2,2.5E1,6.5E1,4.3E1,4.6E1,2.6E1,2.1E1,4.6E1],"tree_param":{"num_deleted":"0","num_feature":"2","num_nodes":"29","size_leaf_vector":"1"}},{"base_weights":[-1.5051918E-3,4.322652E-2,-8.844971E-2,-3.7962765E-2,2.3683274E-1,-2.1956874E-1,8.661733E-2,5.3688355E-2,-2.0214422E-1,5.7268625E-1,-4.6593586E-1,-1.7113368E-1,-1.5216127E-1,3.8427743E-1,-9.523079E-2,2.5301823E-2,-2.0978965E-2,-1.1911626E-1,2.6704744E-2,1.2035371E-1,-2.1019459E-2,-8.902895E-2,6.288776E-2,2.5797745E-3,-2.946277E-2,5.0818723E-2,1.2271659E-2,4.7654256E-2,-2.3843486E-2],"categories":[],"categories_nodes":[],"categories_segments":[],"categories_sizes":[],"default_left":[0,0,0,0,0,0,0,0,0,0,0,0,0,0,0,0,0,0,0,0,0,0,0,0,0,0,0,0,0],"id":47,"left_children":[1,3,5,7,9,11,13,15,17,19,21,-1,23,25,27,-1,-1,-1,-1,-1,-1,-1,-1,-1,-1,-1,-1,-1,-1],"loss_changes":[9.765659E0,2.6070679E1,1.959931E1,1.7601282E1,1.1592021E2,4.8811077E1,1.9847782E1,3.9494877E1,1.947505E2,1.642215E2,7.44294E1,0E0,1.1872892E1,4.4426193E0,1.8782326E1,0E0,0E0,0E0,0E0,0E0,0E0,0E0,0E0,0E0,0E0,0E0,0E0,0E0,0E0],"parents":[2147483647,0,0,1,1,2,2,3,3,4,4,5,5,6,6,7,7,8,8,9,9,10,10,12,12,13,13,14,14],"right_children":[2,4,6,8,10,12,14,16,18,20,22,-1,24,26,28,-1,-1,-1,-1,-1,-1,-1,-1,-1,-1,-1,-1,-1,-1],"split_conditions":[1.8E1,1.4E1,6E0,1E1,6E0,1.9E1,7E0,4E0,3E0,1.7E1,1.7E1,-1.7113368E-1,3E0,2.2E1,1.9E1,2.5301823E-2,-2.0978965E-2,-1.1911626E-1,2.6704744E-2,1.2035371E-1,-2.1019459E-2,-8.902895E-2,6.288776E-2,2.5797745E-3,-2.946277E-2,5.0818723E-2,1.2271659E-2,4.7654256E-2,-2.3843486E-2],"split_indices":[1,1,0,1,0,1,0,0,0,1,1,0,0,1,1,0,0,0,0,0,0,0,0,0,0,0,0,0,0],"split_type":[0,0,0,0,0,0,0,0,0,0,0,0,0,0,0,0,0,0,0,0,0,0,0,0,0,0,0,0,0],"sum_hessian":[2.509E3,1.657E3,8.52E2,1.168E3,4.89E2,4.87E2,3.65E2,7.5E2,4.18E2,3.31E2,1.58E2,2E1,4.67E2,1.38E2,2.27E2,4.27E2,3.23E2,1.34E2,2.84E2,1.83E2,1.48E2,1.14E2,4.4E1,2.08E2,2.59E2,9.3E1,4.5E1,4.5E1,1.82E2],"tree_param":{"num_deleted":"0","num_feature":"2","num_nodes":"29","size_leaf_vector":"1"}},{"base_weights":[-1.4048329E-3,-1.5181987E-1,2.4425378E-2,-3.4324225E-2,-8.583616E-2,6.0042804E-1,-2.5866735E-3,1.398098E-1,-1.6807361E-1,3.1256258E-1,1.3634287E-1,1.8623962E-1,-4.7397148E-2,-2.7619852E-2,8.74202E-2,-6.7753284E-3,-3.482665E-2,8.675685E-2,-6.813925E-2,8.558277E-2,-3.778356E-2,-4.9862284E-2,4.6368684E-3],"categories":[],"categories_nodes":[],"categories_segments":[],"categories_sizes":[],"default_left":[0,0,0,0,0,0,0,0,0,0,0,0,0,0,0,0,0,0,0,0,0,0,0],"id":48,"left_children":[1,3,5,-1,7,9,11,13,15,17,-1,19,21,-1,-1,-1,-1,-1,-1,-1,-1,-1,-1],"loss_changes":[9.755692E0,4.618656E0,3.3344517E1,0E0,5.1265497E0,2.0659428E1,1.7337767E1,2.2849436E1,3.6279597E0,3.9758366E1,0E0,1.4875867E2,7.008774E1,0E0,0E0,0E0,0E0,0E0,0E0,0E0,0E0,0E0,0E0],"parents":[2147483647,0,0,1,1,2,2,4,4,5,5,6,6,7,7,8,8,9,9,11,11,12,12],"right_children":[2,4,6,-1,8,10,12,14,16,18,-1,20,22,-1,-1,-1,-1,-1,-1,-1,-1,-1,-1],"split_conditions":[5E0,2E0,7E0,-3.4324225E-2,3E0,5E0,2E0,3E0,4E0,4E0,1.3634287E-1,1.6E1,3E0,-2.7619852E-2,8.74202E-2,-6.7753284E-3,-3.482665E-2,8.675685E-2,-6.813925E-2,8.558277E-2,-3.778356E-2,-4.9862284E-2,4.6368684E-3],"split_indices":[1,0,1,0,0,0,0,1,1,0,0,1,0,0,0,0,0,0,0,0,0,0,0],"split_type":[0,0,0,0,0,0,0,0,0,0,0,0,0,0,0,0,0,0,0,0,0,0,0],"sum_hessian":[2.509E3,3.67E2,2.142E3,9.3E1,2.74E2,9.5E1,2.047E3,7.3E1,2.01E2,7E1,2.5E1,3.92E2,1.655E3,4.7E1,2.6E1,1.3E2,7.1E1,4.5E1,2.5E1,1.79E2,2.13E2,2.84E2,1.371E3],"tree_param":{"num_deleted":"0","num_feature":"2","num_nodes":"23","size_leaf_vector":"1"}},{"base_weights":[-1.2079895E-3,-1.3668172E-1,2.2056378E-2,-3.0928299E-2,-7.718644E-2,5.419992E-1,-2.326711E-3,1.2663692E-1,-1.514723E-1,2.8156832E-1,1.23232976E-1,1.6773722E-1,-4.2684678E-2,-2.4915412E-2,7.900196E-2,-6.1029727E-3,-3.1392377E-2,7.826968E-2,-6.1587323E-2,7.707205E-2,-3.4022875E-2,-4.489358E-2,4.1735335E-3],"categories":[],"categories_nodes":[],"categories_segments":[],"categories_sizes":[],"default_left":[0,0,0,0,0,0,0,0,0,0,0,0,0,0,0,0,0,0,0,0,0,0,0],"id":49,"left_children":[1,3,5,-1,7,9,11,13,15,17,-1,19,21,-1,-1,-1,-1,-1,-1,-1,-1,-1,-1],"loss_changes":[7.9138083E0,3.755105E0,2.7169815E1,0E0,4.1830096E0,1.6912218E1,1.4063473E1,1.8644539E1,2.948732E0,3.2413124E1,0E0,1.2063612E2,5.6812458E1,0E0,0E0,0E0,0E0,0E0,0E0,0E0,0E0,0E0,0E0],"parents":[2147483647,0,0,1,1,2,2,4,4,5,5,6,6,7,7,8,8,9,9,11,11,12,12],"right_children":[2,4,6,-1,8,10,12,14,16,18,-1,20,22,-1,-1,-1,-1,-1,-1,-1,-1,-1,-1],"split_conditions":[5E0,2E0,7E0,-3.0928299E-2,3E0,5E0,2E0,3E0,4E0,4E0,1.23232976E-1,1.6E1,3E0,-2.4915412E-2,7.900196E-2,-6.1029727E-3,-3.1392377E-2,7.826968E-2,-6.1587323E-2,7.707205E-2,-3.4022875E-2,-4.489358E-2,4.1735335E-3],"split_indices":[1,0,1,0,0,0,0,1,1,0,0,1,0,0,0,0,0,0,0,0,0,0,0],"split_type":[0,0,0,0,0,0,0,0,0,0,0,0,0,0,0,0,0,0,0,0,0,0,0],"sum_hessian":[2.509E3,3.67E2,2.142E3,9.3E1,2.74E2,9.5E1,2.047E3,7.3E1,2.01E2,7E1,2.5E1,3.92E2,1.655E3,4.7E1,2.6E1,1.3E2,7.1E1,4.5E1,2.5E1,1.79E2,2.13E2,2.84E2,1.371E3],"tree_param":{"num_deleted":"0","num_feature":"2","num_nodes":"23","size_leaf_vector":"1"}}]},"name":"gbtree"},"learner_model_param":{"base_score":"[1.3597051E1]","boost_from_average":"1","num_class":"0","num_feature":"2","num_target":"1"},"objective":{"name":"reg:squarederror","reg_loss_param":{"scale_pos_weight":"1"}}},"version":[3,2,0]}