{"learner":{"attributes":{},"feature_names":["day_of_week","hour_of_day"],"feature_types":[],"gradient_booster":{"model":{"cats":{"enc":[],"feature_segments":[],"sorted_idx":[]},"gbtree_model_param":{"num_parallel_tree":"1","num_trees":"50"},"iteration_indptr":[0,1,2,3,4,5,6,7,8,9,10,11,12,13,14,15,16,17,18,19,20,21,22,23,24,25,26,27,28,29,30,31,32,33,34,35,36,37,38,39,40,41,42,43,44,45,46,47,48,49,50],"tree_info":[0,0,0,0,0,0,0,0,0,0,0,0,0,0,0,0,0,0,0,0,0,0,0,0,0,0,0,0,0,0,0,0,0,0,0,0,0,0,0,0,0,0,0,0,0,0,0,0,0,0],"trees":[{"base_weights":[3.4613439E-7,-1.1000287E1,9.7790974E-1,-1.1883261E0,-7.8646624E-1,3.5829535E0,-4.4101496E0,-2.4751937E0,4.313635E0,-2.1336865E0,-8.466156E0,-5.225087E-2,-7.206766E-1,4.9376494E-1,1.6255978E-1,-4.4459683E-1,-6.9587454E-2,-1.1063098E0,-6.407951E-1],"categories":[],"categories_nodes":[],"categories_segments":[],"categories_sizes":[],"default_left":[0,0,0,0,0,0,0,0,0,0,0,0,0,0,0,0,0,0,0],"id":0,"left_children":[1,3,5,-1,-1,7,9,11,13,15,17,-1,-1,-1,-1,-1,-1,-1,-1],"loss_changes":[2.7011541E4,4.741211E2,3.2383115E4,0E0,0E0,6.894002E3,6.925413E3,1.5484315E3,2.320168E3,1.6027009E3,1.3722695E3,0E0,0E0,0E0,0E0,0E0,0E0,0E0,0E0],"parents":[2147483647,0,0,1,1,2,2,5,5,6,6,7,7,8,8,9,9,10,10],"right_children":[2,4,6,-1,-1,8,10,12,14,16,18,-1,-1,-1,-1,-1,-1,-1,-1],"split_conditions":[3E0,6E0,1.9E1,-1.1883261E0,-7.8646624E-1,5E0,2.2E1,6E0,7E0,4E0,4E0,-5.225087E-2,-7.206766E-1,4.9376494E-1,1.6255978E-1,-4.4459683E-1,-6.9587454E-2,-1.1063098E0,-6.407951E-1],"split_indices":[1,0,1,0,0,1,1,0,0,0,0,0,0,0,0,0,0,0,0],"split_type":[0,0,0,0,0,0,0,0,0,0,0,0,0,0,0,0,0,0,0],"sum_hessian":[2.509E3,2.04E2,2.305E3,1.57E2,4.7E1,1.554E3,7.51E2,1.67E2,1.387E3,4.82E2,2.69E2,1.19E2,4.8E1,1.125E3,2.62E2,1.84E2,2.98E2,1.17E2,1.52E2],"tree_param":{"num_deleted":"0","num_feature":"2","num_nodes":"19","size_leaf_vector":"1"}},{"base_weights":[-1.7339209E-3,-9.909892E0,8.7908745E-1,-1.0702456E0,-7.0945805E-1,2.806029E0,-5.063587E0,-2.2322752E0,3.3416665E0,-2.7091343E0,-7.626011E0,-4.706933E-2,-6.5007967E-1,4.1749343E-1,-4.6088167E-2,-5.607637E-1,-8.627777E-2,-9.9661636E-1,-5.7713443E-1],"categories":[],"categories_nodes":[],"categories_segments":[],"categories_sizes":[],"default_left":[0,0,0,0,0,0,0,0,0,0,0,0,0,0,0,0,0,0,0],"id":1,"left_children":[1,3,5,-1,-1,7,9,11,13,15,17,-1,-1,-1,-1,-1,-1,-1,-1],"loss_changes":[2.191428E4,3.8148828E2,2.6420645E4,0E0,0E0,4.7086025E3,3.388046E3,1.2601909E3,4.992377E3,1.5792561E3,1.1143369E3,0E0,0E0,0E0,0E0,0E0,0E0,0E0,0E0],"parents":[2147483647,0,0,1,1,2,2,5,5,6,6,7,7,8,8,9,9,10,10],"right_children":[2,4,6,-1,-1,8,10,12,14,16,18,-1,-1,-1,-1,-1,-1,-1,-1],"split_conditions":[3E0,6E0,2E1,-1.0702456E0,-7.0945805E-1,5E0,2.2E1,6E0,1.8E1,4E0,4E0,-4.706933E-2,-6.5007967E-1,4.1749343E-1,-4.6088167E-2,-5.607637E-1,-8.627777E-2,-9.9661636E-1,-5.7713443E-1],"split_indices":[1,0,1,0,0,1,1,0,1,0,0,0,0,0,0,0,0,0,0],"split_type":[0,0,0,0,0,0,0,0,0,0,0,0,0,0,0,0,0,0,0],"sum_hessian":[2.509E3,2.04E2,2.305E3,1.57E2,4.7E1,1.741E3,5.64E2,1.67E2,1.574E3,2.95E2,2.69E2,1.19E2,4.8E1,1.291E3,2.83E2,1.14E2,1.81E2,1.17E2,1.52E2],"tree_param":{"num_deleted":"0","num_feature":"2","num_nodes":"19","size_leaf_vector":"1"}},{"base_weights":[-3.2841964E-3,-8.927584E0,7.9007435E-1,-9.6389836E-1,-6.3999023E0,2.525239E0,-4.561159E0,-7.1665424E-1,-5.3346556E-1,-2.0131972E0,3.0077355E0,-2.440407E0,-6.869239E0,-4.24016E-2,-5.863984E-1,3.7577638E-1,-4.1495573E-2,-5.05175E-1,-7.769739E-2,-8.977993E-1,-5.197982E-1],"categories":[],"categories_nodes":[],"categories_segments":[],"categories_sizes":[],"default_left":[0,0,0,0,0,0,0,0,0,0,0,0,0,0,0,0,0,0,0,0,0],"id":2,"left_children":[1,3,5,-1,7,9,11,-1,-1,13,15,17,19,-1,-1,-1,-1,-1,-1,-1,-1],"loss_changes":[1.7778277E4,3.069414E2,2.1423352E4,0E0,9.686279E-1,3.8206523E3,2.748835E3,0E0,0E0,1.0256061E3,4.0447676E3,1.2818381E3,9.0488574E2,0E0,0E0,0E0,0E0,0E0,0E0,0E0,0E0],"parents":[2147483647,0,0,1,1,2,2,4,4,5,5,6,6,9,9,10,10,11,11,12,12],"right_children":[2,4,6,-1,8,10,12,-1,-1,14,16,18,20,-1,-1,-1,-1,-1,-1,-1,-1],"split_conditions":[3E0,6E0,2E1,-9.6389836E-1,7E0,5E0,2.2E1,-7.1665424E-1,-5.3346556E-1,6E0,1.8E1,4E0,4E0,-4.24016E-2,-5.863984E-1,3.7577638E-1,-4.1495573E-2,-5.05175E-1,-7.769739E-2,-8.977993E-1,-5.197982E-1],"split_indices":[1,0,1,0,0,1,1,0,0,0,1,0,0,0,0,0,0,0,0,0,0],"split_type":[0,0,0,0,0,0,0,0,0,0,0,0,0,0,0,0,0,0,0,0,0],"sum_hessian":[2.509E3,2.04E2,2.305E3,1.57E2,4.7E1,1.741E3,5.64E2,2.4E1,2.3E1,1.67E2,1.574E3,2.95E2,2.69E2,1.19E2,4.8E1,1.291E3,2.83E2,1.14E2,1.81E2,1.17E2,1.52E2],"tree_param":{"num_deleted":"0","num_feature":"2","num_nodes":"21","size_leaf_vector":"1"}},{"base_weights":[-4.752289E-3,-8.045626E0,7.1007156E-1,-8.681186E-1,-5.7859564E0,2.2725458E0,-4.108584E0,-6.4785546E-1,-4.8234183E-1,-1.8156208E0,2.707174E0,-2.1983354E0,-6.1875653E0,-3.8196813E-2,-5.2895534E-1,3.3822784E-1,-3.7360653E-2,-4.550968E-1,-6.99703E-2,-7.8277045E-1,-4.4135734E-1],"categories":[],"categories_nodes":[],"categories_segments":[],"categories_sizes":[],"default_left":[0,0,0,0,0,0,0,0,0,0,0,0,0,0,0,0,0,0,0,0,0],"id":3,"left_children":[1,3,5,-1,7,9,11,-1,-1,13,15,17,19,-1,-1,-1,-1,-1,-1,-1,-1],"loss_changes":[1.443271E4,2.441836E2,1.7371268E4,0E0,7.503662E-1,3.1001582E3,2.2302227E3,0E0,0E0,8.346888E2,3.2770244E3,1.0404321E3,7.51042E2,0E0,0E0,0E0,0E0,0E0,0E0,0E0,0E0],"parents":[2147483647,0,0,1,1,2,2,4,4,5,5,6,6,9,9,10,10,11,11,12,12],"right_children":[2,4,6,-1,8,10,12,-1,-1,14,16,18,20,-1,-1,-1,-1,-1,-1,-1,-1],"split_conditions":[3E0,6E0,2E1,-8.681186E-1,7E0,5E0,2.2E1,-6.4785546E-1,-4.8234183E-1,6E0,1.8E1,4E0,5E0,-3.8196813E-2,-5.2895534E-1,3.3822784E-1,-3.7360653E-2,-4.550968E-1,-6.99703E-2,-7.8277045E-1,-4.4135734E-1],"split_indices":[1,0,1,0,0,1,1,0,0,0,1,0,0,0,0,0,0,0,0,0,0],"split_type":[0,0,0,0,0,0,0,0,0,0,0,0,0,0,0,0,0,0,0,0,0],"sum_hessian":[2.509E3,2.04E2,2.305E3,1.57E2,4.7E1,1.741E3,5.64E2,2.4E1,2.3E1,1.67E2,1.574E3,2.95E2,2.69E2,1.19E2,4.8E1,1.291E3,2.83E2,1.14E2,1.81E2,1.38E2,1.31E2],"tree_param":{"num_deleted":"0","num_feature":"2","num_nodes":"21","size_leaf_vector":"1"}},{"base_weights":[-5.8763456E-3,-7.250811E0,6.381902E-1,-7.818562E-1,-5.2309065E0,2.357164E0,-2.9171853E0,-5.8566135E-1,-4.361174E-1,5.506564E-1,3.6067703E0,-1.4263374E0,-5.5733423E0,1.3127941E-1,-2.0913635E-1,4.0187046E-1,7.451543E-3,-3.019212E-1,-4.360092E-2,-7.3116654E-1,-4.1962478E-1],"categories":[],"categories_nodes":[],"categories_segments":[],"categories_sizes":[],"default_left":[0,0,0,0,0,0,0,0,0,0,0,0,0,0,0,0,0,0,0,0,0],"id":4,"left_children":[1,3,5,-1,7,9,11,-1,-1,13,15,17,19,-1,-1,-1,-1,-1,-1,-1,-1],"loss_changes":[1.171684E4,1.9419629E2,1.4100221E4,0E0,5.797119E-1,3.5083057E3,2.969915E3,0E0,0E0,1.2853978E3,1.3368984E3,7.606008E2,6.156543E2,0E0,0E0,0E0,0E0,0E0,0E0,0E0,0E0],"parents":[2147483647,0,0,1,1,2,2,4,4,5,5,6,6,9,9,10,10,11,11,12,12],"right_children":[2,4,6,-1,8,10,12,-1,-1,14,16,18,20,-1,-1,-1,-1,-1,-1,-1,-1],"split_conditions":[3E0,6E0,1.9E1,-7.818562E-1,7E0,1.1E1,2.2E1,-5.8566135E-1,-4.361174E-1,6E0,1.8E1,4E0,4E0,1.3127941E-1,-2.0913635E-1,4.0187046E-1,7.451543E-3,-3.019212E-1,-4.360092E-2,-7.3116654E-1,-4.1962478E-1],"split_indices":[1,0,1,0,0,1,1,0,0,0,1,0,0,0,0,0,0,0,0,0,0],"split_type":[0,0,0,0,0,0,0,0,0,0,0,0,0,0,0,0,0,0,0,0,0],"sum_hessian":[2.509E3,2.04E2,2.305E3,1.57E2,4.7E1,1.554E3,7.51E2,2.4E1,2.3E1,6.36E2,9.18E2,4.82E2,2.69E2,4.94E2,1.42E2,8.22E2,9.6E1,1.84E2,2.98E2,1.17E2,1.52E2],"tree_param":{"num_deleted":"0","num_feature":"2","num_nodes":"21","size_leaf_vector":"1"}},{"base_weights":[-6.471409E-3,-6.534528E0,5.73866E-1,-7.041654E-1,-4.729103E0,1.8499764E0,-3.3616352E0,-5.294379E-1,-3.9432284E-1,-1.6706709E0,2.2243376E0,-2.4149709E0,-6.3300476E0,6.3431166E-2,-3.4060153E-1,2.765745E-1,-2.4651734E-2,-4.3910083E-1,-6.1186153E-2,-5.270111E-1,-8.28927E-1],"categories":[],"categories_nodes":[],"categories_segments":[],"categories_sizes":[],"default_left":[0,0,0,0,0,0,0,0,0,0,0,0,0,0,0,0,0,0,0,0,0],"id":5,"left_children":[1,3,5,-1,7,9,11,-1,-1,13,15,17,19,-1,-1,-1,-1,-1,-1,-1,-1],"loss_changes":[9.512823E3,1.5439258E2,1.158726E4,0E0,4.4641113E-1,2.2996611E3,1.5724141E3,0E0,0E0,6.741501E2,2.107621E3,1.5294084E3,2.3873926E2,0E0,0E0,0E0,0E0,0E0,0E0,0E0,0E0],"parents":[2147483647,0,0,1,1,2,2,4,4,5,5,6,6,9,9,10,10,11,11,12,12],"right_children":[2,4,6,-1,8,10,12,-1,-1,14,16,18,20,-1,-1,-1,-1,-1,-1,-1,-1],"split_conditions":[3E0,6E0,2E1,-7.041654E-1,7E0,5E0,2.3E1,-5.294379E-1,-3.9432284E-1,3E0,1.8E1,5E0,7E0,6.3431166E-2,-3.4060153E-1,2.765745E-1,-2.4651734E-2,-4.3910083E-1,-6.1186153E-2,-5.270111E-1,-8.28927E-1],"split_indices":[1,0,1,0,0,1,1,0,0,0,1,0,0,0,0,0,0,0,0,0,0],"split_type":[0,0,0,0,0,0,0,0,0,0,0,0,0,0,0,0,0,0,0,0,0],"sum_hessian":[2.509E3,2.04E2,2.305E3,1.57E2,4.7E1,1.741E3,5.64E2,2.4E1,2.3E1,1.67E2,1.574E3,4.29E2,1.35E2,7.2E1,9.5E1,1.291E3,2.83E2,2.04E2,2.25E2,9E1,4.5E1],"tree_param":{"num_deleted":"0","num_feature":"2","num_nodes":"21","size_leaf_vector":"1"}},{"base_weights":[-7.222321E-3,-5.889016E0,5.156636E-1,-6.3419455E-1,-4.275438E0,1.6649644E0,-3.028757E0,-4.786118E-1,-3.5653362E-1,-1.5052532E0,2.0020638E0,-2.174637E0,-5.7070127E0,5.7174977E-2,-3.0689612E-1,2.4893847E-1,-2.2195263E-2,-3.954049E-1,-5.509464E-2,-4.748891E-1,-7.478363E-1],"categories":[],"categories_nodes":[],"categories_segments":[],"categories_sizes":[],"default_left":[0,0,0,0,0,0,0,0,0,0,0,0,0,0,0,0,0,0,0,0,0],"id":6,"left_children":[1,3,5,-1,7,9,11,-1,-1,13,15,17,19,-1,-1,-1,-1,-1,-1,-1,-1],"loss_changes":[7.72256E3,1.2270703E2,9.398776E3,0E0,3.423462E-1,1.8646514E3,1.2800562E3,0E0,0E0,5.4738947E2,1.7075532E3,1.240184E3,1.9530078E2,0E0,0E0,0E0,0E0,0E0,0E0,0E0,0E0],"parents":[2147483647,0,0,1,1,2,2,4,4,5,5,6,6,9,9,10,10,11,11,12,12],"right_children":[2,4,6,-1,8,10,12,-1,-1,14,16,18,20,-1,-1,-1,-1,-1,-1,-1,-1],"split_conditions":[3E0,6E0,2E1,-6.3419455E-1,7E0,5E0,2.3E1,-4.786118E-1,-3.5653362E-1,3E0,1.8E1,5E0,7E0,5.7174977E-2,-3.0689612E-1,2.4893847E-1,-2.2195263E-2,-3.954049E-1,-5.509464E-2,-4.748891E-1,-7.478363E-1],"split_indices":[1,0,1,0,0,1,1,0,0,0,1,0,0,0,0,0,0,0,0,0,0],"split_type":[0,0,0,0,0,0,0,0,0,0,0,0,0,0,0,0,0,0,0,0,0],"sum_hessian":[2.509E3,2.04E2,2.305E3,1.57E2,4.7E1,1.741E3,5.64E2,2.4E1,2.3E1,1.67E2,1.574E3,4.29E2,1.35E2,7.2E1,9.5E1,1.291E3,2.83E2,2.04E2,2.25E2,9E1,4.5E1],"tree_param":{"num_deleted":"0","num_feature":"2","num_nodes":"21","size_leaf_vector":"1"}},{"base_weights":[-7.7610803E-3,-5.307282E0,4.633619E-1,-5.7117647E-1,-3.8652928E0,1.498455E0,-2.728843E0,-4.3266508E-1,-3.223658E-1,1.9148651E-1,2.249848E0,-1.3890243E0,-4.1875744E0,6.950318E-2,-2.6189205E-1,3.0924487E-1,-1.9983593E-2,-6.687788E-2,-3.7048346E-1,-5.4577214E-1,-2.818347E-1],"categories":[],"categories_nodes":[],"categories_segments":[],"categories_sizes":[],"default_left":[0,0,0,0,0,0,0,0,0,0,0,0,0,0,0,0,0,0,0,0,0],"id":7,"left_children":[1,3,5,-1,7,9,11,-1,-1,13,15,17,19,-1,-1,-1,-1,-1,-1,-1,-1],"loss_changes":[6.269241E3,9.749121E1,7.623642E3,0E0,2.6141357E-1,1.7102952E3,1.0984395E3,0E0,0E0,9.0328174E2,2.283518E3,4.9123608E2,4.5418066E2,0E0,0E0,0E0,0E0,0E0,0E0,0E0,0E0],"parents":[2147483647,0,0,1,1,2,2,4,4,5,5,6,6,9,9,10,10,11,11,12,12],"right_children":[2,4,6,-1,8,10,12,-1,-1,14,16,18,20,-1,-1,-1,-1,-1,-1,-1,-1],"split_conditions":[3E0,6E0,2E1,-5.7117647E-1,7E0,1.1E1,2.2E1,-4.3266508E-1,-3.223658E-1,7E0,1.8E1,7E0,5E0,6.950318E-2,-2.6189205E-1,3.0924487E-1,-1.9983593E-2,-6.687788E-2,-3.7048346E-1,-5.4577214E-1,-2.818347E-1],"split_indices":[1,0,1,0,0,1,1,0,0,0,1,0,0,0,0,0,0,0,0,0,0],"split_type":[0,0,0,0,0,0,0,0,0,0,0,0,0,0,0,0,0,0,0,0,0],"sum_hessian":[2.509E3,2.04E2,2.305E3,1.57E2,4.7E1,1.741E3,5.64E2,2.4E1,2.3E1,6.36E2,1.105E3,2.95E2,2.69E2,5.4E2,9.6E1,8.22E2,2.83E2,2.26E2,6.9E1,1.38E2,1.31E2],"tree_param":{"num_deleted":"0","num_feature":"2","num_nodes":"21","size_leaf_vector":"1"}},{"base_weights":[-7.978458E-3,-4.7830234E0,4.1651943E-1,-5.1442033E-1,-3.4944935E0,1.1683924E0,-3.190873E0,-3.9112923E-1,-2.914724E-1,1.6312683E0,-6.8616915E-1,-2.3576047E0,-6.0994583E-1,2.0844443E-1,-1.632497E-2,-5.820167E-1,8.676199E-3,-4.332729E-1,1.2908739E-1],"categories":[],"categories_nodes":[],"categories_segments":[],"categories_sizes":[],"default_left":[0,0,0,0,0,0,0,0,0,0,0,0,0,0,0,0,0,0,0],"id":8,"left_children":[1,3,5,-1,7,9,11,-1,-1,13,15,17,-1,-1,-1,-1,-1,-1,-1],"loss_changes":[5.0897534E3,7.742871E1,6.258294E3,0E0,1.9873047E-1,1.6398655E3,9.5022534E2,0E0,0E0,1.2429592E3,1.5163677E3,2.2467207E3,0E0,0E0,0E0,0E0,0E0,0E0,0E0],"parents":[2147483647,0,0,1,1,2,2,4,4,5,5,6,6,9,9,10,10,11,11],"right_children":[2,4,6,-1,8,10,12,-1,-1,14,16,18,-1,-1,-1,-1,-1,-1,-1],"split_conditions":[3E0,6E0,2.1E1,-5.1442033E-1,7E0,7E0,7E0,-3.9112923E-1,-2.914724E-1,1.8E1,8E0,5E0,-6.0994583E-1,2.0844443E-1,-1.632497E-2,-5.820167E-1,8.676199E-3,-4.332729E-1,1.2908739E-1],"split_indices":[1,0,1,0,0,0,0,0,0,1,1,0,0,0,0,0,0,0,0],"split_type":[0,0,0,0,0,0,0,0,0,0,0,0,0,0,0,0,0,0,0],"sum_hessian":[2.509E3,2.04E2,2.305E3,1.57E2,4.7E1,1.908E3,3.97E2,2.4E1,2.3E1,1.527E3,3.81E2,3.1E2,8.7E1,1.219E3,3.08E2,4.9E1,3.32E2,2.01E2,1.09E2],"tree_param":{"num_deleted":"0","num_feature":"2","num_nodes":"19","size_leaf_vector":"1"}},{"base_weights":[-8.173662E-3,-4.3105597E0,3.7430567E-1,-4.6330386E-1,-3.1592648E0,1.2195158E0,-2.2322967E0,-3.535808E-1,-2.6353964E-1,3.9463017E-2,1.8980638E0,-3.7040272E0,-1.2033333E0,5.5021565E-2,-1.7288029E-1,2.9793185E-1,4.3399587E-2,-2.6623884E-1,-4.6877933E-1,8.6246006E-2,-4.2548543E-1],"categories":[],"categories_nodes":[],"categories_segments":[],"categories_sizes":[],"default_left":[0,0,0,0,0,0,0,0,0,0,0,0,0,0,0,0,0,0,0,0,0],"id":9,"left_children":[1,3,5,-1,7,9,11,-1,-1,13,15,17,19,-1,-1,-1,-1,-1,-1,-1,-1],"loss_changes":[4.132004E3,6.1473145E1,5.0831323E3,0E0,1.5014648E-1,1.3947834E3,8.511543E2,0E0,0E0,5.7625555E2,1.7495378E3,2.2525635E2,2.1091428E3,0E0,0E0,0E0,0E0,0E0,0E0,0E0,0E0],"parents":[2147483647,0,0,1,1,2,2,4,4,5,5,6,6,9,9,10,10,11,11,12,12],"right_children":[2,4,6,-1,8,10,12,-1,-1,14,16,18,20,-1,-1,-1,-1,-1,-1,-1,-1],"split_conditions":[3E0,6E0,2E1,-4.6330386E-1,7E0,1.1E1,4E0,-3.535808E-1,-2.6353964E-1,6E0,1.7E1,2.2E1,7E0,5.5021565E-2,-1.7288029E-1,2.9793185E-1,4.3399587E-2,-2.6623884E-1,-4.6877933E-1,8.6246006E-2,-4.2548543E-1],"split_indices":[1,0,1,0,0,1,0,0,0,0,1,1,0,0,0,0,0,0,0,0,0],"split_type":[0,0,0,0,0,0,0,0,0,0,0,0,0,0,0,0,0,0,0,0,0],"sum_hessian":[2.509E3,2.04E2,2.305E3,1.57E2,4.7E1,1.741E3,5.64E2,2.4E1,2.3E1,6.36E2,1.105E3,2.31E2,3.33E2,4.94E2,1.42E2,6.35E2,4.7E2,1.14E2,1.17E2,1.99E2,1.34E2],"tree_param":{"num_deleted":"0","num_feature":"2","num_nodes":"21","size_leaf_vector":"1"}},{"base_weights":[-8.125566E-3,-2.7979643E0,4.770676E-1,-3.884774E0,-1.4551432E0,1.6044012E0,-1.6043369E0,-4.1726667E-1,-2.8561952E0,1.8695082E-1,-2.688661E0,2.01586E0,-1.6330662E-1,-7.328613E-1,-3.157368E0,-3.1963703E-1,-2.3828378E-1,-8.653274E-2,2.122428E-1,-2.1183987E-1,-4.142506E-1,8.607805E-2,2.6461637E-1,-5.8525294E-1,4.3248367E-2,-1.8323244E-1,-5.0140447E-3,-2.568315E-1,-4.9391627E-1],"categories":[],"categories_nodes":[],"categories_segments":[],"categories_sizes":[],"default_left":[0,0,0,0,0,0,0,0,0,0,0,0,0,0,0,0,0,0,0,0,0,0,0,0,0,0,0,0,0],"id":10,"left_children":[1,3,5,7,9,11,13,-1,15,17,19,21,23,25,27,-1,-1,-1,-1,-1,-1,-1,-1,-1,-1,-1,-1,-1,-1],"loss_changes":[3.3988977E3,5.372405E2,5.0216035E3,4.8786865E1,3.4079547E2,1.00987646E3,1.0154645E3,0E0,1.1276245E-1,1.505128E2,7.081549E1,8.1750684E2,8.9399164E2,3.6246066E2,2.7069873E2,0E0,0E0,0E0,0E0,0E0,0E0,0E0,0E0,0E0,0E0,0E0,0E0,0E0,0E0],"parents":[2147483647,0,0,1,1,2,2,3,3,4,4,5,5,6,6,8,8,9,9,10,10,11,11,12,12,13,13,14,14],"right_children":[2,4,6,8,10,12,14,-1,16,18,20,22,24,26,28,-1,-1,-1,-1,-1,-1,-1,-1,-1,-1,-1,-1,-1,-1],"split_conditions":[5E0,3E0,1.9E1,6E0,3E0,7E0,2.2E1,-4.1726667E-1,7E0,2E0,7E0,1.1E1,8E0,4E0,7E0,-3.1963703E-1,-2.3828378E-1,-8.653274E-2,2.122428E-1,-2.1183987E-1,-4.142506E-1,8.607805E-2,2.6461637E-1,-5.8525294E-1,4.3248367E-2,-1.8323244E-1,-5.0140447E-3,-2.568315E-1,-4.9391627E-1],"split_indices":[1,1,1,0,0,0,1,0,0,0,0,1,1,0,0,0,0,0,0,0,0,0,0,0,0,0,0,0,0],"split_type":[0,0,0,0,0,0,0,0,0,0,0,0,0,0,0,0,0,0,0,0,0,0,0,0,0,0,0,0,0],"sum_hessian":[2.509E3,3.71E2,2.138E3,2.04E2,1.67E2,1.387E3,7.51E2,1.57E2,4.7E1,7.2E1,9.5E1,1.125E3,2.62E2,4.82E2,2.69E2,2.4E1,2.3E1,4.7E1,2.5E1,7E1,2.5E1,3.98E2,7.27E2,2.4E1,2.38E2,1.84E2,2.98E2,2.04E2,6.5E1],"tree_param":{"num_deleted":"0","num_feature":"2","num_nodes":"29","size_leaf_vector":"1"}},{"base_weights":[-8.35119E-3,-2.5221345E0,4.288324E-1,-3.5010536E0,-1.3126075E0,1.5554761E0,-1.2882106E0,-3.7580407E-1,-2.5821989E0,1.6997762E-1,-2.426317E0,7.786243E-1,2.5954974E0,-5.602961E-1,-2.8444116E0,-2.889519E-1,-2.1544822E-1,-7.8059755E-2,1.918348E-1,-1.9095425E-1,-3.7441888E-1,1.12453155E-1,-1.0030862E-1,3.3734044E-1,1.0713933E-1,-1.7261161E-1,9.79698E-3,-3.8491812E-1,-1.7648102E-1],"categories":[],"categories_nodes":[],"categories_segments":[],"categories_sizes":[],"default_left":[0,0,0,0,0,0,0,0,0,0,0,0,0,0,0,0,0,0,0,0,0,0,0,0,0,0,0,0,0],"id":11,"left_children":[1,3,5,7,9,11,13,-1,15,17,19,21,23,25,27,-1,-1,-1,-1,-1,-1,-1,-1,-1,-1,-1,-1,-1,-1],"loss_changes":[2.7595337E3,4.3586304E2,4.1398896E3,3.870337E1,2.7780884E2,1.0418406E3,9.59005E2,0E0,8.401489E-2,1.2282035E2,5.8230347E1,4.578111E2,6.5084326E2,4.44505E2,2.860896E2,0E0,0E0,0E0,0E0,0E0,0E0,0E0,0E0,0E0,0E0,0E0,0E0,0E0,0E0],"parents":[2147483647,0,0,1,1,2,2,3,3,4,4,5,5,6,6,8,8,9,9,10,10,11,11,12,12,13,13,14,14],"right_children":[2,4,6,8,10,12,14,-1,16,18,20,22,24,26,28,-1,-1,-1,-1,-1,-1,-1,-1,-1,-1,-1,-1,-1,-1],"split_conditions":[5E0,3E0,1.8E1,6E0,3E0,1.3E1,2.2E1,-3.7580407E-1,7E0,2E0,7E0,7E0,1.7E1,4E0,5E0,-2.889519E-1,-2.1544822E-1,-7.8059755E-2,1.918348E-1,-1.9095425E-1,-3.7441888E-1,1.12453155E-1,-1.0030862E-1,3.3734044E-1,1.0713933E-1,-1.7261161E-1,9.79698E-3,-3.8491812E-1,-1.7648102E-1],"split_indices":[1,1,1,0,0,1,1,0,0,0,0,0,1,0,0,0,0,0,0,0,0,0,0,0,0,0,0,0,0],"split_type":[0,0,0,0,0,0,0,0,0,0,0,0,0,0,0,0,0,0,0,0,0,0,0,0,0,0,0,0,0],"sum_hessian":[2.509E3,3.71E2,2.138E3,2.04E2,1.67E2,1.291E3,8.47E2,1.57E2,4.7E1,7.2E1,9.5E1,7.4E2,5.51E2,5.78E2,2.69E2,2.4E1,2.3E1,4.7E1,2.5E1,7E1,2.5E1,6.2E2,1.2E2,3.64E2,1.87E2,2.08E2,3.7E2,1.38E2,1.31E2],"tree_param":{"num_deleted":"0","num_feature":"2","num_nodes":"29","size_leaf_vector":"1"}},{"base_weights":[-8.153517E-3,-2.2735012E0,3.858238E-1,-3.155242E0,-1.1840347E0,1.4002815E0,-1.1602436E0,-3.3846152E-1,-2.3344872E0,1.5453884E-1,-2.1895745E0,7.00778E-1,2.3367522E0,-5.045479E-1,-2.5620496E0,-2.6121253E-1,-1.9480108E-1,-7.041637E-2,1.733892E-1,-1.721278E-1,-3.3841702E-1,1.01225905E-1,-9.0360634E-2,3.0369875E-1,9.648236E-2,-1.5543307E-1,8.819913E-3,-1.9968025E-1,-4.2789227E-1],"categories":[],"categories_nodes":[],"categories_segments":[],"categories_sizes":[],"default_left":[0,0,0,0,0,0,0,0,0,0,0,0,0,0,0,0,0,0,0,0,0,0,0,0,0,0,0,0,0],"id":12,"left_children":[1,3,5,7,9,11,13,-1,15,17,19,21,23,25,27,-1,-1,-1,-1,-1,-1,-1,-1,-1,-1,-1,-1,-1,-1],"loss_changes":[2.2410413E3,3.536172E2,3.356475E3,3.0691772E1,2.2646451E2,8.447058E2,7.7815356E2,0E0,6.19812E-2,1.0022314E2,4.78797E1,3.712186E2,5.273613E2,3.604231E2,2.5347937E2,0E0,0E0,0E0,0E0,0E0,0E0,0E0,0E0,0E0,0E0,0E0,0E0,0E0,0E0],"parents":[2147483647,0,0,1,1,2,2,3,3,4,4,5,5,6,6,8,8,9,9,10,10,11,11,12,12,13,13,14,14],"right_children":[2,4,6,8,10,12,14,-1,16,18,20,22,24,26,28,-1,-1,-1,-1,-1,-1,-1,-1,-1,-1,-1,-1,-1,-1],"split_conditions":[5E0,3E0,1.8E1,6E0,3E0,1.3E1,2.2E1,-3.3846152E-1,7E0,2E0,7E0,7E0,1.7E1,4E0,7E0,-2.6121253E-1,-1.9480108E-1,-7.041637E-2,1.733892E-1,-1.721278E-1,-3.3841702E-1,1.01225905E-1,-9.0360634E-2,3.0369875E-1,9.648236E-2,-1.5543307E-1,8.819913E-3,-1.9968025E-1,-4.2789227E-1],"split_indices":[1,1,1,0,0,1,1,0,0,0,0,0,1,0,0,0,0,0,0,0,0,0,0,0,0,0,0,0,0],"split_type":[0,0,0,0,0,0,0,0,0,0,0,0,0,0,0,0,0,0,0,0,0,0,0,0,0,0,0,0,0],"sum_hessian":[2.509E3,3.71E2,2.138E3,2.04E2,1.67E2,1.291E3,8.47E2,1.57E2,4.7E1,7.2E1,9.5E1,7.4E2,5.51E2,5.78E2,2.69E2,2.4E1,2.3E1,4.7E1,2.5E1,7E1,2.5E1,6.2E2,1.2E2,3.64E2,1.87E2,2.08E2,3.7E2,2.04E2,6.5E1],"tree_param":{"num_deleted":"0","num_feature":"2","num_nodes":"29","size_leaf_vector":"1"}},{"base_weights":[-7.962122E-3,3.6245346E-1,-1.9744953E0,-2.0493824E0,8.7728727E-1,-1.3191929E0,-4.2679563E0,-2.8435934E0,-1.0680572E0,1.2156903E0,-4.3896997E-1,-2.821715E0,1.4519769E0,-5.2601856E-1,-3.8575132E0,-3.048296E-1,-2.1105388E-1,1.4049557E-2,-1.9759354E-1,1.554913E-1,2.831855E-3,-5.107645E-1,-8.715064E-3,-4.080618E-1,-2.1082595E-1,1.14337625E-2,2.4480835E-1,-2.5211367E-1,-4.3837395E-1],"categories":[],"categories_nodes":[],"categories_segments":[],"categories_sizes":[],"default_left":[0,0,0,0,0,0,0,0,0,0,0,0,0,0,0,0,0,0,0,0,0,0,0,0,0,0,0,0,0],"id":13,"left_children":[1,3,5,7,9,11,13,15,17,19,21,23,25,-1,27,-1,-1,-1,-1,-1,-1,-1,-1,-1,-1,-1,-1,-1,-1],"loss_changes":[1.8290862E3,2.6254988E3,5.925281E2,2.868921E2,7.764646E2,1.2990217E3,1.5547119E1,2.4328247E1,1.846103E2,5.582141E2,5.859381E2,1.7282751E2,1.4628754E2,0E0,3.5361572E1,0E0,0E0,0E0,0E0,0E0,0E0,0E0,0E0,0E0,0E0,0E0,0E0,0E0,0E0],"parents":[2147483647,0,0,1,1,2,2,3,3,4,4,5,5,6,6,7,7,8,8,9,9,10,10,11,11,12,12,14,14],"right_children":[2,4,6,8,10,12,14,16,18,20,22,24,26,-1,28,-1,-1,-1,-1,-1,-1,-1,-1,-1,-1,-1,-1,-1,-1],"split_conditions":[2.1E1,5E0,7E0,3E0,7E0,5E0,2.2E1,6E0,3E0,1.8E1,8E0,2E0,6E0,-5.2601856E-1,2.3E1,-3.048296E-1,-2.1105388E-1,1.4049557E-2,-1.9759354E-1,1.554913E-1,2.831855E-3,-5.107645E-1,-8.715064E-3,-4.080618E-1,-2.1082595E-1,1.14337625E-2,2.4480835E-1,-2.5211367E-1,-4.3837395E-1],"split_indices":[1,1,0,1,0,0,1,0,0,1,1,0,0,0,1,0,0,0,0,0,0,0,0,0,0,0,0,0,0],"split_type":[0,0,0,0,0,0,0,0,0,0,0,0,0,0,0,0,0,0,0,0,0,0,0,0,0,0,0,0,0],"sum_hessian":[2.509E3,2.112E3,3.97E2,3.71E2,1.741E3,3.1E2,8.7E1,2.04E2,1.67E2,1.385E3,3.56E2,2.01E2,1.09E2,2.2E1,6.5E1,1.57E2,4.7E1,7.2E1,9.5E1,1.077E3,3.08E2,2.4E1,3.32E2,7.1E1,1.3E2,4.7E1,6.2E1,2E1,4.5E1],"tree_param":{"num_deleted":"0","num_feature":"2","num_nodes":"29","size_leaf_vector":"1"}},{"base_weights":[-8.2174E-3,3.2570642E-1,-1.7810134E0,-1.8463242E0,7.8935146E-1,-1.1884396E0,-3.8549845E0,-2.5617504E0,-9.6234393E-1,1.0942359E0,-3.9652848E-1,-2.5426073E0,1.3091089E0,-4.7570372E-1,-3.4822237E0,-2.6798972E-1,-1.5590662E-1,1.2663849E-2,-1.7804E-1,1.3995664E-1,2.5496243E-3,-4.617311E-1,-7.846214E-3,-3.6782235E-1,-1.8990427E-1,1.0314226E-2,2.2071612E-1,-2.2810285E-1,-3.954895E-1],"categories":[],"categories_nodes":[],"categories_segments":[],"categories_sizes":[],"default_left":[0,0,0,0,0,0,0,0,0,0,0,0,0,0,0,0,0,0,0,0,0,0,0,0,0,0,0,0,0],"id":14,"left_children":[1,3,5,7,9,11,13,15,17,19,21,23,25,-1,27,-1,-1,-1,-1,-1,-1,-1,-1,-1,-1,-1,-1,-1,-1],"loss_changes":[1.486447E3,2.1293567E3,4.8455298E2,2.3279602E2,6.30265E2,1.0551614E3,1.3024902E1,2.0106934E1,1.4988802E2,4.522423E2,4.7890628E2,1.4064514E2,1.1890466E2,0E0,2.845166E1,0E0,0E0,0E0,0E0,0E0,0E0,0E0,0E0,0E0,0E0,0E0,0E0,0E0,0E0],"parents":[2147483647,0,0,1,1,2,2,3,3,4,4,5,5,6,6,7,7,8,8,9,9,10,10,11,11,12,12,14,14],"right_children":[2,4,6,8,10,12,14,16,18,20,22,24,26,-1,28,-1,-1,-1,-1,-1,-1,-1,-1,-1,-1,-1,-1,-1,-1],"split_conditions":[2.1E1,5E0,7E0,3E0,7E0,5E0,2.2E1,7E0,3E0,1.8E1,8E0,2E0,6E0,-4.7570372E-1,2.3E1,-2.6798972E-1,-1.5590662E-1,1.2663849E-2,-1.7804E-1,1.3995664E-1,2.5496243E-3,-4.617311E-1,-7.846214E-3,-3.6782235E-1,-1.8990427E-1,1.0314226E-2,2.2071612E-1,-2.2810285E-1,-3.954895E-1],"split_indices":[1,1,0,1,0,0,1,0,0,1,1,0,0,0,1,0,0,0,0,0,0,0,0,0,0,0,0,0,0],"split_type":[0,0,0,0,0,0,0,0,0,0,0,0,0,0,0,0,0,0,0,0,0,0,0,0,0,0,0,0,0],"sum_hessian":[2.509E3,2.112E3,3.97E2,3.71E2,1.741E3,3.1E2,8.7E1,2.04E2,1.67E2,1.385E3,3.56E2,2.01E2,1.09E2,2.2E1,6.5E1,1.81E2,2.3E1,7.2E1,9.5E1,1.077E3,3.08E2,2.4E1,3.32E2,7.1E1,1.3E2,4.7E1,6.2E1,2E1,4.5E1],"tree_param":{"num_deleted":"0","num_feature":"2","num_nodes":"29","size_leaf_vector":"1"}},{"base_weights":[-8.329182E-3,2.9270175E-1,-1.606495E0,-1.6632761E0,7.1022815E-1,-1.0706462E0,-3.4819782E0,-2.3076432E0,-8.670941E-1,1.034788E0,-2.2112772E-1,-2.2911077E0,1.1802982E0,-4.3020168E-1,-3.1434498E0,-2.4791022E-1,-1.6951819E-1,-2.9521635E-2,-2.2499155E-1,4.171538E-2,1.8620202E-1,-1.2169894E-1,2.5474463E-2,-3.3155096E-1,-1.7105882E-1,9.304311E-3,1.989948E-1,-2.063788E-1,-3.568003E-1],"categories":[],"categories_nodes":[],"categories_segments":[],"categories_sizes":[],"default_left":[0,0,0,0,0,0,0,0,0,0,0,0,0,0,0,0,0,0,0,0,0,0,0,0,0,0,0,0,0],"id":15,"left_children":[1,3,5,7,9,11,13,15,17,19,21,23,25,-1,27,-1,-1,-1,-1,-1,-1,-1,-1,-1,-1,-1,-1,-1,-1],"loss_changes":[1.2080247E3,1.72681E3,3.962522E2,1.8884753E2,5.2680176E2,8.570806E2,1.0906128E1,1.7324951E1,1.3219096E2,6.593407E2,2.1404028E2,1.14454956E2,9.6647415E1,0E0,2.28891E1,0E0,0E0,0E0,0E0,0E0,0E0,0E0,0E0,0E0,0E0,0E0,0E0,0E0,0E0],"parents":[2147483647,0,0,1,1,2,2,3,3,4,4,5,5,6,6,7,7,8,8,9,9,10,10,11,11,12,12,14,14],"right_children":[2,4,6,8,10,12,14,16,18,20,22,24,26,-1,28,-1,-1,-1,-1,-1,-1,-1,-1,-1,-1,-1,-1,-1,-1],"split_conditions":[2.1E1,5E0,7E0,3E0,1.8E1,5E0,2.2E1,6E0,6E0,1.3E1,4E0,2E0,6E0,-4.3020168E-1,2.3E1,-2.4791022E-1,-1.6951819E-1,-2.9521635E-2,-2.2499155E-1,4.171538E-2,1.8620202E-1,-1.2169894E-1,2.5474463E-2,-3.3155096E-1,-1.7105882E-1,9.304311E-3,1.989948E-1,-2.063788E-1,-3.568003E-1],"split_indices":[1,1,0,1,1,0,1,0,0,1,0,0,0,0,1,0,0,0,0,0,0,0,0,0,0,0,0,0,0],"split_type":[0,0,0,0,0,0,0,0,0,0,0,0,0,0,0,0,0,0,0,0,0,0,0,0,0,0,0,0,0],"sum_hessian":[2.509E3,2.112E3,3.97E2,3.71E2,1.741E3,3.1E2,8.7E1,2.04E2,1.67E2,1.291E3,4.5E2,2.01E2,1.09E2,2.2E1,6.5E1,1.57E2,4.7E1,1.19E2,4.8E1,7.4E2,5.51E2,1.45E2,3.05E2,7.1E1,1.3E2,4.7E1,6.2E1,2E1,4.5E1],"tree_param":{"num_deleted":"0","num_feature":"2","num_nodes":"29","size_leaf_vector":"1"}},{"base_weights":[-8.224358E-3,2.6317608E-1,-1.449081E0,-1.4987546E0,6.3928115E-1,-9.645279E-1,-3.145069E0,-2.078915E0,-7.8189945E-1,9.145946E-1,-4.313734E-1,-2.064485E0,1.0641621E0,-3.89052E-1,-2.837638E0,-2.2923453E-1,-1.6615848E-1,1.4326557E-2,-1.4772657E-1,1.1568097E-1,6.6625373E-3,-4.2140967E-1,-1.4608978E-2,-2.9885635E-1,-1.5408354E-1,8.39329E-3,1.794112E-1,-1.8672365E-1,-3.2189593E-1],"categories":[],"categories_nodes":[],"categories_segments":[],"categories_sizes":[],"default_left":[0,0,0,0,0,0,0,0,0,0,0,0,0,0,0,0,0,0,0,0,0,0,0,0,0,0,0,0,0],"id":16,"left_children":[1,3,5,7,9,11,13,15,17,19,21,23,25,-1,27,-1,-1,-1,-1,-1,-1,-1,-1,-1,-1,-1,-1,-1,-1],"loss_changes":[9.819147E2,1.4011821E3,3.2404138E2,1.53086E2,5.138762E2,6.961848E2,9.127502E0,1.4450562E1,1.082908E2,2.8459485E2,3.8464053E2,9.31416E1,7.855641E1,0E0,1.8411743E1,0E0,0E0,0E0,0E0,0E0,0E0,0E0,0E0,0E0,0E0,0E0,0E0,0E0,0E0],"parents":[2147483647,0,0,1,1,2,2,3,3,4,4,5,5,6,6,7,7,8,8,9,9,10,10,11,11,12,12,14,14],"right_children":[2,4,6,8,10,12,14,16,18,20,22,24,26,-1,28,-1,-1,-1,-1,-1,-1,-1,-1,-1,-1,-1,-1,-1,-1],"split_conditions":[2.1E1,5E0,7E0,3E0,7E0,5E0,2.2E1,5E0,3E0,1.8E1,8E0,2E0,6E0,-3.89052E-1,2.3E1,-2.2923453E-1,-1.6615848E-1,1.4326557E-2,-1.4772657E-1,1.1568097E-1,6.6625373E-3,-4.2140967E-1,-1.4608978E-2,-2.9885635E-1,-1.5408354E-1,8.39329E-3,1.794112E-1,-1.8672365E-1,-3.2189593E-1],"split_indices":[1,1,0,1,0,0,1,0,0,1,1,0,0,0,1,0,0,0,0,0,0,0,0,0,0,0,0,0,0],"split_type":[0,0,0,0,0,0,0,0,0,0,0,0,0,0,0,0,0,0,0,0,0,0,0,0,0,0,0,0,0],"sum_hessian":[2.509E3,2.112E3,3.97E2,3.71E2,1.741E3,3.1E2,8.7E1,2.04E2,1.67E2,1.385E3,3.56E2,2.01E2,1.09E2,2.2E1,6.5E1,1.32E2,7.2E1,7.2E1,9.5E1,1.077E3,3.08E2,2.4E1,3.32E2,7.1E1,1.3E2,4.7E1,6.2E1,2E1,4.5E1],"tree_param":{"num_deleted":"0","num_feature":"2","num_nodes":"29","size_leaf_vector":"1"}},{"base_weights":[-8.200671E-3,2.3645996E-1,-1.3070943E0,-1.3503004E0,5.751732E-1,-8.6892754E-1,-2.8407626E0,-1.8729525E0,-7.045031E-1,8.2322365E-1,-3.894575E-1,-1.860279E0,9.5945346E-1,-3.518383E-1,-2.5615804E0,-1.9661763E-1,-1.0879655E-1,-2.1667628E-2,-1.8848036E-1,1.1006317E-2,1.1103976E-1,-3.8095433E-1,-1.3152477E-2,-8.901085E-2,-2.293593E-1,7.571451E-3,1.617549E-1,-1.6894045E-1,-2.904061E-1],"categories":[],"categories_nodes":[],"categories_segments":[],"categories_sizes":[],"default_left":[0,0,0,0,0,0,0,0,0,0,0,0,0,0,0,0,0,0,0,0,0,0,0,0,0,0,0,0,0],"id":17,"left_children":[1,3,5,7,9,11,13,15,17,19,21,23,25,-1,27,-1,-1,-1,-1,-1,-1,-1,-1,-1,-1,-1,-1,-1,-1],"loss_changes":[7.9795734E2,1.1364229E3,2.649886E2,1.2424066E2,4.1714136E2,5.654935E2,7.635193E0,1.286261E1,9.632302E1,2.8373218E2,3.1442722E2,8.287695E1,6.385183E1,0E0,1.4808289E1,0E0,0E0,0E0,0E0,0E0,0E0,0E0,0E0,0E0,0E0,0E0,0E0,0E0,0E0],"parents":[2147483647,0,0,1,1,2,2,3,3,4,4,5,5,6,6,7,7,8,8,9,9,10,10,11,11,12,12,14,14],"right_children":[2,4,6,8,10,12,14,16,18,20,22,24,26,-1,28,-1,-1,-1,-1,-1,-1,-1,-1,-1,-1,-1,-1,-1,-1],"split_conditions":[2.1E1,5E0,7E0,3E0,7E0,5E0,2.2E1,7E0,6E0,1.1E1,8E0,2.2E1,6E0,-3.518383E-1,2.3E1,-1.9661763E-1,-1.0879655E-1,-2.1667628E-2,-1.8848036E-1,1.1006317E-2,1.1103976E-1,-3.8095433E-1,-1.3152477E-2,-8.901085E-2,-2.293593E-1,7.571451E-3,1.617549E-1,-1.6894045E-1,-2.904061E-1],"split_indices":[1,1,0,1,0,0,1,0,0,1,1,1,0,0,1,0,0,0,0,0,0,0,0,0,0,0,0,0,0],"split_type":[0,0,0,0,0,0,0,0,0,0,0,0,0,0,0,0,0,0,0,0,0,0,0,0,0,0,0,0,0],"sum_hessian":[2.509E3,2.112E3,3.97E2,3.71E2,1.741E3,3.1E2,8.7E1,2.04E2,1.67E2,1.385E3,3.56E2,2.01E2,1.09E2,2.2E1,6.5E1,1.81E2,2.3E1,1.19E2,4.8E1,3.98E2,9.87E2,2.4E1,3.32E2,6.3E1,1.38E2,4.7E1,6.2E1,2E1,4.5E1],"tree_param":{"num_deleted":"0","num_feature":"2","num_nodes":"29","size_leaf_vector":"1"}},{"base_weights":[-8.076939E-3,2.690463E-1,-9.625437E-1,-1.2166563E0,6.197843E-1,-1.7121762E0,-2.4578123E-1,-1.687147E0,-6.353038E-1,8.851028E-1,-3.988029E-3,-2.2953131E0,-1.235306E0,1.4422885E0,-2.194619E0,-1.8696952E-1,-1.3314478E-1,-1.9518938E-2,-1.7001697E-1,3.3958767E-2,2.3410983E-1,1.9064365E-2,-5.623249E-2,-1.9612236E-1,-2.504721E-1,-3.252598E-2,-1.9324075E-1,2.7625906E-1,8.650477E-2,-1.4682083E-1,-2.5659046E-1],"categories":[],"categories_nodes":[],"categories_segments":[],"categories_sizes":[],"default_left":[0,0,0,0,0,0,0,0,0,0,0,0,0,0,0,0,0,0,0,0,0,0,0,0,0,0,0,0,0,0,0],"id":18,"left_children":[1,3,5,7,9,11,13,15,17,19,21,23,25,27,29,-1,-1,-1,-1,-1,-1,-1,-1,-1,-1,-1,-1,-1,-1,-1,-1],"loss_changes":[6.641663E2,1.01479987E3,3.0315845E2,1.0067792E2,2.6066345E2,7.3914795E1,9.571998E2,1.0821716E1,7.8403496E1,8.768708E2,5.1290794E1,3.6929321E0,9.706827E1,1.1650287E2,3.2642944E1,0E0,0E0,0E0,0E0,0E0,0E0,0E0,0E0,0E0,0E0,0E0,0E0,0E0,0E0,0E0,0E0],"parents":[2147483647,0,0,1,1,2,2,3,3,4,4,5,5,6,6,7,7,8,8,9,9,10,10,11,11,12,12,13,13,14,14],"right_children":[2,4,6,8,10,12,14,16,18,20,22,24,26,28,30,-1,-1,-1,-1,-1,-1,-1,-1,-1,-1,-1,-1,-1,-1,-1,-1],"split_conditions":[2E1,5E0,5E0,3E0,1.7E1,2E0,7E0,5E0,6E0,1.4E1,7E0,2.1E1,2.2E1,2.1E1,2.1E1,-1.8696952E-1,-1.3314478E-1,-1.9518938E-2,-1.7001697E-1,3.3958767E-2,2.3410983E-1,1.9064365E-2,-5.623249E-2,-1.9612236E-1,-2.504721E-1,-3.252598E-2,-1.9324075E-1,2.7625906E-1,8.650477E-2,-1.4682083E-1,-2.5659046E-1],"split_indices":[1,1,0,1,1,0,0,0,0,1,0,1,1,1,1,0,0,0,0,0,0,0,0,0,0,0,0,0,0,0,0],"split_type":[0,0,0,0,0,0,0,0,0,0,0,0,0,0,0,0,0,0,0,0,0,0,0,0,0,0,0,0,0,0,0],"sum_hessian":[2.509E3,1.945E3,5.64E2,3.71E2,1.574E3,2.75E2,2.89E2,2.04E2,1.67E2,1.104E3,4.7E2,1.22E2,1.53E2,1.55E2,1.34E2,1.32E2,7.2E1,1.19E2,4.8E1,8.04E2,3E2,3.49E2,1.21E2,5.1E1,7.1E1,6.7E1,8.6E1,4.6E1,1.09E2,4.7E1,8.7E1],"tree_param":{"num_deleted":"0","num_feature":"2","num_nodes":"31","size_leaf_vector":"1"}},{"base_weights":[-7.664233E-3,2.4199861E-1,-8.675514E-1,-1.0963608E0,5.579527E-1,-1.5433948E0,-2.2134334E-1,-1.5199938E0,-5.729017E-1,7.4804E-1,-2.201392E-1,-2.069413E0,-1.1132414E0,1.3003849E0,-1.9781452E0,-1.599188E-1,-8.5610494E-2,1.697578E-2,-1.1316647E-1,6.5212073E-3,1.0610589E-1,-3.4764266E-1,6.527102E-3,-1.768873E-1,-2.2577277E-1,-2.9321209E-2,-1.7413881E-1,2.4922092E-1,7.793292E-2,-1.324446E-1,-2.3122297E-1],"categories":[],"categories_nodes":[],"categories_segments":[],"categories_sizes":[],"default_left":[0,0,0,0,0,0,0,0,0,0,0,0,0,0,0,0,0,0,0,0,0,0,0,0,0,0,0,0,0,0,0],"id":19,"left_children":[1,3,5,7,9,11,13,15,17,19,21,23,25,27,29,-1,-1,-1,-1,-1,-1,-1,-1,-1,-1,-1,-1,-1,-1,-1,-1],"loss_changes":[5.3906146E2,8.2349756E2,2.4641391E2,8.162192E1,2.3311572E2,6.01463E1,7.77851E2,9.408997E0,6.9907166E1,2.7052313E2,2.8833398E2,2.9677124E0,7.881462E1,9.4934845E1,2.642035E1,0E0,0E0,0E0,0E0,0E0,0E0,0E0,0E0,0E0,0E0,0E0,0E0,0E0,0E0,0E0,0E0],"parents":[2147483647,0,0,1,1,2,2,3,3,4,4,5,5,6,6,7,7,8,8,9,9,10,10,11,11,12,12,13,13,14,14],"right_children":[2,4,6,8,10,12,14,16,18,20,22,24,26,28,30,-1,-1,-1,-1,-1,-1,-1,-1,-1,-1,-1,-1,-1,-1,-1,-1],"split_conditions":[2E1,5E0,5E0,3E0,7E0,2E0,7E0,7E0,3E0,1.1E1,8E0,2.1E1,2.2E1,2.1E1,2.1E1,-1.599188E-1,-8.5610494E-2,1.697578E-2,-1.1316647E-1,6.5212073E-3,1.0610589E-1,-3.4764266E-1,6.527102E-3,-1.768873E-1,-2.2577277E-1,-2.9321209E-2,-1.7413881E-1,2.4922092E-1,7.793292E-2,-1.324446E-1,-2.3122297E-1],"split_indices":[1,1,0,1,0,0,0,0,0,1,1,1,1,1,1,0,0,0,0,0,0,0,0,0,0,0,0,0,0,0,0],"split_type":[0,0,0,0,0,0,0,0,0,0,0,0,0,0,0,0,0,0,0,0,0,0,0,0,0,0,0,0,0,0,0],"sum_hessian":[2.509E3,1.945E3,5.64E2,3.71E2,1.574E3,2.75E2,2.89E2,2.04E2,1.67E2,1.265E3,3.09E2,1.22E2,1.53E2,1.55E2,1.34E2,1.81E2,2.3E1,7.2E1,9.5E1,3.98E2,8.67E2,2.4E1,2.85E2,5.1E1,7.1E1,6.7E1,8.6E1,4.6E1,1.09E2,4.7E1,8.7E1],"tree_param":{"num_deleted":"0","num_feature":"2","num_nodes":"31","size_leaf_vector":"1"}},{"base_weights":[-7.38095E-3,2.7523056E-1,-6.684265E-1,-4.1327655E-1,9.050012E-1,-4.5818907E-1,-1.6173095E0,-1.1778116E-1,-2.6785424E0,1.2003216E0,-2.1946864E-1,-1.0429546E0,-1.0795905E-1,-1.3339249E0,-2.1427591E-1,-9.876432E-2,7.4774414E-2,-1.2524978E0,7.302169E-2,1.5529178E-1,3.231897E-2,-9.883818E-2,5.091687E-3,-8.582457E-2,-1.7478095E-1,4.637319E-2,-1.1545756E-1,-1.6934684E-1,2.7128125E-3],"categories":[],"categories_nodes":[],"categories_segments":[],"categories_sizes":[],"default_left":[0,0,0,0,0,0,0,0,0,0,0,0,0,0,0,0,0,0,0,0,0,0,0,0,0,0,0,0,0],"id":20,"left_children":[1,3,5,7,9,11,13,15,17,19,21,23,25,27,-1,-1,-1,-1,-1,-1,-1,-1,-1,-1,-1,-1,-1,-1,-1],"loss_changes":[4.6909988E2,7.630791E2,1.4927597E2,5.626295E2,3.054439E2,1.262505E2,1.73927E1,5.616398E2,3.2648665E3,2.2464905E2,3.99677E1,2.857454E1,2.3209343E2,4.45775E1,0E0,0E0,0E0,0E0,0E0,0E0,0E0,0E0,0E0,0E0,0E0,0E0,0E0,0E0,0E0],"parents":[2147483647,0,0,1,1,2,2,3,3,4,4,5,5,6,6,7,7,8,8,9,9,10,10,11,11,12,12,13,13],"right_children":[2,4,6,8,10,12,14,16,18,20,22,24,26,28,-1,-1,-1,-1,-1,-1,-1,-1,-1,-1,-1,-1,-1,-1,-1],"split_conditions":[1.9E1,1.1E1,2.3E1,1E1,7E0,4E0,7E0,5E0,3E0,1.7E1,1.3E1,2.2E1,7E0,4E0,-2.1427591E-1,-9.876432E-2,7.4774414E-2,-1.2524978E0,7.302169E-2,1.5529178E-1,3.231897E-2,-9.883818E-2,5.091687E-3,-8.582457E-2,-1.7478095E-1,4.637319E-2,-1.1545756E-1,-1.6934684E-1,2.7128125E-3],"split_indices":[1,1,1,1,0,0,0,1,0,1,1,1,0,0,0,0,0,0,0,0,0,0,0,0,0,0,0,0,0],"split_type":[0,0,0,0,0,0,0,0,0,0,0,0,0,0,0,0,0,0,0,0,0,0,0,0,0,0,0,0,0],"sum_hessian":[2.509E3,1.758E3,7.51E2,8.4E2,9.18E2,6.16E2,1.35E2,7.44E2,9.6E1,7.27E2,1.91E2,2.3E2,3.86E2,9E1,4.5E1,3.71E2,3.73E2,2.4E1,7.2E1,5.18E2,2.09E2,4.9E1,1.42E2,1.84E2,4.6E1,2.5E2,1.36E2,7.1E1,1.9E1],"tree_param":{"num_deleted":"0","num_feature":"2","num_nodes":"29","size_leaf_vector":"1"}},{"base_weights":[-7.368044E-3,2.4707668E-1,-6.025288E-1,-3.733796E-1,8.146029E-1,-4.1290447E-1,-1.4583794E0,-1.06034935E-1,-2.4228475E0,1.0805469E0,-1.9801031E-1,-9.3978703E-1,-9.7341746E-2,-1.2023636E0,-1.9331416E-1,-8.8914424E-2,6.731702E-2,-1.132258E0,6.58196E-2,1.3979244E-1,2.9102523E-2,8.686031E-2,-3.628842E-2,-4.2560965E-2,-1.1606989E-1,4.175433E-2,-1.03996076E-1,-1.5264736E-1,2.455063E-3],"categories":[],"categories_nodes":[],"categories_segments":[],"categories_sizes":[],"default_left":[0,0,0,0,0,0,0,0,0,0,0,0,0,0,0,0,0,0,0,0,0,0,0,0,0,0,0,0,0],"id":21,"left_children":[1,3,5,7,9,11,13,15,17,19,21,23,25,27,-1,-1,-1,-1,-1,-1,-1,-1,-1,-1,-1,-1,-1,-1,-1],"loss_changes":[3.80252E2,6.196924E2,1.2143997E2,4.6053897E2,2.4769904E2,1.0249372E2,1.4205994E1,4.5519962E2,2.6672373E3,1.8201288E2,3.4079685E1,2.5744797E1,1.8826096E2,3.622409E1,0E0,0E0,0E0,0E0,0E0,0E0,0E0,0E0,0E0,0E0,0E0,0E0,0E0,0E0,0E0],"parents":[2147483647,0,0,1,1,2,2,3,3,4,4,5,5,6,6,7,7,8,8,9,9,10,10,11,11,12,12,13,13],"right_children":[2,4,6,8,10,12,14,16,18,20,22,24,26,28,-1,-1,-1,-1,-1,-1,-1,-1,-1,-1,-1,-1,-1,-1,-1],"split_conditions":[1.9E1,1.1E1,2.3E1,1E1,7E0,4E0,7E0,5E0,3E0,1.7E1,1.2E1,2E1,7E0,4E0,-1.9331416E-1,-8.8914424E-2,6.731702E-2,-1.132258E0,6.58196E-2,1.3979244E-1,2.9102523E-2,8.686031E-2,-3.628842E-2,-4.2560965E-2,-1.1606989E-1,4.175433E-2,-1.03996076E-1,-1.5264736E-1,2.455063E-3],"split_indices":[1,1,1,1,0,0,0,1,0,1,1,1,0,0,0,0,0,0,0,0,0,0,0,0,0,0,0,0,0],"split_type":[0,0,0,0,0,0,0,0,0,0,0,0,0,0,0,0,0,0,0,0,0,0,0,0,0,0,0,0,0],"sum_hessian":[2.509E3,1.758E3,7.51E2,8.4E2,9.18E2,6.16E2,1.35E2,7.44E2,9.6E1,7.27E2,1.91E2,2.3E2,3.86E2,9E1,4.5E1,3.71E2,3.73E2,2.4E1,7.2E1,5.18E2,2.09E2,2.5E1,1.66E2,7E1,1.6E2,2.5E2,1.36E2,7.1E1,1.9E1],"tree_param":{"num_deleted":"0","num_feature":"2","num_nodes":"29","size_leaf_vector":"1"}},{"base_weights":[-7.202187E-3,-1.1824288E0,9.727685E-2,-1.3391473E0,-8.8070303E-1,4.383545E-1,-4.896684E-1,-1.1693378E-1,-1.6452341E-1,-1.000609E-1,-5.9420276E-2,3.605914E-2,1.0993071E0,-1.0636191E0,-1.3097312E-1,3.1659827E-2,-3.7646186E-2,1.6141015E-1,9.399185E-3,-2.085253E-1,-9.755249E-2,5.232167E-2,-9.6662894E-2],"categories":[],"categories_nodes":[],"categories_segments":[],"categories_sizes":[],"default_left":[0,0,0,0,0,0,0,0,0,0,0,0,0,0,0,0,0,0,0,0,0,0,0],"id":22,"left_children":[1,3,5,7,9,11,13,-1,-1,-1,-1,15,17,19,21,-1,-1,-1,-1,-1,-1,-1,-1],"loss_changes":[3.083093E2,8.514252E0,4.618618E2,4.989044E0,1.9132118E0,3.879058E2,1.7444138E2,0E0,0E0,0E0,0E0,1.0520046E2,2.8552527E2,2.7305817E1,2.864181E2,0E0,0E0,0E0,0E0,0E0,0E0,0E0,0E0],"parents":[2147483647,0,0,1,1,2,2,3,3,4,4,5,5,6,6,11,11,12,12,13,13,14,14],"right_children":[2,4,6,8,10,12,14,-1,-1,-1,-1,16,18,20,22,-1,-1,-1,-1,-1,-1,-1,-1],"split_conditions":[3E0,5E0,1.8E1,3E0,7E0,1.3E1,4E0,-1.1693378E-1,-1.6452341E-1,-1.000609E-1,-5.9420276E-2,1E1,1.7E1,1.9E1,7E0,3.1659827E-2,-3.7646186E-2,1.6141015E-1,9.399185E-3,-2.085253E-1,-9.755249E-2,5.232167E-2,-9.6662894E-2],"split_indices":[1,0,1,0,0,1,0,0,0,0,0,1,1,1,0,0,0,0,0,0,0,0,0],"split_type":[0,0,0,0,0,0,0,0,0,0,0,0,0,0,0,0,0,0,0,0,0,0,0],"sum_hessian":[2.509E3,2.04E2,2.305E3,1.32E2,7.2E1,1.458E3,8.47E2,8.8E1,4.4E1,4.9E1,2.3E1,9.07E2,5.51E2,3.25E2,5.22E2,5.4E2,3.67E2,3.64E2,1.87E2,2.4E1,3.01E2,2.93E2,2.29E2],"tree_param":{"num_deleted":"0","num_feature":"2","num_nodes":"23","size_leaf_vector":"1"}},{"base_weights":[-6.7316587E-3,1.05442055E-1,-9.3774855E-1,-7.5070626E-1,2.7569968E-1,-1.3388025E0,-5.0832254E-1,-1.0663369E0,-3.6109322E-1,5.615555E-1,-1.370241E-1,-1.5033472E-1,-1.110201E0,3.7010515E-1,-1.3923578E0,-1.17014065E-1,-7.024344E-2,-1.08647E-2,-1.7356594E-1,1.5640123E-2,1.6432421E-1,-7.076817E-2,1.122273E-2,-1.2675515E-1,-7.426332E-2,-4.961344E-4,5.9347715E-2,-7.628608E-2,-1.6494684E-1],"categories":[],"categories_nodes":[],"categories_segments":[],"categories_sizes":[],"default_left":[0,0,0,0,0,0,0,0,0,0,0,0,0,0,0,0,0,0,0,0,0,0,0,0,0,0,0,0,0],"id":23,"left_children":[1,3,5,7,9,11,13,15,17,19,21,-1,23,25,27,-1,-1,-1,-1,-1,-1,-1,-1,-1,-1,-1,-1,-1,-1],"loss_changes":[2.622323E2,3.2686804E2,4.581967E1,4.536122E1,2.2069862E2,3.5594788E0,1.0302139E2,6.921814E0,5.810811E1,4.8400912E2,1.0903313E2,0E0,2.6445618E0,5.6161604E0,9.423798E0,0E0,0E0,0E0,0E0,0E0,0E0,0E0,0E0,0E0,0E0,0E0,0E0,0E0,0E0],"parents":[2147483647,0,0,1,1,2,2,3,3,4,4,5,5,6,6,7,7,8,8,9,9,10,10,12,12,13,13,14,14],"right_children":[2,4,6,8,10,12,14,16,18,20,22,-1,24,26,28,-1,-1,-1,-1,-1,-1,-1,-1,-1,-1,-1,-1,-1,-1],"split_conditions":[2.2E1,5E0,5E0,3E0,1.7E1,3E0,7E0,6E0,7E0,1.4E1,3E0,-1.5033472E-1,2.3E1,6E0,2.3E1,-1.17014065E-1,-7.024344E-2,-1.08647E-2,-1.7356594E-1,1.5640123E-2,1.6432421E-1,-7.076817E-2,1.122273E-2,-1.2675515E-1,-7.426332E-2,-4.961344E-4,5.9347715E-2,-7.628608E-2,-1.6494684E-1],"split_indices":[1,1,0,1,1,0,0,0,0,1,0,0,1,0,1,0,0,0,0,0,0,0,0,0,0,0,0,0,0],"split_type":[0,0,0,0,0,0,0,0,0,0,0,0,0,0,0,0,0,0,0,0,0,0,0,0,0,0,0,0,0],"sum_hessian":[2.509E3,2.24E3,2.69E2,3.71E2,1.869E3,1.38E2,1.31E2,2.04E2,1.67E2,1.104E3,7.65E2,7.7E1,6.1E1,6.6E1,6.5E1,1.57E2,4.7E1,1.42E2,2.5E1,8.04E2,3E2,2.32E2,5.33E2,4.1E1,2E1,2.5E1,4.1E1,2E1,4.5E1],"tree_param":{"num_deleted":"0","num_feature":"2","num_nodes":"29","size_leaf_vector":"1"}},{"base_weights":[-6.371268E-3,1.418427E-1,-6.145778E-1,-1.0200428E0,2.568162E-1,-1.8517705E0,-3.9807862E-1,-1.0912144E0,-8.1032544E-2,4.99666E-1,-2.8292176E-1,-1.0625837E0,-3.324506E-1,1.2171993E0,-7.357717E-1,-9.380185E-2,-1.369953E-1,-4.2474294E-5,8.706131E-2,-6.646411E-2,1.2531343E-1,-4.6994194E-2,-1.568769E-1,-4.61845E-2,1.9505487E-1,-2.6304242E-1,-5.873085E-2],"categories":[],"categories_nodes":[],"categories_segments":[],"categories_sizes":[],"default_left":[0,0,0,0,0,0,0,0,0,0,0,0,0,0,0,0,0,0,0,0,0,0,0,0,0,0,0],"id":24,"left_children":[1,3,5,7,9,11,13,15,-1,17,19,21,-1,23,25,-1,-1,-1,-1,-1,-1,-1,-1,-1,-1,-1,-1],"loss_changes":[2.2635036E2,2.6997223E2,1.3104564E2,1.8322754E0,2.4105771E2,8.131268E1,2.2999225E2,4.3942566E0,0E0,2.3522345E2,3.3563437E2,1.3962112E1,0E0,9.078765E1,9.634273E1,0E0,0E0,0E0,0E0,0E0,0E0,0E0,0E0,0E0,0E0,0E0,0E0],"parents":[2147483647,0,0,1,1,2,2,3,3,4,4,5,5,6,6,7,7,9,9,10,10,11,11,13,13,14,14],"right_children":[2,4,6,8,10,12,14,16,-1,18,20,22,-1,24,26,-1,-1,-1,-1,-1,-1,-1,-1,-1,-1,-1,-1],"split_conditions":[7E0,3E0,8E0,5E0,1.9E1,5E0,1.2E1,3E0,-8.1032544E-2,1.1E1,6E0,1E0,-3.324506E-1,1E1,1.3E1,-9.380185E-2,-1.369953E-1,-4.2474294E-5,8.706131E-2,-6.646411E-2,1.2531343E-1,-4.6994194E-2,-1.568769E-1,-4.61845E-2,1.9505487E-1,-2.6304242E-1,-5.873085E-2],"split_indices":[0,1,1,0,1,1,1,0,0,1,0,1,0,1,1,0,0,0,0,0,0,0,0,0,0,0,0],"split_type":[0,0,0,0,0,0,0,0,0,0,0,0,0,0,0,0,0,0,0,0,0,0,0,0,0,0,0],"sum_hessian":[2.509E3,2.018E3,4.91E2,1.81E2,1.837E3,7.2E1,4.19E2,1.32E2,4.9E1,1.267E3,5.7E2,4.8E1,2.4E1,7.2E1,3.47E2,8.8E1,4.4E1,5.4E2,7.27E2,4.57E2,1.13E2,2.3E1,2.5E1,2.2E1,5E1,2.4E1,3.23E2],"tree_param":{"num_deleted":"0","num_feature":"2","num_nodes":"27","size_leaf_vector":"1"}},{"base_weights":[-6.082707E-3,9.086378E-2,-8.1071603E-1,-6.1410314E-1,2.3105459E-1,-1.1414639E0,-4.5628667E-1,-8.6630535E-1,-3.0270106E-1,3.8788387E-1,-3.8694096E-1,-1.2893276E0,-9.370311E-1,2.820883E-1,-1.1989357E0,-9.8382846E-2,-6.403207E-2,3.1765472E-2,-7.712768E-2,1.46036E-1,2.5524734E-2,-3.005353E-1,-2.0145576E-2,-1.16968706E-1,-1.483621E-1,-1.0789328E-1,-6.086072E-2,4.782964E-2,-2.0291548E-2,-6.3427284E-2,-1.4306527E-1],"categories":[],"categories_nodes":[],"categories_segments":[],"categories_sizes":[],"default_left":[0,0,0,0,0,0,0,0,0,0,0,0,0,0,0,0,0,0,0,0,0,0,0,0,0,0,0,0,0,0,0],"id":25,"left_children":[1,3,5,7,9,11,13,15,17,19,21,23,25,27,29,-1,-1,-1,-1,-1,-1,-1,-1,-1,-1,-1,-1,-1,-1,-1,-1],"loss_changes":[1.9586964E2,2.2161967E2,3.1130402E1,2.8953278E1,1.8139008E2,2.993576E0,7.2720856E1,4.814499E0,4.9079853E1,2.1186357E2,1.83466E2,7.775879E-2,2.2327957E0,6.4728856E0,7.7281494E0,0E0,0E0,0E0,0E0,0E0,0E0,0E0,0E0,0E0,0E0,0E0,0E0,0E0,0E0,0E0,0E0],"parents":[2147483647,0,0,1,1,2,2,3,3,4,4,5,5,6,6,7,7,8,8,9,9,10,10,11,11,12,12,13,13,14,14],"right_children":[2,4,6,8,10,12,14,16,18,20,22,24,26,28,30,-1,-1,-1,-1,-1,-1,-1,-1,-1,-1,-1,-1,-1,-1,-1,-1],"split_conditions":[2.2E1,5E0,5E0,3E0,7E0,3E0,7E0,5E0,3E0,8E0,8E0,2E0,2.3E1,2.3E1,2.3E1,-9.8382846E-2,-6.403207E-2,3.1765472E-2,-7.712768E-2,1.46036E-1,2.5524734E-2,-3.005353E-1,-2.0145576E-2,-1.16968706E-1,-1.483621E-1,-1.0789328E-1,-6.086072E-2,4.782964E-2,-2.0291548E-2,-6.3427284E-2,-1.4306527E-1],"split_indices":[1,1,0,1,0,0,0,0,0,1,1,0,1,1,1,0,0,0,0,0,0,0,0,0,0,0,0,0,0,0,0],"split_type":[0,0,0,0,0,0,0,0,0,0,0,0,0,0,0,0,0,0,0,0,0,0,0,0,0,0,0,0,0,0,0],"sum_hessian":[2.509E3,2.24E3,2.69E2,3.71E2,1.869E3,1.38E2,1.31E2,2.04E2,1.67E2,1.491E3,3.78E2,7.7E1,6.1E1,6.6E1,6.5E1,1.32E2,7.2E1,7.2E1,9.5E1,1.63E2,1.328E3,2.4E1,3.54E2,5.2E1,2.5E1,4.1E1,2E1,4.7E1,1.9E1,2E1,4.5E1],"tree_param":{"num_deleted":"0","num_feature":"2","num_nodes":"31","size_leaf_vector":"1"}},{"base_weights":[-5.8607715E-3,1.6437566E-1,-4.0405232E-1,-2.6726767E-1,5.5920446E-1,-2.471225E-1,-8.94178E-1,-1.0901598E-2,-2.2335095E0,7.581825E-1,-1.9816655E-1,-5.836229E-1,1.1069503E0,4.1702646E-3,-1.220312E0,-5.5325147E-2,5.2857716E-2,-1.0238949E0,5.3867556E-2,9.88006E-2,1.8657984E-2,-7.193244E-2,1.0675457E-2,-4.2175367E-2,-8.712314E-2,1.3670012E-1,-1.8363876E-2,-8.18986E-2,-1.4253499E-1],"categories":[],"categories_nodes":[],"categories_segments":[],"categories_sizes":[],"default_left":[0,0,0,0,0,0,0,0,0,0,0,0,0,0,0,0,0,0,0,0,0,0,0,0,0,0,0,0,0],"id":26,"left_children":[1,3,5,7,9,11,13,15,17,19,21,23,25,-1,27,-1,-1,-1,-1,-1,-1,-1,-1,-1,-1,-1,-1,-1,-1],"loss_changes":[1.7021106E2,2.999274E2,5.761934E1,4.2390497E2,1.3864374E2,2.6081992E2,5.5601395E1,2.1826917E2,2.1581938E3,9.5451355E1,3.0587902E1,2.0954727E1,3.851158E1,0E0,9.9414215E0,0E0,0E0,0E0,0E0,0E0,0E0,0E0,0E0,0E0,0E0,0E0,0E0,0E0,0E0],"parents":[2147483647,0,0,1,1,2,2,3,3,4,4,5,5,6,6,7,7,8,8,9,9,10,10,11,11,12,12,14,14],"right_children":[2,4,6,8,10,12,14,16,18,20,22,24,26,-1,28,-1,-1,-1,-1,-1,-1,-1,-1,-1,-1,-1,-1,-1,-1],"split_conditions":[1.9E1,1.1E1,7E0,1E1,7E0,6E0,2E1,5E0,3E0,1.7E1,1.5E1,2.2E1,2.3E1,4.1702646E-3,2.1E1,-5.5325147E-2,5.2857716E-2,-1.0238949E0,5.3867556E-2,9.88006E-2,1.8657984E-2,-7.193244E-2,1.0675457E-2,-4.2175367E-2,-8.712314E-2,1.3670012E-1,-1.8363876E-2,-8.18986E-2,-1.4253499E-1],"split_indices":[1,1,0,1,0,0,1,1,0,1,1,1,1,0,1,0,0,0,0,0,0,0,0,0,0,0,0,0,0],"split_type":[0,0,0,0,0,0,0,0,0,0,0,0,0,0,0,0,0,0,0,0,0,0,0,0,0,0,0,0,0],"sum_hessian":[2.509E3,1.758E3,7.51E2,8.4E2,9.18E2,5.7E2,1.81E2,7.44E2,9.6E1,7.27E2,1.91E2,4.57E2,1.13E2,4.7E1,1.34E2,3.71E2,3.73E2,2.4E1,7.2E1,5.18E2,2.09E2,7E1,1.21E2,2.94E2,1.63E2,9.4E1,1.9E1,4.7E1,8.7E1],"tree_param":{"num_deleted":"0","num_feature":"2","num_nodes":"29","size_leaf_vector":"1"}},{"base_weights":[-5.7319175E-3,1.4741711E-1,-3.6395454E-1,-1.4769813E-1,6.53622E-1,-2.2242942E-1,-8.059704E-1,-7.2541183E-1,-1.7104518E-2,1.1613648E0,-1.2364152E-3,-5.25543E-1,9.972937E-1,3.7619192E-3,-1.0999432E0,-7.761368E-2,-3.1052193E-2,2.613628E-2,-4.264353E-2,2.2545557E-1,6.8095095E-2,-8.434476E-2,4.2655993E-2,-3.7972134E-2,-7.846396E-2,1.2317405E-1,-1.66193E-2,-7.387935E-2,-1.2844346E-1],"categories":[],"categories_nodes":[],"categories_segments":[],"categories_sizes":[],"default_left":[0,0,0,0,0,0,0,0,0,0,0,0,0,0,0,0,0,0,0,0,0,0,0,0,0,0,0,0,0],"id":27,"left_children":[1,3,5,7,9,11,13,15,17,19,21,23,25,-1,27,-1,-1,-1,-1,-1,-1,-1,-1,-1,-1,-1,-1,-1,-1],"loss_changes":[1.3775589E2,2.6287137E2,4.68631E1,8.388323E1,2.1546121E2,2.1163118E2,4.5176003E1,4.0732803E0,1.0361005E2,1.9015698E2,1.0268351E2,1.700615E1,3.1301125E1,0E0,8.04599E0,0E0,0E0,0E0,0E0,0E0,0E0,0E0,0E0,0E0,0E0,0E0,0E0,0E0,0E0],"parents":[2147483647,0,0,1,1,2,2,3,3,4,4,5,5,6,6,7,7,8,8,9,9,10,10,11,11,12,12,14,14],"right_children":[2,4,6,8,10,12,14,16,18,20,22,24,26,-1,28,-1,-1,-1,-1,-1,-1,-1,-1,-1,-1,-1,-1,-1,-1],"split_conditions":[1.9E1,1.3E1,7E0,3E0,1.7E1,6E0,2E1,7E0,1E1,3E0,3E0,2.2E1,2.3E1,3.7619192E-3,2.1E1,-7.761368E-2,-3.1052193E-2,2.613628E-2,-4.264353E-2,2.2545557E-1,6.8095095E-2,-8.434476E-2,4.2655993E-2,-3.7972134E-2,-7.846396E-2,1.2317405E-1,-1.66193E-2,-7.387935E-2,-1.2844346E-1],"split_indices":[1,1,0,1,1,0,1,0,1,0,0,1,1,0,1,0,0,0,0,0,0,0,0,0,0,0,0,0,0],"split_type":[0,0,0,0,0,0,0,0,0,0,0,0,0,0,0,0,0,0,0,0,0,0,0,0,0,0,0,0,0],"sum_hessian":[2.509E3,1.758E3,7.51E2,1.111E3,6.47E2,5.7E2,1.81E2,2.04E2,9.07E2,3.64E2,2.83E2,4.57E2,1.13E2,4.7E1,1.34E2,1.81E2,2.3E1,5.4E2,3.67E2,1.1E2,2.54E2,9.5E1,1.88E2,2.94E2,1.63E2,9.4E1,1.9E1,4.7E1,8.7E1],"tree_param":{"num_deleted":"0","num_feature":"2","num_nodes":"29","size_leaf_vector":"1"}},{"base_weights":[-5.1913317E-3,1.0252114E-1,-4.4719598E-1,-6.9894964E-1,1.8182753E-1,-1.5173059E0,-2.6013592E-1,-5.058941E-2,-7.5149846E-1,3.5371867E-1,-2.0020361E-1,-8.356428E-1,-2.7926734E-1,1.1289759E0,-5.5078256E-1,-8.594259E-2,-5.3788204E-2,9.360977E-3,8.3959274E-2,-4.7324277E-2,8.9849934E-2,-2.807637E-2,-1.3156988E-1,-4.7395807E-2,1.829731E-1,-2.2485705E-1,-4.1808046E-2],"categories":[],"categories_nodes":[],"categories_segments":[],"categories_sizes":[],"default_left":[0,0,0,0,0,0,0,0,0,0,0,0,0,0,0,0,0,0,0,0,0,0,0,0,0,0,0],"id":28,"left_children":[1,3,5,7,9,11,13,-1,15,17,19,21,-1,23,25,-1,-1,-1,-1,-1,-1,-1,-1,-1,-1,-1,-1],"loss_changes":[1.1954547E2,1.2845828E2,9.809131E1,1.4661789E0,1.2076817E2,6.1130386E1,1.701929E2,0E0,2.7884903E0,1.6017145E2,1.7171887E2,1.2682877E1,0E0,8.2865486E1,7.746435E1,0E0,0E0,0E0,0E0,0E0,0E0,0E0,0E0,0E0,0E0,0E0,0E0],"parents":[2147483647,0,0,1,1,2,2,3,3,4,4,5,5,6,6,8,8,9,9,10,10,11,11,13,13,14,14],"right_children":[2,4,6,8,10,12,14,-1,16,18,20,22,-1,24,26,-1,-1,-1,-1,-1,-1,-1,-1,-1,-1,-1,-1],"split_conditions":[7E0,3E0,8E0,2E0,1.9E1,5E0,1.2E1,-5.058941E-2,5E0,1.4E1,6E0,1E0,-2.7926734E-1,1E1,1.3E1,-8.594259E-2,-5.3788204E-2,9.360977E-3,8.3959274E-2,-4.7324277E-2,8.9849934E-2,-2.807637E-2,-1.3156988E-1,-4.7395807E-2,1.829731E-1,-2.2485705E-1,-4.1808046E-2],"split_indices":[0,1,1,0,1,1,1,0,0,1,0,1,0,1,1,0,0,0,0,0,0,0,0,0,0,0,0],"split_type":[0,0,0,0,0,0,0,0,0,0,0,0,0,0,0,0,0,0,0,0,0,0,0,0,0,0,0],"sum_hessian":[2.509E3,2.018E3,4.91E2,1.81E2,1.837E3,7.2E1,4.19E2,4.1E1,1.4E2,1.267E3,5.7E2,4.8E1,2.4E1,7.2E1,3.47E2,9.1E1,4.9E1,8.26E2,4.41E2,4.57E2,1.13E2,2.3E1,2.5E1,2.2E1,5E1,2.4E1,3.23E2],"tree_param":{"num_deleted":"0","num_feature":"2","num_nodes":"27","size_leaf_vector":"1"}},{"base_weights":[-4.9211793E-3,9.224185E-2,-4.0363508E-1,-6.301004E-1,1.6371849E-1,-1.3715879E0,-2.3443463E-1,-4.5650925E-2,-6.773397E-1,3.2870704E-1,-1.6172539E-1,-7.553367E-1,-2.5245768E-1,1.0179353E0,-4.9647075E-1,-7.744175E-2,-4.8516966E-2,8.425983E-3,8.409638E-2,-5.0557453E-2,1.0404269E-1,-2.5385736E-2,-1.1891892E-1,-4.2862304E-2,1.6503452E-1,-2.0327075E-1,-3.7640166E-2],"categories":[],"categories_nodes":[],"categories_segments":[],"categories_sizes":[],"default_left":[0,0,0,0,0,0,0,0,0,0,0,0,0,0,0,0,0,0,0,0,0,0,0,0,0,0,0],"id":29,"left_children":[1,3,5,7,9,11,13,-1,15,17,19,21,-1,23,25,-1,-1,-1,-1,-1,-1,-1,-1,-1,-1,-1,-1],"loss_changes":[9.727527E1,1.0434534E2,8.025726E1,1.1832504E0,9.8743675E1,4.9961838E1,1.3833514E2,0E0,2.254692E0,1.5269719E2,2.5639523E2,1.0358952E1,0E0,6.748908E1,6.342508E1,0E0,0E0,0E0,0E0,0E0,0E0,0E0,0E0,0E0,0E0,0E0,0E0],"parents":[2147483647,0,0,1,1,2,2,3,3,4,4,5,5,6,6,8,8,9,9,10,10,11,11,13,13,14,14],"right_children":[2,4,6,8,10,12,14,-1,16,18,20,22,-1,24,26,-1,-1,-1,-1,-1,-1,-1,-1,-1,-1,-1,-1],"split_conditions":[7E0,3E0,8E0,2E0,1.8E1,5E0,1.2E1,-4.5650925E-2,5E0,1.4E1,6E0,1E0,-2.5245768E-1,1E1,1.3E1,-7.744175E-2,-4.8516966E-2,8.425983E-3,8.409638E-2,-5.0557453E-2,1.0404269E-1,-2.5385736E-2,-1.1891892E-1,-4.2862304E-2,1.6503452E-1,-2.0327075E-1,-3.7640166E-2],"split_indices":[0,1,1,0,1,1,1,0,0,1,0,1,0,1,1,0,0,0,0,0,0,0,0,0,0,0,0],"split_type":[0,0,0,0,0,0,0,0,0,0,0,0,0,0,0,0,0,0,0,0,0,0,0,0,0,0,0],"sum_hessian":[2.509E3,2.018E3,4.91E2,1.81E2,1.837E3,7.2E1,4.19E2,4.1E1,1.4E2,1.219E3,6.18E2,4.8E1,2.4E1,7.2E1,3.47E2,9.1E1,4.9E1,8.26E2,3.93E2,4.81E2,1.37E2,2.3E1,2.5E1,2.2E1,5E1,2.4E1,3.23E2],"tree_param":{"num_deleted":"0","num_feature":"2","num_nodes":"27","size_leaf_vector":"1"}},{"base_weights":[-4.6449364E-3,1.5211463E-1,-2.2819322E-1,-9.362945E-2,1.1117257E0,-6.6500306E-1,-4.136231E-2,-3.9272457E-1,4.4702247E-2,2.5037668E0,5.155209E-1,-3.8496357E-1,-8.994116E-1,2.563018E-1,-5.8885616E-1,-1.3369736E-2,-5.8758616E-2,6.386595E-2,-2.3821643E-2,2.1102421E-1,3.4980324E-1,-6.386524E-2,6.946269E-2,-8.9262374E-2,6.383768E-2,-1.10716105E-1,-3.243554E-2,1.5089671E-3,7.340506E-2,-3.301984E-2,-1.0789051E-1],"categories":[],"categories_nodes":[],"categories_segments":[],"categories_sizes":[],"default_left":[0,0,0,0,0,0,0,0,0,0,0,0,0,0,0,0,0,0,0,0,0,0,0,0,0,0,0,0,0,0,0],"id":30,"left_children":[1,3,5,7,9,11,13,15,17,19,21,23,25,27,29,-1,-1,-1,-1,-1,-1,-1,-1,-1,-1,-1,-1,-1,-1,-1,-1],"loss_changes":[8.799348E1,3.4817255E2,8.44384E1,4.8673775E1,2.4852167E2,2.0003296E1,1.1846661E2,1.8697937E1,1.3542564E2,2.7832397E1,4.4268127E1,7.4859634E1,1.9711441E1,5.4266388E1,3.209301E1,0E0,0E0,0E0,0E0,0E0,0E0,0E0,0E0,0E0,0E0,0E0,0E0,0E0,0E0,0E0,0E0],"parents":[2147483647,0,0,1,1,2,2,3,3,4,4,5,5,6,6,7,7,8,8,9,9,10,10,11,11,12,12,13,13,14,14],"right_children":[2,4,6,8,10,12,14,16,18,20,22,24,26,28,30,-1,-1,-1,-1,-1,-1,-1,-1,-1,-1,-1,-1,-1,-1,-1,-1],"split_conditions":[1.7E1,1.4E1,3E0,5E0,3E0,2E1,7E0,3E0,9E0,1.6E1,4E0,1.9E1,2E0,6E0,2.1E1,-1.3369736E-2,-5.8758616E-2,6.386595E-2,-2.3821643E-2,2.1102421E-1,3.4980324E-1,-6.386524E-2,6.946269E-2,-8.9262374E-2,6.383768E-2,-1.10716105E-1,-3.243554E-2,1.5089671E-3,7.340506E-2,-3.301984E-2,-1.0789051E-1],"split_indices":[1,1,0,1,0,1,0,0,1,1,0,1,0,0,1,0,0,0,0,0,0,0,0,0,0,0,0,0,0,0,0],"split_type":[0,0,0,0,0,0,0,0,0,0,0,0,0,0,0,0,0,0,0,0,0,0,0,0,0,0,0,0,0,0,0],"sum_hessian":[2.509E3,1.475E3,1.034E3,1.175E3,3E2,3.09E2,7.25E2,3.71E2,8.04E2,8.9E1,2.11E2,1.42E2,1.67E2,4.7E2,2.55E2,1.6E2,2.11E2,2.59E2,5.45E2,6.6E1,2.3E1,2.8E1,1.83E2,9.5E1,4.7E1,1.22E2,4.5E1,3.13E2,1.57E2,1.68E2,8.7E1],"tree_param":{"num_deleted":"0","num_feature":"2","num_nodes":"31","size_leaf_vector":"1"}},{"base_weights":[-4.061022E-3,5.5449013E-2,-4.9797928E-1,-1.9948457E-1,2.0844238E-1,-7.222767E-1,-2.5801477E-1,4.2646136E-2,-2.0570917E0,5.823426E-1,-1.0227434E-1,-8.194989E-1,-5.883152E-1,1.8789133E-1,-7.205317E-1,2.5073713E-2,-8.427736E-2,-9.209278E-1,4.2046677E-2,1.22562446E-1,2.7131546E-2,-5.226763E-2,8.135098E-3,-6.878006E-2,-1.0564416E-1,-7.178857E-2,-3.0115915E-2,3.262801E-2,-1.3737306E-2,-4.0433723E-2,-8.423438E-2],"categories":[],"categories_nodes":[],"categories_segments":[],"categories_sizes":[],"default_left":[0,0,0,0,0,0,0,0,0,0,0,0,0,0,0,0,0,0,0,0,0,0,0,0,0,0,0,0,0,0,0],"id":31,"left_children":[1,3,5,7,9,11,13,15,17,19,21,23,25,27,29,-1,-1,-1,-1,-1,-1,-1,-1,-1,-1,-1,-1,-1,-1,-1,-1],"loss_changes":[7.3804276E1,8.744762E1,1.4345955E1,3.7835583E2,1.6282361E2,1.3282242E0,2.7358946E1,1.37476E2,1.7227083E3,1.2691716E2,5.9174995E1,1.7073631E0,2.0906334E0,3.105702E0,2.1629677E0,0E0,0E0,0E0,0E0,0E0,0E0,0E0,0E0,0E0,0E0,0E0,0E0,0E0,0E0,0E0,0E0],"parents":[2147483647,0,0,1,1,2,2,3,3,4,4,5,5,6,6,7,7,8,8,9,9,10,10,11,11,12,12,13,13,14,14],"right_children":[2,4,6,8,10,12,14,16,18,20,22,24,26,28,30,-1,-1,-1,-1,-1,-1,-1,-1,-1,-1,-1,-1,-1,-1,-1,-1],"split_conditions":[2.2E1,1.1E1,5E0,1E1,1.7E1,3E0,2.3E1,6E0,3E0,3E0,3E0,2E0,2.3E1,7E0,7E0,2.5073713E-2,-8.427736E-2,-9.209278E-1,4.2046677E-2,1.22562446E-1,2.7131546E-2,-5.226763E-2,8.135098E-3,-6.878006E-2,-1.0564416E-1,-7.178857E-2,-3.0115915E-2,3.262801E-2,-1.3737306E-2,-4.0433723E-2,-8.423438E-2],"split_indices":[1,1,0,1,1,0,1,0,0,0,0,0,1,0,0,0,0,0,0,0,0,0,0,0,0,0,0,0,0,0,0],"split_type":[0,0,0,0,0,0,0,0,0,0,0,0,0,0,0,0,0,0,0,0,0,0,0,0,0,0,0,0,0,0,0],"sum_hessian":[2.509E3,2.24E3,2.69E2,8.4E2,1.4E3,1.38E2,1.31E2,7.44E2,9.6E1,6.35E2,7.65E2,7.7E1,6.1E1,6.7E1,6.4E1,6.03E2,1.41E2,2.4E1,7.2E1,2.06E2,4.29E2,2.32E2,5.33E2,5.2E1,2.5E1,4.1E1,2E1,4.7E1,2E1,1.9E1,4.5E1],"tree_param":{"num_deleted":"0","num_feature":"2","num_nodes":"31","size_leaf_vector":"1"}},{"base_weights":[-4.138941E-3,7.3727235E-2,-3.2366672E-1,-5.420599E-1,1.3466278E-1,-1.1391026E0,-1.8116559E-1,-6.09389E-1,-3.5212338E-1,5.8887535E-1,4.39102E-2,-5.4263115E-1,-2.2626224E-1,9.430174E-1,-4.16465E-1,-4.9750373E-2,-8.1713125E-2,-4.2421658E-2,-2.6306152E-2,-3.6549203E-3,1.13062434E-1,-8.8340685E-2,2.1247948E-2,-9.24531E-3,-9.373097E-2,-2.8422564E-2,1.4779894E-1,-1.8407442E-1,-3.0528156E-2],"categories":[],"categories_nodes":[],"categories_segments":[],"categories_sizes":[],"default_left":[0,0,0,0,0,0,0,0,0,0,0,0,0,0,0,0,0,0,0,0,0,0,0,0,0,0,0,0,0],"id":32,"left_children":[1,3,5,7,9,11,13,15,17,19,21,23,-1,25,27,-1,-1,-1,-1,-1,-1,-1,-1,-1,-1,-1,-1,-1,-1],"loss_changes":[6.2473686E1,7.5832596E1,5.69643E1,2.1128845E0,7.573828E1,4.7693E1,1.1149097E2,2.6848335E0,2.0944262E-1,1.0372121E2,2.398219E2,8.619448E0,0E0,4.8347565E1,5.4546047E1,0E0,0E0,0E0,0E0,0E0,0E0,0E0,0E0,0E0,0E0,0E0,0E0,0E0,0E0],"parents":[2147483647,0,0,1,1,2,2,3,3,4,4,5,5,6,6,7,7,8,8,9,9,10,10,11,11,13,13,14,14],"right_children":[2,4,6,8,10,12,14,16,18,20,22,24,-1,26,28,-1,-1,-1,-1,-1,-1,-1,-1,-1,-1,-1,-1,-1,-1],"split_conditions":[7E0,3E0,8E0,5E0,8E0,5E0,1.2E1,3E0,6E0,5E0,1.1E1,1E0,-2.2626224E-1,1E1,1.3E1,-4.9750373E-2,-8.1713125E-2,-4.2421658E-2,-2.6306152E-2,-3.6549203E-3,1.13062434E-1,-8.8340685E-2,2.1247948E-2,-9.24531E-3,-9.373097E-2,-2.8422564E-2,1.4779894E-1,-1.8407442E-1,-3.0528156E-2],"split_indices":[0,1,1,0,1,1,1,0,0,1,1,1,0,1,1,0,0,0,0,0,0,0,0,0,0,0,0,0,0],"split_type":[0,0,0,0,0,0,0,0,0,0,0,0,0,0,0,0,0,0,0,0,0,0,0,0,0,0,0,0,0],"sum_hessian":[2.509E3,2.018E3,4.91E2,1.81E2,1.837E3,7.2E1,4.19E2,1.32E2,4.9E1,3.05E2,1.532E3,4.8E1,2.4E1,7.2E1,3.47E2,8.8E1,4.4E1,2.5E1,2.4E1,1.42E2,1.63E2,2.35E2,1.297E3,2.3E1,2.5E1,2.2E1,5E1,2.4E1,3.23E2],"tree_param":{"num_deleted":"0","num_feature":"2","num_nodes":"29","size_leaf_vector":"1"}},{"base_weights":[-3.9569614E-3,1.2925367E-1,-1.9392309E-1,-7.777912E-2,9.376966E-1,-5.610526E-1,-3.689268E-2,5.8240768E-2,-3.1217042E-1,2.1174095E0,4.3245196E-1,-3.1584263E-1,-7.664335E-1,2.09607E-1,-4.9026948E-1,-3.164791E-2,4.3080103E-2,-1.833874E-1,1.2806E-2,1.7607047E-1,3.0249855E-1,-6.237007E-2,5.9656054E-2,-7.735952E-2,6.062426E-2,-9.5959656E-2,-2.3327053E-2,-4.7813726E-4,6.343434E-2,-1.7084284E-2,-7.753049E-2],"categories":[],"categories_nodes":[],"categories_segments":[],"categories_sizes":[],"default_left":[0,0,0,0,0,0,0,0,0,0,0,0,0,0,0,0,0,0,0,0,0,0,0,0,0,0,0,0,0,0,0],"id":33,"left_children":[1,3,5,7,9,11,13,15,17,19,21,23,25,27,29,-1,-1,-1,-1,-1,-1,-1,-1,-1,-1,-1,-1,-1,-1,-1,-1],"loss_changes":[6.35419E1,2.4711725E2,5.964757E1,3.7511272E1,1.7849347E2,1.536998E1,8.123852E1,1.0414262E2,2.896317E2,2.3810211E1,3.7116695E1,6.0827408E1,1.7078033E1,4.289161E1,2.3175808E1,0E0,0E0,0E0,0E0,0E0,0E0,0E0,0E0,0E0,0E0,0E0,0E0,0E0,0E0,0E0,0E0],"parents":[2147483647,0,0,1,1,2,2,3,3,4,4,5,5,6,6,7,7,8,8,9,9,10,10,11,11,12,12,13,13,14,14],"right_children":[2,4,6,8,10,12,14,16,18,20,22,24,26,28,30,-1,-1,-1,-1,-1,-1,-1,-1,-1,-1,-1,-1,-1,-1,-1,-1],"split_conditions":[1.7E1,1.4E1,3E0,1E1,3E0,2E1,7E0,5E0,1.1E1,1.6E1,4E0,1.9E1,2E0,6E0,2E1,-3.164791E-2,4.3080103E-2,-1.833874E-1,1.2806E-2,1.7607047E-1,3.0249855E-1,-6.237007E-2,5.9656054E-2,-7.735952E-2,6.062426E-2,-9.5959656E-2,-2.3327053E-2,-4.7813726E-4,6.343434E-2,-1.7084284E-2,-7.753049E-2],"split_indices":[1,1,0,1,0,1,0,1,1,1,0,1,0,0,1,0,0,0,0,0,0,0,0,0,0,0,0,0,0,0,0],"split_type":[0,0,0,0,0,0,0,0,0,0,0,0,0,0,0,0,0,0,0,0,0,0,0,0,0,0,0,0,0,0,0],"sum_hessian":[2.509E3,1.475E3,1.034E3,1.175E3,3E2,3.09E2,7.25E2,7.44E2,4.31E2,8.9E1,2.11E2,1.42E2,1.67E2,4.7E2,2.55E2,3.71E2,3.73E2,9.6E1,3.35E2,6.6E1,2.3E1,2.8E1,1.83E2,9.5E1,4.7E1,1.22E2,4.5E1,3.13E2,1.57E2,1.21E2,1.34E2],"tree_param":{"num_deleted":"0","num_feature":"2","num_nodes":"31","size_leaf_vector":"1"}},{"base_weights":[-3.5018157E-3,4.7701433E-2,-4.284758E-1,-1.4413615E-1,1.628247E-1,-6.3282806E-1,-2.1004061E-1,5.2432295E-2,-1.6523769E0,4.6106288E-1,-8.501122E-2,-6.8931097E-1,-5.51562E-1,1.6612849E-1,-6.0033995E-1,2.2599522E-2,-6.861905E-2,-8.0643284E-1,5.6613225E-2,1.152922E-2,8.455077E-2,-4.4164553E-2,7.0758075E-3,-5.4701626E-2,-9.528614E-2,-6.680816E-2,-2.922582E-2,2.447012E-2,-2.1377201E-3,-4.463733E-2,-6.5423116E-2],"categories":[],"categories_nodes":[],"categories_segments":[],"categories_sizes":[],"default_left":[0,0,0,0,0,0,0,0,0,0,0,0,0,0,0,0,0,0,0,0,0,0,0,0,0,0,0,0,0,0,0],"id":34,"left_children":[1,3,5,7,9,11,13,15,17,19,21,23,25,27,29,-1,-1,-1,-1,-1,-1,-1,-1,-1,-1,-1,-1,-1,-1,-1,-1],"loss_changes":[5.463816E1,4.951588E1,1.1919262E1,2.4942003E2,1.0359291E2,2.578354E-1,1.9479782E1,9.5662224E1,1.384388E3,8.444585E1,4.25846E1,2.4039116E0,1.6780128E0,1.0070636E0,2.4730301E-1,0E0,0E0,0E0,0E0,0E0,0E0,0E0,0E0,0E0,0E0,0E0,0E0,0E0,0E0,0E0,0E0],"parents":[2147483647,0,0,1,1,2,2,3,3,4,4,5,5,6,6,7,7,8,8,9,9,10,10,11,11,12,12,13,13,14,14],"right_children":[2,4,6,8,10,12,14,16,18,20,22,24,26,28,30,-1,-1,-1,-1,-1,-1,-1,-1,-1,-1,-1,-1,-1,-1,-1,-1],"split_conditions":[2.2E1,1.1E1,5E0,1E1,1.7E1,3E0,2.3E1,6E0,3E0,1.4E1,3E0,2E0,2.3E1,7E0,7E0,2.2599522E-2,-6.861905E-2,-8.0643284E-1,5.6613225E-2,1.152922E-2,8.455077E-2,-4.4164553E-2,7.0758075E-3,-5.4701626E-2,-9.528614E-2,-6.680816E-2,-2.922582E-2,2.447012E-2,-2.1377201E-3,-4.463733E-2,-6.5423116E-2],"split_indices":[1,1,0,1,1,0,1,0,0,1,0,0,1,0,0,0,0,0,0,0,0,0,0,0,0,0,0,0,0,0,0],"split_type":[0,0,0,0,0,0,0,0,0,0,0,0,0,0,0,0,0,0,0,0,0,0,0,0,0,0,0,0,0,0,0],"sum_hessian":[2.509E3,2.24E3,2.69E2,8.4E2,1.4E3,1.38E2,1.31E2,7.44E2,9.6E1,6.35E2,7.65E2,7.7E1,6.1E1,6.7E1,6.4E1,6.03E2,1.41E2,2.4E1,7.2E1,3.35E2,3E2,2.32E2,5.33E2,5.2E1,2.5E1,4.1E1,2E1,4.7E1,2E1,1.9E1,4.5E1],"tree_param":{"num_deleted":"0","num_feature":"2","num_nodes":"31","size_leaf_vector":"1"}},{"base_weights":[-3.5784312E-3,4.2602193E-2,-3.8686436E-1,-2.8415993E-1,1.0758236E-1,-5.713152E-1,-1.8970123E-1,-1.0750955E-1,-4.1697383E-1,1.9161464E-1,-2.2350933E-1,-6.2230283E-1,-4.9795473E-1,1.4984393E-1,-5.419992E-1,-4.393656E-2,2.9855479E-2,-7.1221344E-2,-2.7564097E-2,9.529728E-2,9.751807E-3,-2.0208938E-1,-9.630335E-3,-4.9334683E-2,-8.6124E-2,-6.02864E-2,-2.6442409E-2,2.2074072E-2,-1.9341287E-3,-4.0396757E-2,-5.902304E-2],"categories":[],"categories_nodes":[],"categories_segments":[],"categories_sizes":[],"default_left":[0,0,0,0,0,0,0,0,0,0,0,0,0,0,0,0,0,0,0,0,0,0,0,0,0,0,0,0,0,0,0],"id":35,"left_children":[1,3,5,7,9,11,13,15,17,19,21,23,25,27,29,-1,-1,-1,-1,-1,-1,-1,-1,-1,-1,-1,-1,-1,-1,-1,-1],"loss_changes":[4.444444E1,4.761385E1,9.710686E0,8.682896E0,5.20707E1,2.1004868E-1,1.5871197E1,2.1826715E1,8.649822E0,1.0679573E2,8.645921E1,1.9784756E0,1.3595581E0,8.1990826E-1,1.942997E-1,0E0,0E0,0E0,0E0,0E0,0E0,0E0,0E0,0E0,0E0,0E0,0E0,0E0,0E0,0E0,0E0],"parents":[2147483647,0,0,1,1,2,2,3,3,4,4,5,5,6,6,7,7,8,8,9,9,10,10,11,11,12,12,13,13,14,14],"right_children":[2,4,6,8,10,12,14,16,18,20,22,24,26,28,30,-1,-1,-1,-1,-1,-1,-1,-1,-1,-1,-1,-1,-1,-1,-1,-1],"split_conditions":[2.2E1,5E0,5E0,3E0,7E0,3E0,2.3E1,3E0,5E0,8E0,8E0,2E0,2.3E1,7E0,7E0,-4.393656E-2,2.9855479E-2,-7.1221344E-2,-2.7564097E-2,9.529728E-2,9.751807E-3,-2.0208938E-1,-9.630335E-3,-4.9334683E-2,-8.6124E-2,-6.02864E-2,-2.6442409E-2,2.2074072E-2,-1.9341287E-3,-4.0396757E-2,-5.902304E-2],"split_indices":[1,1,0,0,0,0,1,1,0,1,1,0,1,0,0,0,0,0,0,0,0,0,0,0,0,0,0,0,0,0,0],"split_type":[0,0,0,0,0,0,0,0,0,0,0,0,0,0,0,0,0,0,0,0,0,0,0,0,0,0,0,0,0,0,0],"sum_hessian":[2.509E3,2.24E3,2.69E2,3.71E2,1.869E3,1.38E2,1.31E2,1.6E2,2.11E2,1.491E3,3.78E2,7.7E1,6.1E1,6.7E1,6.4E1,8.8E1,7.2E1,6.7E1,1.44E2,1.63E2,1.328E3,2.4E1,3.54E2,5.2E1,2.5E1,4.1E1,2E1,4.7E1,2E1,1.9E1,4.5E1],"tree_param":{"num_deleted":"0","num_feature":"2","num_nodes":"31","size_leaf_vector":"1"}},{"base_weights":[-3.428401E-3,7.817764E-2,-1.9430819E-1,-6.751605E-2,3.7142697E-1,-1.1662142E-1,-4.369721E-1,4.496207E-2,-2.6133245E-1,7.558966E-1,-3.73646E-2,-2.796741E-1,5.394729E-1,1.852166E-2,-6.5495795E-1,-2.5604745E-2,3.442417E-2,-1.4995259E-1,9.689999E-3,1.8177304E-1,3.0155262E-2,-6.6298716E-2,2.8060967E-2,-2.0609057E-2,-4.103294E-2,-3.5729345E-2,8.4963195E-2,-9.079611E-2,-3.7669763E-2],"categories":[],"categories_nodes":[],"categories_segments":[],"categories_sizes":[],"default_left":[0,0,0,0,0,0,0,0,0,0,0,0,0,0,0,0,0,0,0,0,0,0,0,0,0,0,0,0,0],"id":36,"left_children":[1,3,5,7,9,11,13,15,17,19,21,23,25,-1,27,-1,-1,-1,-1,-1,-1,-1,-1,-1,-1,-1,-1,-1,-1],"loss_changes":[3.911332E1,7.5177605E1,1.4125574E1,2.564867E1,9.181432E1,6.123528E1,2.4805664E1,6.720223E1,1.9176369E2,1.4466565E2,5.6682697E1,4.31868E0,3.2011547E1,0E0,9.162075E0,0E0,0E0,0E0,0E0,0E0,0E0,0E0,0E0,0E0,0E0,0E0,0E0,0E0,0E0],"parents":[2147483647,0,0,1,1,2,2,3,3,4,4,5,5,6,6,7,7,8,8,9,9,10,10,11,11,12,12,14,14],"right_children":[2,4,6,8,10,12,14,16,18,20,22,24,26,-1,28,-1,-1,-1,-1,-1,-1,-1,-1,-1,-1,-1,-1,-1,-1],"split_conditions":[1.9E1,1.4E1,7E0,1E1,1.7E1,6E0,2E1,5E0,1.1E1,3E0,3E0,2.2E1,2E1,1.852166E-2,2.2E1,-2.5604745E-2,3.442417E-2,-1.4995259E-1,9.689999E-3,1.8177304E-1,3.0155262E-2,-6.6298716E-2,2.8060967E-2,-2.0609057E-2,-4.103294E-2,-3.5729345E-2,8.4963195E-2,-9.079611E-2,-3.7669763E-2],"split_indices":[1,1,0,1,1,0,1,1,1,0,0,1,1,0,1,0,0,0,0,0,0,0,0,0,0,0,0,0,0],"split_type":[0,0,0,0,0,0,0,0,0,0,0,0,0,0,0,0,0,0,0,0,0,0,0,0,0,0,0,0,0],"sum_hessian":[2.509E3,1.758E3,7.51E2,1.175E3,5.83E2,5.7E2,1.81E2,7.44E2,4.31E2,3E2,2.83E2,4.57E2,1.13E2,4.7E1,1.34E2,3.71E2,3.73E2,9.6E1,3.35E2,8.9E1,2.11E2,9.5E1,1.88E2,2.94E2,1.63E2,2.9E1,8.4E1,6.9E1,6.5E1],"tree_param":{"num_deleted":"0","num_feature":"2","num_nodes":"29","size_leaf_vector":"1"}},{"base_weights":[-3.117254E-3,3.60695E-2,-3.2835576E-1,-1.1997919E-1,1.2971751E-1,-4.7504434E-1,-1.7140073E-1,4.0477954E-2,-1.3511193E0,2.4771826E-1,-2.8983614E-1,-4.4734442E-1,-6.0202368E-2,1.3383281E-1,-4.8808504E-2,1.52408695E-2,-7.269683E-2,-7.155561E-1,6.552114E-2,4.7179278E-2,4.5387726E-3,-1.7341625E-2,-1.7248908E-1,-5.2130222E-2,-2.9573342E-2,1.8155677E-2,1.8376487E-3],"categories":[],"categories_nodes":[],"categories_segments":[],"categories_sizes":[],"default_left":[0,0,0,0,0,0,0,0,0,0,0,0,0,0,0,0,0,0,0,0,0,0,0,0,0,0,0],"id":37,"left_children":[1,3,5,7,9,11,13,15,17,19,21,23,-1,25,-1,-1,-1,-1,-1,-1,-1,-1,-1,-1,-1,-1,-1],"loss_changes":[3.2001896E1,3.276475E1,6.134924E0,1.6619023E2,6.943201E1,2.1959496E-1,1.2824797E1,6.41069E1,1.1343143E3,4.9577385E1,5.1158104E1,1.1689453E0,0E0,3.71346E-1,0E0,0E0,0E0,0E0,0E0,0E0,0E0,0E0,0E0,0E0,0E0,0E0,0E0],"parents":[2147483647,0,0,1,1,2,2,3,3,4,4,5,5,6,6,7,7,8,8,9,9,10,10,11,11,13,13],"right_children":[2,4,6,8,10,12,14,16,18,20,22,24,-1,26,-1,-1,-1,-1,-1,-1,-1,-1,-1,-1,-1,-1,-1],"split_conditions":[2.2E1,1.1E1,5E0,1E1,7E0,4E0,2.3E1,7E0,3E0,1.7E1,2.1E1,3E0,-6.0202368E-2,7E0,-4.8808504E-2,1.52408695E-2,-7.269683E-2,-7.155561E-1,6.552114E-2,4.7179278E-2,4.5387726E-3,-1.7341625E-2,-1.7248908E-1,-5.2130222E-2,-2.9573342E-2,1.8155677E-2,1.8376487E-3],"split_indices":[1,1,0,1,0,0,1,0,0,1,1,0,0,0,0,0,0,0,0,0,0,0,0,0,0,0,0],"split_type":[0,0,0,0,0,0,0,0,0,0,0,0,0,0,0,0,0,0,0,0,0,0,0,0,0,0,0],"sum_hessian":[2.509E3,2.24E3,2.69E2,8.4E2,1.4E3,1.38E2,1.31E2,7.44E2,9.6E1,1.093E3,3.07E2,1.17E2,2.1E1,6.7E1,6.4E1,6.5E2,9.4E1,2.4E1,7.2E1,5.18E2,5.75E2,2.85E2,2.2E1,7.7E1,4E1,4.7E1,2E1],"tree_param":{"num_deleted":"0","num_feature":"2","num_nodes":"27","size_leaf_vector":"1"}},{"base_weights":[-3.2107276E-3,-3.4995675E-1,2.7615875E-2,-4.5764202E-1,1.1798005E-2,1.5102805E-1,-1.2408257E-1,-3.129643E-2,-5.0566614E-1,-1.0514039E-2,1.3311724E-2,-3.1997617E-3,6.485643E-1,-3.98382E-1,-6.7865537E-3,-5.4748107E-2,-3.3825707E-2,1.82669E-2,-2.3595855E-2,1.5913218E-1,2.4527771E-2,-2.0389212E-2,-5.6155868E-2,1.8540265E-2,-3.6035813E-2],"categories":[],"categories_nodes":[],"categories_segments":[],"categories_sizes":[],"default_left":[0,0,0,0,0,0,0,0,0,0,0,0,0,0,0,0,0,0,0,0,0,0,0,0,0],"id":38,"left_children":[1,3,5,7,9,11,13,-1,15,-1,-1,17,19,21,23,-1,-1,-1,-1,-1,-1,-1,-1,-1,-1],"loss_changes":[2.683906E1,7.991308E0,4.319037E1,9.3953323E-1,6.94966E-1,9.760762E1,3.329763E1,0E0,6.33831E-1,0E0,0E0,4.2094334E1,1.14050316E2,9.723724E0,4.940043E1,0E0,0E0,0E0,0E0,0E0,0E0,0E0,0E0,0E0,0E0],"parents":[2147483647,0,0,1,1,2,2,3,3,4,4,5,5,6,6,8,8,11,11,12,12,13,13,14,14],"right_children":[2,4,6,8,10,12,14,-1,16,-1,-1,18,20,22,24,-1,-1,-1,-1,-1,-1,-1,-1,-1,-1],"split_conditions":[3E0,6E0,1.7E1,2E0,7E0,1.4E1,3E0,-3.129643E-2,5E0,-1.0514039E-2,1.3311724E-2,1E1,3E0,2E1,7E0,-5.4748107E-2,-3.3825707E-2,1.82669E-2,-2.3595855E-2,1.5913218E-1,2.4527771E-2,-2.0389212E-2,-5.6155868E-2,1.8540265E-2,-3.6035813E-2],"split_indices":[1,0,1,0,0,1,0,0,0,0,0,1,0,1,0,0,0,0,0,0,0,0,0,0,0],"split_type":[0,0,0,0,0,0,0,0,0,0,0,0,0,0,0,0,0,0,0,0,0,0,0,0,0],"sum_hessian":[2.509E3,2.04E2,2.305E3,1.57E2,4.7E1,1.271E3,1.034E3,4.1E1,1.16E2,2.4E1,2.3E1,9.71E2,3E2,3.09E2,7.25E2,9.1E1,2.5E1,5.4E2,4.31E2,8.9E1,2.11E2,1.42E2,1.67E2,4.7E2,2.55E2],"tree_param":{"num_deleted":"0","num_feature":"2","num_nodes":"25","size_leaf_vector":"1"}},{"base_weights":[-2.9027194E-3,3.050587E-2,-2.8018326E-1,-2.2359422E-1,8.103781E-2,-4.0558922E-1,-1.4600441E-1,-7.076313E-2,-3.3860466E-1,4.4941044E-1,3.984049E-2,-2.9844105E-1,-4.6620142E-1,1.1852744E-1,-4.204992E-2,-4.1117176E-2,3.4522496E-2,-6.025811E-2,-2.1247363E-2,1.5956843E-1,-2.758258E-2,-1.9608332E-2,1.5734715E-2,-4.44062E-2,-1.4176674E-2,-6.348525E-2,-3.8795743E-2,1.7338859E-2,8.259914E-3],"categories":[],"categories_nodes":[],"categories_segments":[],"categories_sizes":[],"default_left":[0,0,0,0,0,0,0,0,0,0,0,0,0,0,0,0,0,0,0,0,0,0,0,0,0,0,0,0,0],"id":39,"left_children":[1,3,5,7,9,11,13,15,17,19,21,23,25,27,-1,-1,-1,-1,-1,-1,-1,-1,-1,-1,-1,-1,-1,-1,-1],"loss_changes":[2.3260063E1,2.8792942E1,4.484026E0,6.5147476E0,2.836115E1,7.635994E-1,9.634706E0,2.2940502E1,6.9306374E0,1.5672818E2,4.6688023E1,1.1462445E0,9.0174866E-1,1.1971098E-1,0E0,0E0,0E0,0E0,0E0,0E0,0E0,0E0,0E0,0E0,0E0,0E0,0E0,0E0,0E0],"parents":[2147483647,0,0,1,1,2,2,3,3,4,4,5,5,6,6,7,7,8,8,9,9,10,10,11,11,12,12,13,13],"right_children":[2,4,6,8,10,12,14,16,18,20,22,24,26,28,-1,-1,-1,-1,-1,-1,-1,-1,-1,-1,-1,-1,-1,-1,-1],"split_conditions":[2.2E1,5E0,5E0,3E0,8E0,2E0,2.3E1,2E0,5E0,3E0,3E0,2.3E1,3E0,6E0,-4.204992E-2,-4.1117176E-2,3.4522496E-2,-6.025811E-2,-2.1247363E-2,1.5956843E-1,-2.758258E-2,-1.9608332E-2,1.5734715E-2,-4.44062E-2,-1.4176674E-2,-6.348525E-2,-3.8795743E-2,1.7338859E-2,8.259914E-3],"split_indices":[1,1,0,0,1,0,1,0,0,0,0,1,0,0,0,0,0,0,0,0,0,0,0,0,0,0,0,0,0],"split_type":[0,0,0,0,0,0,0,0,0,0,0,0,0,0,0,0,0,0,0,0,0,0,0,0,0,0,0,0,0],"sum_hessian":[2.509E3,2.24E3,2.69E2,3.71E2,1.869E3,1.38E2,1.31E2,1.6E2,2.11E2,1.87E2,1.682E3,5.2E1,8.6E1,6.7E1,6.4E1,8.8E1,7.2E1,6.7E1,1.44E2,7.2E1,1.15E2,5.59E2,1.123E3,2.6E1,2.6E1,2.5E1,6.1E1,2.5E1,4.2E1],"tree_param":{"num_deleted":"0","num_feature":"2","num_nodes":"29","size_leaf_vector":"1"}},{"base_weights":[-2.6675088E-3,4.1745417E-2,-1.8491757E-1,-5.476868E-2,2.4883993E-1,-7.870096E-1,-7.982796E-2,-3.2317567E-1,1.1647754E-1,1.1529826E-1,6.6413456E-1,-2.637065E-1,-1.7812033E-1,1.2851006E0,-2.5526157E-1,3.6121772E-3,-3.902222E-1,4.8694365E-2,-3.1208295E-2,2.8234053E-2,-1.3502981E-1,1.7516117E-1,1.934476E-2,1.4072211E-2,-6.268827E-2,-2.1931384E-2,2.5665018E-1,-6.600275E-2,-1.59573E-2],"categories":[],"categories_nodes":[],"categories_segments":[],"categories_sizes":[],"default_left":[0,0,0,0,0,0,0,0,0,0,0,0,0,0,0,0,0,0,0,0,0,0,0,0,0,0,0,0,0],"id":40,"left_children":[1,3,5,7,9,11,13,15,17,19,21,23,-1,25,27,-1,-1,-1,-1,-1,-1,-1,-1,-1,-1,-1,-1,-1,-1],"loss_changes":[2.0324306E1,4.0368473E1,3.1067799E1,6.3375595E1,3.5528194E1,3.7509605E1,1.0089886E2,6.9069196E2,1.338339E2,1.196069E2,7.951152E1,7.28528E0,0E0,9.309525E1,1.43415165E1,0E0,0E0,0E0,0E0,0E0,0E0,0E0,0E0,0E0,0E0,0E0,0E0,0E0,0E0],"parents":[2147483647,0,0,1,1,2,2,3,3,4,4,5,5,6,6,7,7,8,8,9,9,10,10,11,11,13,13,14,14],"right_children":[2,4,6,8,10,12,14,16,18,20,22,24,-1,26,28,-1,-1,-1,-1,-1,-1,-1,-1,-1,-1,-1,-1,-1,-1],"split_conditions":[7E0,5E0,8E0,1.1E1,2E1,5E0,1.1E1,1E1,1.8E1,1.9E1,2.1E1,1E0,-1.7812033E-1,1E1,1.5E1,3.6121772E-3,-3.902222E-1,4.8694365E-2,-3.1208295E-2,2.8234053E-2,-1.3502981E-1,1.7516117E-1,1.934476E-2,1.4072211E-2,-6.268827E-2,-2.1931384E-2,2.5665018E-1,-6.600275E-2,-1.59573E-2],"split_indices":[0,0,1,1,1,1,1,1,1,1,1,1,0,1,1,0,0,0,0,0,0,0,0,0,0,0,0,0,0],"split_type":[0,0,0,0,0,0,0,0,0,0,0,0,0,0,0,0,0,0,0,0,0,0,0,0,0,0,0,0,0],"sum_hessian":[2.509E3,2.018E3,4.91E2,1.377E3,6.41E2,7.2E1,4.19E2,5.36E2,8.41E2,4.86E2,1.55E2,4.8E1,2.4E1,4.7E1,3.72E2,4.88E2,4.8E1,4.51E2,3.9E2,4.37E2,4.9E1,4.6E1,1.09E2,2.3E1,2.5E1,2.2E1,2.5E1,7E1,3.02E2],"tree_param":{"num_deleted":"0","num_feature":"2","num_nodes":"29","size_leaf_vector":"1"}},{"base_weights":[-2.54255E-3,-3.054811E-1,2.4389343E-2,-3.9957875E-1,1.062123E-2,1.2840886E-1,-1.034727E-1,-2.4580097E-2,-4.5136586E-1,-1.0175385E-2,1.2723605E-2,-3.7958426E-3,5.5490243E-1,-3.2127565E-1,-1.0328918E-2,-5.0708234E-2,-3.50951E-2,1.607719E-2,-2.098777E-2,1.4051943E-1,1.9131208E-2,-5.9050154E-2,-1.9956885E-2,1.54474145E-2,-3.1350043E-2],"categories":[],"categories_nodes":[],"categories_segments":[],"categories_sizes":[],"default_left":[0,0,0,0,0,0,0,0,0,0,0,0,0,0,0,0,0,0,0,0,0,0,0,0,0],"id":41,"left_children":[1,3,5,7,9,11,13,-1,15,-1,-1,17,19,21,23,-1,-1,-1,-1,-1,-1,-1,-1,-1,-1],"loss_changes":[2.048581E1,6.101864E0,3.068343E1,1.1473198E0,6.4196754E-1,7.172314E1,2.099372E1,0E0,4.7662544E-1,0E0,0E0,3.2998566E1,9.278768E1,1.0039806E1,3.6321995E1,0E0,0E0,0E0,0E0,0E0,0E0,0E0,0E0,0E0,0E0],"parents":[2147483647,0,0,1,1,2,2,3,3,4,4,5,5,6,6,8,8,11,11,12,12,13,13,14,14],"right_children":[2,4,6,8,10,12,14,-1,16,-1,-1,18,20,22,24,-1,-1,-1,-1,-1,-1,-1,-1,-1,-1],"split_conditions":[3E0,6E0,1.7E1,2E0,7E0,1.4E1,3E0,-2.4580097E-2,4E0,-1.0175385E-2,1.2723605E-2,1E1,3E0,1.9E1,7E0,-5.0708234E-2,-3.50951E-2,1.607719E-2,-2.098777E-2,1.4051943E-1,1.9131208E-2,-5.9050154E-2,-1.9956885E-2,1.54474145E-2,-3.1350043E-2],"split_indices":[1,0,1,0,0,1,0,0,0,0,0,1,0,1,0,0,0,0,0,0,0,0,0,0,0],"split_type":[0,0,0,0,0,0,0,0,0,0,0,0,0,0,0,0,0,0,0,0,0,0,0,0,0],"sum_hessian":[2.509E3,2.04E2,2.305E3,1.57E2,4.7E1,1.271E3,1.034E3,4.1E1,1.16E2,2.4E1,2.3E1,9.71E2,3E2,3.09E2,7.25E2,7.2E1,4.4E1,5.4E2,4.31E2,8.9E1,2.11E2,9.5E1,2.14E2,4.7E2,2.55E2],"tree_param":{"num_deleted":"0","num_feature":"2","num_nodes":"25","size_leaf_vector":"1"}},{"base_weights":[-2.3073193E-3,-1.9829237E-1,3.1778116E-2,-5.3444967E-2,-3.0735907E-1,1.4882647E-1,-9.3217246E-2,-3.7125537E-1,3.3475462E-1,-1.9540496E-1,-5.223337E-2,6.678156E-1,4.1013397E-2,-2.894031E-1,-9.318023E-3,-2.218062E-2,-4.942889E-2,-3.7534375E-2,1.6328304E-1,-4.967066E-2,-5.361137E-3,-9.1880664E-2,8.918343E-2,5.923996E-2,-8.002349E-3,-5.3206682E-2,-1.7970487E-2,1.3905937E-2,-2.8227285E-2],"categories":[],"categories_nodes":[],"categories_segments":[],"categories_sizes":[],"default_left":[0,0,0,0,0,0,0,0,0,0,0,0,0,0,0,0,0,0,0,0,0,0,0,0,0,0,0,0,0],"id":42,"left_children":[1,3,5,7,9,11,13,15,17,19,-1,21,23,25,27,-1,-1,-1,-1,-1,-1,-1,-1,-1,-1,-1,-1,-1,-1],"loss_changes":[1.6773693E1,5.8604403E0,3.1308512E1,1.998747E1,5.0002003E0,6.1801575E1,1.7033241E1,1.5268297E0,6.790146E1,5.997263E0,0E0,6.83517E1,6.1179485E1,8.156515E0,2.9442488E1,0E0,0E0,0E0,0E0,0E0,0E0,0E0,0E0,0E0,0E0,0E0,0E0,0E0,0E0],"parents":[2147483647,0,0,1,1,2,2,3,3,4,4,5,5,6,6,7,7,8,8,9,9,11,11,12,12,13,13,14,14],"right_children":[2,4,6,8,10,12,14,16,18,20,-1,22,24,26,28,-1,-1,-1,-1,-1,-1,-1,-1,-1,-1,-1,-1,-1,-1],"split_conditions":[5E0,3E0,1.7E1,2E0,4E0,2E0,3E0,1E0,3E0,5E0,-5.223337E-2,8E0,8E0,1.9E1,7E0,-2.218062E-2,-4.942889E-2,-3.7534375E-2,1.6328304E-1,-4.967066E-2,-5.361137E-3,-9.1880664E-2,8.918343E-2,5.923996E-2,-8.002349E-3,-5.3206682E-2,-1.7970487E-2,1.3905937E-2,-2.8227285E-2],"split_indices":[1,0,1,0,1,0,0,1,1,0,0,1,1,1,0,0,0,0,0,0,0,0,0,0,0,0,0,0,0],"split_type":[0,0,0,0,0,0,0,0,0,0,0,0,0,0,0,0,0,0,0,0,0,0,0,0,0,0,0,0,0],"sum_hessian":[2.509E3,3.71E2,2.138E3,1.6E2,2.11E2,1.104E3,1.034E3,8.8E1,7.2E1,1.4E2,7.1E1,1.89E2,9.15E2,3.09E2,7.25E2,4.1E1,4.7E1,4.7E1,2.5E1,4.4E1,9.6E1,2.3E1,1.66E2,1.64E2,7.51E2,9.5E1,2.14E2,4.7E2,2.55E2],"tree_param":{"num_deleted":"0","num_feature":"2","num_nodes":"29","size_leaf_vector":"1"}},{"base_weights":[-2.112295E-3,2.4911936E-2,-2.2640559E-1,-1.0021072E-1,1.00003466E-1,-3.2707542E-1,-1.1868202E-1,2.4529573E-2,-1.0572345E0,1.8167047E-1,-1.9039816E-1,-2.0187114E-1,-3.9958978E-1,9.560888E-2,-3.410374E-1,1.4271597E-2,-4.7835153E-2,-6.0247064E-1,6.584372E-2,3.2899063E-2,4.861348E-3,-8.6969575E-3,-1.4682318E-1,-3.347254E-2,-6.1540147E-3,-3.5224795E-2,-5.2345205E-2,8.512563E-3,1.1501781E-2,-4.238658E-2,-2.9761119E-2],"categories":[],"categories_nodes":[],"categories_segments":[],"categories_sizes":[],"default_left":[0,0,0,0,0,0,0,0,0,0,0,0,0,0,0,0,0,0,0,0,0,0,0,0,0,0,0,0,0,0,0],"id":43,"left_children":[1,3,5,7,9,11,13,15,17,19,21,23,25,27,29,-1,-1,-1,-1,-1,-1,-1,-1,-1,-1,-1,-1,-1,-1,-1,-1],"loss_changes":[1.5219638E1,2.1065676E1,2.8892012E0,1.0042403E2,3.326103E1,1.1813297E0,6.322238E0,4.4346382E1,8.306543E2,2.1428566E1,4.057898E1,9.6751046E-1,3.2577133E-1,4.044831E-3,1.07652664E-1,0E0,0E0,0E0,0E0,0E0,0E0,0E0,0E0,0E0,0E0,0E0,0E0,0E0,0E0,0E0,0E0],"parents":[2147483647,0,0,1,1,2,2,3,3,4,4,5,5,6,6,7,7,8,8,9,9,10,10,11,11,12,12,13,13,14,14],"right_children":[2,4,6,8,10,12,14,16,18,20,22,24,26,28,30,-1,-1,-1,-1,-1,-1,-1,-1,-1,-1,-1,-1,-1,-1,-1,-1],"split_conditions":[2.2E1,1.1E1,5E0,1E1,7E0,2E0,2.3E1,6E0,3E0,1.7E1,2.1E1,2.3E1,4E0,7E0,7E0,1.4271597E-2,-4.7835153E-2,-6.0247064E-1,6.584372E-2,3.2899063E-2,4.861348E-3,-8.6969575E-3,-1.4682318E-1,-3.347254E-2,-6.1540147E-3,-3.5224795E-2,-5.2345205E-2,8.512563E-3,1.1501781E-2,-4.238658E-2,-2.9761119E-2],"split_indices":[1,1,0,1,0,0,1,0,0,1,1,1,0,0,0,0,0,0,0,0,0,0,0,0,0,0,0,0,0,0,0],"split_type":[0,0,0,0,0,0,0,0,0,0,0,0,0,0,0,0,0,0,0,0,0,0,0,0,0,0,0,0,0,0,0],"sum_hessian":[2.509E3,2.24E3,2.69E2,8.4E2,1.4E3,1.38E2,1.31E2,7.44E2,9.6E1,1.093E3,3.07E2,5.2E1,8.6E1,6.7E1,6.4E1,6.03E2,1.41E2,2.4E1,7.2E1,5.18E2,5.75E2,2.85E2,2.2E1,2.6E1,2.6E1,6.5E1,2.1E1,4.7E1,2E1,1.9E1,4.5E1],"tree_param":{"num_deleted":"0","num_feature":"2","num_nodes":"31","size_leaf_vector":"1"}},{"base_weights":[-2.2466069E-3,-2.4983627E-1,1.9764723E-2,-3.4289908E-1,6.1700363E-2,9.800725E-2,-7.6413296E-2,-2.1408545E-2,-3.862091E-1,-4.0917057E-3,1.6602267E-2,-1.6987866E-2,4.6902797E-1,-2.2146098E-1,2.3003755E-2,-4.299682E-2,-3.0663967E-2,1.2500967E-2,-1.9477416E-2,1.18978225E-1,1.60835E-2,-2.5111875E-3,-2.7860224E-2,2.0391915E-2,-2.3149837E-2],"categories":[],"categories_nodes":[],"categories_segments":[],"categories_sizes":[],"default_left":[0,0,0,0,0,0,0,0,0,0,0,0,0,0,0,0,0,0,0,0,0,0,0,0,0],"id":44,"left_children":[1,3,5,7,9,11,13,-1,15,-1,-1,17,19,21,23,-1,-1,-1,-1,-1,-1,-1,-1,-1,-1],"loss_changes":[1.368388E1,5.964615E0,1.7360624E1,7.987881E-1,5.206468E-1,5.427858E1,1.4930016E1,0E0,2.7553558E-1,0E0,0E0,2.4562695E1,6.667019E1,4.7164707E0,2.8363867E1,0E0,0E0,0E0,0E0,0E0,0E0,0E0,0E0,0E0,0E0],"parents":[2147483647,0,0,1,1,2,2,3,3,4,4,5,5,6,6,8,8,11,11,12,12,13,13,14,14],"right_children":[2,4,6,8,10,12,14,-1,16,-1,-1,18,20,22,24,-1,-1,-1,-1,-1,-1,-1,-1,-1,-1],"split_conditions":[3E0,6E0,1.7E1,2E0,7E0,1.4E1,4E0,-2.1408545E-2,4E0,-4.0917057E-3,1.6602267E-2,1E1,3E0,1.8E1,7E0,-4.299682E-2,-3.0663967E-2,1.2500967E-2,-1.9477416E-2,1.18978225E-1,1.60835E-2,-2.5111875E-3,-2.7860224E-2,2.0391915E-2,-2.3149837E-2],"split_indices":[1,0,1,0,0,1,0,0,0,0,0,1,0,1,0,0,0,0,0,0,0,0,0,0,0],"split_type":[0,0,0,0,0,0,0,0,0,0,0,0,0,0,0,0,0,0,0,0,0,0,0,0,0],"sum_hessian":[2.509E3,2.04E2,2.305E3,1.57E2,4.7E1,1.271E3,1.034E3,4.1E1,1.16E2,2.4E1,2.3E1,9.71E2,3E2,4.2E2,6.14E2,7.2E1,4.4E1,5.4E2,4.31E2,8.9E1,2.11E2,9.5E1,3.25E2,3.59E2,2.55E2],"tree_param":{"num_deleted":"0","num_feature":"2","num_nodes":"25","size_leaf_vector":"1"}},{"base_weights":[-2.016737E-3,-1.6904446E-1,2.7032506E-2,-4.9533848E-2,-2.590075E-1,3.43493E-1,-3.46012E-3,-3.457848E-1,3.1232738E-1,-5.3199437E-2,-1.7586505E-1,1.3816614E0,-3.1279826E-1,-1.9797811E-1,9.069749E-2,-1.931866E-2,-4.721044E-2,-3.104644E-2,1.4500843E-1,-7.500706E-3,-4.1104186E-2,-8.564103E-2,2.4283026E-1,-1.7660938E-1,5.9985586E-2,-1.3665958E-1,7.870666E-3,5.479734E-2,2.6481568E-3],"categories":[],"categories_nodes":[],"categories_segments":[],"categories_sizes":[],"default_left":[0,0,0,0,0,0,0,0,0,0,0,0,0,0,0,0,0,0,0,0,0,0,0,0,0,0,0,0,0],"id":45,"left_children":[1,3,5,7,9,11,13,15,17,-1,19,21,23,25,27,-1,-1,-1,-1,-1,-1,-1,-1,-1,-1,-1,-1,-1,-1],"loss_changes":[1.2183162E1,3.986743E0,2.0641924E1,1.736748E1,4.7181606E0,1.2852428E2,3.576952E1,1.6243725E0,5.217695E1,0E0,3.859161E0,1.7307906E2,1.5491672E2,2.0607433E2,3.8629032E1,0E0,0E0,0E0,0E0,0E0,0E0,0E0,0E0,0E0,0E0,0E0,0E0,0E0,0E0],"parents":[2147483647,0,0,1,1,2,2,3,3,4,4,5,5,6,6,7,7,8,8,10,10,11,11,12,12,13,13,14,14],"right_children":[2,4,6,8,10,12,14,16,18,-1,20,22,24,26,28,-1,-1,-1,-1,-1,-1,-1,-1,-1,-1,-1,-1,-1,-1],"split_conditions":[5E0,3E0,8E0,2E0,4E0,3E0,3E0,1E0,3E0,-5.3199437E-2,4E0,2E0,5E0,1.1E1,1.1E1,-1.931866E-2,-4.721044E-2,-3.104644E-2,1.4500843E-1,-7.500706E-3,-4.1104186E-2,-8.564103E-2,2.4283026E-1,-1.7660938E-1,5.9985586E-2,-1.3665958E-1,7.870666E-3,5.479734E-2,2.6481568E-3],"split_indices":[1,0,1,0,0,0,0,1,1,0,1,0,0,1,1,0,0,0,0,0,0,0,0,0,0,0,0,0,0],"split_type":[0,0,0,0,0,0,0,0,0,0,0,0,0,0,0,0,0,0,0,0,0,0,0,0,0,0,0,0,0],"sum_hessian":[2.509E3,3.71E2,2.138E3,1.6E2,2.11E2,1.87E2,1.951E3,8.8E1,7.2E1,4.8E1,1.63E2,7.2E1,1.15E2,6.36E2,1.315E3,4.1E1,4.7E1,4.7E1,2.5E1,1.15E2,4.8E1,2.3E1,4.9E1,4.4E1,7.1E1,1.21E2,5.15E2,1.61E2,1.154E3],"tree_param":{"num_deleted":"0","num_feature":"2","num_nodes":"29","size_leaf_vector":"1"}},{"base_weights":[-1.848802E-3,2.172226E-2,-1.9748177E-1,-8.172473E-2,8.380449E-2,-2.8043526E-1,-1.0863316E-1,3.0736154E-2,-9.446282E-1,1.525573E-1,-1.6067404E-1,-2.3796576E-1,-4.9547914E-2,7.644761E-2,-3.0058485E-1,1.2113985E-2,-5.890906E-2,-5.296443E-1,5.5865943E-2,2.7733833E-2,3.985953E-3,-6.7830156E-3,-1.3081817E-1,-1.6281934E-2,-2.9470507E-2,5.423061E-3,1.2358897E-2,-4.0548604E-2,-2.484412E-2],"categories":[],"categories_nodes":[],"categories_segments":[],"categories_sizes":[],"default_left":[0,0,0,0,0,0,0,0,0,0,0,0,0,0,0,0,0,0,0,0,0,0,0,0,0,0,0,0,0],"id":46,"left_children":[1,3,5,7,9,11,13,15,17,19,21,23,-1,25,27,-1,-1,-1,-1,-1,-1,-1,-1,-1,-1,-1,-1,-1,-1],"loss_changes":[1.1578594E1,1.4399044E1,1.9595175E0,8.1642105E1,2.3573341E1,1.1515522E0,4.7124853E0,4.181716E1,6.375357E2,1.5373371E1,3.2725292E1,4.5513916E-1,0E0,6.451681E-2,2.5480604E-1,0E0,0E0,0E0,0E0,0E0,0E0,0E0,0E0,0E0,0E0,0E0,0E0,0E0,0E0],"parents":[2147483647,0,0,1,1,2,2,3,3,4,4,5,5,6,6,7,7,8,8,9,9,10,10,11,11,13,13,14,14],"right_children":[2,4,6,8,10,12,14,16,18,20,22,24,-1,26,28,-1,-1,-1,-1,-1,-1,-1,-1,-1,-1,-1,-1,-1,-1],"split_conditions":[2.2E1,1.1E1,5E0,1E1,7E0,4E0,2.3E1,7E0,3E0,1.7E1,2.1E1,2E0,-4.9547914E-2,7E0,7E0,1.2113985E-2,-5.890906E-2,-5.296443E-1,5.5865943E-2,2.7733833E-2,3.985953E-3,-6.7830156E-3,-1.3081817E-1,-1.6281934E-2,-2.9470507E-2,5.423061E-3,1.2358897E-2,-4.0548604E-2,-2.484412E-2],"split_indices":[1,1,0,1,0,0,1,0,0,1,1,0,0,0,0,0,0,0,0,0,0,0,0,0,0,0,0,0,0],"split_type":[0,0,0,0,0,0,0,0,0,0,0,0,0,0,0,0,0,0,0,0,0,0,0,0,0,0,0,0,0],"sum_hessian":[2.509E3,2.24E3,2.69E2,8.4E2,1.4E3,1.38E2,1.31E2,7.44E2,9.6E1,1.093E3,3.07E2,1.17E2,2.1E1,6.7E1,6.4E1,6.5E2,9.4E1,2.4E1,7.2E1,5.18E2,5.75E2,2.85E2,2.2E1,5.2E1,6.5E1,4.7E1,2E1,1.9E1,4.5E1],"tree_param":{"num_deleted":"0","num_feature":"2","num_nodes":"29","size_leaf_vector":"1"}},{"base_weights":[-1.9706348E-3,-1.5520321E-1,2.467943E-2,-3.2393152E-1,-1.0178059E-1,2.6983884E-1,-9.238724E-3,-1.8615363E-2,-4.3773856E-2,2.707079E-1,-2.2956304E-1,4.7202837E-1,-1.6496238E-1,-3.5450414E-1,3.4390163E-2,-2.919264E-2,1.2990056E-1,-4.40152E-2,-1.2922089E-2,1.6075652E-2,1.6878274E-1,-1.8402365E-1,4.4476178E-2,1.982402E-2,-6.6327723E-3],"categories":[],"categories_nodes":[],"categories_segments":[],"categories_sizes":[],"default_left":[0,0,0,0,0,0,0,0,0,0,0,0,0,0,0,0,0,0,0,0,0,0,0,0,0],"id":47,"left_children":[1,3,5,7,9,11,13,-1,-1,15,17,19,-1,21,23,-1,-1,-1,-1,-1,-1,-1,-1,-1,-1],"loss_changes":[1.0253811E1,3.3202038E0,1.7789036E1,1.3140421E0,1.3579832E1,1.01683426E2,2.833166E1,0E0,0E0,4.261377E1,4.422883E0,8.904144E1,0E0,2.5137993E2,2.7572542E1,0E0,0E0,0E0,0E0,0E0,0E0,0E0,0E0,0E0,0E0],"parents":[2147483647,0,0,1,1,2,2,3,3,4,4,5,5,6,6,9,9,10,10,11,11,13,13,14,14],"right_children":[2,4,6,8,10,12,14,-1,-1,16,18,20,-1,22,24,-1,-1,-1,-1,-1,-1,-1,-1,-1,-1],"split_conditions":[5E0,2E0,9E0,1E0,3E0,6E0,1.1E1,-1.8615363E-2,-4.3773856E-2,3E0,5E0,5E0,-1.6496238E-1,3E0,1.7E1,-2.919264E-2,1.2990056E-1,-4.40152E-2,-1.2922089E-2,1.6075652E-2,1.6878274E-1,-1.8402365E-1,4.4476178E-2,1.982402E-2,-6.6327723E-3],"split_indices":[1,0,1,1,0,0,1,0,0,1,0,0,0,0,1,0,0,0,0,0,0,0,0,0,0],"split_type":[0,0,0,0,0,0,0,0,0,0,0,0,0,0,0,0,0,0,0,0,0,0,0,0,0],"sum_hessian":[2.509E3,3.71E2,2.138E3,8.8E1,2.83E2,2.59E2,1.879E3,4.1E1,4.7E1,7.2E1,2.11E2,2.35E2,2.4E1,2.1E2,1.669E3,4.7E1,2.5E1,6.7E1,1.44E2,1.88E2,4.7E1,7.3E1,1.37E2,6.35E2,1.034E3],"tree_param":{"num_deleted":"0","num_feature":"2","num_nodes":"25","size_leaf_vector":"1"}},{"base_weights":[-1.8232104E-3,1.8639212E-2,-1.7165457E-1,-1.3973297E-1,5.0134297E-2,-2.4649227E-1,-9.154777E-2,-2.9223952E-1,-9.1448404E-2,2.4228273E-1,5.88572E-3,-2.0798038E-1,-4.4185188E-2,7.5600035E-2,-2.6500165E-1,-1.679816E-2,-3.9487686E-2,2.4501652E-2,-2.0687526E-2,5.2574765E-2,-8.790195E-2,4.3025997E-2,-4.571902E-3,-1.4033702E-2,-2.5914883E-2,5.541565E-3,1.1813577E-2,-3.606639E-2,-2.176485E-2],"categories":[],"categories_nodes":[],"categories_segments":[],"categories_sizes":[],"default_left":[0,0,0,0,0,0,0,0,0,0,0,0,0,0,0,0,0,0,0,0,0,0,0,0,0,0,0,0,0],"id":48,"left_children":[1,3,5,7,9,11,13,15,17,19,21,23,-1,25,27,-1,-1,-1,-1,-1,-1,-1,-1,-1,-1,-1,-1,-1,-1],"loss_changes":[8.725853E0,1.1184991E1,1.596086E0,2.7125764E0,1.5897867E1,9.5389366E-1,3.8470354E0,1.0687294E0,1.108042E1,1.1170959E2,3.3329147E1,3.720541E-1,0E0,5.183533E-2,2.159462E-1,0E0,0E0,0E0,0E0,0E0,0E0,0E0,0E0,0E0,0E0,0E0,0E0,0E0,0E0],"parents":[2147483647,0,0,1,1,2,2,3,3,4,4,5,5,6,6,7,7,8,8,9,9,10,10,11,11,13,13,14,14],"right_children":[2,4,6,8,10,12,14,16,18,20,22,24,-1,26,28,-1,-1,-1,-1,-1,-1,-1,-1,-1,-1,-1,-1,-1,-1],"split_conditions":[2.2E1,5E0,5E0,2E0,2E0,4E0,2.3E1,1E0,3E0,2E1,8E0,2E0,-4.4185188E-2,7E0,7E0,-1.679816E-2,-3.9487686E-2,2.4501652E-2,-2.0687526E-2,5.2574765E-2,-8.790195E-2,4.3025997E-2,-4.571902E-3,-1.4033702E-2,-2.5914883E-2,5.541565E-3,1.1813577E-2,-3.606639E-2,-2.176485E-2],"split_indices":[1,1,0,0,0,0,1,1,0,1,1,0,0,0,0,0,0,0,0,0,0,0,0,0,0,0,0,0,0],"split_type":[0,0,0,0,0,0,0,0,0,0,0,0,0,0,0,0,0,0,0,0,0,0,0,0,0,0,0,0,0],"sum_hessian":[2.509E3,2.24E3,2.69E2,3.71E2,1.869E3,1.38E2,1.31E2,8.8E1,2.83E2,3.49E2,1.52E3,1.17E2,2.1E1,6.7E1,6.4E1,4.1E1,4.7E1,7.2E1,2.11E2,2.79E2,7E1,1.64E2,1.356E3,5.2E1,6.5E1,4.7E1,2E1,1.9E1,4.5E1],"tree_param":{"num_deleted":"0","num_feature":"2","num_nodes":"29","size_leaf_vector":"1"}},{"base_weights":[-1.710115E-3,-6.1854497E-2,4.878598E-2,9.410431E-2,-1.7807665E-1,-2.399768E-1,9.369593E-2,2.964034E-1,-5.1191336E-1,2.6791432E-1,-3.6416325E-1,-1.12820774E-1,-1.2215773E-1,1.8302104E-1,5.459216E-2,1.4838438E-2,2.5102374E-1,-7.923555E-2,-1.26568E-2,1.0012215E-1,-9.612827E-2,-3.141268E-1,-2.1220254E-2,-2.7085682E-3,-3.1348303E-2,1.4178187E-2,-8.574127E-3],"categories":[],"categories_nodes":[],"categories_segments":[],"categories_sizes":[],"default_left":[0,0,0,0,0,0,0,0,0,0,0,0,0,0,0,0,0,0,0,0,0,0,0,0,0,0,0],"id":49,"left_children":[1,3,5,7,9,11,13,15,17,19,21,23,-1,-1,25,-1,-1,-1,-1,-1,-1,-1,-1,-1,-1,-1,-1],"loss_changes":[7.6260295E0,2.0789005E1,1.7724243E1,6.0224174E1,5.4623924E1,2.2828398E1,8.016293E1,1.20217285E2,1.3191963E1,1.7582996E2,1.9514642E2,2.8129323E0,0E0,0E0,1.4168779E1,0E0,0E0,0E0,0E0,0E0,0E0,0E0,0E0,0E0,0E0,0E0,0E0],"parents":[2147483647,0,0,1,1,2,2,3,3,4,4,5,5,6,6,7,7,8,8,9,9,10,10,11,11,14,14],"right_children":[2,4,6,8,10,12,14,16,18,20,22,24,-1,-1,26,-1,-1,-1,-1,-1,-1,-1,-1,-1,-1,-1,-1],"split_conditions":[4E0,2E0,6E0,2E1,8E0,5E0,7E0,1.9E1,2.2E1,3E0,9E0,4E0,-1.2215773E-1,1.8302104E-1,7E0,1.4838438E-2,2.5102374E-1,-7.923555E-2,-1.26568E-2,1.0012215E-1,-9.612827E-2,-3.141268E-1,-2.1220254E-2,-2.7085682E-3,-3.1348303E-2,1.4178187E-2,-8.574127E-3],"split_indices":[0,0,1,1,1,1,1,1,1,0,1,1,0,0,0,0,0,0,0,0,0,0,0,0,0,0,0],"split_type":[0,0,0,0,0,0,0,0,0,0,0,0,0,0,0,0,0,0,0,0,0,0,0,0,0,0,0],"sum_hessian":[2.509E3,1.145E3,1.364E3,4.89E2,6.56E2,1.83E2,1.181E3,3.67E2,1.22E2,1.93E2,4.63E2,1.63E2,2E1,2.5E1,1.156E3,3.45E2,2.2E1,7E1,5.2E1,1.21E2,7.2E1,2.3E1,4.4E2,1.15E2,4.8E1,7.13E2,4.43E2],"tree_param":{"num_deleted":"0","num_feature":"2","num_nodes":"27","size_leaf_vector":"1"}}]},"name":"gbtree"},"learner_model_param":{"base_score":"[1.362774E1]","boost_from_average":"1","num_class":"0","num_feature":"2","num_target":"1"},"objective":{"name":"reg:squarederror","reg_loss_param":{"scale_pos_weight":"1"}}},"version":[3,2,0]}