{"learner":{"attributes":{},"feature_names":["day_of_week","hour_of_day"],"feature_types":[],"gradient_booster":{"model":{"cats":{"enc":[],"feature_segments":[],"sorted_idx":[]},"gbtree_model_param":{"num_parallel_tree":"1","num_trees":"50"},"iteration_indptr":[0,1,2,3,4,5,6,7,8,9,10,11,12,13,14,15,16,17,18,19,20,21,22,23,24,25,26,27,28,29,30,31,32,33,34,35,36,37,38,39,40,41,42,43,44,45,46,47,48,49,50],"tree_info":[0,0,0,0,0,0,0,0,0,0,0,0,0,0,0,0,0,0,0,0,0,0,0,0,0,0,0,0,0,0,0,0,0,0,0,0,0,0,0,0,0,0,0,0,0,0,0,0,0,0],"trees":[{"base_weights":[-1.6869777E-7,-1.1267614E1,1.0390316E0,-1.2131591E0,-7.886054E-1,3.6590254E0,-4.302698E0,-2.26214E0,4.364851E0,-1.905065E0,-8.498168E0,1.025663E-1,-4.756392E-1,4.9169427E-1,1.763644E-1,-4.342309E-1,-4.9367312E-2,-1.1532182E0,-6.3743407E-1],"categories":[],"categories_nodes":[],"categories_segments":[],"categories_sizes":[],"default_left":[0,0,0,0,0,0,0,0,0,0,0,0,0,0,0,0,0,0,0],"id":0,"left_children":[1,3,5,-1,-1,7,9,11,13,15,17,-1,-1,-1,-1,-1,-1,-1,-1],"loss_changes":[2.9397305E4,5.2370703E2,3.2190936E4,0E0,0E0,6.458547E3,7.59862E3,1.357979E3,1.9717207E3,1.6593313E3,1.6985137E3,0E0,0E0,0E0,0E0,0E0,0E0,0E0,0E0],"parents":[2147483647,0,0,1,1,2,2,5,5,6,6,7,7,8,8,9,9,10,10],"right_children":[2,4,6,-1,-1,8,10,12,14,16,18,-1,-1,-1,-1,-1,-1,-1,-1],"split_conditions":[3E0,6E0,1.9E1,-1.2131591E0,-7.886054E-1,5E0,2.2E1,3E0,7E0,4E0,4E0,1.025663E-1,-4.756392E-1,4.9169427E-1,1.763644E-1,-4.342309E-1,-4.9367312E-2,-1.1532182E0,-6.3743407E-1],"split_indices":[1,0,1,0,0,1,1,0,0,0,0,0,0,0,0,0,0,0,0],"split_type":[0,0,0,0,0,0,0,0,0,0,0,0,0,0,0,0,0,0,0],"sum_hessian":[2.509E3,2.11E2,2.298E3,1.66E2,4.5E1,1.542E3,7.56E2,1.64E2,1.378E3,4.82E2,2.74E2,7.1E1,9.3E1,1.136E3,2.42E2,1.76E2,3.06E2,1.11E2,1.63E2],"tree_param":{"num_deleted":"0","num_feature":"2","num_nodes":"19","size_leaf_vector":"1"}},{"base_weights":[-1.5861955E-3,-1.0150294E1,9.342676E-1,-1.0925697E0,-7.1145916E-1,2.8848996E0,-4.892203E0,-2.0381873E0,3.4040945E0,-2.368693E0,-7.6548624E0,9.245207E-2,-4.285813E-1,4.1244873E-1,-3.498526E-3,-5.291744E-1,-6.0239602E-2,-1.038926E0,-5.7407933E-1],"categories":[],"categories_nodes":[],"categories_segments":[],"categories_sizes":[],"default_left":[0,0,0,0,0,0,0,0,0,0,0,0,0,0,0,0,0,0,0],"id":1,"left_children":[1,3,5,-1,-1,7,9,11,13,15,17,-1,-1,-1,-1,-1,-1,-1,-1],"loss_changes":[2.3848727E4,4.2129297E2,2.6142941E4,0E0,0E0,4.410994E3,4.0044795E3,1.1027068E3,3.8625488E3,1.5611936E3,1.3796592E3,0E0,0E0,0E0,0E0,0E0,0E0,0E0,0E0],"parents":[2147483647,0,0,1,1,2,2,5,5,6,6,7,7,8,8,9,9,10,10],"right_children":[2,4,6,-1,-1,8,10,12,14,16,18,-1,-1,-1,-1,-1,-1,-1,-1],"split_conditions":[3E0,6E0,2E1,-1.0925697E0,-7.1145916E-1,5E0,2.2E1,3E0,1.8E1,4E0,4E0,9.245207E-2,-4.285813E-1,4.1244873E-1,-3.498526E-3,-5.291744E-1,-6.0239602E-2,-1.038926E0,-5.7407933E-1],"split_indices":[1,0,1,0,0,1,1,0,1,0,0,0,0,0,0,0,0,0,0],"split_type":[0,0,0,0,0,0,0,0,0,0,0,0,0,0,0,0,0,0,0],"sum_hessian":[2.509E3,2.11E2,2.298E3,1.66E2,4.5E1,1.722E3,5.76E2,1.64E2,1.558E3,3.02E2,2.74E2,7.1E1,9.3E1,1.288E3,2.7E2,1.13E2,1.89E2,1.11E2,1.63E2],"tree_param":{"num_deleted":"0","num_feature":"2","num_nodes":"19","size_leaf_vector":"1"}},{"base_weights":[-2.9948573E-3,-9.143775E0,8.399144E-1,-9.8396695E-1,-6.4185995E-1,2.970809E0,-3.504617E0,9.486885E-1,4.406763E0,-1.5668814E0,-6.8952413E0,-1.8364058E-1,1.9080858E-1,5.051523E-1,1.7742886E-1,-3.5714516E-1,-4.0604815E-2,-9.359609E-1,-5.170214E-1],"categories":[],"categories_nodes":[],"categories_segments":[],"categories_sizes":[],"default_left":[0,0,0,0,0,0,0,0,0,0,0,0,0,0,0,0,0,0,0],"id":2,"left_children":[1,3,5,-1,-1,7,9,11,13,15,17,-1,-1,-1,-1,-1,-1,-1,-1],"loss_changes":[1.9346848E4,3.3888672E2,2.1293953E4,0E0,0E0,4.4761855E3,4.962786E3,1.7189355E3,1.5220137E3,1.1224774E3,1.1206611E3,0E0,0E0,0E0,0E0,0E0,0E0,0E0,0E0],"parents":[2147483647,0,0,1,1,2,2,5,5,6,6,7,7,8,8,9,9,10,10],"right_children":[2,4,6,-1,-1,8,10,12,14,16,18,-1,-1,-1,-1,-1,-1,-1,-1],"split_conditions":[3E0,6E0,1.9E1,-9.8396695E-1,-6.4185995E-1,1.1E1,2.2E1,5E0,7E0,4E0,4E0,-1.8364058E-1,1.9080858E-1,5.051523E-1,1.7742886E-1,-3.5714516E-1,-4.0604815E-2,-9.359609E-1,-5.170214E-1],"split_indices":[1,0,1,0,0,1,1,1,0,0,0,0,0,0,0,0,0,0,0],"split_type":[0,0,0,0,0,0,0,0,0,0,0,0,0,0,0,0,0,0,0],"sum_hessian":[2.509E3,2.11E2,2.298E3,1.66E2,4.5E1,1.542E3,7.56E2,6.41E2,9.01E2,4.82E2,2.74E2,1.64E2,4.77E2,7.23E2,1.78E2,1.76E2,3.06E2,1.11E2,1.63E2],"tree_param":{"num_deleted":"0","num_feature":"2","num_nodes":"19","size_leaf_vector":"1"}},{"base_weights":[-3.8058744E-3,-8.237066E0,7.554177E-1,-8.861594E-1,-5.790693E-1,2.3466227E0,-3.9974446E0,-1.6538781E0,2.7685187E0,-1.9752483E0,-6.211001E0,1.0144428E-1,-3.680104E-1,3.3577368E-1,-4.4287196E-3,-4.413198E-1,-5.020825E-2,-8.432005E-1,-4.6563455E-1],"categories":[],"categories_nodes":[],"categories_segments":[],"categories_sizes":[],"default_left":[0,0,0,0,0,0,0,0,0,0,0,0,0,0,0,0,0,0,0],"id":3,"left_children":[1,3,5,-1,-1,7,9,11,13,15,17,-1,-1,-1,-1,-1,-1,-1,-1],"loss_changes":[1.5695946E4,2.7258496E2,1.7396207E4,0E0,0E0,2.9126494E3,2.5705244E3,8.9582574E2,2.5839658E3,1.0860101E3,9.102842E2,0E0,0E0,0E0,0E0,0E0,0E0,0E0,0E0],"parents":[2147483647,0,0,1,1,2,2,5,5,6,6,7,7,8,8,9,9,10,10],"right_children":[2,4,6,-1,-1,8,10,12,14,16,18,-1,-1,-1,-1,-1,-1,-1,-1],"split_conditions":[3E0,6E0,2E1,-8.861594E-1,-5.790693E-1,5E0,2.2E1,3E0,1.8E1,4E0,4E0,1.0144428E-1,-3.680104E-1,3.3577368E-1,-4.4287196E-3,-4.413198E-1,-5.020825E-2,-8.432005E-1,-4.6563455E-1],"split_indices":[1,0,1,0,0,1,1,0,1,0,0,0,0,0,0,0,0,0,0],"split_type":[0,0,0,0,0,0,0,0,0,0,0,0,0,0,0,0,0,0,0],"sum_hessian":[2.509E3,2.11E2,2.298E3,1.66E2,4.5E1,1.722E3,5.76E2,1.64E2,1.558E3,3.02E2,2.74E2,7.1E1,9.3E1,1.288E3,2.7E2,1.13E2,1.89E2,1.11E2,1.63E2],"tree_param":{"num_deleted":"0","num_feature":"2","num_nodes":"19","size_leaf_vector":"1"}},{"base_weights":[-4.700388E-3,-7.420271E0,6.7912114E-1,-7.9807407E-1,-5.224212E-1,2.111998E0,-3.6008205E0,-1.4901057E0,2.4918797E0,-1.779346E0,-5.5946603E0,9.144076E-2,-3.3160087E-1,3.0222237E-1,-3.987468E-3,-3.97575E-1,-4.521387E-2,-7.596333E-1,-4.1935506E-1],"categories":[],"categories_nodes":[],"categories_segments":[],"categories_sizes":[],"default_left":[0,0,0,0,0,0,0,0,0,0,0,0,0,0,0,0,0,0,0],"id":4,"left_children":[1,3,5,-1,-1,7,9,11,13,15,17,-1,-1,-1,-1,-1,-1,-1,-1],"loss_changes":[1.2733064E4,2.1924219E2,1.4106522E4,0E0,0E0,2.3614185E3,2.0855518E3,7.2744934E2,2.0933906E3,8.8147253E2,7.394004E2,0E0,0E0,0E0,0E0,0E0,0E0,0E0,0E0],"parents":[2147483647,0,0,1,1,2,2,5,5,6,6,7,7,8,8,9,9,10,10],"right_children":[2,4,6,-1,-1,8,10,12,14,16,18,-1,-1,-1,-1,-1,-1,-1,-1],"split_conditions":[3E0,6E0,2E1,-7.9807407E-1,-5.224212E-1,5E0,2.2E1,3E0,1.8E1,4E0,4E0,9.144076E-2,-3.3160087E-1,3.0222237E-1,-3.987468E-3,-3.97575E-1,-4.521387E-2,-7.596333E-1,-4.1935506E-1],"split_indices":[1,0,1,0,0,1,1,0,1,0,0,0,0,0,0,0,0,0,0],"split_type":[0,0,0,0,0,0,0,0,0,0,0,0,0,0,0,0,0,0,0],"sum_hessian":[2.509E3,2.11E2,2.298E3,1.66E2,4.5E1,1.722E3,5.76E2,1.64E2,1.558E3,3.02E2,2.74E2,7.1E1,9.3E1,1.288E3,2.7E2,1.13E2,1.89E2,1.11E2,1.63E2],"tree_param":{"num_deleted":"0","num_feature":"2","num_nodes":"19","size_leaf_vector":"1"}},{"base_weights":[-5.3794384E-3,-6.684473E0,6.105289E-1,-7.187446E-1,-4.713148E0,2.1753983E0,-2.5799654E0,-5.3421396E-1,-3.8518897E-1,4.5982024E-1,3.3940523E0,-1.1742783E0,-5.039481E0,8.772093E-2,-2.248849E-1,3.9501306E-1,1.1259247E-1,-4.9942907E-2,-3.2810766E-1,-6.843483E-1,-3.776752E-1],"categories":[],"categories_nodes":[],"categories_segments":[],"categories_sizes":[],"default_left":[0,0,0,0,0,0,0,0,0,0,0,0,0,0,0,0,0,0,0,0,0],"id":5,"left_children":[1,3,5,-1,7,9,11,-1,-1,13,15,17,19,-1,-1,-1,-1,-1,-1,-1,-1],"loss_changes":[1.032949E4,1.7632812E2,1.1483846E4,0E0,4.341919E0,3.2243828E3,2.6112656E3,0E0,0E0,7.277979E2,1.1332051E3,6.850767E2,6.0059424E2,0E0,0E0,0E0,0E0,0E0,0E0,0E0,0E0],"parents":[2147483647,0,0,1,1,2,2,4,4,5,5,6,6,9,9,10,10,11,11,12,12],"right_children":[2,4,6,-1,8,10,12,-1,-1,14,16,18,20,-1,-1,-1,-1,-1,-1,-1,-1],"split_conditions":[3E0,6E0,1.9E1,-7.187446E-1,7E0,1.1E1,2.2E1,-5.3421396E-1,-3.8518897E-1,7E0,7E0,7E0,4E0,8.772093E-2,-2.248849E-1,3.9501306E-1,1.1259247E-1,-4.9942907E-2,-3.2810766E-1,-6.843483E-1,-3.776752E-1],"split_indices":[1,0,1,0,0,1,1,0,0,0,0,0,0,0,0,0,0,0,0,0,0],"split_type":[0,0,0,0,0,0,0,0,0,0,0,0,0,0,0,0,0,0,0,0,0],"sum_hessian":[2.509E3,2.11E2,2.298E3,1.66E2,4.5E1,1.542E3,7.56E2,2.3E1,2.2E1,6.41E2,9.01E2,4.82E2,2.74E2,5.56E2,8.5E1,7.23E2,1.78E2,3.66E2,1.16E2,1.11E2,1.63E2],"tree_param":{"num_deleted":"0","num_feature":"2","num_nodes":"21","size_leaf_vector":"1"}},{"base_weights":[-5.9202397E-3,-6.0237527E0,5.490108E-1,-6.4730054E-1,-4.2618203E0,1.7187159E0,-2.9448383E0,-4.8301846E-1,-3.483448E-1,-1.3899537E0,2.0466259E0,-2.0405302E0,-5.9483886E0,7.3773384E-2,-3.0048853E-1,2.4839056E-1,-4.082865E-3,-3.846514E-1,-4.6781417E-2,-4.9084416E-1,-7.872987E-1],"categories":[],"categories_nodes":[],"categories_segments":[],"categories_sizes":[],"default_left":[0,0,0,0,0,0,0,0,0,0,0,0,0,0,0,0,0,0,0,0,0],"id":6,"left_children":[1,3,5,-1,7,9,11,-1,-1,13,15,17,19,-1,-1,-1,-1,-1,-1,-1,-1],"loss_changes":[8.385407E3,1.4022217E2,9.400552E3,0E0,3.5245972E0,1.7592095E3,1.5550718E3,0E0,0E0,5.6916833E2,1.4231582E3,1.262134E3,2.2755273E2,0E0,0E0,0E0,0E0,0E0,0E0,0E0,0E0],"parents":[2147483647,0,0,1,1,2,2,4,4,5,5,6,6,9,9,10,10,11,11,12,12],"right_children":[2,4,6,-1,8,10,12,-1,-1,14,16,18,20,-1,-1,-1,-1,-1,-1,-1,-1],"split_conditions":[3E0,6E0,2E1,-6.4730054E-1,7E0,5E0,2.3E1,-4.8301846E-1,-3.483448E-1,3E0,1.8E1,5E0,7E0,7.3773384E-2,-3.0048853E-1,2.4839056E-1,-4.082865E-3,-3.846514E-1,-4.6781417E-2,-4.9084416E-1,-7.872987E-1],"split_indices":[1,0,1,0,0,1,1,0,0,0,1,0,0,0,0,0,0,0,0,0,0],"split_type":[0,0,0,0,0,0,0,0,0,0,0,0,0,0,0,0,0,0,0,0,0],"sum_hessian":[2.509E3,2.11E2,2.298E3,1.66E2,4.5E1,1.722E3,5.76E2,2.3E1,2.2E1,1.64E2,1.558E3,4.44E2,1.32E2,7.1E1,9.3E1,1.288E3,2.7E2,2.06E2,2.38E2,8.8E1,4.4E1],"tree_param":{"num_deleted":"0","num_feature":"2","num_nodes":"21","size_leaf_vector":"1"}},{"base_weights":[-6.591254E-3,-5.4283524E0,4.933739E-1,-5.829581E-1,-3.8537111E0,1.5468547E0,-2.6533172E0,-4.3672916E-1,-3.1502485E-1,2.644428E-1,2.3063385E0,-1.8374467E0,-5.36316E0,7.0933245E-2,-2.182875E-1,3.0854934E-1,-3.6761009E-3,-3.463721E-1,-4.2122837E-2,-4.4231126E-1,-7.1031845E-1],"categories":[],"categories_nodes":[],"categories_segments":[],"categories_sizes":[],"default_left":[0,0,0,0,0,0,0,0,0,0,0,0,0,0,0,0,0,0,0,0,0],"id":7,"left_children":[1,3,5,-1,7,9,11,-1,-1,13,15,17,19,-1,-1,-1,-1,-1,-1,-1,-1],"loss_changes":[6.8065146E3,1.1147363E2,7.6252407E3,0E0,2.861023E0,1.677543E3,1.2658235E3,0E0,0E0,7.005493E2,1.9754526E3,1.0234468E3,1.8613062E2,0E0,0E0,0E0,0E0,0E0,0E0,0E0,0E0],"parents":[2147483647,0,0,1,1,2,2,4,4,5,5,6,6,9,9,10,10,11,11,12,12],"right_children":[2,4,6,-1,8,10,12,-1,-1,14,16,18,20,-1,-1,-1,-1,-1,-1,-1,-1],"split_conditions":[3E0,6E0,2E1,-5.829581E-1,7E0,1.1E1,2.3E1,-4.3672916E-1,-3.1502485E-1,1E1,1.8E1,5E0,7E0,7.0933245E-2,-2.182875E-1,3.0854934E-1,-3.6761009E-3,-3.463721E-1,-4.2122837E-2,-4.4231126E-1,-7.1031845E-1],"split_indices":[1,0,1,0,0,1,1,0,0,1,1,0,0,0,0,0,0,0,0,0,0],"split_type":[0,0,0,0,0,0,0,0,0,0,0,0,0,0,0,0,0,0,0,0,0],"sum_hessian":[2.509E3,2.11E2,2.298E3,1.66E2,4.5E1,1.722E3,5.76E2,2.3E1,2.2E1,6.41E2,1.081E3,4.44E2,1.32E2,5.43E2,9.8E1,8.11E2,2.7E2,2.06E2,2.38E2,8.8E1,4.4E1],"tree_param":{"num_deleted":"0","num_feature":"2","num_nodes":"21","size_leaf_vector":"1"}},{"base_weights":[-7.015213E-3,-4.891813E0,4.434346E-1,-5.250113E-1,-3.4846826E0,1.2188227E0,-3.0589619E0,-3.9487588E-1,-2.8489208E-1,1.6654193E0,-7.0812106E-1,-2.2441175E0,-5.9534144E-1,6.0252827E-2,2.2721665E-1,-6.168188E-1,-1.4732518E-3,-4.2605457E-1,1.09133E-1],"categories":[],"categories_nodes":[],"categories_segments":[],"categories_sizes":[],"default_left":[0,0,0,0,0,0,0,0,0,0,0,0,0,0,0,0,0,0,0],"id":8,"left_children":[1,3,5,-1,7,9,11,-1,-1,13,15,17,-1,-1,-1,-1,-1,-1,-1],"loss_changes":[5.525063E3,8.858984E1,6.2471616E3,0E0,2.3222046E0,1.6216265E3,9.7014624E2,0E0,0E0,9.846919E2,1.3439205E3,2.2039502E3,0E0,0E0,0E0,0E0,0E0,0E0,0E0],"parents":[2147483647,0,0,1,1,2,2,4,4,5,5,6,6,9,9,10,10,11,11],"right_children":[2,4,6,-1,8,10,12,-1,-1,14,16,18,-1,-1,-1,-1,-1,-1,-1],"split_conditions":[3E0,6E0,2.1E1,-5.250113E-1,7E0,7E0,7E0,-3.9487588E-1,-2.8489208E-1,1.1E1,8E0,5E0,-5.9534144E-1,6.0252827E-2,2.2721665E-1,-6.168188E-1,-1.4732518E-3,-4.2605457E-1,1.09133E-1],"split_indices":[1,0,1,0,0,0,0,0,0,1,1,0,0,0,0,0,0,0,0],"split_type":[0,0,0,0,0,0,0,0,0,0,0,0,0,0,0,0,0,0,0],"sum_hessian":[2.509E3,2.11E2,2.298E3,1.66E2,4.5E1,1.882E3,4.16E2,2.3E1,2.2E1,1.528E3,3.54E2,3.26E2,9E1,5.56E2,9.72E2,3.9E1,3.15E2,2.03E2,1.23E2],"tree_param":{"num_deleted":"0","num_feature":"2","num_nodes":"19","size_leaf_vector":"1"}},{"base_weights":[-7.289028E-3,-4.4083147E0,3.9855033E-1,-4.7282457E-1,-3.150992E0,1.4802817E0,-1.806879E0,-3.5703367E-1,-2.5764155E-1,2.23163E-1,2.3733969E0,-8.5326636E-1,-3.4751992E0,6.294236E-2,-2.0114727E-1,2.8076884E-1,6.0356177E-2,-2.3973085E-2,-2.7704823E-1,-4.9047986E-1,-2.4776971E-1],"categories":[],"categories_nodes":[],"categories_segments":[],"categories_sizes":[],"default_left":[0,0,0,0,0,0,0,0,0,0,0,0,0,0,0,0,0,0,0,0,0],"id":9,"left_children":[1,3,5,-1,7,9,11,-1,-1,13,15,17,19,-1,-1,-1,-1,-1,-1,-1,-1],"loss_changes":[4.4848916E3,7.037988E1,5.4873574E3,0E0,1.8848267E0,1.7318767E3,1.2013696E3,0E0,0E0,5.841022E2,6.916045E2,5.6747906E2,3.8000488E2,0E0,0E0,0E0,0E0,0E0,0E0,0E0,0E0],"parents":[2147483647,0,0,1,1,2,2,4,4,5,5,6,6,9,9,10,10,11,11,12,12],"right_children":[2,4,6,-1,8,10,12,-1,-1,14,16,18,20,-1,-1,-1,-1,-1,-1,-1,-1],"split_conditions":[3E0,6E0,1.9E1,-4.7282457E-1,7E0,1.1E1,2.2E1,-3.5703367E-1,-2.5764155E-1,1E1,7E0,7E0,4E0,6.294236E-2,-2.0114727E-1,2.8076884E-1,6.0356177E-2,-2.3973085E-2,-2.7704823E-1,-4.9047986E-1,-2.4776971E-1],"split_indices":[1,0,1,0,0,1,1,0,0,1,0,0,0,0,0,0,0,0,0,0,0],"split_type":[0,0,0,0,0,0,0,0,0,0,0,0,0,0,0,0,0,0,0,0,0],"sum_hessian":[2.509E3,2.11E2,2.298E3,1.66E2,4.5E1,1.542E3,7.56E2,2.3E1,2.2E1,6.41E2,9.01E2,4.82E2,2.74E2,5.43E2,9.8E1,7.23E2,1.78E2,3.66E2,1.16E2,1.11E2,1.63E2],"tree_param":{"num_deleted":"0","num_feature":"2","num_nodes":"21","size_leaf_vector":"1"}},{"base_weights":[-7.3267147E-3,-3.9726129E0,3.5833138E-1,-4.2582527E-1,-2.849255E0,1.3323848E0,-1.6275638E0,-3.2281792E-1,-2.3299754E-1,5.211837E-1,2.4670033E0,-1.0995959E0,-4.096379E0,-1.3591123E-1,9.414383E-2,3.483434E-1,1.128422E-1,-2.2650151E-1,-5.7607167E-3,-3.2980454E-1,-5.584275E-1],"categories":[],"categories_nodes":[],"categories_segments":[],"categories_sizes":[],"default_left":[0,0,0,0,0,0,0,0,0,0,0,0,0,0,0,0,0,0,0,0,0],"id":10,"left_children":[1,3,5,-1,7,9,11,-1,-1,13,15,17,19,-1,-1,-1,-1,-1,-1,-1,-1],"loss_changes":[3.6407705E3,5.5892822E1,4.4492803E3,0E0,1.5297546E0,1.4188977E3,9.822112E2,0E0,0E0,7.132525E2,8.709192E2,7.588406E2,1.3956519E2,0E0,0E0,0E0,0E0,0E0,0E0,0E0,0E0],"parents":[2147483647,0,0,1,1,2,2,4,4,5,5,6,6,9,9,10,10,11,11,12,12],"right_children":[2,4,6,-1,8,10,12,-1,-1,14,16,18,20,-1,-1,-1,-1,-1,-1,-1,-1],"split_conditions":[3E0,6E0,1.9E1,-4.2582527E-1,7E0,1.3E1,2.3E1,-3.2281792E-1,-2.3299754E-1,5E0,1.7E1,5E0,7E0,-1.3591123E-1,9.414383E-2,3.483434E-1,1.128422E-1,-2.2650151E-1,-5.7607167E-3,-3.2980454E-1,-5.584275E-1],"split_indices":[1,0,1,0,0,1,1,0,0,1,1,0,0,0,0,0,0,0,0,0,0],"split_type":[0,0,0,0,0,0,0,0,0,0,0,0,0,0,0,0,0,0,0,0,0],"sum_hessian":[2.509E3,2.11E2,2.298E3,1.66E2,4.5E1,1.542E3,7.56E2,2.3E1,2.2E1,9E2,6.42E2,6.24E2,1.32E2,1.64E2,7.36E2,3.64E2,2.78E2,2.94E2,3.3E2,8.8E1,4.4E1],"tree_param":{"num_deleted":"0","num_feature":"2","num_nodes":"21","size_leaf_vector":"1"}},{"base_weights":[-7.2641773E-3,-3.579982E0,3.221936E-1,-3.8349774E-1,-2.5764124E0,1.1994185E0,-1.4662875E0,-2.918812E-1,-2.107108E-1,1.6540247E-1,1.9340514E0,-6.604411E-1,-2.8763149E0,5.4198142E-2,-1.9055505E-1,2.3222135E-1,3.532505E-2,-7.53474E-3,-2.4900901E-1,-4.1361108E-1,-1.998428E-1],"categories":[],"categories_nodes":[],"categories_segments":[],"categories_sizes":[],"default_left":[0,0,0,0,0,0,0,0,0,0,0,0,0,0,0,0,0,0,0,0,0],"id":11,"left_children":[1,3,5,-1,7,9,11,-1,-1,13,15,17,19,-1,-1,-1,-1,-1,-1,-1,-1],"loss_changes":[2.9555732E3,4.4371338E1,3.6086602E3,0E0,1.2414856E0,1.1717769E3,8.5825354E2,0E0,0E0,5.0171396E2,5.526533E2,5.168717E2,2.9587256E2,0E0,0E0,0E0,0E0,0E0,0E0,0E0,0E0],"parents":[2147483647,0,0,1,1,2,2,4,4,5,5,6,6,9,9,10,10,11,11,12,12],"right_children":[2,4,6,-1,8,10,12,-1,-1,14,16,18,20,-1,-1,-1,-1,-1,-1,-1,-1],"split_conditions":[3E0,6E0,1.9E1,-3.8349774E-1,7E0,1.1E1,2.2E1,-2.918812E-1,-2.107108E-1,1E1,7E0,7E0,4E0,5.4198142E-2,-1.9055505E-1,2.3222135E-1,3.532505E-2,-7.53474E-3,-2.4900901E-1,-4.1361108E-1,-1.998428E-1],"split_indices":[1,0,1,0,0,1,1,0,0,1,0,0,0,0,0,0,0,0,0,0,0],"split_type":[0,0,0,0,0,0,0,0,0,0,0,0,0,0,0,0,0,0,0,0,0],"sum_hessian":[2.509E3,2.11E2,2.298E3,1.66E2,4.5E1,1.542E3,7.56E2,2.3E1,2.2E1,6.41E2,9.01E2,4.82E2,2.74E2,5.43E2,9.8E1,7.23E2,1.78E2,3.66E2,1.16E2,1.11E2,1.63E2],"tree_param":{"num_deleted":"0","num_feature":"2","num_nodes":"21","size_leaf_vector":"1"}},{"base_weights":[-7.1851485E-3,-2.3797853E0,4.1066256E-1,-3.2261636E0,-1.2778947E0,1.454374E0,-1.1781859E0,-3.4537761E0,-2.3296974E0,-2.5929397E-1,-3.829716E0,7.7557135E-1,2.356405E0,-2.7305043E0,-2.906077E-1,-3.182459E-1,-3.759548E-1,-2.6390928E-1,-1.9055587E-1,5.5413008E-2,-1.4740281E-1,-2.8975725E-1,-4.757262E-1,1.003774E-1,-5.2045275E-2,3.1902143E-1,6.5312855E-2,-2.1505673E-1,-3.7261927E-1,1.09559156E-1,-2.2068012E-1],"categories":[],"categories_nodes":[],"categories_segments":[],"categories_sizes":[],"default_left":[0,0,0,0,0,0,0,0,0,0,0,0,0,0,0,0,0,0,0,0,0,0,0,0,0,0,0,0,0,0,0],"id":12,"left_children":[1,3,5,7,9,11,13,15,17,19,21,23,25,27,29,-1,-1,-1,-1,-1,-1,-1,-1,-1,-1,-1,-1,-1,-1,-1,-1],"loss_changes":[2.4893552E3,3.4654102E2,3.5421826E3,3.5211426E1,4.278893E2,7.8742847E2,1.1662065E3,1.8900146E0,1.0074768E0,1.1839999E2,2.685199E1,2.1849478E2,7.8329126E2,1.6983691E2,1.4367798E3,0E0,0E0,0E0,0E0,0E0,0E0,0E0,0E0,0E0,0E0,0E0,0E0,0E0,0E0,0E0,0E0],"parents":[2147483647,0,0,1,1,2,2,3,3,4,4,5,5,6,6,7,7,8,8,9,9,10,10,11,11,12,12,13,13,14,14],"right_children":[2,4,6,8,10,12,14,16,18,20,22,24,26,28,30,-1,-1,-1,-1,-1,-1,-1,-1,-1,-1,-1,-1,-1,-1,-1,-1],"split_conditions":[5E0,3E0,1.8E1,6E0,6E0,1.3E1,4E0,3E0,7E0,3E0,7E0,7E0,6E0,2.2E1,7E0,-3.182459E-1,-3.759548E-1,-2.6390928E-1,-1.9055587E-1,5.5413008E-2,-1.4740281E-1,-2.8975725E-1,-4.757262E-1,1.003774E-1,-5.2045275E-2,3.1902143E-1,6.5312855E-2,-2.1505673E-1,-3.7261927E-1,1.09559156E-1,-2.2068012E-1],"split_indices":[1,1,1,0,0,1,0,0,0,0,0,0,0,1,0,0,0,0,0,0,0,0,0,0,0,0,0,0,0,0,0],"split_type":[0,0,0,0,0,0,0,0,0,0,0,0,0,0,0,0,0,0,0,0,0,0,0,0,0,0,0,0,0,0,0],"sum_hessian":[2.509E3,3.75E2,2.134E3,2.11E2,1.64E2,1.288E3,8.46E2,1.66E2,4.5E1,1.18E2,4.6E1,7.36E2,5.52E2,3.07E2,5.39E2,9.4E1,7.2E1,2.3E1,2.2E1,7.1E1,4.7E1,2.5E1,2.1E1,6.26E2,1.1E2,3.7E2,1.82E2,1.96E2,1.11E2,3.13E2,2.26E2],"tree_param":{"num_deleted":"0","num_feature":"2","num_nodes":"31","size_leaf_vector":"1"}},{"base_weights":[-7.3720743E-3,-2.1471424E0,3.694715E-1,-2.9089656E0,-1.155302E0,1.2335551E0,-1.205087E0,-3.1125553E0,-2.1066074E0,-2.3413767E-1,-3.4630308E0,6.9807935E-1,1.8453934E0,-5.0666165E-1,-2.4273937E0,-2.6710257E-1,-3.2632294E-1,-2.3861797E-1,-1.7232881E-1,4.994866E-2,-1.3296962E-1,-2.6189595E-1,-4.3031597E-1,9.035563E-2,-4.6887632E-2,2.7127448E-1,7.040724E-2,-1.6558257E-1,1.5753603E-2,-1.883652E-1,-4.1207027E-1],"categories":[],"categories_nodes":[],"categories_segments":[],"categories_sizes":[],"default_left":[0,0,0,0,0,0,0,0,0,0,0,0,0,0,0,0,0,0,0,0,0,0,0,0,0,0,0,0,0,0,0],"id":13,"left_children":[1,3,5,7,9,11,13,15,17,19,21,23,25,27,29,-1,-1,-1,-1,-1,-1,-1,-1,-1,-1,-1,-1,-1,-1,-1,-1],"loss_changes":[2.0247537E3,2.8074744E2,2.906261E3,2.8073608E1,3.4994574E2,4.505066E2,6.450134E2,2.393921E0,8.175354E-1,9.630783E1,2.2059326E1,1.7714331E2,6.3461255E2,3.6892123E2,2.4543689E2,0E0,0E0,0E0,0E0,0E0,0E0,0E0,0E0,0E0,0E0,0E0,0E0,0E0,0E0,0E0,0E0],"parents":[2147483647,0,0,1,1,2,2,3,3,4,4,5,5,6,6,7,7,8,8,9,9,10,10,11,11,12,12,13,13,14,14],"right_children":[2,4,6,8,10,12,14,16,18,20,22,24,26,28,30,-1,-1,-1,-1,-1,-1,-1,-1,-1,-1,-1,-1,-1,-1,-1,-1],"split_conditions":[5E0,3E0,1.9E1,6E0,6E0,1.3E1,2.2E1,2E0,7E0,3E0,7E0,7E0,1.7E1,4E0,7E0,-2.6710257E-1,-3.2632294E-1,-2.3861797E-1,-1.7232881E-1,4.994866E-2,-1.3296962E-1,-2.6189595E-1,-4.3031597E-1,9.035563E-2,-4.6887632E-2,2.7127448E-1,7.040724E-2,-1.6558257E-1,1.5753603E-2,-1.883652E-1,-4.1207027E-1],"split_indices":[1,1,1,0,0,1,1,0,0,0,0,0,1,0,0,0,0,0,0,0,0,0,0,0,0,0,0,0,0,0,0],"split_type":[0,0,0,0,0,0,0,0,0,0,0,0,0,0,0,0,0,0,0,0,0,0,0,0,0,0,0,0,0,0,0],"sum_hessian":[2.509E3,3.75E2,2.134E3,2.11E2,1.64E2,1.378E3,7.56E2,1.66E2,4.5E1,1.18E2,4.6E1,7.36E2,6.42E2,4.82E2,2.74E2,4.7E1,1.19E2,2.3E1,2.2E1,7.1E1,4.7E1,2.5E1,2.1E1,6.26E2,1.1E2,3.64E2,2.78E2,1.76E2,3.06E2,2.09E2,6.5E1],"tree_param":{"num_deleted":"0","num_feature":"2","num_nodes":"31","size_leaf_vector":"1"}},{"base_weights":[-7.4892715E-3,-1.9371611E0,3.3235338E-1,-2.6228065E0,-1.0444702E0,9.715897E-1,-1.3953792E0,-2.8718407E0,-2.0650709E0,-2.1142158E-1,-3.1314557E0,1.2024485E0,-5.141056E-2,-7.508112E-1,-3.4600441E0,-2.5739735E-1,-3.3803523E-1,-2.2690533E-1,-1.5584518E-1,-1.19085945E-1,4.6750627E-2,-2.3671363E-1,-3.8924035E-1,1.4503822E-1,-3.0001557E-2,-6.296842E-1,3.882732E-2,-2.375549E-1,1.804014E-1,-2.1102138E-1,-4.119187E-1],"categories":[],"categories_nodes":[],"categories_segments":[],"categories_sizes":[],"default_left":[0,0,0,0,0,0,0,0,0,0,0,0,0,0,0,0,0,0,0,0,0,0,0,0,0,0,0,0,0,0,0],"id":14,"left_children":[1,3,5,7,9,11,13,15,17,19,21,23,25,27,29,-1,-1,-1,-1,-1,-1,-1,-1,-1,-1,-1,-1,-1,-1,-1,-1],"loss_changes":[1.6466636E3,2.2739868E2,2.3593123E3,2.351538E1,2.862004E2,3.682489E2,7.6528345E2,1.3110596E1,3.5942993E0,7.968788E1,1.8121674E1,4.7426953E2,7.932972E2,1.8348416E3,1.13200806E2,0E0,0E0,0E0,0E0,0E0,0E0,0E0,0E0,0E0,0E0,0E0,0E0,0E0,0E0,0E0,0E0],"parents":[2147483647,0,0,1,1,2,2,3,3,4,4,5,5,6,6,7,7,8,8,9,9,10,10,11,11,12,12,13,13,14,14],"right_children":[2,4,6,8,10,12,14,16,18,20,22,24,26,28,30,-1,-1,-1,-1,-1,-1,-1,-1,-1,-1,-1,-1,-1,-1,-1,-1],"split_conditions":[5E0,3E0,2E1,5E0,6E0,7E0,7E0,3E0,7E0,2E0,7E0,1.8E1,8E0,5E0,2.1E1,-2.5739735E-1,-3.3803523E-1,-2.2690533E-1,-1.5584518E-1,-1.19085945E-1,4.6750627E-2,-2.3671363E-1,-3.8924035E-1,1.4503822E-1,-3.0001557E-2,-6.296842E-1,3.882732E-2,-2.375549E-1,1.804014E-1,-2.1102138E-1,-4.119187E-1],"split_indices":[1,1,1,0,0,0,0,0,0,0,0,1,1,0,1,0,0,0,0,0,0,0,0,0,0,0,0,0,0,0,0],"split_type":[0,0,0,0,0,0,0,0,0,0,0,0,0,0,0,0,0,0,0,0,0,0,0,0,0,0,0,0,0,0,0],"sum_hessian":[2.509E3,3.75E2,2.134E3,2.11E2,1.64E2,1.558E3,5.76E2,1.43E2,6.8E1,1.18E2,4.6E1,1.271E3,2.87E2,4.4E2,1.36E2,9.4E1,4.9E1,4.6E1,2.2E1,4.8E1,7E1,2.5E1,2.1E1,1.091E3,1.8E2,1.8E1,2.69E2,2.69E2,1.71E2,4.6E1,9E1],"tree_param":{"num_deleted":"0","num_feature":"2","num_nodes":"31","size_leaf_vector":"1"}},{"base_weights":[-7.868999E-3,-1.7479037E0,2.9857638E-1,-2.36514E0,-9.4425523E-1,8.741252E-1,-1.2570201E0,-2.5887918E0,-1.8641108E0,5.1468813E-1,-2.0516984E0,1.0822937E0,-4.8321184E-2,-6.7585987E-1,-3.1185868E0,-2.3192857E-1,-3.0490777E-1,-2.046976E-1,-1.4093821E-1,-1.0742034E-1,3.7372297E-1,-1.5808333E-1,-3.520856E-1,1.3054764E-1,-2.7017979E-2,-5.700299E-1,3.4958955E-2,-2.1388738E-1,1.6246612E-1,-1.9036822E-1,-3.7117946E-1],"categories":[],"categories_nodes":[],"categories_segments":[],"categories_sizes":[],"default_left":[0,0,0,0,0,0,0,0,0,0,0,0,0,0,0,0,0,0,0,0,0,0,0,0,0,0,0,0,0,0,0],"id":15,"left_children":[1,3,5,7,9,11,13,15,17,19,21,23,25,27,29,-1,-1,-1,-1,-1,-1,-1,-1,-1,-1,-1,-1,-1,-1,-1,-1],"loss_changes":[1.3389182E3,1.8427808E2,1.9126107E3,1.8930176E1,2.67646E2,2.9941833E2,6.221304E2,1.0791504E1,2.8526611E0,3.7267392E2,5.9461E1,3.843042E2,6.4969977E2,1.487746E3,9.166858E1,0E0,0E0,0E0,0E0,0E0,0E0,0E0,0E0,0E0,0E0,0E0,0E0,0E0,0E0,0E0,0E0],"parents":[2147483647,0,0,1,1,2,2,3,3,4,4,5,5,6,6,7,7,8,8,9,9,10,10,11,11,12,12,13,13,14,14],"right_children":[2,4,6,8,10,12,14,16,18,20,22,24,26,28,30,-1,-1,-1,-1,-1,-1,-1,-1,-1,-1,-1,-1,-1,-1,-1,-1],"split_conditions":[5E0,3E0,2E1,5E0,3E0,7E0,7E0,3E0,7E0,2E0,7E0,1.8E1,8E0,5E0,2.1E1,-2.3192857E-1,-3.0490777E-1,-2.046976E-1,-1.4093821E-1,-1.0742034E-1,3.7372297E-1,-1.5808333E-1,-3.520856E-1,1.3054764E-1,-2.7017979E-2,-5.700299E-1,3.4958955E-2,-2.1388738E-1,1.6246612E-1,-1.9036822E-1,-3.7117946E-1],"split_indices":[1,1,1,0,0,0,0,0,0,0,0,1,1,0,1,0,0,0,0,0,0,0,0,0,0,0,0,0,0,0,0],"split_type":[0,0,0,0,0,0,0,0,0,0,0,0,0,0,0,0,0,0,0,0,0,0,0,0,0,0,0,0,0,0,0],"sum_hessian":[2.509E3,3.75E2,2.134E3,2.11E2,1.64E2,1.558E3,5.76E2,1.43E2,6.8E1,7.1E1,9.3E1,1.271E3,2.87E2,4.4E2,1.36E2,9.4E1,4.9E1,4.6E1,2.2E1,4.8E1,2.3E1,7.2E1,2.1E1,1.091E3,1.8E2,1.8E1,2.69E2,2.69E2,1.71E2,4.6E1,9E1],"tree_param":{"num_deleted":"0","num_feature":"2","num_nodes":"31","size_leaf_vector":"1"}},{"base_weights":[-7.947421E-3,-1.576109E0,2.6822904E-1,-2.1327887E0,-8.5130805E-1,6.9131786E-1,-1.4765142E0,-2.3336408E0,-1.682709E0,4.6691743E-1,-1.8519562E0,9.2507327E-1,-2.8076684E-1,-9.521079E-1,-3.344694E0,-2.0897985E-1,-2.750268E-1,-1.8466334E-1,-1.2745716E-1,-9.689759E-2,3.379078E-1,-1.09048404E-1,-2.5902268E-1,1.1750475E-1,-3.390975E-4,-5.1602703E-1,1.3509536E-3,-1.9304621E-1,2.3609017E-1,-4.234105E-1,-2.9436427E-1],"categories":[],"categories_nodes":[],"categories_segments":[],"categories_sizes":[],"default_left":[0,0,0,0,0,0,0,0,0,0,0,0,0,0,0,0,0,0,0,0,0,0,0,0,0,0,0,0,0,0,0],"id":16,"left_children":[1,3,5,7,9,11,13,15,17,19,21,23,25,27,29,-1,-1,-1,-1,-1,-1,-1,-1,-1,-1,-1,-1,-1,-1,-1,-1],"loss_changes":[1.0874769E3,1.4989362E2,1.5770381E3,1.5237793E1,2.185129E2,3.9086816E2,4.0534424E2,8.881592E0,2.2626953E0,3.0434598E2,5.0019623E1,3.2168372E2,4.7966785E2,1.0644617E3,1.9995972E1,0E0,0E0,0E0,0E0,0E0,0E0,0E0,0E0,0E0,0E0,0E0,0E0,0E0,0E0,0E0,0E0],"parents":[2147483647,0,0,1,1,2,2,3,3,4,4,5,5,6,6,7,7,8,8,9,9,10,10,11,11,12,12,13,13,14,14],"right_children":[2,4,6,8,10,12,14,16,18,20,22,24,26,28,30,-1,-1,-1,-1,-1,-1,-1,-1,-1,-1,-1,-1,-1,-1,-1,-1],"split_conditions":[5E0,3E0,2.1E1,5E0,3E0,7E0,7E0,3E0,7E0,2E0,6E0,1.8E1,8E0,6E0,2.2E1,-2.0897985E-1,-2.750268E-1,-1.8466334E-1,-1.2745716E-1,-9.689759E-2,3.379078E-1,-1.09048404E-1,-2.5902268E-1,1.1750475E-1,-3.390975E-4,-5.1602703E-1,1.3509536E-3,-1.9304621E-1,2.3609017E-1,-4.234105E-1,-2.9436427E-1],"split_indices":[1,1,1,0,0,0,0,0,0,0,0,1,1,0,1,0,0,0,0,0,0,0,0,0,0,0,0,0,0,0,0],"split_type":[0,0,0,0,0,0,0,0,0,0,0,0,0,0,0,0,0,0,0,0,0,0,0,0,0,0,0,0,0,0,0],"sum_hessian":[2.509E3,3.75E2,2.134E3,2.11E2,1.64E2,1.718E3,4.16E2,1.43E2,6.8E1,7.1E1,9.3E1,1.385E3,3.33E2,3.26E2,9E1,9.4E1,4.9E1,4.6E1,2.2E1,4.8E1,2.3E1,4.7E1,4.6E1,1.091E3,2.94E2,1.8E1,3.15E2,2.52E2,7.4E1,2.5E1,6.5E1],"tree_param":{"num_deleted":"0","num_feature":"2","num_nodes":"31","size_leaf_vector":"1"}},{"base_weights":[-7.9473285E-3,2.0525625E-1,-1.7414575E0,-1.4209534E0,5.3370845E-1,-2.4214153E0,-1.0875431E0,-1.9232651E0,-7.6694727E-1,7.8353035E-1,-5.136898E-1,-2.9448915E-1,-2.123648E0,2.6903397E-1,-2.6537385E0,-2.1036378E-1,-1.5189616E-1,4.235729E-2,-1.670676E-1,5.6331214E-2,1.8341765E-1,-1.4357312E-3,-2.5038853E-1,-1.8045191E-1,-2.4230757E-1,-1.10381804E-1,9.502863E-2,-1.4758016E-1,-3.170647E-1],"categories":[],"categories_nodes":[],"categories_segments":[],"categories_sizes":[],"default_left":[0,0,0,0,0,0,0,0,0,0,0,0,0,0,0,0,0,0,0,0,0,0,0,0,0,0,0,0,0],"id":17,"left_children":[1,3,5,7,9,11,13,15,17,19,21,-1,23,25,27,-1,-1,-1,-1,-1,-1,-1,-1,-1,-1,-1,-1,-1,-1],"loss_changes":[9.2802985E2,1.1950779E3,1.1964099E2,1.2204657E2,4.8735736E2,1.463324E1,3.0241632E2,1.22647705E1,1.7823236E2,3.4671808E2,3.5672723E2,0E0,4.1319885E0,7.306386E1,3.5507202E1,0E0,0E0,0E0,0E0,0E0,0E0,0E0,0E0,0E0,0E0,0E0,0E0,0E0,0E0],"parents":[2147483647,0,0,1,1,2,2,3,3,4,4,5,5,6,6,7,7,8,8,9,9,10,10,12,12,13,13,14,14],"right_children":[2,4,6,8,10,12,14,16,18,20,22,-1,24,26,28,-1,-1,-1,-1,-1,-1,-1,-1,-1,-1,-1,-1,-1,-1],"split_conditions":[2.2E1,5E0,5E0,3E0,7E0,2E0,7E0,5E0,3E0,6E0,2E1,-2.9448915E-1,2.3E1,6E0,2.3E1,-2.1036378E-1,-1.5189616E-1,4.235729E-2,-1.670676E-1,5.6331214E-2,1.8341765E-1,-1.4357312E-3,-2.5038853E-1,-1.8045191E-1,-2.4230757E-1,-1.10381804E-1,9.502863E-2,-1.4758016E-1,-3.170647E-1],"split_indices":[1,1,0,1,0,0,0,0,0,0,1,0,1,0,1,0,0,0,0,0,0,0,0,0,0,0,0,0,0],"split_type":[0,0,0,0,0,0,0,0,0,0,0,0,0,0,0,0,0,0,0,0,0,0,0,0,0,0,0,0,0],"sum_hessian":[2.509E3,2.235E3,2.74E2,3.75E2,1.86E3,1.33E2,1.41E2,2.11E2,1.64E2,1.502E3,3.58E2,4.5E1,8.8E1,7.6E1,6.5E1,1.43E2,6.8E1,7.1E1,9.3E1,1.243E3,2.59E2,2.87E2,7.1E1,4.6E1,4.2E1,2.5E1,5.1E1,2.1E1,4.4E1],"tree_param":{"num_deleted":"0","num_feature":"2","num_nodes":"29","size_leaf_vector":"1"}},{"base_weights":[-7.828676E-3,1.8450713E-1,-1.5716652E0,-1.2801533E0,4.8033077E-1,-2.1846263E0,-9.821691E-1,-1.7326473E0,-6.9100845E-1,7.9950833E-1,-2.3851773E-1,-2.656804E-1,-1.916033E0,2.4193116E-1,-2.3954046E0,-1.8565239E-1,-1.24525525E-1,3.8180374E-2,-1.5053858E-1,2.6709182E-2,1.5076303E-1,-2.2798967E-1,2.3510342E-2,-1.6279064E-1,-2.1864033E-1,-9.9768154E-2,8.570849E-2,-1.3349296E-1,-2.860628E-1],"categories":[],"categories_nodes":[],"categories_segments":[],"categories_sizes":[],"default_left":[0,0,0,0,0,0,0,0,0,0,0,0,0,0,0,0,0,0,0,0,0,0,0,0,0,0,0,0,0],"id":18,"left_children":[1,3,5,7,9,11,13,15,17,19,21,-1,23,25,27,-1,-1,-1,-1,-1,-1,-1,-1,-1,-1,-1,-1,-1,-1],"loss_changes":[7.5525226E2,9.6943164E2,9.722235E1,9.903851E1,4.271791E2,1.190387E1,2.4623126E2,1.0487915E1,1.4473096E2,4.855708E2,5.5453546E2,0E0,3.3739014E0,5.9571636E1,2.874289E1,0E0,0E0,0E0,0E0,0E0,0E0,0E0,0E0,0E0,0E0,0E0,0E0,0E0,0E0],"parents":[2147483647,0,0,1,1,2,2,3,3,4,4,5,5,6,6,7,7,8,8,9,9,10,10,12,12,13,13,14,14],"right_children":[2,4,6,8,10,12,14,16,18,20,22,-1,24,26,28,-1,-1,-1,-1,-1,-1,-1,-1,-1,-1,-1,-1,-1,-1],"split_conditions":[2.2E1,5E0,5E0,3E0,1.8E1,2E0,7E0,6E0,3E0,1.3E1,2E0,-2.656804E-1,2.3E1,6E0,2.3E1,-1.8565239E-1,-1.24525525E-1,3.8180374E-2,-1.5053858E-1,2.6709182E-2,1.5076303E-1,-2.2798967E-1,2.3510342E-2,-1.6279064E-1,-2.1864033E-1,-9.9768154E-2,8.570849E-2,-1.3349296E-1,-2.860628E-1],"split_indices":[1,1,0,1,1,0,0,0,0,1,0,0,1,0,1,0,0,0,0,0,0,0,0,0,0,0,0,0,0],"split_type":[0,0,0,0,0,0,0,0,0,0,0,0,0,0,0,0,0,0,0,0,0,0,0,0,0,0,0,0,0],"sum_hessian":[2.509E3,2.235E3,2.74E2,3.75E2,1.86E3,1.33E2,1.41E2,2.11E2,1.64E2,1.288E3,5.72E2,4.5E1,8.8E1,7.6E1,6.5E1,1.66E2,4.5E1,7.1E1,9.3E1,7.36E2,5.52E2,1.07E2,4.65E2,4.6E1,4.2E1,2.5E1,5.1E1,2.1E1,4.4E1],"tree_param":{"num_deleted":"0","num_feature":"2","num_nodes":"29","size_leaf_vector":"1"}},{"base_weights":[-7.655156E-3,2.1373978E-1,-1.1193898E0,-1.1532617E0,5.126222E-1,-7.041267E-1,-2.599298E0,-1.5608456E0,-6.2258863E-1,7.0233226E-1,-2.7615264E-1,-1.4856501E0,1.9416004E0,-3.6088276E-1,-2.1622212E0,-1.6340499E-1,-8.882528E-2,-6.312096E-3,-2.0258668E-1,9.0254255E-2,-4.1166116E-3,-4.6953464E-1,-9.56772E-4,-2.6692495E-1,-1.03616886E-1,4.392615E-1,7.7302456E-2,-1.2075045E-1,-2.5809222E-1],"categories":[],"categories_nodes":[],"categories_segments":[],"categories_sizes":[],"default_left":[0,0,0,0,0,0,0,0,0,0,0,0,0,0,0,0,0,0,0,0,0,0,0,0,0,0,0,0,0],"id":19,"left_children":[1,3,5,7,9,11,13,15,17,19,21,23,25,-1,27,-1,-1,-1,-1,-1,-1,-1,-1,-1,-1,-1,-1,-1,-1],"loss_changes":[6.180317E2,8.561423E2,2.5443762E2,8.0354706E1,2.5742258E2,6.790217E2,3.2349854E1,8.986694E0,1.2941176E2,2.0635168E2,3.9343726E2,1.318316E2,2.1141913E2,0E0,2.3266449E1,0E0,0E0,0E0,0E0,0E0,0E0,0E0,0E0,0E0,0E0,0E0,0E0,0E0,0E0],"parents":[2147483647,0,0,1,1,2,2,3,3,4,4,5,5,6,6,7,7,8,8,9,9,10,10,11,11,12,12,14,14],"right_children":[2,4,6,8,10,12,14,16,18,20,22,24,26,-1,28,-1,-1,-1,-1,-1,-1,-1,-1,-1,-1,-1,-1,-1,-1],"split_conditions":[2.1E1,5E0,7E0,3E0,7E0,6E0,2.2E1,7E0,6E0,1.8E1,8E0,2E0,2.2E1,-3.6088276E-1,2.3E1,-1.6340499E-1,-8.882528E-2,-6.312096E-3,-2.0258668E-1,9.0254255E-2,-4.1166116E-3,-4.6953464E-1,-9.56772E-4,-2.6692495E-1,-1.03616886E-1,4.392615E-1,7.7302456E-2,-1.2075045E-1,-2.5809222E-1],"split_indices":[1,1,0,1,0,0,1,0,0,1,1,0,1,0,1,0,0,0,0,0,0,0,0,0,0,0,0,0,0],"split_type":[0,0,0,0,0,0,0,0,0,0,0,0,0,0,0,0,0,0,0,0,0,0,0,0,0,0,0,0,0],"sum_hessian":[2.509E3,2.093E3,4.16E2,3.75E2,1.718E3,3.26E2,9E1,2.11E2,1.64E2,1.385E3,3.33E2,2.52E2,7.4E1,2.5E1,6.5E1,1.89E2,2.2E1,1.18E2,4.6E1,1.091E3,2.94E2,1.8E1,3.15E2,6.8E1,1.84E2,2.3E1,5.1E1,2.1E1,4.4E1],"tree_param":{"num_deleted":"0","num_feature":"2","num_nodes":"29","size_leaf_vector":"1"}},{"base_weights":[-7.4627614E-3,1.510137E-1,-1.2959933E0,-1.0391618E0,3.913979E-1,-1.813307E0,-7.9869735E-1,-1.4059508E0,-5.615955E-1,5.9659404E-1,-4.687726E-1,-1.5672601E0,-2.0579326E-1,1.9999668E-1,-1.951739E0,-1.5481015E-1,-1.0889126E-1,-5.686162E-3,-1.8275899E-1,3.0184943E-2,1.1854807E-1,-4.2505237E-1,-2.5668448E-2,-1.8807444E-1,-1.3671672E-1,-8.021196E-2,6.972087E-2,-1.09224275E-1,-2.3285651E-1],"categories":[],"categories_nodes":[],"categories_segments":[],"categories_sizes":[],"default_left":[0,0,0,0,0,0,0,0,0,0,0,0,0,0,0,0,0,0,0,0,0,0,0,0,0,0,0,0,0],"id":20,"left_children":[1,3,5,7,9,11,13,15,17,19,21,23,-1,25,27,-1,-1,-1,-1,-1,-1,-1,-1,-1,-1,-1,-1,-1,-1],"loss_changes":[5.127422E2,6.401249E2,6.92977E1,6.5072876E1,3.28753E2,4.840027E0,1.6390843E2,7.8684998E0,1.0532946E2,2.605197E2,2.8685007E2,1.8822479E0,0E0,3.892559E1,1.8832748E1,0E0,0E0,0E0,0E0,0E0,0E0,0E0,0E0,0E0,0E0,0E0,0E0,0E0,0E0],"parents":[2147483647,0,0,1,1,2,2,3,3,4,4,5,5,6,6,7,7,8,8,9,9,10,10,11,11,13,13,14,14],"right_children":[2,4,6,8,10,12,14,16,18,20,22,24,-1,26,28,-1,-1,-1,-1,-1,-1,-1,-1,-1,-1,-1,-1,-1,-1],"split_conditions":[2.2E1,5E0,5E0,3E0,7E0,2.3E1,7E0,5E0,6E0,5E0,8E0,2E0,-2.0579326E-1,6E0,2.3E1,-1.5481015E-1,-1.0889126E-1,-5.686162E-3,-1.8275899E-1,3.0184943E-2,1.1854807E-1,-4.2505237E-1,-2.5668448E-2,-1.8807444E-1,-1.3671672E-1,-8.021196E-2,6.972087E-2,-1.09224275E-1,-2.3285651E-1],"split_indices":[1,1,0,1,0,1,0,0,0,0,1,0,0,0,1,0,0,0,0,0,0,0,0,0,0,0,0,0,0],"split_type":[0,0,0,0,0,0,0,0,0,0,0,0,0,0,0,0,0,0,0,0,0,0,0,0,0,0,0,0,0],"sum_hessian":[2.509E3,2.235E3,2.74E2,3.75E2,1.86E3,1.33E2,1.41E2,2.11E2,1.64E2,1.502E3,3.58E2,7E1,6.3E1,7.6E1,6.5E1,1.43E2,6.8E1,1.18E2,4.6E1,1.002E3,5E2,1.8E1,3.4E2,2.4E1,4.6E1,2.5E1,5.1E1,2.1E1,4.4E1],"tree_param":{"num_deleted":"0","num_feature":"2","num_nodes":"29","size_leaf_vector":"1"}},{"base_weights":[-7.368932E-3,1.7884004E-1,-9.4241506E-1,-9.3644816E-1,4.2268503E-1,-5.888255E-1,-2.2026496E0,-1.2665995E0,-5.0657827E-1,6.798982E-1,-3.549658E-2,-1.2562773E0,1.6705627E0,-3.2371444E-1,-1.761748E0,-1.3286267E-1,-6.991324E-2,3.5598513E-2,-1.16187595E-1,1.439889E-2,1.7601319E-1,-1.2582263E-1,4.3780934E-2,-2.2882049E-1,-8.646055E-2,3.8580474E-1,6.288282E-2,-9.879832E-2,-2.100883E-1],"categories":[],"categories_nodes":[],"categories_segments":[],"categories_sizes":[],"default_left":[0,0,0,0,0,0,0,0,0,0,0,0,0,0,0,0,0,0,0,0,0,0,0,0,0,0,0,0,0],"id":21,"left_children":[1,3,5,7,9,11,13,15,17,19,21,23,25,-1,27,-1,-1,-1,-1,-1,-1,-1,-1,-1,-1,-1,-1,-1,-1],"loss_changes":[4.371946E2,5.698747E2,1.8452066E2,5.27211E1,2.0260886E2,4.9522534E2,3.580301E1,6.533142E0,9.3677536E1,6.3712354E2,3.5878177E2,1.0027841E2,1.6848235E2,0E0,1.52434845E1,0E0,0E0,0E0,0E0,0E0,0E0,0E0,0E0,0E0,0E0,0E0,0E0,0E0,0E0],"parents":[2147483647,0,0,1,1,2,2,3,3,4,4,5,5,6,6,7,7,8,8,9,9,10,10,11,11,12,12,14,14],"right_children":[2,4,6,8,10,12,14,16,18,20,22,24,26,-1,28,-1,-1,-1,-1,-1,-1,-1,-1,-1,-1,-1,-1,-1,-1],"split_conditions":[2.1E1,5E0,7E0,3E0,1.7E1,6E0,2.2E1,7E0,3E0,1.3E1,3E0,2E0,2.2E1,-3.2371444E-1,2.3E1,-1.3286267E-1,-6.991324E-2,3.5598513E-2,-1.16187595E-1,1.439889E-2,1.7601319E-1,-1.2582263E-1,4.3780934E-2,-2.2882049E-1,-8.646055E-2,3.8580474E-1,6.288282E-2,-9.879832E-2,-2.100883E-1],"split_indices":[1,1,0,1,1,0,1,0,0,1,0,0,1,0,1,0,0,0,0,0,0,0,0,0,0,0,0,0,0],"split_type":[0,0,0,0,0,0,0,0,0,0,0,0,0,0,0,0,0,0,0,0,0,0,0,0,0,0,0,0,0],"sum_hessian":[2.509E3,2.093E3,4.16E2,3.75E2,1.718E3,3.26E2,9E1,2.11E2,1.64E2,1.1E3,6.18E2,2.52E2,7.4E1,2.5E1,6.5E1,1.89E2,2.2E1,7.1E1,9.3E1,7.36E2,3.64E2,1.72E2,4.46E2,6.8E1,1.84E2,2.3E1,5.1E1,2.1E1,4.4E1],"tree_param":{"num_deleted":"0","num_feature":"2","num_nodes":"29","size_leaf_vector":"1"}},{"base_weights":[-6.9007245E-3,1.6087238E-1,-8.493707E-1,-8.4355694E-1,3.8047945E-1,-5.295351E-1,-1.9893364E0,-1.1408961E0,-4.5640868E-1,5.3496915E-1,-2.6174578E-1,-1.1318959E0,1.509489E0,-2.9258806E-1,-1.5902532E0,-1.2624264E-1,-8.707332E-2,-2.6573823E-3,-1.5350032E-1,1.17587E-2,8.0694824E-2,-3.861483E-1,-4.447758E-3,-2.0627005E-1,-7.786126E-2,3.4883174E-1,5.67155E-2,-8.9367576E-2,-1.8954633E-1],"categories":[],"categories_nodes":[],"categories_segments":[],"categories_sizes":[],"default_left":[0,0,0,0,0,0,0,0,0,0,0,0,0,0,0,0,0,0,0,0,0,0,0,0,0,0,0,0,0],"id":22,"left_children":[1,3,5,7,9,11,13,15,17,19,21,23,25,-1,27,-1,-1,-1,-1,-1,-1,-1,-1,-1,-1,-1,-1,-1,-1],"loss_changes":[3.5490958E2,4.6221503E2,1.5098547E2,4.27623E1,1.7069443E2,4.0333917E2,2.9359161E1,5.861328E0,7.64561E1,1.5724274E2,2.6105246E2,8.1589905E1,1.3787537E2,0E0,1.233783E1,0E0,0E0,0E0,0E0,0E0,0E0,0E0,0E0,0E0,0E0,0E0,0E0,0E0,0E0],"parents":[2147483647,0,0,1,1,2,2,3,3,4,4,5,5,6,6,7,7,8,8,9,9,10,10,11,11,12,12,14,14],"right_children":[2,4,6,8,10,12,14,16,18,20,22,24,26,-1,28,-1,-1,-1,-1,-1,-1,-1,-1,-1,-1,-1,-1,-1,-1],"split_conditions":[2.1E1,5E0,7E0,3E0,7E0,6E0,2.2E1,5E0,6E0,1.2E1,8E0,2E0,2.2E1,-2.9258806E-1,2.3E1,-1.2624264E-1,-8.707332E-2,-2.6573823E-3,-1.5350032E-1,1.17587E-2,8.0694824E-2,-3.861483E-1,-4.447758E-3,-2.0627005E-1,-7.786126E-2,3.4883174E-1,5.67155E-2,-8.9367576E-2,-1.8954633E-1],"split_indices":[1,1,0,1,0,0,1,0,0,1,1,0,1,0,1,0,0,0,0,0,0,0,0,0,0,0,0,0,0],"split_type":[0,0,0,0,0,0,0,0,0,0,0,0,0,0,0,0,0,0,0,0,0,0,0,0,0,0,0,0,0],"sum_hessian":[2.509E3,2.093E3,4.16E2,3.75E2,1.718E3,3.26E2,9E1,2.11E2,1.64E2,1.385E3,3.33E2,2.52E2,7.4E1,2.5E1,6.5E1,1.43E2,6.8E1,1.18E2,4.6E1,5.47E2,8.38E2,1.8E1,3.15E2,6.8E1,1.84E2,2.3E1,5.1E1,2.1E1,4.4E1],"tree_param":{"num_deleted":"0","num_feature":"2","num_nodes":"29","size_leaf_vector":"1"}},{"base_weights":[-6.655886E-3,2.1959743E-1,-5.308853E-1,-3.180347E-1,7.277799E-1,-1.0406651E0,-7.3305145E-2,-4.7802374E-2,-2.375685E0,1.0094554E0,9.518749E-2,-1.4265853E0,-8.0894804E-1,1.0040584E0,-1.3692904E0,-7.60184E-2,6.572063E-2,-1.1396698E0,6.629952E-2,2.9049948E-2,1.5188228E-1,-1.4208753E-1,7.895539E-2,9.928752E-2,-1.8890992E-1,-4.8896726E-2,-1.2960087E-1,1.4547624E-1,1.5399681E-2,-3.2143924E-2,-1.7111288E-1],"categories":[],"categories_nodes":[],"categories_segments":[],"categories_sizes":[],"default_left":[0,0,0,0,0,0,0,0,0,0,0,0,0,0,0,0,0,0,0,0,0,0,0,0,0,0,0,0,0,0,0],"id":23,"left_children":[1,3,5,7,9,11,13,15,17,19,21,23,25,27,29,-1,-1,-1,-1,-1,-1,-1,-1,-1,-1,-1,-1,-1,-1,-1,-1],"loss_changes":[2.9782428E2,4.79451E2,1.7650539E2,4.7419165E2,1.606275E2,3.0859894E1,5.5987366E2,3.796872E2,2.7213413E3,2.280755E2,2.9482602E2,1.5070712E2,3.458841E1,8.36806E1,6.46416E1,0E0,0E0,0E0,0E0,0E0,0E0,0E0,0E0,0E0,0E0,0E0,0E0,0E0,0E0,0E0,0E0],"parents":[2147483647,0,0,1,1,2,2,3,3,4,4,5,5,6,6,7,7,8,8,9,9,10,10,11,11,12,12,13,13,14,14],"right_children":[2,4,6,8,10,12,14,16,18,20,22,24,26,28,30,-1,-1,-1,-1,-1,-1,-1,-1,-1,-1,-1,-1,-1,-1,-1,-1],"split_conditions":[1.9E1,1.1E1,5E0,1E1,1.7E1,2E0,7E0,5E0,3E0,1.3E1,3E0,2E1,2.2E1,2.2E1,2E1,-7.60184E-2,6.572063E-2,-1.1396698E0,6.629952E-2,2.9049948E-2,1.5188228E-1,-1.4208753E-1,7.895539E-2,9.928752E-2,-1.8890992E-1,-4.8896726E-2,-1.2960087E-1,1.4547624E-1,1.5399681E-2,-3.2143924E-2,-1.7111288E-1],"split_indices":[1,1,0,1,1,0,0,1,0,1,0,1,1,1,1,0,0,0,0,0,0,0,0,0,0,0,0,0,0,0,0],"split_type":[0,0,0,0,0,0,0,0,0,0,0,0,0,0,0,0,0,0,0,0,0,0,0,0,0,0,0,0,0,0,0],"sum_hessian":[2.509E3,1.753E3,7.56E2,8.52E2,9.01E2,3.57E2,3.99E2,7.54E2,9.8E1,6.23E2,2.78E2,1.32E2,2.25E2,2.18E2,1.81E2,3.75E2,3.79E2,2.4E1,7.4E1,2.59E2,3.64E2,8.7E1,1.91E2,2.1E1,1.11E2,1.37E2,8.8E1,1.42E2,7.6E1,4.5E1,1.36E2],"tree_param":{"num_deleted":"0","num_feature":"2","num_nodes":"31","size_leaf_vector":"1"}},{"base_weights":[-6.4989883E-3,1.970868E-1,-4.78207E-1,-2.8750202E-1,6.551325E-1,-9.373476E-1,-6.608065E-2,-4.30362E-2,-2.1489587E0,9.087995E-1,8.544288E-2,-1.284601E0,-7.28843E-1,9.0438694E-1,-1.2334781E0,-6.843679E-2,5.9165783E-2,-1.0302615E0,5.9757978E-2,2.6156038E-2,1.3673568E-1,-1.572746E-1,6.1691176E-2,8.981003E-2,-1.7018762E-1,-4.404248E-2,-1.167864E-1,1.3103034E-1,1.3879693E-2,-2.8999442E-2,-1.5412647E-1],"categories":[],"categories_nodes":[],"categories_segments":[],"categories_sizes":[],"default_left":[0,0,0,0,0,0,0,0,0,0,0,0,0,0,0,0,0,0,0,0,0,0,0,0,0,0,0,0,0,0,0],"id":24,"left_children":[1,3,5,7,9,11,13,15,17,19,21,23,25,27,29,-1,-1,-1,-1,-1,-1,-1,-1,-1,-1,-1,-1,-1,-1,-1,-1],"loss_changes":[2.4113719E2,3.8951288E2,1.4318059E2,3.8807584E2,1.3027173E2,2.4984344E1,4.542841E2,3.0772717E2,2.2231956E3,1.848432E2,2.4684619E2,1.2266313E2,2.8102135E1,6.787576E1,5.2404297E1,0E0,0E0,0E0,0E0,0E0,0E0,0E0,0E0,0E0,0E0,0E0,0E0,0E0,0E0,0E0,0E0],"parents":[2147483647,0,0,1,1,2,2,3,3,4,4,5,5,6,6,7,7,8,8,9,9,10,10,11,11,12,12,13,13,14,14],"right_children":[2,4,6,8,10,12,14,16,18,20,22,24,26,28,30,-1,-1,-1,-1,-1,-1,-1,-1,-1,-1,-1,-1,-1,-1,-1,-1],"split_conditions":[1.9E1,1.1E1,5E0,1E1,1.7E1,2E0,7E0,5E0,3E0,1.3E1,2E0,2E1,2.2E1,2.2E1,2E1,-6.843679E-2,5.9165783E-2,-1.0302615E0,5.9757978E-2,2.6156038E-2,1.3673568E-1,-1.572746E-1,6.1691176E-2,8.981003E-2,-1.7018762E-1,-4.404248E-2,-1.167864E-1,1.3103034E-1,1.3879693E-2,-2.8999442E-2,-1.5412647E-1],"split_indices":[1,1,0,1,1,0,0,1,0,1,0,1,1,1,1,0,0,0,0,0,0,0,0,0,0,0,0,0,0,0,0],"split_type":[0,0,0,0,0,0,0,0,0,0,0,0,0,0,0,0,0,0,0,0,0,0,0,0,0,0,0,0,0,0,0],"sum_hessian":[2.509E3,1.753E3,7.56E2,8.52E2,9.01E2,3.57E2,3.99E2,7.54E2,9.8E1,6.23E2,2.78E2,1.32E2,2.25E2,2.18E2,1.81E2,3.75E2,3.79E2,2.4E1,7.4E1,2.59E2,3.64E2,6.7E1,2.11E2,2.1E1,1.11E2,1.37E2,8.8E1,1.42E2,7.6E1,4.5E1,1.36E2],"tree_param":{"num_deleted":"0","num_feature":"2","num_nodes":"31","size_leaf_vector":"1"}},{"base_weights":[-6.323931E-3,1.314947E-1,-6.0952514E-1,-9.3667334E-1,2.4083187E-1,-1.9238762E0,-4.0731016E-1,-6.3122585E-2,-1.032651E0,5.0233006E-1,-2.7960464E-1,-1.1503377E0,-3.6139718E-1,1.7652352E0,-8.6517745E-1,-1.1626883E-1,-7.4230485E-2,1.0395879E-2,1.159505E-1,-1.00831605E-1,8.504467E-2,-4.107969E-2,-1.871206E-1,1.3032757E-1,2.5631097E-1,-2.9824087E-1,-7.073383E-2],"categories":[],"categories_nodes":[],"categories_segments":[],"categories_sizes":[],"default_left":[0,0,0,0,0,0,0,0,0,0,0,0,0,0,0,0,0,0,0,0,0,0,0,0,0,0,0],"id":25,"left_children":[1,3,5,7,9,11,13,-1,15,17,19,21,-1,23,25,-1,-1,-1,-1,-1,-1,-1,-1,-1,-1,-1,-1],"loss_changes":[2.0874237E2,2.3894527E2,1.23336365E2,4.918228E0,2.5259335E2,7.689865E1,4.0539062E2,0E0,4.5359955E0,3.2320193E2,5.122394E2,2.2688213E1,0E0,2.2829147E1,1.101756E2,0E0,0E0,0E0,0E0,0E0,0E0,0E0,0E0,0E0,0E0,0E0,0E0],"parents":[2147483647,0,0,1,1,2,2,3,3,4,4,5,5,6,6,8,8,9,9,10,10,11,11,13,13,14,14],"right_children":[2,4,6,8,10,12,14,-1,16,18,20,22,-1,24,26,-1,-1,-1,-1,-1,-1,-1,-1,-1,-1,-1,-1],"split_conditions":[7E0,3E0,8E0,2E0,1.8E1,5E0,1.2E1,-6.3122585E-2,5E0,1.3E1,5E0,1E0,-3.6139718E-1,1.1E1,1.3E1,-1.1626883E-1,-7.4230485E-2,1.0395879E-2,1.159505E-1,-1.00831605E-1,8.504467E-2,-4.107969E-2,-1.871206E-1,1.3032757E-1,2.5631097E-1,-2.9824087E-1,-7.073383E-2],"split_indices":[0,1,1,0,1,1,1,0,0,1,0,1,0,1,1,0,0,0,0,0,0,0,0,0,0,0,0],"split_type":[0,0,0,0,0,0,0,0,0,0,0,0,0,0,0,0,0,0,0,0,0,0,0,0,0,0,0],"sum_hessian":[2.509E3,2.043E3,4.66E2,1.89E2,1.854E3,6.1E1,4.05E2,4.7E1,1.42E2,1.234E3,6.2E2,4.3E1,1.8E1,7E1,3.35E2,9.6E1,4.6E1,7.69E2,4.65E2,3.77E2,2.43E2,2.2E1,2.1E1,4.6E1,2.4E1,2.2E1,3.13E2],"tree_param":{"num_deleted":"0","num_feature":"2","num_nodes":"27","size_leaf_vector":"1"}},{"base_weights":[-5.9760194E-3,5.645845E-2,-1.1222407E0,-5.605551E-1,1.7225507E-1,-1.0081463E0,-1.3229552E-1,-1.962209E-1,-8.44531E-1,4.4003284E-1,-1.5442885E-1,-1.2259778E0,-4.331709E-2,-7.145533E-2,5.073866E-2,-1.0643128E-1,-7.18048E-2,8.9019565E-3,1.14758566E-1,-1.1858636E-1,1.0044183E-2,-1.0647982E-1,-1.4852844E-1],"categories":[],"categories_nodes":[],"categories_segments":[],"categories_sizes":[],"default_left":[0,0,0,0,0,0,0,0,0,0,0,0,0,0,0,0,0,0,0,0,0,0,0],"id":26,"left_children":[1,3,5,7,9,11,-1,13,15,17,19,21,-1,-1,-1,-1,-1,-1,-1,-1,-1,-1,-1],"loss_changes":[1.7499374E2,1.700001E2,1.7120056E0,3.8736046E1,1.7528777E2,1.061599E1,0E0,6.090318E1,5.101288E0,2.7334265E2,2.3750197E2,1.0933533E0,0E0,0E0,0E0,0E0,0E0,0E0,0E0,0E0,0E0,0E0,0E0],"parents":[2147483647,0,0,1,1,2,2,3,3,4,4,5,5,7,7,8,8,9,9,10,10,11,11],"right_children":[2,4,6,8,10,12,-1,14,16,18,20,22,-1,-1,-1,-1,-1,-1,-1,-1,-1,-1,-1],"split_conditions":[2.3E1,5E0,7E0,3E0,1.7E1,4E0,-1.3229552E-1,2E0,5E0,1.3E1,2E0,3E0,-4.331709E-2,-7.145533E-2,5.073866E-2,-1.0643128E-1,-7.18048E-2,8.9019565E-3,1.14758566E-1,-1.1858636E-1,1.0044183E-2,-1.0647982E-1,-1.4852844E-1],"split_indices":[1,1,0,0,1,0,0,0,0,1,0,0,0,0,0,0,0,0,0,0,0,0,0],"split_type":[0,0,0,0,0,0,0,0,0,0,0,0,0,0,0,0,0,0,0,0,0,0,0],"sum_hessian":[2.509E3,2.377E3,1.32E2,3.75E2,2.002E3,8.8E1,4.4E1,1.65E2,2.1E2,1.1E3,9.02E2,6.3E1,2.5E1,9.5E1,7E1,7.4E1,1.36E2,7.36E2,3.64E2,1.78E2,7.24E2,4.2E1,2.1E1],"tree_param":{"num_deleted":"0","num_feature":"2","num_nodes":"23","size_leaf_vector":"1"}},{"base_weights":[-5.6232177E-3,1.1937892E-1,-5.527297E-1,-7.9438376E-1,2.1290751E-1,8.900703E-2,-9.341332E-1,-4.9945176E-2,-8.878268E-1,4.299991E-1,-2.191715E-1,-1.6937824E0,1.0578135E0,-2.011373E0,-6.1206615E-1,-1.0184385E-1,-5.9937656E-2,9.711739E-3,9.791171E-2,-8.514335E-2,7.612147E-2,-9.7031735E-2,-3.280029E-1,5.412056E-2,3.193574E-1,-1.14891194E-1,-2.4360935E-1,4.0369537E-2,-1.2823014E-1],"categories":[],"categories_nodes":[],"categories_segments":[],"categories_sizes":[],"default_left":[0,0,0,0,0,0,0,0,0,0,0,0,0,0,0,0,0,0,0,0,0,0,0,0,0,0,0,0,0],"id":27,"left_children":[1,3,5,7,9,11,13,-1,15,17,19,21,23,25,27,-1,-1,-1,-1,-1,-1,-1,-1,-1,-1,-1,-1,-1,-1],"loss_changes":[1.717236E2,1.7485536E2,1.1438632E2,4.792839E0,1.740946E2,3.0404788E2,1.0042334E2,0E0,4.777092E0,2.2565216E2,3.855818E2,6.796817E1,1.2405362E2,2.174356E1,1.5505908E2,0E0,0E0,0E0,0E0,0E0,0E0,0E0,0E0,0E0,0E0,0E0,0E0,0E0,0E0],"parents":[2147483647,0,0,1,1,2,2,3,3,4,4,5,5,6,6,8,8,9,9,10,10,11,11,12,12,13,13,14,14],"right_children":[2,4,6,8,10,12,14,-1,16,18,20,22,24,26,28,-1,-1,-1,-1,-1,-1,-1,-1,-1,-1,-1,-1,-1,-1],"split_conditions":[7E0,3E0,1.5E1,2E0,1.8E1,8E0,1.8E1,-4.9945176E-2,5E0,1.3E1,5E0,5E0,1.3E1,1.6E1,2E1,-1.0184385E-1,-5.9937656E-2,9.711739E-3,9.791171E-2,-8.514335E-2,7.612147E-2,-9.7031735E-2,-3.280029E-1,5.412056E-2,3.193574E-1,-1.14891194E-1,-2.4360935E-1,4.0369537E-2,-1.2823014E-1],"split_indices":[0,1,1,0,1,1,1,0,0,1,0,1,1,1,1,0,0,0,0,0,0,0,0,0,0,0,0,0,0],"split_type":[0,0,0,0,0,0,0,0,0,0,0,0,0,0,0,0,0,0,0,0,0,0,0,0,0,0,0,0,0],"sum_hessian":[2.509E3,2.043E3,4.66E2,1.89E2,1.854E3,1.74E2,2.92E2,4.7E1,1.42E2,1.234E3,6.2E2,6.1E1,1.13E2,6.6E1,2.26E2,9.6E1,4.6E1,7.69E2,4.65E2,3.77E2,2.43E2,4.3E1,1.8E1,9.2E1,2.1E1,2.3E1,4.3E1,9E1,1.36E2],"tree_param":{"num_deleted":"0","num_feature":"2","num_nodes":"29","size_leaf_vector":"1"}},{"base_weights":[-5.3045335E-3,1.073855E-1,-4.9852324E-1,-7.160598E-1,1.9166972E-1,7.981149E-2,-8.4224355E-1,-4.505472E-2,-8.001755E-1,3.8708612E-1,-1.9726896E-1,-1.5312598E0,9.55308E-1,-1.8155872E0,-5.5124676E-1,-9.1764465E-2,-5.4071426E-2,8.741797E-3,8.814152E-2,-7.665156E-2,6.854051E-2,-2.1000765E-2,-2.2526982E-1,4.8766654E-2,2.888733E-1,-1.038808E-1,-2.1980217E-1,9.613775E-2,-9.305295E-2],"categories":[],"categories_nodes":[],"categories_segments":[],"categories_sizes":[],"default_left":[0,0,0,0,0,0,0,0,0,0,0,0,0,0,0,0,0,0,0,0,0,0,0,0,0,0,0,0,0],"id":28,"left_children":[1,3,5,7,9,11,13,-1,15,17,19,21,23,25,27,-1,-1,-1,-1,-1,-1,-1,-1,-1,-1,-1,-1,-1,-1],"loss_changes":[1.3956142E2,1.419979E2,9.29E1,3.882904E0,1.4106563E2,2.482981E2,8.198845E1,0E0,3.8622665E0,1.8286931E2,3.1255255E2,5.8625458E1,1.0166434E2,1.7620163E1,1.3112727E2,0E0,0E0,0E0,0E0,0E0,0E0,0E0,0E0,0E0,0E0,0E0,0E0,0E0,0E0],"parents":[2147483647,0,0,1,1,2,2,3,3,4,4,5,5,6,6,8,8,9,9,10,10,11,11,12,12,13,13,14,14],"right_children":[2,4,6,8,10,12,14,-1,16,18,20,22,24,26,28,-1,-1,-1,-1,-1,-1,-1,-1,-1,-1,-1,-1,-1,-1],"split_conditions":[7E0,3E0,1.5E1,2E0,1.8E1,8E0,1.8E1,-4.505472E-2,5E0,1.3E1,5E0,1E0,1.3E1,1.6E1,1.9E1,-9.1764465E-2,-5.4071426E-2,8.741797E-3,8.814152E-2,-7.665156E-2,6.854051E-2,-2.1000765E-2,-2.2526982E-1,4.8766654E-2,2.888733E-1,-1.038808E-1,-2.1980217E-1,9.613775E-2,-9.305295E-2],"split_indices":[0,1,1,0,1,1,1,0,0,1,0,1,1,1,1,0,0,0,0,0,0,0,0,0,0,0,0,0,0],"split_type":[0,0,0,0,0,0,0,0,0,0,0,0,0,0,0,0,0,0,0,0,0,0,0,0,0,0,0,0,0],"sum_hessian":[2.509E3,2.043E3,4.66E2,1.89E2,1.854E3,1.74E2,2.92E2,4.7E1,1.42E2,1.234E3,6.2E2,6.1E1,1.13E2,6.6E1,2.26E2,9.6E1,4.6E1,7.69E2,4.65E2,3.77E2,2.43E2,2.2E1,3.9E1,9.2E1,2.1E1,2.3E1,4.3E1,4.5E1,1.81E2],"tree_param":{"num_deleted":"0","num_feature":"2","num_nodes":"29","size_leaf_vector":"1"}},{"base_weights":[-4.9061454E-3,9.659695E-2,-4.4916186E-1,-6.454585E-1,1.7255056E-1,7.235225E-2,-7.5911343E-1,-4.064312E-2,-7.2117776E-1,3.484559E-1,-1.7755516E-1,-1.3821057E0,8.6273855E-1,-1.6388594E0,-4.9610862E-1,-8.268262E-2,-4.8779327E-2,7.868797E-3,7.93462E-2,-6.9006674E-2,6.171454E-2,-7.574754E-2,-2.7558753E-1,4.394238E-2,2.61299E-1,-9.392565E-2,-1.9832143E-1,3.6224347E-2,-1.0626336E-1],"categories":[],"categories_nodes":[],"categories_segments":[],"categories_sizes":[],"default_left":[0,0,0,0,0,0,0,0,0,0,0,0,0,0,0,0,0,0,0,0,0,0,0,0,0,0,0,0,0],"id":29,"left_children":[1,3,5,7,9,11,13,-1,15,17,19,21,23,25,27,-1,-1,-1,-1,-1,-1,-1,-1,-1,-1,-1,-1,-1,-1],"loss_changes":[1.13227646E2,1.1531487E2,7.5542725E1,3.145691E0,1.143029E2,2.0236954E2,6.698053E1,0E0,3.1225967E0,1.481973E2,2.5335501E2,5.1114563E1,8.3315216E1,1.4278336E1,1.10770035E2,0E0,0E0,0E0,0E0,0E0,0E0,0E0,0E0,0E0,0E0,0E0,0E0,0E0,0E0],"parents":[2147483647,0,0,1,1,2,2,3,3,4,4,5,5,6,6,8,8,9,9,10,10,11,11,12,12,13,13,14,14],"right_children":[2,4,6,8,10,12,14,-1,16,18,20,22,24,26,28,-1,-1,-1,-1,-1,-1,-1,-1,-1,-1,-1,-1,-1,-1],"split_conditions":[7E0,3E0,1.5E1,2E0,1.8E1,8E0,1.8E1,-4.064312E-2,5E0,1.3E1,5E0,5E0,1.3E1,1.6E1,2E1,-8.268262E-2,-4.8779327E-2,7.868797E-3,7.93462E-2,-6.9006674E-2,6.171454E-2,-7.574754E-2,-2.7558753E-1,4.394238E-2,2.61299E-1,-9.392565E-2,-1.9832143E-1,3.6224347E-2,-1.0626336E-1],"split_indices":[0,1,1,0,1,1,1,0,0,1,0,1,1,1,1,0,0,0,0,0,0,0,0,0,0,0,0,0,0],"split_type":[0,0,0,0,0,0,0,0,0,0,0,0,0,0,0,0,0,0,0,0,0,0,0,0,0,0,0,0,0],"sum_hessian":[2.509E3,2.043E3,4.66E2,1.89E2,1.854E3,1.74E2,2.92E2,4.7E1,1.42E2,1.234E3,6.2E2,6.1E1,1.13E2,6.6E1,2.26E2,9.6E1,4.6E1,7.69E2,4.65E2,3.77E2,2.43E2,4.3E1,1.8E1,9.2E1,2.1E1,2.3E1,4.3E1,9E1,1.36E2],"tree_param":{"num_deleted":"0","num_feature":"2","num_nodes":"29","size_leaf_vector":"1"}},{"base_weights":[-4.615028E-3,4.179393E-2,-8.3435856E-2,1.274423E-1,-3.5435262E-1,-5.8181846E-1,2.0363477E-1,-1.249562E0,-2.0005059E-1,-3.666347E-2,-6.4997934E-2,1.180438E-2,6.0396403E-2,-1.1746574E-2,-1.8692784E-1,1.4406191E-1,-5.9829544E-2],"categories":[],"categories_nodes":[],"categories_segments":[],"categories_sizes":[],"default_left":[0,0,0,0,0,0,0,0,0,0,0,0,0,0,0,0,0],"id":30,"left_children":[1,3,-1,5,7,9,11,13,15,-1,-1,-1,-1,-1,-1,-1,-1],"loss_changes":[9.6688774E1,8.072904E1,0E0,1.05821365E2,5.818013E1,2.5484467E0,6.0474197E1,4.3278275E1,2.3738843E2,0E0,0E0,0E0,0E0,0E0,0E0,0E0,0E0],"parents":[2147483647,0,0,1,1,3,3,4,4,5,5,6,6,7,7,8,8],"right_children":[2,4,-1,6,8,10,12,14,16,-1,-1,-1,-1,-1,-1,-1,-1],"split_conditions":[2.3E1,7E0,-8.3435856E-2,3E0,8E0,2E0,6E0,1E0,1.2E1,-3.666347E-2,-6.4997934E-2,1.180438E-2,6.0396403E-2,-1.1746574E-2,-1.8692784E-1,1.4406191E-1,-5.9829544E-2],"split_indices":[1,0,0,1,1,0,0,1,1,0,0,0,0,0,0,0,0],"split_type":[0,0,0,0,0,0,0,0,0,0,0,0,0,0,0,0,0],"sum_hessian":[2.509E3,2.377E3,1.32E2,1.955E3,4.22E2,1.89E2,1.766E3,6.1E1,3.61E2,4.7E1,1.42E2,1.456E3,3.1E2,2.2E1,3.9E1,7E1,2.91E2],"tree_param":{"num_deleted":"0","num_feature":"2","num_nodes":"17","size_leaf_vector":"1"}},{"base_weights":[-4.244162E-3,3.755396E-2,-7.515501E-2,1.146829E-1,-3.191878E-1,-5.2417165E-1,1.8331203E-1,-1.1278102E0,-1.798127E-1,-3.3073496E-2,-5.854359E-2,3.2145284E-2,-2.9216115E-3,-5.883608E-2,-2.3177032E-1,1.2985861E-1,-5.386706E-2],"categories":[],"categories_nodes":[],"categories_segments":[],"categories_sizes":[],"default_left":[0,0,0,0,0,0,0,0,0,0,0,0,0,0,0,0,0],"id":31,"left_children":[1,3,-1,5,7,9,11,13,15,-1,-1,-1,-1,-1,-1,-1,-1],"loss_changes":[7.8430534E1,6.5467545E1,0E0,8.585502E1,4.7470085E1,2.0580177E0,5.1886402E1,3.8433357E1,1.9275322E2,0E0,0E0,0E0,0E0,0E0,0E0,0E0,0E0],"parents":[2147483647,0,0,1,1,3,3,4,4,5,5,6,6,7,7,8,8],"right_children":[2,4,-1,6,8,10,12,14,16,-1,-1,-1,-1,-1,-1,-1,-1],"split_conditions":[2.3E1,7E0,-7.515501E-2,3E0,8E0,2E0,1.7E1,5E0,1.2E1,-3.3073496E-2,-5.854359E-2,3.2145284E-2,-2.9216115E-3,-5.883608E-2,-2.3177032E-1,1.2985861E-1,-5.386706E-2],"split_indices":[1,0,0,1,1,0,1,1,1,0,0,0,0,0,0,0,0],"split_type":[0,0,0,0,0,0,0,0,0,0,0,0,0,0,0,0,0],"sum_hessian":[2.509E3,2.377E3,1.32E2,1.955E3,4.22E2,1.89E2,1.766E3,6.1E1,3.61E2,4.7E1,1.42E2,1.07E3,6.96E2,4.3E1,1.8E1,7E1,2.91E2],"tree_param":{"num_deleted":"0","num_feature":"2","num_nodes":"17","size_leaf_vector":"1"}},{"base_weights":[-3.959635E-3,5.2046433E-2,-4.593255E-1,-1.7094009E-1,1.89442E-1,-6.7367977E-1,-1.6409767E-1,8.995126E-2,-2.1588395E0,5.1016027E-1,-7.378751E-2,-6.259896E-1,-8.935567E-2,5.1034695E-1,-6.242297E-1,6.6693425E-2,-3.7932258E-2,-9.3995506E-1,2.835154E-2,1.01986304E-1,1.1852305E-2,-1.0459929E-1,1.7459078E-2,-5.2877463E-2,-7.240564E-2,9.225995E-2,-1.8796899E-3,-4.37467E-2,-7.182654E-2],"categories":[],"categories_nodes":[],"categories_segments":[],"categories_sizes":[],"default_left":[0,0,0,0,0,0,0,0,0,0,0,0,0,0,0,0,0,0,0,0,0,0,0,0,0,0,0,0,0],"id":32,"left_children":[1,3,5,7,9,11,13,15,17,19,21,23,-1,25,27,-1,-1,-1,-1,-1,-1,-1,-1,-1,-1,-1,-1,-1,-1],"loss_changes":[6.403707E1,6.853752E1,1.729237E1,4.4258194E2,1.168784E2,1.1079102E0,3.6627605E1,2.0467905E2,1.753419E3,1.2444112E2,1.8394485E2,8.9463043E-1,0E0,1.0488104E1,9.151459E-1,0E0,0E0,0E0,0E0,0E0,0E0,0E0,0E0,0E0,0E0,0E0,0E0,0E0,0E0],"parents":[2147483647,0,0,1,1,2,2,3,3,4,4,5,5,6,6,7,7,8,8,9,9,10,10,11,11,13,13,14,14],"right_children":[2,4,6,8,10,12,14,16,18,20,22,24,-1,26,28,-1,-1,-1,-1,-1,-1,-1,-1,-1,-1,-1,-1,-1,-1],"split_conditions":[2.2E1,1.1E1,6E0,1E1,1.7E1,5E0,2.3E1,3E0,3E0,4E0,2E0,2.3E1,-8.935567E-2,7E0,7E0,6.6693425E-2,-3.7932258E-2,-9.3995506E-1,2.835154E-2,1.01986304E-1,1.1852305E-2,-1.0459929E-1,1.7459078E-2,-5.2877463E-2,-7.240564E-2,9.225995E-2,-1.8796899E-3,-4.37467E-2,-7.182654E-2],"split_indices":[1,1,0,1,1,0,1,0,0,0,0,1,0,0,0,0,0,0,0,0,0,0,0,0,0,0,0,0,0],"split_type":[0,0,0,0,0,0,0,0,0,0,0,0,0,0,0,0,0,0,0,0,0,0,0,0,0,0,0,0,0],"sum_hessian":[2.509E3,2.235E3,2.74E2,8.52E2,1.383E3,1.58E2,1.16E2,7.54E2,9.8E1,6.23E2,7.6E2,1.33E2,2.5E1,4.7E1,6.9E1,3.38E2,4.16E2,2.4E1,7.4E1,2.7E2,3.53E2,1.54E2,6.06E2,7E1,6.3E1,2.6E1,2.1E1,2.5E1,4.4E1],"tree_param":{"num_deleted":"0","num_feature":"2","num_nodes":"29","size_leaf_vector":"1"}},{"base_weights":[-4.0004314E-3,6.989443E-2,-3.2742035E-1,-4.8626614E-1,1.2682198E-1,-1.2439474E-1,-8.155521E-1,-5.495551E-1,-2.820134E-2,1.9419323E-1,-4.0184414E-1,-9.8239595E-1,7.3088475E-2,-1.1415974E0,-4.475096E-1,-4.4456232E-2,-7.380503E-2,-8.856943E-5,3.349938E-2,-6.076618E-2,2.3521066E-2,-1.3668993E-3,-1.514854E-1,1.1687201E-1,-3.162262E-2,-7.165884E-2,-1.8659751E-1,-1.7002734E-3,-6.4803496E-2],"categories":[],"categories_nodes":[],"categories_segments":[],"categories_sizes":[],"default_left":[0,0,0,0,0,0,0,0,0,0,0,0,0,0,0,0,0,0,0,0,0,0,0,0,0,0,0,0,0],"id":33,"left_children":[1,3,5,7,9,11,13,15,-1,17,19,21,23,25,27,-1,-1,-1,-1,-1,-1,-1,-1,-1,-1,-1,-1,-1,-1],"loss_changes":[6.0009552E1,6.477647E1,4.6179764E1,2.3011398E0,6.614737E1,5.6156715E1,1.5928925E1,2.52174E0,0E0,4.521134E1,2.767752E1,3.1959293E1,1.1553686E2,2.0829285E1,5.686598E0,0E0,0E0,0E0,0E0,0E0,0E0,0E0,0E0,0E0,0E0,0E0,0E0,0E0,0E0],"parents":[2147483647,0,0,1,1,2,2,3,3,4,4,5,5,6,6,7,7,9,9,10,10,11,11,12,12,13,13,14,14],"right_children":[2,4,6,8,10,12,14,16,-1,18,20,22,24,26,28,-1,-1,-1,-1,-1,-1,-1,-1,-1,-1,-1,-1,-1,-1],"split_conditions":[7E0,3E0,2E1,5E0,2.2E1,8E0,2.2E1,3E0,-2.820134E-2,1.2E1,6E0,1E0,1.2E1,2.1E1,2.3E1,-4.4456232E-2,-7.380503E-2,-8.856943E-5,3.349938E-2,-6.076618E-2,2.3521066E-2,-1.3668993E-3,-1.514854E-1,1.1687201E-1,-3.162262E-2,-7.165884E-2,-1.8659751E-1,-1.7002734E-3,-6.4803496E-2],"split_indices":[0,1,1,0,1,1,1,0,0,1,0,1,1,1,1,0,0,0,0,0,0,0,0,0,0,0,0,0,0],"split_type":[0,0,0,0,0,0,0,0,0,0,0,0,0,0,0,0,0,0,0,0,0,0,0,0,0,0,0,0,0],"sum_hessian":[2.509E3,2.043E3,4.66E2,1.89E2,1.854E3,3.3E2,1.36E2,1.43E2,4.6E1,1.645E3,2.09E2,6.1E1,2.69E2,7.1E1,6.5E1,9.4E1,4.9E1,6.9E2,9.55E2,1.58E2,5.1E1,2.2E1,3.9E1,7E1,1.99E2,4.6E1,2.5E1,2.1E1,4.4E1],"tree_param":{"num_deleted":"0","num_feature":"2","num_nodes":"29","size_leaf_vector":"1"}},{"base_weights":[-3.8166496E-3,6.283138E-2,-2.955185E-1,-4.384104E-1,1.14137635E-1,-1.1215957E-1,-7.363672E-1,-5.199002E-1,-2.976369E-1,2.4114214E-1,-1.3862354E-1,-8.866216E-1,6.6095255E-2,-1.0310242E0,-4.0376616E-1,-4.0057406E-2,-9.525435E-2,-3.3246677E-2,-2.1412445E-2,1.906064E-3,6.0758334E-2,-4.3758787E-2,8.45822E-2,-4.208083E-2,-1.9186829E-1,1.05349384E-1,-2.847617E-2,-6.46454E-2,-1.6865541E-1,-1.5379537E-3,-5.846715E-2],"categories":[],"categories_nodes":[],"categories_segments":[],"categories_sizes":[],"default_left":[0,0,0,0,0,0,0,0,0,0,0,0,0,0,0,0,0,0,0,0,0,0,0,0,0,0,0,0,0,0,0],"id":34,"left_children":[1,3,5,7,9,11,13,15,17,19,21,23,25,27,29,-1,-1,-1,-1,-1,-1,-1,-1,-1,-1,-1,-1,-1,-1,-1,-1],"loss_changes":[4.8816364E1,5.2615257E1,3.766667E1,2.0248642E0,5.9582283E1,4.5753677E1,1.3010147E1,5.7618904E0,1.382389E-1,1.0049249E2,1.8313916E2,2.8998974E1,9.3837616E1,1.7060722E1,4.628248E0,0E0,0E0,0E0,0E0,0E0,0E0,0E0,0E0,0E0,0E0,0E0,0E0,0E0,0E0,0E0,0E0],"parents":[2147483647,0,0,1,1,2,2,3,3,4,4,5,5,6,6,7,7,8,8,9,9,10,10,11,11,12,12,13,13,14,14],"right_children":[2,4,6,8,10,12,14,16,18,20,22,24,26,28,30,-1,-1,-1,-1,-1,-1,-1,-1,-1,-1,-1,-1,-1,-1,-1,-1],"split_conditions":[7E0,3E0,2E1,4E0,1.8E1,8E0,2.2E1,3E0,6E0,1.3E1,6E0,5E0,1.2E1,2.1E1,2.3E1,-4.0057406E-2,-9.525435E-2,-3.3246677E-2,-2.1412445E-2,1.906064E-3,6.0758334E-2,-4.3758787E-2,8.45822E-2,-4.208083E-2,-1.9186829E-1,1.05349384E-1,-2.847617E-2,-6.46454E-2,-1.6865541E-1,-1.5379537E-3,-5.846715E-2],"split_indices":[0,1,1,0,1,1,1,0,0,1,0,1,1,1,1,0,0,0,0,0,0,0,0,0,0,0,0,0,0,0,0],"split_type":[0,0,0,0,0,0,0,0,0,0,0,0,0,0,0,0,0,0,0,0,0,0,0,0,0,0,0,0,0,0,0],"sum_hessian":[2.509E3,2.043E3,4.66E2,1.89E2,1.854E3,3.3E2,1.36E2,1.18E2,7.1E1,1.234E3,6.2E2,6.1E1,2.69E2,7.1E1,6.5E1,9.4E1,2.4E1,4.8E1,2.3E1,7.69E2,4.65E2,4.76E2,1.44E2,4.3E1,1.8E1,7E1,1.99E2,4.6E1,2.5E1,2.1E1,4.4E1],"tree_param":{"num_deleted":"0","num_feature":"2","num_nodes":"31","size_leaf_vector":"1"}},{"base_weights":[-3.6488276E-3,2.6389884E-2,-5.407045E-1,-2.703611E-1,8.208234E-2,-4.0764186E-1,-5.976384E-1,-6.039585E-1,-1.5542975E-1,4.8809123E-1,-1.2970291E-2,-6.355094E-2,-1.6124517E-2,-8.029262E-2,-5.245818E-2,-2.8090147E-2,-9.080969E-2,6.888794E-2,-4.3879714E-2,1.10381894E-1,-3.840313E-2,-2.0073938E-1,1.1642742E-2],"categories":[],"categories_nodes":[],"categories_segments":[],"categories_sizes":[],"default_left":[0,0,0,0,0,0,0,0,0,0,0,0,0,0,0,0,0,0,0,0,0,0,0],"id":35,"left_children":[1,3,5,7,9,11,13,15,17,19,21,-1,-1,-1,-1,-1,-1,-1,-1,-1,-1,-1,-1],"loss_changes":[4.0506744E1,3.9322895E1,7.63958E-1,1.4322268E1,7.7306526E1,2.3117971E0,9.4358444E-1,9.177303E0,6.753143E1,2.044801E2,4.1934567E2,0E0,0E0,0E0,0E0,0E0,0E0,0E0,0E0,0E0,0E0,0E0,0E0],"parents":[2147483647,0,0,1,1,2,2,3,3,4,4,5,5,6,6,7,7,8,8,9,9,10,10],"right_children":[2,4,6,8,10,12,14,16,18,20,22,-1,-1,-1,-1,-1,-1,-1,-1,-1,-1,-1,-1],"split_conditions":[2.3E1,5E0,3E0,2E0,1E1,2E0,4E0,1E0,3E0,4E0,1.1E1,-6.355094E-2,-1.6124517E-2,-8.029262E-2,-5.245818E-2,-2.8090147E-2,-9.080969E-2,6.888794E-2,-4.3879714E-2,1.10381894E-1,-3.840313E-2,-2.0073938E-1,1.1642742E-2],"split_indices":[1,1,0,0,1,0,0,1,0,0,1,0,0,0,0,0,0,0,0,0,0,0,0],"split_type":[0,0,0,0,0,0,0,0,0,0,0,0,0,0,0,0,0,0,0,0,0,0,0],"sum_hessian":[2.509E3,2.377E3,1.32E2,3.75E2,2.002E3,4.2E1,9E1,9.5E1,2.8E2,3.79E2,1.623E3,2.1E1,2.1E1,2.1E1,6.9E1,4.7E1,4.8E1,7E1,2.1E2,2.22E2,1.57E2,9.8E1,1.525E3],"tree_param":{"num_deleted":"0","num_feature":"2","num_nodes":"23","size_leaf_vector":"1"}},{"base_weights":[-3.4525446E-3,9.761872E-2,-1.4758563E-1,-8.801711E-2,6.6290486E-1,-8.65733E-1,2.4396516E-2,9.988738E-2,-4.8405027E-1,1.4584244E0,-7.193598E-1,-1.4462768E0,-5.6240445E-1,1.6970028E-1,-3.1493577E-1,5.687606E-2,-2.8152242E-2,-1.4150685E-1,9.421116E-2,1.1840453E-1,2.4589825E-1,9.5198266E-2,-1.575117E-1,-6.322702E-2,-3.237993E-1,1.3321726E-1,-9.29532E-2,3.4968566E-2,-2.9165436E-2,9.3925595E-3,-6.5584175E-2],"categories":[],"categories_nodes":[],"categories_segments":[],"categories_sizes":[],"default_left":[0,0,0,0,0,0,0,0,0,0,0,0,0,0,0,0,0,0,0,0,0,0,0,0,0,0,0,0,0,0,0],"id":36,"left_children":[1,3,5,7,9,11,13,15,17,19,21,23,25,27,29,-1,-1,-1,-1,-1,-1,-1,-1,-1,-1,-1,-1,-1,-1,-1,-1],"loss_changes":[3.6579365E1,1.5494588E2,1.2785245E2,8.279941E1,4.0240997E2,3.44057E1,4.127348E1,1.3517891E2,4.7667935E2,6.0779938E1,1.9315479E2,9.712862E1,9.374666E1,4.876171E1,3.5046806E1,0E0,0E0,0E0,0E0,0E0,0E0,0E0,0E0,0E0,0E0,0E0,0E0,0E0,0E0,0E0,0E0],"parents":[2147483647,0,0,1,1,2,2,3,3,4,4,5,5,6,6,7,7,8,8,9,9,10,10,11,11,12,12,13,13,14,14],"right_children":[2,4,6,8,10,12,14,16,18,20,22,24,26,28,30,-1,-1,-1,-1,-1,-1,-1,-1,-1,-1,-1,-1,-1,-1,-1,-1],"split_conditions":[1.7E1,1.3E1,2E0,1E1,6E0,1.9E1,7E0,3E0,6E0,1.6E1,1.5E1,1.8E1,2E1,2.2E1,2E1,5.687606E-2,-2.8152242E-2,-1.4150685E-1,9.421116E-2,1.1840453E-1,2.4589825E-1,9.5198266E-2,-1.575117E-1,-6.322702E-2,-3.237993E-1,1.3321726E-1,-9.29532E-2,3.4968566E-2,-2.9165436E-2,9.3925595E-3,-6.5584175E-2],"split_indices":[1,1,0,1,0,1,0,0,0,1,1,1,1,1,1,0,0,0,0,0,0,0,0,0,0,0,0,0,0,0,0],"split_type":[0,0,0,0,0,0,0,0,0,0,0,0,0,0,0,0,0,0,0,0,0,0,0,0,0,0,0,0,0,0,0],"sum_hessian":[2.509E3,1.475E3,1.034E3,1.111E3,3.64E2,1.99E2,8.35E2,7.54E2,3.57E2,2.31E2,1.33E2,6.7E1,1.32E2,5.85E2,2.5E2,3.38E2,4.16E2,2.16E2,1.41E2,1.83E2,4.8E1,4.5E1,8.8E1,4.7E1,2E1,2.1E1,1.11E2,4.21E2,1.64E2,1.14E2,1.36E2],"tree_param":{"num_deleted":"0","num_feature":"2","num_nodes":"31","size_leaf_vector":"1"}},{"base_weights":[-3.152662E-3,4.9733516E-2,-2.3462203E-1,-3.977839E-1,9.554407E-2,1.7796952E-1,-3.960133E-1,-5.155604E-1,-1.9760086E-1,2.2773795E-1,-8.493388E-2,-7.324525E-1,9.704793E-1,-2.7924448E-1,-2.1921733E-1,-3.0908749E-2,-6.460484E-2,-2.6309693E-2,-1.571647E-2,3.6632647E-3,7.142391E-2,-5.0603837E-2,3.5166387E-2,-3.092889E-2,-1.6738603E-1,6.2654585E-2,1.5782551E-1,2.4161668E-1,-4.163478E-2],"categories":[],"categories_nodes":[],"categories_segments":[],"categories_sizes":[],"default_left":[0,0,0,0,0,0,0,0,0,0,0,0,0,0,0,0,0,0,0,0,0,0,0,0,0,0,0,0,0],"id":37,"left_children":[1,3,5,7,9,11,13,15,17,19,21,23,25,-1,27,-1,-1,-1,-1,-1,-1,-1,-1,-1,-1,-1,-1,-1,-1],"loss_changes":[3.073791E1,4.1942097E1,3.1167387E1,4.3777256E0,4.427608E1,9.595126E1,1.4174414E2,3.0064392E0,1.493361E-1,9.954786E1,1.4450276E2,2.4181202E1,1.3852592E1,0E0,1.6413354E2,0E0,0E0,0E0,0E0,0E0,0E0,0E0,0E0,0E0,0E0,0E0,0E0,0E0,0E0],"parents":[2147483647,0,0,1,1,2,2,3,3,4,4,5,5,6,6,7,7,8,8,9,9,10,10,11,11,12,12,14,14],"right_children":[2,4,6,8,10,12,14,16,18,20,22,24,26,-1,28,-1,-1,-1,-1,-1,-1,-1,-1,-1,-1,-1,-1,-1,-1],"split_conditions":[7E0,3E0,1.2E1,4E0,1.7E1,8E0,1.3E1,2E0,5E0,1.3E1,4E0,5E0,1.1E1,-2.7924448E-1,1.5E1,-3.0908749E-2,-6.460484E-2,-2.6309693E-2,-1.571647E-2,3.6632647E-3,7.142391E-2,-5.0603837E-2,3.5166387E-2,-3.092889E-2,-1.6738603E-1,6.2654585E-2,1.5782551E-1,2.4161668E-1,-4.163478E-2],"split_indices":[0,1,1,0,1,1,1,0,0,1,0,1,1,0,1,0,0,0,0,0,0,0,0,0,0,0,0,0,0],"split_type":[0,0,0,0,0,0,0,0,0,0,0,0,0,0,0,0,0,0,0,0,0,0,0,0,0,0,0,0,0],"sum_hessian":[2.509E3,2.043E3,4.66E2,1.89E2,1.854E3,1.31E2,3.35E2,1.18E2,7.1E1,1.07E3,7.84E2,6.1E1,7E1,2.2E1,3.13E2,4.7E1,7.1E1,2.5E1,4.6E1,7.69E2,3.01E2,3.99E2,3.85E2,4.3E1,1.8E1,4.6E1,2.4E1,2.1E1,2.92E2],"tree_param":{"num_deleted":"0","num_feature":"2","num_nodes":"29","size_leaf_vector":"1"}},{"base_weights":[-2.8914062E-3,4.4721782E-2,-2.1128213E-1,-3.587294E-1,8.602151E-2,1.6034056E-1,-3.5664794E-1,-4.6480697E-1,-1.784244E-1,3.9196536E-1,6.151638E-3,-6.624057E-1,8.765368E-1,-2.5253415E-1,-1.9665878E-1,-2.7882261E-2,-5.823409E-2,-2.0853618E-2,-1.0951187E-2,1.1209023E-1,-3.4280967E-2,-9.7613834E-2,1.3772385E-2,1.2637456E-2,-1.0993942E-1,5.652244E-2,1.4267425E-1,2.1855323E-1,-3.7485518E-2],"categories":[],"categories_nodes":[],"categories_segments":[],"categories_sizes":[],"default_left":[0,0,0,0,0,0,0,0,0,0,0,0,0,0,0,0,0,0,0,0,0,0,0,0,0,0,0,0,0],"id":38,"left_children":[1,3,5,7,9,11,13,15,17,19,21,23,25,-1,27,-1,-1,-1,-1,-1,-1,-1,-1,-1,-1,-1,-1,-1,-1],"loss_changes":[2.4914038E1,3.4088856E1,2.52851E1,3.5510654E0,4.5325813E1,7.836133E1,1.1608444E2,2.4389076E0,1.2656832E-1,2.0605646E2,1.9037875E2,2.1509583E1,1.1354866E1,0E0,1.3411159E2,0E0,0E0,0E0,0E0,0E0,0E0,0E0,0E0,0E0,0E0,0E0,0E0,0E0,0E0],"parents":[2147483647,0,0,1,1,2,2,3,3,4,4,5,5,6,6,7,7,8,8,9,9,10,10,11,11,12,12,14,14],"right_children":[2,4,6,8,10,12,14,16,18,20,22,24,26,-1,28,-1,-1,-1,-1,-1,-1,-1,-1,-1,-1,-1,-1,-1,-1],"split_conditions":[7E0,3E0,1.2E1,4E0,9E0,8E0,1.3E1,2E0,6E0,3E0,1.1E1,1E0,1.1E1,-2.5253415E-1,1.5E1,-2.7882261E-2,-5.823409E-2,-2.0853618E-2,-1.0951187E-2,1.1209023E-1,-3.4280967E-2,-9.7613834E-2,1.3772385E-2,1.2637456E-2,-1.0993942E-1,5.652244E-2,1.4267425E-1,2.1855323E-1,-3.7485518E-2],"split_indices":[0,1,1,0,1,1,1,0,0,0,1,1,1,0,1,0,0,0,0,0,0,0,0,0,0,0,0,0,0],"split_type":[0,0,0,0,0,0,0,0,0,0,0,0,0,0,0,0,0,0,0,0,0,0,0,0,0,0,0,0,0],"sum_hessian":[2.509E3,2.043E3,4.66E2,1.89E2,1.854E3,1.31E2,3.35E2,1.18E2,7.1E1,3.83E2,1.471E3,6.1E1,7E1,2.2E1,3.13E2,4.7E1,7.1E1,4.8E1,2.3E1,1.92E2,1.91E2,1.73E2,1.298E3,2.2E1,3.9E1,4.6E1,2.4E1,2.1E1,2.92E2],"tree_param":{"num_deleted":"0","num_feature":"2","num_nodes":"29","size_leaf_vector":"1"}},{"base_weights":[-2.6396948E-3,7.8328826E-2,-1.181053E-1,-6.337039E-2,5.098116E-1,-7.4424636E-1,3.183049E-2,1.0685487E-1,-4.2218798E-1,1.2293221E0,-7.397127E-1,-1.2710514E0,-4.6930665E-1,1.3985094E-1,-2.53388E-1,4.8608568E-2,-2.016969E-2,-1.2664188E-1,8.709126E-2,9.8155E-2,2.1346436E-1,6.043258E-2,-1.4260729E-1,-5.3429704E-2,-2.8945348E-1,1.2401687E-1,-8.009062E-2,2.9321209E-2,-2.0884935E-2,-4.5985024E-2,-5.0053922E-3],"categories":[],"categories_nodes":[],"categories_segments":[],"categories_sizes":[],"default_left":[0,0,0,0,0,0,0,0,0,0,0,0,0,0,0,0,0,0,0,0,0,0,0,0,0,0,0,0,0,0,0],"id":39,"left_children":[1,3,5,7,9,11,13,15,17,19,21,23,25,27,29,-1,-1,-1,-1,-1,-1,-1,-1,-1,-1,-1,-1,-1,-1,-1,-1],"loss_changes":[2.3475441E1,9.027608E1,9.719048E1,6.796587E1,3.290611E2,2.8371407E1,2.5792122E1,8.844235E1,3.919227E2,4.9945465E1,1.2447607E2,7.978884E1,7.638581E1,3.252182E1,9.632569E0,0E0,0E0,0E0,0E0,0E0,0E0,0E0,0E0,0E0,0E0,0E0,0E0,0E0,0E0,0E0,0E0],"parents":[2147483647,0,0,1,1,2,2,3,3,4,4,5,5,6,6,7,7,8,8,9,9,10,10,11,11,12,12,13,13,14,14],"right_children":[2,4,6,8,10,12,14,16,18,20,22,24,26,28,30,-1,-1,-1,-1,-1,-1,-1,-1,-1,-1,-1,-1,-1,-1,-1,-1],"split_conditions":[1.7E1,1.3E1,2E0,1E1,6E0,1.9E1,2.2E1,3E0,6E0,1.6E1,1.5E1,1.8E1,2E1,7E0,6E0,4.8608568E-2,-2.016969E-2,-1.2664188E-1,8.709126E-2,9.8155E-2,2.1346436E-1,6.043258E-2,-1.4260729E-1,-5.3429704E-2,-2.8945348E-1,1.2401687E-1,-8.009062E-2,2.9321209E-2,-2.0884935E-2,-4.5985024E-2,-5.0053922E-3],"split_indices":[1,1,0,1,0,1,1,0,0,1,1,1,1,0,0,0,0,0,0,0,0,0,0,0,0,0,0,0,0,0,0],"split_type":[0,0,0,0,0,0,0,0,0,0,0,0,0,0,0,0,0,0,0,0,0,0,0,0,0,0,0,0,0,0,0],"sum_hessian":[2.509E3,1.475E3,1.034E3,1.111E3,3.64E2,1.99E2,8.35E2,7.54E2,3.57E2,2.31E2,1.33E2,6.7E1,1.32E2,6.06E2,2.29E2,3.38E2,4.16E2,2.16E2,1.41E2,1.83E2,4.8E1,4.5E1,8.8E1,4.7E1,2E1,2.1E1,1.11E2,4.21E2,1.85E2,1.13E2,1.16E2],"tree_param":{"num_deleted":"0","num_feature":"2","num_nodes":"31","size_leaf_vector":"1"}},{"base_weights":[-2.4248094E-3,-2.3238435E-1,3.8075056E-2,-6.782804E-1,-7.9222776E-2,4.210865E-1,-4.4830646E-2,-2.99117E-2,-1.0358634E-1,5.6078106E-1,-2.9420406E-1,8.956434E-1,-2.5136465E-1,-1.7243638E0,5.5482145E-2,-4.8391562E-2,2.6268086E-1,-1.6793055E-2,-5.3564966E-2,3.287157E-1,5.907013E-2,-1.5321897E-1,-3.2906253E-3,-7.9586124E-1,3.7671074E-2,4.2286213E-2,-7.029231E-3],"categories":[],"categories_nodes":[],"categories_segments":[],"categories_sizes":[],"default_left":[0,0,0,0,0,0,0,0,0,0,0,0,0,0,0,0,0,0,0,0,0,0,0,0,0,0,0],"id":40,"left_children":[1,3,5,7,9,11,13,-1,-1,15,17,19,21,23,25,-1,-1,-1,-1,-1,-1,-1,-1,-1,-1,-1,-1],"loss_changes":[2.3385311E1,2.562486E1,6.78133E1,1.2706066E1,3.8827446E1,1.2148936E2,2.9594418E2,0E0,0E0,1.5451556E2,6.343054E0,1.6068619E2,4.415909E1,1.2997616E3,7.664097E1,0E0,0E0,0E0,0E0,0E0,0E0,0E0,0E0,0E0,0E0,0E0,0E0],"parents":[2147483647,0,0,1,1,2,2,3,3,4,4,5,5,6,6,9,9,10,10,11,11,12,12,13,13,14,14],"right_children":[2,4,6,8,10,12,14,-1,-1,16,18,20,22,24,26,-1,-1,-1,-1,-1,-1,-1,-1,-1,-1,-1,-1],"split_conditions":[5E0,2E0,1E1,1E0,3E0,4E0,1.1E1,-2.99117E-2,-1.0358634E-1,3E0,4E0,6E0,6E0,3E0,1.5E1,-4.8391562E-2,2.6268086E-1,-1.6793055E-2,-5.3564966E-2,3.287157E-1,5.907013E-2,-1.5321897E-1,-3.2906253E-3,-7.9586124E-1,3.7671074E-2,4.2286213E-2,-7.029231E-3],"split_indices":[1,0,1,1,0,0,1,0,0,1,1,1,1,0,1,0,0,0,0,0,0,0,0,0,0,0,0],"split_type":[0,0,0,0,0,0,0,0,0,0,0,0,0,0,0,0,0,0,0,0,0,0,0,0,0,0,0],"sum_hessian":[2.509E3,3.75E2,2.134E3,9.5E1,2.8E2,3.79E2,1.755E3,4.7E1,4.8E1,7E1,2.1E2,2.22E2,1.57E2,9.8E1,1.657E3,4.7E1,2.3E1,1.39E2,7.1E1,2.4E1,1.98E2,2.2E1,1.35E2,2.4E1,7.4E1,4.22E2,1.235E3],"tree_param":{"num_deleted":"0","num_feature":"2","num_nodes":"27","size_leaf_vector":"1"}},{"base_weights":[-2.374088E-3,-2.0911817E-1,3.4037225E-2,-6.118431E-1,-7.0788234E-2,3.79586E-1,-4.0759236E-2,-2.6982842E-2,-9.343914E-2,5.077211E-1,-2.6511702E-1,8.078175E-1,-2.272191E-1,-1.5595853E0,4.9955208E-2,-4.365322E-2,2.3750727E-1,-1.5125738E-2,-4.8282858E-2,2.9715893E-1,5.3192753E-2,-1.3856323E-1,-2.9640282E-3,-7.194586E-1,3.3954263E-2,3.806762E-2,-6.326885E-3],"categories":[],"categories_nodes":[],"categories_segments":[],"categories_sizes":[],"default_left":[0,0,0,0,0,0,0,0,0,0,0,0,0,0,0,0,0,0,0,0,0,0,0,0,0,0,0],"id":41,"left_children":[1,3,5,7,9,11,13,-1,-1,15,17,19,21,23,25,-1,-1,-1,-1,-1,-1,-1,-1,-1,-1,-1,-1],"loss_changes":[1.8901955E1,2.0903244E1,5.5196312E1,1.0338238E1,3.1724913E1,9.892771E1,2.4201865E2,0E0,0E0,1.2622775E2,5.1573544E0,1.3154208E2,3.612164E1,1.0619E3,6.2108845E1,0E0,0E0,0E0,0E0,0E0,0E0,0E0,0E0,0E0,0E0,0E0,0E0],"parents":[2147483647,0,0,1,1,2,2,3,3,4,4,5,5,6,6,9,9,10,10,11,11,12,12,13,13,14,14],"right_children":[2,4,6,8,10,12,14,-1,-1,16,18,20,22,24,26,-1,-1,-1,-1,-1,-1,-1,-1,-1,-1,-1,-1],"split_conditions":[5E0,2E0,1E1,1E0,3E0,4E0,1.1E1,-2.6982842E-2,-9.343914E-2,3E0,4E0,6E0,6E0,3E0,1.5E1,-4.365322E-2,2.3750727E-1,-1.5125738E-2,-4.8282858E-2,2.9715893E-1,5.3192753E-2,-1.3856323E-1,-2.9640282E-3,-7.194586E-1,3.3954263E-2,3.806762E-2,-6.326885E-3],"split_indices":[1,0,1,1,0,0,1,0,0,1,1,1,1,0,1,0,0,0,0,0,0,0,0,0,0,0,0],"split_type":[0,0,0,0,0,0,0,0,0,0,0,0,0,0,0,0,0,0,0,0,0,0,0,0,0,0,0],"sum_hessian":[2.509E3,3.75E2,2.134E3,9.5E1,2.8E2,3.79E2,1.755E3,4.7E1,4.8E1,7E1,2.1E2,2.22E2,1.57E2,9.8E1,1.657E3,4.7E1,2.3E1,1.39E2,7.1E1,2.4E1,1.98E2,2.2E1,1.35E2,2.4E1,7.4E1,4.22E2,1.235E3],"tree_param":{"num_deleted":"0","num_feature":"2","num_nodes":"27","size_leaf_vector":"1"}},{"base_weights":[-2.3098856E-3,3.8453102E-2,-1.8071939E-1,-1.494025E-2,2.891014E-1,-5.392744E-2,-4.8573703E-1,1.1055217E-1,-3.33244E-1,9.9311763E-1,-6.41113E-2,-2.901806E-1,5.7234657E-1,-7.661834E-1,-1.7243594E-1,-1.7332342E-2,7.529914E-2,-2.6061448E-1,-2.2807078E-2,-2.7281335E-2,1.8408607E-1,-1.2126756E-1,6.967597E-2,-3.779197E-3,-1.4193343E-1,1.0751487E-1,5.710212E-3,-4.1944116E-2,-1.3635181E-1,1.30627975E-2,-3.1676862E-2],"categories":[],"categories_nodes":[],"categories_segments":[],"categories_sizes":[],"default_left":[0,0,0,0,0,0,0,0,0,0,0,0,0,0,0,0,0,0,0,0,0,0,0,0,0,0,0,0,0,0,0],"id":42,"left_children":[1,3,5,7,9,11,13,15,17,19,21,23,25,27,29,-1,-1,-1,-1,-1,-1,-1,-1,-1,-1,-1,-1,-1,-1,-1,-1],"loss_changes":[1.8260937E1,2.7359076E1,1.8034464E1,6.738361E1,8.93353E1,4.914058E1,1.190527E1,2.2080157E2,1.1343163E2,1.2928433E2,2.1058315E2,6.862788E1,2.3513615E1,1.4340805E1,2.9283526E0,0E0,0E0,0E0,0E0,0E0,0E0,0E0,0E0,0E0,0E0,0E0,0E0,0E0,0E0,0E0,0E0],"parents":[2147483647,0,0,1,1,2,2,3,3,4,4,5,5,6,6,7,7,8,8,9,9,10,10,11,11,12,12,13,13,14,14],"right_children":[2,4,6,8,10,12,14,16,18,20,22,24,26,28,30,-1,-1,-1,-1,-1,-1,-1,-1,-1,-1,-1,-1,-1,-1,-1,-1],"split_conditions":[7E0,6E0,2E1,1.8E1,1.3E1,1.8E1,2.2E1,1.3E1,1.9E1,5E0,1.8E1,1.6E1,1.9E1,2.1E1,2.3E1,-1.7332342E-2,7.529914E-2,-2.6061448E-1,-2.2807078E-2,-2.7281335E-2,1.8408607E-1,-1.2126756E-1,6.967597E-2,-3.779197E-3,-1.4193343E-1,1.0751487E-1,5.710212E-3,-4.1944116E-2,-1.3635181E-1,1.30627975E-2,-3.1676862E-2],"split_indices":[0,0,1,1,1,1,1,1,1,1,1,1,1,1,1,0,0,0,0,0,0,0,0,0,0,0,0,0,0,0,0],"split_type":[0,0,0,0,0,0,0,0,0,0,0,0,0,0,0,0,0,0,0,0,0,0,0,0,0,0,0,0,0,0,0],"sum_hessian":[2.509E3,2.043E3,4.66E2,1.685E3,3.58E2,3.3E2,1.36E2,1.209E3,4.76E2,1.19E2,2.39E2,2.4E2,9E1,7.1E1,6.5E1,8.39E2,3.7E2,2E1,4.56E2,4.8E1,7.1E1,9.5E1,1.44E2,1.97E2,4.3E1,4.5E1,4.5E1,4.6E1,2.5E1,2.1E1,4.4E1],"tree_param":{"num_deleted":"0","num_feature":"2","num_nodes":"31","size_leaf_vector":"1"}},{"base_weights":[-2.2181827E-3,1.7319899E-2,-3.5153654E-1,-1.7117341E-1,5.269492E-2,-1.7622223E-1,-4.305143E-1,-5.347616E-1,-4.634907E-2,3.5803705E-1,-1.8784583E-2,-3.399921E-2,-4.4423016E-4,-5.599148E-2,-2.8579572E-2,-2.2643652E-2,-8.2588084E-2,4.767677E-2,-2.2215446E-2,7.4586175E-2,-1.916018E-2,-1.447543E-1,7.3919133E-3],"categories":[],"categories_nodes":[],"categories_segments":[],"categories_sizes":[],"default_left":[0,0,0,0,0,0,0,0,0,0,0,0,0,0,0,0,0,0,0,0,0,0,0],"id":43,"left_children":[1,3,5,7,9,11,13,15,17,19,21,-1,-1,-1,-1,-1,-1,-1,-1,-1,-1,-1,-1],"loss_changes":[1.7136864E1,1.5865416E1,1.765646E0,1.7039845E1,4.372361E1,1.2081817E0,1.5441036E0,8.429892E0,2.594857E1,8.1145035E1,2.1520776E2,0E0,0E0,0E0,0E0,0E0,0E0,0E0,0E0,0E0,0E0,0E0,0E0],"parents":[2147483647,0,0,1,1,2,2,3,3,4,4,5,5,6,6,7,7,8,8,9,9,10,10],"right_children":[2,4,6,8,10,12,14,16,18,20,22,-1,-1,-1,-1,-1,-1,-1,-1,-1,-1,-1,-1],"split_conditions":[2.3E1,5E0,3E0,2E0,1E1,2E0,7E0,1E0,3E0,4E0,1.1E1,-3.399921E-2,-4.4423016E-4,-5.599148E-2,-2.8579572E-2,-2.2643652E-2,-8.2588084E-2,4.767677E-2,-2.2215446E-2,7.4586175E-2,-1.916018E-2,-1.447543E-1,7.3919133E-3],"split_indices":[1,1,0,0,1,0,0,1,0,0,1,0,0,0,0,0,0,0,0,0,0,0,0],"split_type":[0,0,0,0,0,0,0,0,0,0,0,0,0,0,0,0,0,0,0,0,0,0,0],"sum_hessian":[2.509E3,2.377E3,1.32E2,3.75E2,2.002E3,4.2E1,9E1,9.5E1,2.8E2,3.79E2,1.623E3,2.1E1,2.1E1,4.6E1,4.4E1,4.7E1,4.8E1,7E1,2.1E2,2.22E2,1.57E2,9.8E1,1.525E3],"tree_param":{"num_deleted":"0","num_feature":"2","num_nodes":"23","size_leaf_vector":"1"}},{"base_weights":[-2.1080032E-3,6.128281E-2,-9.250678E-2,-5.2251447E-2,4.0700558E-1,-6.376169E-1,3.8012985E-2,8.542916E-2,-3.4246543E-1,9.910367E-1,-6.0719013E-1,-1.1185046E0,-3.8695532E-1,1.286808E-1,-2.0143646E-1,-1.5426814E-2,3.2237854E-2,-9.986066E-2,6.6264085E-2,7.548768E-2,1.8576162E-1,5.243656E-2,-1.1852169E-1,-5.498693E-2,-2.3649804E-1,1.1492528E-1,-6.852555E-2,2.5672683E-2,-1.6252406E-2,-3.7263025E-2,-3.2910581E-3],"categories":[],"categories_nodes":[],"categories_segments":[],"categories_sizes":[],"default_left":[0,0,0,0,0,0,0,0,0,0,0,0,0,0,0,0,0,0,0,0,0,0,0,0,0,0,0,0,0,0,0],"id":44,"left_children":[1,3,5,7,9,11,13,15,17,19,21,23,25,27,29,-1,-1,-1,-1,-1,-1,-1,-1,-1,-1,-1,-1,-1,-1,-1,-1],"loss_changes":[1.4389105E1,5.7956303E1,7.366204E1,4.4461258E1,2.1679924E2,2.3675201E1,1.817578E1,4.2930798E1,2.367597E2,4.6076843E1,8.8266785E1,4.6897293E1,6.1734936E1,2.2675312E1,6.62337E0,0E0,0E0,0E0,0E0,0E0,0E0,0E0,0E0,0E0,0E0,0E0,0E0,0E0,0E0,0E0,0E0],"parents":[2147483647,0,0,1,1,2,2,3,3,4,4,5,5,6,6,7,7,8,8,9,9,10,10,11,11,12,12,13,13,14,14],"right_children":[2,4,6,8,10,12,14,16,18,20,22,24,26,28,30,-1,-1,-1,-1,-1,-1,-1,-1,-1,-1,-1,-1,-1,-1,-1,-1],"split_conditions":[1.7E1,1.3E1,2E0,1E1,6E0,1.9E1,2.2E1,5E0,6E0,1.6E1,1.5E1,1.8E1,2E1,7E0,6E0,-1.5426814E-2,3.2237854E-2,-9.986066E-2,6.6264085E-2,7.548768E-2,1.8576162E-1,5.243656E-2,-1.1852169E-1,-5.498693E-2,-2.3649804E-1,1.1492528E-1,-6.852555E-2,2.5672683E-2,-1.6252406E-2,-3.7263025E-2,-3.2910581E-3],"split_indices":[1,1,0,1,0,1,1,1,0,1,1,1,1,0,0,0,0,0,0,0,0,0,0,0,0,0,0,0,0,0,0],"split_type":[0,0,0,0,0,0,0,0,0,0,0,0,0,0,0,0,0,0,0,0,0,0,0,0,0,0,0,0,0,0,0],"sum_hessian":[2.509E3,1.475E3,1.034E3,1.111E3,3.64E2,1.99E2,8.35E2,7.54E2,3.57E2,2.31E2,1.33E2,6.7E1,1.32E2,6.06E2,2.29E2,3.75E2,3.79E2,2.16E2,1.41E2,1.83E2,4.8E1,4.5E1,8.8E1,4.7E1,2E1,2.1E1,1.11E2,4.21E2,1.85E2,1.13E2,1.16E2],"tree_param":{"num_deleted":"0","num_feature":"2","num_nodes":"31","size_leaf_vector":"1"}},{"base_weights":[-1.9361591E-3,3.1980656E-2,-1.5038162E-1,-1.7601697E-2,2.6474908E-1,1.348059E-1,-2.61972E-1,8.76907E-2,-2.8465873E-1,8.982879E-1,-5.312344E-2,-5.042234E-1,6.909328E-1,-2.5107905E-1,-9.641533E-2,-1.4303659E-2,6.0985576E-2,-2.1397443E-1,-1.987912E-2,-2.092146E-2,1.6395287E-1,-1.0629883E-1,6.1584305E-2,-1.0815048E-2,-1.394907E-1,4.7888316E-2,1.0619489E-1,1.7890255E-1,-2.376552E-2],"categories":[],"categories_nodes":[],"categories_segments":[],"categories_sizes":[],"default_left":[0,0,0,0,0,0,0,0,0,0,0,0,0,0,0,0,0,0,0,0,0,0,0,0,0,0,0,0,0],"id":45,"left_children":[1,3,5,7,9,11,13,15,17,19,21,23,25,-1,27,-1,-1,-1,-1,-1,-1,-1,-1,-1,-1,-1,-1,-1,-1],"loss_changes":[1.2642152E1,2.3594885E1,1.489721E1,4.7433723E1,7.234479E1,4.7258728E1,1.24853065E2,1.4586528E2,7.555673E1,9.885411E1,1.627904E2,2.172123E1,5.077297E0,0E0,8.404318E1,0E0,0E0,0E0,0E0,0E0,0E0,0E0,0E0,0E0,0E0,0E0,0E0,0E0,0E0],"parents":[2147483647,0,0,1,1,2,2,3,3,4,4,5,5,6,6,7,7,8,8,9,9,10,10,11,11,12,12,14,14],"right_children":[2,4,6,8,10,12,14,16,18,20,22,24,26,-1,28,-1,-1,-1,-1,-1,-1,-1,-1,-1,-1,-1,-1,-1,-1],"split_conditions":[7E0,6E0,1.2E1,1.8E1,1.3E1,8E0,1.3E1,1.3E1,1.9E1,5E0,1.8E1,5E0,1.1E1,-2.5107905E-1,1.5E1,-1.4303659E-2,6.0985576E-2,-2.1397443E-1,-1.987912E-2,-2.092146E-2,1.6395287E-1,-1.0629883E-1,6.1584305E-2,-1.0815048E-2,-1.394907E-1,4.7888316E-2,1.0619489E-1,1.7890255E-1,-2.376552E-2],"split_indices":[0,0,1,1,1,1,1,1,1,1,1,1,1,0,1,0,0,0,0,0,0,0,0,0,0,0,0,0,0],"split_type":[0,0,0,0,0,0,0,0,0,0,0,0,0,0,0,0,0,0,0,0,0,0,0,0,0,0,0,0,0],"sum_hessian":[2.509E3,2.043E3,4.66E2,1.685E3,3.58E2,1.31E2,3.35E2,1.209E3,4.76E2,1.19E2,2.39E2,6.1E1,7E1,2.2E1,3.13E2,8.39E2,3.7E2,2E1,4.56E2,4.8E1,7.1E1,9.5E1,1.44E2,4.3E1,1.8E1,4.6E1,2.4E1,2.1E1,2.92E2],"tree_param":{"num_deleted":"0","num_feature":"2","num_nodes":"29","size_leaf_vector":"1"}},{"base_weights":[-1.814784E-3,1.4151901E-2,-2.8728065E-1,-7.282357E-2,6.275998E-2,-8.832013E-2,-3.7813804E-1,9.25873E-2,-1.3335547E0,2.8198785E-1,-2.12945E-2,-2.2315208E-2,5.052636E-3,-5.1059034E-2,-2.3139594E-2,3.481027E-2,-1.1535588E-2,-6.2387055E-1,3.1927638E-2,9.325309E-3,9.792703E-2,-4.199414E-2,6.736626E-3],"categories":[],"categories_nodes":[],"categories_segments":[],"categories_sizes":[],"default_left":[0,0,0,0,0,0,0,0,0,0,0,0,0,0,0,0,0,0,0,0,0,0,0],"id":46,"left_children":[1,3,5,7,9,11,13,15,17,19,21,-1,-1,-1,-1,-1,-1,-1,-1,-1,-1,-1,-1],"loss_changes":[1.1444505E1,1.0058065E1,2.3708477E0,1.7800693E2,2.8125732E1,8.162756E-1,1.6505575E0,4.015533E1,8.046231E2,5.557608E1,3.9048435E1,0E0,0E0,0E0,0E0,0E0,0E0,0E0,0E0,0E0,0E0,0E0,0E0],"parents":[2147483647,0,0,1,1,2,2,3,3,4,4,5,5,6,6,7,7,8,8,9,9,10,10],"right_children":[2,4,6,8,10,12,14,16,18,20,22,-1,-1,-1,-1,-1,-1,-1,-1,-1,-1,-1,-1],"split_conditions":[2.3E1,1.1E1,3E0,1E1,1.5E1,2E0,7E0,3E0,3E0,1.4E1,2E0,-2.2315208E-2,5.052636E-3,-5.1059034E-2,-2.3139594E-2,3.481027E-2,-1.1535588E-2,-6.2387055E-1,3.1927638E-2,9.325309E-3,9.792703E-2,-4.199414E-2,6.736626E-3],"split_indices":[1,1,0,1,1,0,0,0,0,1,0,0,0,0,0,0,0,0,0,0,0,0,0],"split_type":[0,0,0,0,0,0,0,0,0,0,0,0,0,0,0,0,0,0,0,0,0,0,0],"sum_hessian":[2.509E3,2.377E3,1.32E2,8.52E2,1.525E3,4.2E1,9E1,7.54E2,9.8E1,4.22E2,1.103E3,2.1E1,2.1E1,4.6E1,4.4E1,3.38E2,4.16E2,2.4E1,7.4E1,3.33E2,8.9E1,2E2,9.03E2],"tree_param":{"num_deleted":"0","num_feature":"2","num_nodes":"23","size_leaf_vector":"1"}},{"base_weights":[-1.8676884E-3,3.0115684E-2,-1.4185087E-1,-1.3749365E-2,2.3603868E-1,-3.544362E-2,-3.979016E-1,7.7867866E-2,-2.4612483E-1,8.040387E-1,-4.894481E-2,-2.5332052E-1,5.4196054E-1,-6.6651136E-1,-9.884393E-2,-1.2382285E-2,5.343162E-2,-1.8959652E-1,-1.6977303E-2,-1.7741984E-2,1.4608085E-1,-9.651107E-2,5.5795778E-2,-3.918713E-3,-1.21116355E-1,9.952971E-2,7.684223E-3,-3.5305057E-2,-1.207517E-1,1.3049913E-2,-2.0877067E-2],"categories":[],"categories_nodes":[],"categories_segments":[],"categories_sizes":[],"default_left":[0,0,0,0,0,0,0,0,0,0,0,0,0,0,0,0,0,0,0,0,0,0,0,0,0,0,0,0,0,0,0],"id":47,"left_children":[1,3,5,7,9,11,13,15,17,19,21,23,25,27,29,-1,-1,-1,-1,-1,-1,-1,-1,-1,-1,-1,-1,-1,-1,-1,-1],"loss_changes":[1.12418785E1,1.8466333E1,1.2709619E1,3.591342E1,5.815091E1,4.17781E1,1.0939302E1,1.11460434E2,5.976499E1,7.761025E1,1.3398412E2,4.9383133E1,1.911134E1,1.1783735E1,1.6911659E0,0E0,0E0,0E0,0E0,0E0,0E0,0E0,0E0,0E0,0E0,0E0,0E0,0E0,0E0,0E0,0E0],"parents":[2147483647,0,0,1,1,2,2,3,3,4,4,5,5,6,6,7,7,8,8,9,9,10,10,11,11,12,12,13,13,14,14],"right_children":[2,4,6,8,10,12,14,16,18,20,22,24,26,28,30,-1,-1,-1,-1,-1,-1,-1,-1,-1,-1,-1,-1,-1,-1,-1,-1],"split_conditions":[7E0,6E0,2E1,1.8E1,1.3E1,1.8E1,2.2E1,1.3E1,1.9E1,5E0,1.8E1,1.6E1,1.9E1,2.1E1,2.3E1,-1.2382285E-2,5.343162E-2,-1.8959652E-1,-1.6977303E-2,-1.7741984E-2,1.4608085E-1,-9.651107E-2,5.5795778E-2,-3.918713E-3,-1.21116355E-1,9.952971E-2,7.684223E-3,-3.5305057E-2,-1.207517E-1,1.3049913E-2,-2.0877067E-2],"split_indices":[0,0,1,1,1,1,1,1,1,1,1,1,1,1,1,0,0,0,0,0,0,0,0,0,0,0,0,0,0,0,0],"split_type":[0,0,0,0,0,0,0,0,0,0,0,0,0,0,0,0,0,0,0,0,0,0,0,0,0,0,0,0,0,0,0],"sum_hessian":[2.509E3,2.043E3,4.66E2,1.685E3,3.58E2,3.3E2,1.36E2,1.209E3,4.76E2,1.19E2,2.39E2,2.4E2,9E1,7.1E1,6.5E1,8.39E2,3.7E2,2E1,4.56E2,4.8E1,7.1E1,9.5E1,1.44E2,1.97E2,4.3E1,4.5E1,4.5E1,4.6E1,2.5E1,2.1E1,4.4E1],"tree_param":{"num_deleted":"0","num_feature":"2","num_nodes":"31","size_leaf_vector":"1"}},{"base_weights":[-1.7843076E-3,9.51356E-2,-4.345444E-2,-1.20938346E-1,3.0868474E-1,-1.2359886E0,2.7778579E-2,-4.751552E-1,5.056307E-4,6.416108E-1,-1.6315833E-1,-5.627903E-1,2.4446249E-1,1.9186532E-1,-7.117592E-2,-1.9711433E-2,-7.3782474E-2,4.3696187E-2,-1.4636119E-2,2.5926033E-1,3.932871E-2,-1.21246554E-1,1.5497741E-3,-7.5586945E-2,7.597458E-2,6.892971E-2,-5.4929494E-3,-3.423953E-2,9.951422E-3],"categories":[],"categories_nodes":[],"categories_segments":[],"categories_sizes":[],"default_left":[0,0,0,0,0,0,0,0,0,0,0,0,0,0,0,0,0,0,0,0,0,0,0,0,0,0,0,0,0],"id":48,"left_children":[1,3,5,7,9,11,13,15,17,19,21,-1,23,25,27,-1,-1,-1,-1,-1,-1,-1,-1,-1,-1,-1,-1,-1,-1],"loss_changes":[1.0141184E1,3.4874847E1,1.492027E2,1.6174822E1,5.9798454E1,6.450752E2,2.6934805E1,6.865719E0,1.8076317E1,1.0701888E2,2.9638277E1,0E0,3.9233345E1,7.664233E1,4.7948853E1,0E0,0E0,0E0,0E0,0E0,0E0,0E0,0E0,0E0,0E0,0E0,0E0,0E0,0E0],"parents":[2147483647,0,0,1,1,2,2,3,3,4,4,5,5,6,6,7,7,8,8,9,9,10,10,12,12,13,13,14,14],"right_children":[2,4,6,8,10,12,14,16,18,20,22,-1,24,26,28,-1,-1,-1,-1,-1,-1,-1,-1,-1,-1,-1,-1,-1,-1],"split_conditions":[1E1,5E0,1.1E1,2E0,4E0,3E0,1.7E1,1E0,3E0,6E0,6E0,-5.627903E-1,5E0,3E0,4E0,-1.9711433E-2,-7.3782474E-2,4.3696187E-2,-1.4636119E-2,2.5926033E-1,3.932871E-2,-1.21246554E-1,1.5497741E-3,-7.5586945E-2,7.597458E-2,6.892971E-2,-5.4929494E-3,-3.423953E-2,9.951422E-3],"split_indices":[1,1,1,0,0,0,1,1,0,1,1,0,0,0,0,0,0,0,0,0,0,0,0,0,0,0,0,0,0],"split_type":[0,0,0,0,0,0,0,0,0,0,0,0,0,0,0,0,0,0,0,0,0,0,0,0,0,0,0,0,0],"sum_hessian":[2.509E3,7.54E2,1.755E3,3.75E2,3.79E2,9.8E1,1.657E3,9.5E1,2.8E2,2.22E2,1.57E2,2.4E1,7.4E1,6.23E2,1.034E3,4.7E1,4.8E1,7E1,2.1E2,2.4E1,1.98E2,2.2E1,1.35E2,2.5E1,4.9E1,2.06E2,4.17E2,3.99E2,6.35E2],"tree_param":{"num_deleted":"0","num_feature":"2","num_nodes":"29","size_leaf_vector":"1"}},{"base_weights":[-1.768809E-3,2.8623756E-2,-1.3478944E-1,-2.2800575E-1,5.489383E-2,1.1647942E-1,-2.3310104E-1,-3.662694E-1,3.68011E-3,2.8674528E-1,-5.6264503E-3,-4.3131927E-1,5.9319824E-1,-2.2705455E-1,-8.3119124E-2,-1.7781345E-2,-4.8681967E-2,-6.3977535E-3,4.1029444E-3,7.400338E-2,-1.703976E-2,-5.9823215E-2,7.3756934E-3,-6.8174647E-3,-1.2495847E-1,1.0371585E-1,3.727027E-2,1.5337647E-1,-2.042397E-2],"categories":[],"categories_nodes":[],"categories_segments":[],"categories_sizes":[],"default_left":[0,0,0,0,0,0,0,0,0,0,0,0,0,0,0,0,0,0,0,0,0,0,0,0,0,0,0,0,0],"id":49,"left_children":[1,3,5,7,9,11,13,15,17,19,21,23,25,-1,27,-1,-1,-1,-1,-1,-1,-1,-1,-1,-1,-1,-1,-1,-1],"loss_changes":[1.0151382E1,1.3792501E1,1.1563287E1,6.087758E0,2.6030443E1,3.4727123E1,1.024861E2,2.6169271E0,1.8456665E-1,7.969766E1,6.929148E1,1.8338028E1,6.5637283E0,0E0,6.1806347E1,0E0,0E0,0E0,0E0,0E0,0E0,0E0,0E0,0E0,0E0,0E0,0E0,0E0,0E0],"parents":[2147483647,0,0,1,1,2,2,3,3,4,4,5,5,6,6,7,7,8,8,9,9,10,10,11,11,12,12,14,14],"right_children":[2,4,6,8,10,12,14,16,18,20,22,24,26,-1,28,-1,-1,-1,-1,-1,-1,-1,-1,-1,-1,-1,-1,-1,-1],"split_conditions":[7E0,3E0,1.2E1,4E0,9E0,8E0,1.3E1,2E0,5E0,3E0,1.1E1,5E0,1E1,-2.2705455E-1,1.5E1,-1.7781345E-2,-4.8681967E-2,-6.3977535E-3,4.1029444E-3,7.400338E-2,-1.703976E-2,-5.9823215E-2,7.3756934E-3,-6.8174647E-3,-1.2495847E-1,1.0371585E-1,3.727027E-2,1.5337647E-1,-2.042397E-2],"split_indices":[0,1,1,0,1,1,1,0,0,0,1,1,1,0,1,0,0,0,0,0,0,0,0,0,0,0,0,0,0],"split_type":[0,0,0,0,0,0,0,0,0,0,0,0,0,0,0,0,0,0,0,0,0,0,0,0,0,0,0,0,0],"sum_hessian":[2.509E3,2.043E3,4.66E2,1.89E2,1.854E3,1.31E2,3.35E2,1.18E2,7.1E1,3.83E2,1.471E3,6.1E1,7E1,2.2E1,3.13E2,4.7E1,7.1E1,2.5E1,4.6E1,1.92E2,1.91E2,1.73E2,1.298E3,4.3E1,1.8E1,2.2E1,4.8E1,2.1E1,2.92E2],"tree_param":{"num_deleted":"0","num_feature":"2","num_nodes":"29","size_leaf_vector":"1"}}]},"name":"gbtree"},"learner_model_param":{"base_score":"[1.38612995E1]","boost_from_average":"1","num_class":"0","num_feature":"2","num_target":"1"},"objective":{"name":"reg:squarederror","reg_loss_param":{"scale_pos_weight":"1"}}},"version":[3,2,0]}