{"learner":{"attributes":{},"feature_names":["day_of_week","hour_of_day"],"feature_types":[],"gradient_booster":{"model":{"cats":{"enc":[],"feature_segments":[],"sorted_idx":[]},"gbtree_model_param":{"num_parallel_tree":"1","num_trees":"50"},"iteration_indptr":[0,1,2,3,4,5,6,7,8,9,10,11,12,13,14,15,16,17,18,19,20,21,22,23,24,25,26,27,28,29,30,31,32,33,34,35,36,37,38,39,40,41,42,43,44,45,46,47,48,49,50],"tree_info":[0,0,0,0,0,0,0,0,0,0,0,0,0,0,0,0,0,0,0,0,0,0,0,0,0,0,0,0,0,0,0,0,0,0,0,0,0,0,0,0,0,0,0,0,0,0,0,0,0,0],"trees":[{"base_weights":[-2.6140555E-7,-1.1111479E1,9.982967E-1,-1.2107447E0,-8.065357E-1,3.155083E0,-5.359285E0,-3.356904E0,3.8155122E0,-2.443917E0,-8.626211E0,-1.4933883E-1,-7.635172E-1,4.5784312E-1,1.7761914E-2,-5.104242E-1,-8.047343E-2,-1.1299157E0,-6.5753645E-1],"categories":[],"categories_nodes":[],"categories_segments":[],"categories_sizes":[],"default_left":[0,0,0,0,0,0,0,0,0,0,0,0,0,0,0,0,0,0,0],"id":0,"left_children":[1,3,5,-1,-1,7,9,11,13,15,17,-1,-1,-1,-1,-1,-1,-1,-1],"loss_changes":[2.7853406E4,5.303535E2,3.1609232E4,0E0,0E0,7.4143223E3,5.5411074E3,1.2562444E3,4.337168E3,1.3477275E3,1.4331992E3,0E0,0E0,0E0,0E0,0E0,0E0,0E0,0E0],"parents":[2147483647,0,0,1,1,2,2,5,5,6,6,7,7,8,8,9,9,10,10],"right_children":[2,4,6,-1,-1,8,10,12,14,16,18,-1,-1,-1,-1,-1,-1,-1,-1],"split_conditions":[3E0,6E0,2E1,-1.2107447E0,-8.065357E-1,5E0,2.2E1,6E0,1.8E1,4E0,4E0,-1.4933883E-1,-7.635172E-1,4.5784312E-1,1.7761914E-2,-5.104242E-1,-8.047343E-2,-1.1299157E0,-6.5753645E-1],"split_indices":[1,0,1,0,0,1,1,0,1,0,0,0,0,0,0,0,0,0,0],"split_type":[0,0,0,0,0,0,0,0,0,0,0,0,0,0,0,0,0,0,0],"sum_hessian":[2.509E3,2.06E2,2.303E3,1.53E2,5.3E1,1.72E3,5.83E2,1.58E2,1.562E3,3.09E2,2.74E2,1.11E2,4.7E1,1.291E3,2.71E2,1.17E2,1.92E2,1.17E2,1.57E2],"tree_param":{"num_deleted":"0","num_feature":"2","num_nodes":"19","size_leaf_vector":"1"}},{"base_weights":[-1.9255962E-3,-1.00100765E1,8.9724505E-1,-1.0904564E0,-7.2737575E-1,2.8393207E0,-4.827429E0,-3.026955E0,3.4342654E0,-2.2014308E0,-7.77009E0,-1.3453831E-1,-6.8875617E-1,4.1209427E-1,1.5992234E-2,-4.598143E-1,-7.246773E-2,-9.790619E-1,-5.507013E-1],"categories":[],"categories_nodes":[],"categories_segments":[],"categories_sizes":[],"default_left":[0,0,0,0,0,0,0,0,0,0,0,0,0,0,0,0,0,0,0],"id":1,"left_children":[1,3,5,-1,-1,7,9,11,13,15,17,-1,-1,-1,-1,-1,-1,-1,-1],"loss_changes":[2.2596559E4,4.273379E2,2.5629002E4,0E0,0E0,6.016875E3,4.495709E3,1.02294385E3,3.5136152E3,1.0938673E3,1.2035508E3,0E0,0E0,0E0,0E0,0E0,0E0,0E0,0E0],"parents":[2147483647,0,0,1,1,2,2,5,5,6,6,7,7,8,8,9,9,10,10],"right_children":[2,4,6,-1,-1,8,10,12,14,16,18,-1,-1,-1,-1,-1,-1,-1,-1],"split_conditions":[3E0,6E0,2E1,-1.0904564E0,-7.2737575E-1,5E0,2.2E1,6E0,1.8E1,4E0,5E0,-1.3453831E-1,-6.8875617E-1,4.1209427E-1,1.5992234E-2,-4.598143E-1,-7.246773E-2,-9.790619E-1,-5.507013E-1],"split_indices":[1,0,1,0,0,1,1,0,1,0,0,0,0,0,0,0,0,0,0],"split_type":[0,0,0,0,0,0,0,0,0,0,0,0,0,0,0,0,0,0,0],"sum_hessian":[2.509E3,2.06E2,2.303E3,1.53E2,5.3E1,1.72E3,5.83E2,1.58E2,1.562E3,3.09E2,2.74E2,1.11E2,4.7E1,1.291E3,2.71E2,1.17E2,1.92E2,1.43E2,1.31E2],"tree_param":{"num_deleted":"0","num_feature":"2","num_nodes":"19","size_leaf_vector":"1"}},{"base_weights":[-3.4361877E-3,-9.017851E0,8.064541E-1,-9.821189E-1,-6.5598516E0,2.555159E0,-4.348217E0,-7.448331E-1,-5.5370826E-1,-2.729437E0,3.0911129E0,-1.9830049E0,-6.998644E0,-1.21204555E-1,-6.213154E-1,3.7091675E-1,1.4398888E-2,-3.864853E-1,-4.5068014E-2,-9.208053E-1,-5.304284E-1],"categories":[],"categories_nodes":[],"categories_segments":[],"categories_sizes":[],"default_left":[0,0,0,0,0,0,0,0,0,0,0,0,0,0,0,0,0,0,0,0,0],"id":2,"left_children":[1,3,5,-1,7,9,11,-1,-1,13,15,17,19,-1,-1,-1,-1,-1,-1,-1,-1],"loss_changes":[1.8331998E4,3.4431836E2,2.0779363E4,0E0,7.828369E0,4.882824E3,3.6471143E3,0E0,0E0,8.3296924E2,2.8464434E3,8.921748E2,9.806299E2,0E0,0E0,0E0,0E0,0E0,0E0,0E0,0E0],"parents":[2147483647,0,0,1,1,2,2,4,4,5,5,6,6,9,9,10,10,11,11,12,12],"right_children":[2,4,6,-1,8,10,12,-1,-1,14,16,18,20,-1,-1,-1,-1,-1,-1,-1,-1],"split_conditions":[3E0,6E0,2E1,-9.821189E-1,7E0,5E0,2.2E1,-7.448331E-1,-5.5370826E-1,6E0,1.8E1,5E0,4E0,-1.21204555E-1,-6.213154E-1,3.7091675E-1,1.4398888E-2,-3.864853E-1,-4.5068014E-2,-9.208053E-1,-5.304284E-1],"split_indices":[1,0,1,0,0,1,1,0,0,0,1,0,0,0,0,0,0,0,0,0,0],"split_type":[0,0,0,0,0,0,0,0,0,0,0,0,0,0,0,0,0,0,0,0,0],"sum_hessian":[2.509E3,2.06E2,2.303E3,1.53E2,5.3E1,1.72E3,5.83E2,2.5E1,2.8E1,1.58E2,1.562E3,3.09E2,2.74E2,1.11E2,4.7E1,1.291E3,2.71E2,1.38E2,1.71E2,1.17E2,1.57E2],"tree_param":{"num_deleted":"0","num_feature":"2","num_nodes":"21","size_leaf_vector":"1"}},{"base_weights":[-4.89327E-3,-8.127084E0,7.248369E-1,-8.845448E-1,-5.9279137E0,2.6472697E0,-3.1084867E0,-6.7321455E-1,-5.0024676E-1,-2.4611635E0,3.23521E0,-1.3304821E0,-6.3040566E0,-1.09192334E-1,-5.604784E-1,3.784785E-1,7.904954E-2,-3.0825737E-1,-2.962478E-2,-7.97443E-1,-4.4340736E-1],"categories":[],"categories_nodes":[],"categories_segments":[],"categories_sizes":[],"default_left":[0,0,0,0,0,0,0,0,0,0,0,0,0,0,0,0,0,0,0,0,0],"id":3,"left_children":[1,3,5,-1,7,9,11,-1,-1,13,15,17,19,-1,-1,-1,-1,-1,-1,-1,-1],"loss_changes":[1.4882679E4,2.7458496E2,1.6987111E4,0E0,6.5133057E0,4.6182627E3,4.3665503E3,0E0,0E0,6.78275E2,1.847082E3,8.978751E2,8.2362305E2,0E0,0E0,0E0,0E0,0E0,0E0,0E0,0E0],"parents":[2147483647,0,0,1,1,2,2,4,4,5,5,6,6,9,9,10,10,11,11,12,12],"right_children":[2,4,6,-1,8,10,12,-1,-1,14,16,18,20,-1,-1,-1,-1,-1,-1,-1,-1],"split_conditions":[3E0,6E0,1.9E1,-8.845448E-1,7E0,5E0,2.2E1,-6.7321455E-1,-5.0024676E-1,6E0,7E0,4E0,5E0,-1.09192334E-1,-5.604784E-1,3.784785E-1,7.904954E-2,-3.0825737E-1,-2.962478E-2,-7.97443E-1,-4.4340736E-1],"split_indices":[1,0,1,0,0,1,1,0,0,0,0,0,0,0,0,0,0,0,0,0,0],"split_type":[0,0,0,0,0,0,0,0,0,0,0,0,0,0,0,0,0,0,0,0,0],"sum_hessian":[2.509E3,2.06E2,2.303E3,1.53E2,5.3E1,1.534E3,7.69E2,2.5E1,2.8E1,1.58E2,1.376E3,4.95E2,2.74E2,1.11E2,4.7E1,1.123E3,2.53E2,1.83E2,3.12E2,1.43E2,1.31E2],"tree_param":{"num_deleted":"0","num_feature":"2","num_nodes":"21","size_leaf_vector":"1"}},{"base_weights":[-5.937247E-3,-7.3243175E0,6.5157604E-1,-7.966648E-1,-5.3568525E0,2.0770843E0,-3.5503953E0,-6.084823E-1,-4.5194706E-1,-2.2192593E0,2.5128114E0,-1.6514062E0,-5.678163E0,-9.8370634E-2,-5.055982E-1,2.9120216E-1,-4.402628E-2,-7.441012E-2,-4.4843742E-1,-7.5043654E-1,-4.278353E-1],"categories":[],"categories_nodes":[],"categories_segments":[],"categories_sizes":[],"default_left":[0,0,0,0,0,0,0,0,0,0,0,0,0,0,0,0,0,0,0,0,0],"id":4,"left_children":[1,3,5,-1,7,9,11,-1,-1,13,15,17,19,-1,-1,-1,-1,-1,-1,-1,-1],"loss_changes":[1.2082722E4,2.1892285E2,1.3808207E4,0E0,5.4176025E0,3.2273462E3,2.3503389E3,0E0,0E0,5.523088E2,1.8438975E3,7.9347656E2,6.7088574E2,0E0,0E0,0E0,0E0,0E0,0E0,0E0,0E0],"parents":[2147483647,0,0,1,1,2,2,4,4,5,5,6,6,9,9,10,10,11,11,12,12],"right_children":[2,4,6,-1,8,10,12,-1,-1,14,16,18,20,-1,-1,-1,-1,-1,-1,-1,-1],"split_conditions":[3E0,6E0,2E1,-7.966648E-1,7E0,5E0,2.2E1,-6.084823E-1,-4.5194706E-1,6E0,1.9E1,7E0,4E0,-9.8370634E-2,-5.055982E-1,2.9120216E-1,-4.402628E-2,-7.441012E-2,-4.4843742E-1,-7.5043654E-1,-4.278353E-1],"split_indices":[1,0,1,0,0,1,1,0,0,0,1,0,0,0,0,0,0,0,0,0,0],"split_type":[0,0,0,0,0,0,0,0,0,0,0,0,0,0,0,0,0,0,0,0,0],"sum_hessian":[2.509E3,2.06E2,2.303E3,1.53E2,5.3E1,1.72E3,5.83E2,2.5E1,2.8E1,1.58E2,1.562E3,3.09E2,2.74E2,1.11E2,4.7E1,1.376E3,1.86E2,2.35E2,7.4E1,1.17E2,1.57E2],"tree_param":{"num_deleted":"0","num_feature":"2","num_nodes":"21","size_leaf_vector":"1"}},{"base_weights":[-6.9034295E-3,-6.600857E0,5.855251E-1,-7.175155E-1,-4.840805E0,1.8691682E0,-3.1982684E0,-5.499744E-1,-4.083108E-1,-2.001132E0,2.261688E0,-1.487952E0,-5.114631E0,-8.862142E-2,-4.560917E-1,2.718045E-1,8.567799E-3,-3.1433293E-1,-1.4152534E-2,-6.4955467E-1,-3.5694313E-1],"categories":[],"categories_nodes":[],"categories_segments":[],"categories_sizes":[],"default_left":[0,0,0,0,0,0,0,0,0,0,0,0,0,0,0,0,0,0,0,0,0],"id":5,"left_children":[1,3,5,-1,7,9,11,-1,-1,13,15,17,19,-1,-1,-1,-1,-1,-1,-1,-1],"loss_changes":[9.809045E3,1.7450098E2,1.11966E4,0E0,4.504883E0,2.6190176E3,1.9065005E3,0E0,0E0,4.497362E2,1.5518848E3,6.904967E2,5.6360645E2,0E0,0E0,0E0,0E0,0E0,0E0,0E0,0E0],"parents":[2147483647,0,0,1,1,2,2,4,4,5,5,6,6,9,9,10,10,11,11,12,12],"right_children":[2,4,6,-1,8,10,12,-1,-1,14,16,18,20,-1,-1,-1,-1,-1,-1,-1,-1],"split_conditions":[3E0,6E0,2E1,-7.175155E-1,7E0,5E0,2.2E1,-5.499744E-1,-4.083108E-1,6E0,1.8E1,5E0,5E0,-8.862142E-2,-4.560917E-1,2.718045E-1,8.567799E-3,-3.1433293E-1,-1.4152534E-2,-6.4955467E-1,-3.5694313E-1],"split_indices":[1,0,1,0,0,1,1,0,0,0,1,0,0,0,0,0,0,0,0,0,0],"split_type":[0,0,0,0,0,0,0,0,0,0,0,0,0,0,0,0,0,0,0,0,0],"sum_hessian":[2.509E3,2.06E2,2.303E3,1.53E2,5.3E1,1.72E3,5.83E2,2.5E1,2.8E1,1.58E2,1.562E3,3.09E2,2.74E2,1.11E2,4.7E1,1.291E3,2.71E2,1.38E2,1.71E2,1.43E2,1.31E2],"tree_param":{"num_deleted":"0","num_feature":"2","num_nodes":"21","size_leaf_vector":"1"}},{"base_weights":[-7.5180796E-3,-5.948867E0,5.262782E-1,-6.4622986E-1,-4.37447E0,1.9352597E0,-2.283219E0,-4.9709225E-1,-3.6888766E-1,1.2166773E-1,3.1640089E0,-9.903245E-1,-4.606828E0,7.4335515E-2,-3.5545477E-1,3.87509E-1,1.4509632E-1,-2.516083E-1,-9.022902E-3,-3.8062522E-1,-7.240414E-1],"categories":[],"categories_nodes":[],"categories_segments":[],"categories_sizes":[],"default_left":[0,0,0,0,0,0,0,0,0,0,0,0,0,0,0,0,0,0,0,0,0],"id":6,"left_children":[1,3,5,-1,7,9,11,-1,-1,13,15,17,19,-1,-1,-1,-1,-1,-1,-1,-1],"loss_changes":[7.96352E3,1.390581E2,9.124871E3,0E0,3.744873E0,3.4202847E3,2.3086575E3,0E0,0E0,1.4219109E3,1.1089521E3,6.809438E2,5.522471E2,0E0,0E0,0E0,0E0,0E0,0E0,0E0,0E0],"parents":[2147483647,0,0,1,1,2,2,4,4,5,5,6,6,9,9,10,10,11,11,12,12],"right_children":[2,4,6,-1,8,10,12,-1,-1,14,16,18,20,-1,-1,-1,-1,-1,-1,-1,-1],"split_conditions":[3E0,6E0,1.9E1,-6.4622986E-1,7E0,1.1E1,2.2E1,-4.9709225E-1,-3.6888766E-1,7E0,1.7E1,4E0,7E0,7.4335515E-2,-3.5545477E-1,3.87509E-1,1.4509632E-1,-2.516083E-1,-9.022902E-3,-3.8062522E-1,-7.240414E-1],"split_indices":[1,0,1,0,0,1,1,0,0,0,1,0,0,0,0,0,0,0,0,0,0],"split_type":[0,0,0,0,0,0,0,0,0,0,0,0,0,0,0,0,0,0,0,0,0],"sum_hessian":[2.509E3,2.06E2,2.303E3,1.53E2,5.3E1,1.534E3,7.69E2,2.5E1,2.8E1,6.2E2,9.14E2,4.95E2,2.74E2,5.31E2,8.9E1,6.45E2,2.69E2,1.83E2,3.12E2,2.12E2,6.2E1],"tree_param":{"num_deleted":"0","num_feature":"2","num_nodes":"21","size_leaf_vector":"1"}},{"base_weights":[-7.8123454E-3,-5.361285E0,4.7316715E-1,-5.8202654E-1,-3.95306E0,1.5199119E0,-2.612314E0,-4.492949E-1,-3.3327088E-1,-1.8080324E0,1.8574828E0,-1.723299E0,-5.446043E0,-8.7205574E-2,-3.954311E-1,2.2683477E-1,1.3440612E-2,-3.4419665E-1,-1.6550845E-2,-4.401884E-1,-7.6004356E-1],"categories":[],"categories_nodes":[],"categories_segments":[],"categories_sizes":[],"default_left":[0,0,0,0,0,0,0,0,0,0,0,0,0,0,0,0,0,0,0,0,0],"id":7,"left_children":[1,3,5,-1,7,9,11,-1,-1,13,15,17,19,-1,-1,-1,-1,-1,-1,-1,-1],"loss_changes":[6.4655625E3,1.1078613E2,7.4452256E3,0E0,3.1119995E0,1.936759E3,1.4618438E3,0E0,0E0,3.159615E2,1.1062241E3,1.1935166E3,2.7922803E2,0E0,0E0,0E0,0E0,0E0,0E0,0E0,0E0],"parents":[2147483647,0,0,1,1,2,2,4,4,5,5,6,6,9,9,10,10,11,11,12,12],"right_children":[2,4,6,-1,8,10,12,-1,-1,14,16,18,20,-1,-1,-1,-1,-1,-1,-1,-1],"split_conditions":[3E0,6E0,2E1,-5.8202654E-1,7E0,5E0,2.3E1,-4.492949E-1,-3.3327088E-1,6E0,7E0,5E0,7E0,-8.7205574E-2,-3.954311E-1,2.2683477E-1,1.3440612E-2,-3.4419665E-1,-1.6550845E-2,-4.401884E-1,-7.6004356E-1],"split_indices":[1,0,1,0,0,1,1,0,0,0,0,0,0,0,0,0,0,0,0,0,0],"split_type":[0,0,0,0,0,0,0,0,0,0,0,0,0,0,0,0,0,0,0,0,0],"sum_hessian":[2.509E3,2.06E2,2.303E3,1.53E2,5.3E1,1.72E3,5.83E2,2.5E1,2.8E1,1.58E2,1.562E3,4.45E2,1.38E2,1.11E2,4.7E1,1.261E3,3.01E2,2.11E2,2.34E2,9.5E1,4.3E1],"tree_param":{"num_deleted":"0","num_feature":"2","num_nodes":"21","size_leaf_vector":"1"}},{"base_weights":[-8.293518E-3,-4.831749E0,4.2506742E-1,-5.242018E-1,-3.5722458E0,1.5921446E0,-1.9020606E0,-4.0609345E-1,-3.01093E-1,7.456107E-3,2.6659145E0,-1.2374785E0,-4.9100738E0,5.328377E-2,-3.0982158E-1,3.302328E-1,1.13336265E-1,-2.50583E-1,-9.833336E-3,-3.9662808E-1,-6.857666E-1],"categories":[],"categories_nodes":[],"categories_segments":[],"categories_sizes":[],"default_left":[0,0,0,0,0,0,0,0,0,0,0,0,0,0,0,0,0,0,0,0,0],"id":8,"left_children":[1,3,5,-1,7,9,11,-1,-1,13,15,17,19,-1,-1,-1,-1,-1,-1,-1,-1],"loss_changes":[5.248699E3,8.823877E1,6.26055E3,0E0,2.5855713E0,2.611922E3,1.5332085E3,0E0,0E0,1.0149133E3,8.886904E2,9.1289E2,2.282998E2,0E0,0E0,0E0,0E0,0E0,0E0,0E0,0E0],"parents":[2147483647,0,0,1,1,2,2,4,4,5,5,6,6,9,9,10,10,11,11,12,12],"right_children":[2,4,6,-1,8,10,12,-1,-1,14,16,18,20,-1,-1,-1,-1,-1,-1,-1,-1],"split_conditions":[3E0,6E0,1.9E1,-5.242018E-1,7E0,1.1E1,2.3E1,-4.0609345E-1,-3.01093E-1,7E0,1.7E1,5E0,7E0,5.328377E-2,-3.0982158E-1,3.302328E-1,1.13336265E-1,-2.50583E-1,-9.833336E-3,-3.9662808E-1,-6.857666E-1],"split_indices":[1,0,1,0,0,1,1,0,0,0,1,0,0,0,0,0,0,0,0,0,0],"split_type":[0,0,0,0,0,0,0,0,0,0,0,0,0,0,0,0,0,0,0,0,0],"sum_hessian":[2.509E3,2.06E2,2.303E3,1.53E2,5.3E1,1.534E3,7.69E2,2.5E1,2.8E1,6.2E2,9.14E2,6.31E2,1.38E2,5.31E2,8.9E1,6.45E2,2.69E2,2.98E2,3.33E2,9.5E1,4.3E1],"tree_param":{"num_deleted":"0","num_feature":"2","num_nodes":"21","size_leaf_vector":"1"}},{"base_weights":[-8.415236E-3,-3.1769214E0,5.3050053E-1,-4.3545227E0,-1.6238372E0,1.7849854E0,-1.7135985E0,-4.8376903E-1,-3.4759583E0,-8.3843637E-1,-3.4226093E0,8.703318E-1,2.8369064E0,-7.3573506E-1,-3.4710774E0,-3.8522944E-1,-2.7202195E-1,-3.0152122E-2,-1.5226023E-1,-2.5685787E-1,-3.9917228E-1,1.3364765E-1,-1.6665779E-1,4.1512123E-1,1.0204458E-1,-1.8791226E-1,-6.1233393E-3,-4.7642156E-1,-2.0340855E-1],"categories":[],"categories_nodes":[],"categories_segments":[],"categories_sizes":[],"default_left":[0,0,0,0,0,0,0,0,0,0,0,0,0,0,0,0,0,0,0,0,0,0,0,0,0,0,0,0,0],"id":9,"left_children":[1,3,5,7,9,11,13,-1,15,17,19,21,23,25,27,-1,-1,-1,-1,-1,-1,-1,-1,-1,-1,-1,-1,-1,-1],"loss_changes":[4.287656E3,6.604829E2,6.044453E3,7.105469E1,2.2175882E2,1.3224023E3,1.3207485E3,0E0,1.1420654E1,4.0682884E1,1.3076843E1,8.749618E2,1.5236904E3,3.8240836E2,5.0132178E2,0E0,0E0,0E0,0E0,0E0,0E0,0E0,0E0,0E0,0E0,0E0,0E0,0E0,0E0],"parents":[2147483647,0,0,1,1,2,2,3,3,4,4,5,5,6,6,8,8,9,9,10,10,11,11,12,12,13,13,14,14],"right_children":[2,4,6,8,10,12,14,-1,16,18,20,22,24,26,28,-1,-1,-1,-1,-1,-1,-1,-1,-1,-1,-1,-1,-1,-1],"split_conditions":[5E0,3E0,1.9E1,5E0,6E0,1.3E1,2.2E1,-4.8376903E-1,7E0,3E0,7E0,7E0,1.7E1,4E0,5E0,-3.8522944E-1,-2.7202195E-1,-3.0152122E-2,-1.5226023E-1,-2.5685787E-1,-3.9917228E-1,1.3364765E-1,-1.6665779E-1,4.1512123E-1,1.0204458E-1,-1.8791226E-1,-6.1233393E-3,-4.7642156E-1,-2.0340855E-1],"split_indices":[1,1,1,0,0,1,1,0,0,0,0,0,1,0,0,0,0,0,0,0,0,0,0,0,0,0,0,0,0],"split_type":[0,0,0,0,0,0,0,0,0,0,0,0,0,0,0,0,0,0,0,0,0,0,0,0,0,0,0,0,0],"sum_hessian":[2.509E3,3.64E2,2.145E3,2.06E2,1.58E2,1.376E3,7.69E2,1.3E2,7.6E1,1.11E2,4.7E1,7.37E2,6.39E2,4.95E2,2.74E2,4.8E1,2.8E1,6.3E1,4.8E1,2.1E1,2.6E1,6.23E2,1.14E2,3.7E2,2.69E2,1.83E2,3.12E2,1.43E2,1.31E2],"tree_param":{"num_deleted":"0","num_feature":"2","num_nodes":"29","size_leaf_vector":"1"}},{"base_weights":[-8.51772E-3,-2.8646526E0,4.7726873E-1,-3.9245827E0,-1.4667268E0,1.6068383E0,-1.5433737E0,-4.2553097E-1,-2.9087214E0,-7.562214E-1,-3.0940158E0,7.8325367E-1,2.5540237E0,-9.8140246E-1,-4.08742E0,-3.300047E-1,-2.4575773E-1,-2.7183998E-2,-1.3734499E-1,-2.3233962E-1,-3.607335E-1,1.2030428E-1,-1.5013693E-1,3.73721E-1,9.187788E-2,-2.0238984E-1,-4.521187E-3,-3.1734228E-1,-5.9887E-1],"categories":[],"categories_nodes":[],"categories_segments":[],"categories_sizes":[],"default_left":[0,0,0,0,0,0,0,0,0,0,0,0,0,0,0,0,0,0,0,0,0,0,0,0,0,0,0,0,0],"id":10,"left_children":[1,3,5,7,9,11,13,-1,15,17,19,21,23,25,27,-1,-1,-1,-1,-1,-1,-1,-1,-1,-1,-1,-1,-1,-1],"loss_changes":[3.483921E3,5.350654E2,4.900631E3,5.7168945E1,1.814957E2,1.0721802E3,1.0968431E3,0E0,1.4232483E0,3.3111732E1,1.0606262E1,7.0959235E2,1.2348379E3,6.167245E2,2.2254443E2,0E0,0E0,0E0,0E0,0E0,0E0,0E0,0E0,0E0,0E0,0E0,0E0,0E0,0E0],"parents":[2147483647,0,0,1,1,2,2,3,3,4,4,5,5,6,6,8,8,9,9,10,10,11,11,12,12,13,13,14,14],"right_children":[2,4,6,8,10,12,14,-1,16,18,20,22,24,26,28,-1,-1,-1,-1,-1,-1,-1,-1,-1,-1,-1,-1,-1,-1],"split_conditions":[5E0,3E0,1.9E1,6E0,6E0,1.3E1,2.3E1,-4.2553097E-1,7E0,3E0,7E0,7E0,1.7E1,5E0,7E0,-3.300047E-1,-2.4575773E-1,-2.7183998E-2,-1.3734499E-1,-2.3233962E-1,-3.607335E-1,1.2030428E-1,-1.5013693E-1,3.73721E-1,9.187788E-2,-2.0238984E-1,-4.521187E-3,-3.1734228E-1,-5.9887E-1],"split_indices":[1,1,1,0,0,1,1,0,0,0,0,0,1,0,0,0,0,0,0,0,0,0,0,0,0,0,0,0,0],"split_type":[0,0,0,0,0,0,0,0,0,0,0,0,0,0,0,0,0,0,0,0,0,0,0,0,0,0,0,0,0],"sum_hessian":[2.509E3,3.64E2,2.145E3,2.06E2,1.58E2,1.376E3,7.69E2,1.53E2,5.3E1,1.11E2,4.7E1,7.37E2,6.39E2,6.31E2,1.38E2,2.5E1,2.8E1,6.3E1,4.8E1,2.1E1,2.6E1,6.23E2,1.14E2,3.7E2,2.69E2,2.98E2,3.33E2,9.5E1,4.3E1],"tree_param":{"num_deleted":"0","num_feature":"2","num_nodes":"29","size_leaf_vector":"1"}},{"base_weights":[-8.640325E-3,-2.5830061E0,4.2922184E-1,-3.5369616E0,-1.3248191E0,1.4464715E0,-1.390495E0,-3.9353317E-1,-2.8132803E0,-6.820684E-1,-2.7969701E0,7.0488805E-1,2.2993495E0,-5.6828165E-1,-2.8684123E0,-3.106818E-1,-2.2202936E-1,-1.2715094E-1,-2.6719755E-2,-2.1016173E-1,-3.2599625E-1,1.0829314E-1,-1.3525377E-1,3.364497E-1,8.272418E-2,-2.5225384E-3,-2.2149058E-1,-4.0342385E-1,-1.5748714E-1],"categories":[],"categories_nodes":[],"categories_segments":[],"categories_sizes":[],"default_left":[0,0,0,0,0,0,0,0,0,0,0,0,0,0,0,0,0,0,0,0,0,0,0,0,0,0,0,0,0],"id":11,"left_children":[1,3,5,7,9,11,13,-1,15,17,19,21,23,25,27,-1,-1,-1,-1,-1,-1,-1,-1,-1,-1,-1,-1,-1,-1],"loss_changes":[2.8304243E3,4.3340698E2,3.974485E3,4.860547E1,1.485422E2,8.6930444E2,9.340454E2,0E0,6.504883E0,2.7048943E1,8.602081E0,5.754783E2,1.0007451E3,4.434721E2,4.0835864E2,0E0,0E0,0E0,0E0,0E0,0E0,0E0,0E0,0E0,0E0,0E0,0E0,0E0,0E0],"parents":[2147483647,0,0,1,1,2,2,3,3,4,4,5,5,6,6,8,8,9,9,10,10,11,11,12,12,13,13,14,14],"right_children":[2,4,6,8,10,12,14,-1,16,18,20,22,24,26,28,-1,-1,-1,-1,-1,-1,-1,-1,-1,-1,-1,-1,-1,-1],"split_conditions":[5E0,3E0,1.9E1,5E0,6E0,1.3E1,2.2E1,-3.9353317E-1,7E0,2E0,7E0,7E0,1.7E1,7E0,5E0,-3.106818E-1,-2.2202936E-1,-1.2715094E-1,-2.6719755E-2,-2.1016173E-1,-3.2599625E-1,1.0829314E-1,-1.3525377E-1,3.364497E-1,8.272418E-2,-2.5225384E-3,-2.2149058E-1,-4.0342385E-1,-1.5748714E-1],"split_indices":[1,1,1,0,0,1,1,0,0,0,0,0,1,0,0,0,0,0,0,0,0,0,0,0,0,0,0,0,0],"split_type":[0,0,0,0,0,0,0,0,0,0,0,0,0,0,0,0,0,0,0,0,0,0,0,0,0,0,0,0,0],"sum_hessian":[2.509E3,3.64E2,2.145E3,2.06E2,1.58E2,1.376E3,7.69E2,1.3E2,7.6E1,1.11E2,4.7E1,7.37E2,6.39E2,4.95E2,2.74E2,4.8E1,2.8E1,4.5E1,6.6E1,2.1E1,2.6E1,6.23E2,1.14E2,3.7E2,2.69E2,3.73E2,1.22E2,1.43E2,1.31E2],"tree_param":{"num_deleted":"0","num_feature":"2","num_nodes":"29","size_leaf_vector":"1"}},{"base_weights":[-8.576869E-3,-2.3291337E0,3.8611642E-1,-3.1877398E0,-1.196677E0,9.9261683E-1,-2.101308E0,-3.5448024E-1,-2.5388706E0,-6.152355E-1,-2.5284429E0,1.3732287E0,-4.916703E-1,-1.3303088E0,-5.089151E-1,-2.8024766E-1,-2.0059203E-1,-1.4816359E-2,-1.2127328E-1,-1.901008E-1,-2.94604E-1,1.7090979E-1,1.2823306E-2,-5.92305E-1,-1.4767437E-2,-2.6087517E-1,3.0776364E-1],"categories":[],"categories_nodes":[],"categories_segments":[],"categories_sizes":[],"default_left":[0,0,0,0,0,0,0,0,0,0,0,0,0,0,0,0,0,0,0,0,0,0,0,0,0,0,0],"id":12,"left_children":[1,3,5,7,9,11,13,-1,15,17,19,21,23,25,-1,-1,-1,-1,-1,-1,-1,-1,-1,-1,-1,-1,-1],"loss_changes":[2.299829E3,3.5108728E2,3.2395928E3,3.895923E1,1.21565094E2,9.757572E2,9.630559E2,0E0,5.1960754E0,3.1076622E1,6.9762573E0,5.743269E2,6.586608E2,1.9014912E3,0E0,0E0,0E0,0E0,0E0,0E0,0E0,0E0,0E0,0E0,0E0,0E0,0E0],"parents":[2147483647,0,0,1,1,2,2,3,3,4,4,5,5,6,6,8,8,9,9,10,10,11,11,12,12,13,13],"right_children":[2,4,6,8,10,12,14,-1,16,18,20,22,24,26,-1,-1,-1,-1,-1,-1,-1,-1,-1,-1,-1,-1,-1],"split_conditions":[5E0,3E0,2.1E1,5E0,6E0,7E0,7E0,-3.5448024E-1,7E0,3E0,7E0,1.8E1,8E0,6E0,-5.089151E-1,-2.8024766E-1,-2.0059203E-1,-1.4816359E-2,-1.2127328E-1,-1.901008E-1,-2.94604E-1,1.7090979E-1,1.2823306E-2,-5.92305E-1,-1.4767437E-2,-2.6087517E-1,3.0776364E-1],"split_indices":[1,1,1,0,0,0,0,0,0,0,0,1,1,0,0,0,0,0,0,0,0,0,0,0,0,0,0],"split_type":[0,0,0,0,0,0,0,0,0,0,0,0,0,0,0,0,0,0,0,0,0,0,0,0,0,0,0],"sum_hessian":[2.509E3,3.64E2,2.145E3,2.06E2,1.58E2,1.725E3,4.2E2,1.3E2,7.6E1,1.11E2,4.7E1,1.373E3,3.52E2,3.35E2,8.5E1,4.8E1,2.8E1,6.3E1,4.8E1,2.1E1,2.6E1,1.081E3,2.92E2,2E1,3.32E2,2.6E2,7.5E1],"tree_param":{"num_deleted":"0","num_feature":"2","num_nodes":"27","size_leaf_vector":"1"}},{"base_weights":[-8.65211E-3,-2.1002097E0,3.4709215E-1,-2.8730013E0,-1.0809138E0,1.1786481E0,-1.1404399E0,-3.1930283E-1,-2.291228E0,-5.549272E-1,-2.2856967E0,5.080174E-1,1.9501276E0,-6.9190747E-1,-3.1716056E0,-2.5279483E-1,-1.8122451E-1,-1.13262884E-1,-1.5001373E-2,-1.7195483E-1,-2.6623473E-1,8.041754E-2,-1.10337935E-1,2.8945386E-1,6.452141E-2,-1.5990968E-1,1.222886E-2,-2.4141364E-1,-4.7521845E-1],"categories":[],"categories_nodes":[],"categories_segments":[],"categories_sizes":[],"default_left":[0,0,0,0,0,0,0,0,0,0,0,0,0,0,0,0,0,0,0,0,0,0,0,0,0,0,0,0,0],"id":13,"left_children":[1,3,5,7,9,11,13,-1,15,17,19,21,23,25,27,-1,-1,-1,-1,-1,-1,-1,-1,-1,-1,-1,-1,-1,-1],"loss_changes":[1.8683187E3,2.8440637E2,2.6558738E3,3.1223999E1,9.948987E1,7.114387E2,6.993091E2,0E0,4.1493835E0,2.6029037E1,5.657486E0,3.530816E2,7.868523E2,4.6700967E2,1.5494409E2,0E0,0E0,0E0,0E0,0E0,0E0,0E0,0E0,0E0,0E0,0E0,0E0,0E0,0E0],"parents":[2147483647,0,0,1,1,2,2,3,3,4,4,5,5,6,6,8,8,9,9,10,10,11,11,12,12,13,13,14,14],"right_children":[2,4,6,8,10,12,14,-1,16,18,20,22,24,26,28,-1,-1,-1,-1,-1,-1,-1,-1,-1,-1,-1,-1,-1,-1],"split_conditions":[5E0,3E0,1.9E1,5E0,6E0,1.3E1,2.3E1,-3.1930283E-1,7E0,2E0,7E0,7E0,1.7E1,5E0,7E0,-2.5279483E-1,-1.8122451E-1,-1.13262884E-1,-1.5001373E-2,-1.7195483E-1,-2.6623473E-1,8.041754E-2,-1.10337935E-1,2.8945386E-1,6.452141E-2,-1.5990968E-1,1.222886E-2,-2.4141364E-1,-4.7521845E-1],"split_indices":[1,1,1,0,0,1,1,0,0,0,0,0,1,0,0,0,0,0,0,0,0,0,0,0,0,0,0,0,0],"split_type":[0,0,0,0,0,0,0,0,0,0,0,0,0,0,0,0,0,0,0,0,0,0,0,0,0,0,0,0,0],"sum_hessian":[2.509E3,3.64E2,2.145E3,2.06E2,1.58E2,1.376E3,7.69E2,1.3E2,7.6E1,1.11E2,4.7E1,7.37E2,6.39E2,6.31E2,1.38E2,4.8E1,2.8E1,4.5E1,6.6E1,2.1E1,2.6E1,6.23E2,1.14E2,3.7E2,2.69E2,2.98E2,3.33E2,9.5E1,4.3E1],"tree_param":{"num_deleted":"0","num_feature":"2","num_nodes":"29","size_leaf_vector":"1"}},{"base_weights":[-8.527977E-3,-1.8938044E0,3.1213114E-1,-2.5893402E0,-9.763848E-1,8.117524E-1,-1.7369387E0,-2.8761625E0,-2.0677419E0,-4.972142E-2,-1.5839897E0,1.14388E0,-4.8330453E-1,-1.0617938E0,-4.354517E0,-2.4861883E-1,-3.0448142E-1,-2.2803126E-1,-1.6372694E-1,-1.0218278E-1,2.3064163E-1,-1.24431066E-1,-2.4059732E-1,1.4027815E-1,1.8389594E-2,-5.253866E-1,-1.8100694E-2,-2.1954203E-1,2.8452888E-1,-5.24465E-1,-3.9462993E-1],"categories":[],"categories_nodes":[],"categories_segments":[],"categories_sizes":[],"default_left":[0,0,0,0,0,0,0,0,0,0,0,0,0,0,0,0,0,0,0,0,0,0,0,0,0,0,0,0,0,0,0],"id":14,"left_children":[1,3,5,7,9,11,13,15,17,19,21,23,25,27,29,-1,-1,-1,-1,-1,-1,-1,-1,-1,-1,-1,-1,-1,-1,-1,-1],"loss_changes":[1.517964E3,2.303778E2,2.1983962E3,2.5021362E1,8.9445435E1,7.42947E2,7.393861E2,1.0457764E0,3.312439E0,1.489434E2,2.381041E1,3.412378E2,5.0812067E2,1.4944484E3,1.0552856E1,0E0,0E0,0E0,0E0,0E0,0E0,0E0,0E0,0E0,0E0,0E0,0E0,0E0,0E0,0E0,0E0],"parents":[2147483647,0,0,1,1,2,2,3,3,4,4,5,5,6,6,7,7,8,8,9,9,10,10,11,11,12,12,13,13,14,14],"right_children":[2,4,6,8,10,12,14,16,18,20,22,24,26,28,30,-1,-1,-1,-1,-1,-1,-1,-1,-1,-1,-1,-1,-1,-1,-1,-1],"split_conditions":[5E0,3E0,2.1E1,5E0,3E0,7E0,7E0,2E0,7E0,2E0,7E0,1.8E1,8E0,6E0,2.2E1,-2.4861883E-1,-3.0448142E-1,-2.2803126E-1,-1.6372694E-1,-1.0218278E-1,2.3064163E-1,-1.24431066E-1,-2.4059732E-1,1.4027815E-1,1.8389594E-2,-5.253866E-1,-1.8100694E-2,-2.1954203E-1,2.8452888E-1,-5.24465E-1,-3.9462993E-1],"split_indices":[1,1,1,0,0,0,0,0,0,0,0,1,1,0,1,0,0,0,0,0,0,0,0,0,0,0,0,0,0,0,0],"split_type":[0,0,0,0,0,0,0,0,0,0,0,0,0,0,0,0,0,0,0,0,0,0,0,0,0,0,0,0,0,0,0],"sum_hessian":[2.509E3,3.64E2,2.145E3,2.06E2,1.58E2,1.725E3,4.2E2,1.3E2,7.6E1,6.3E1,9.5E1,1.373E3,3.52E2,3.35E2,8.5E1,4.4E1,8.6E1,4.8E1,2.8E1,4.5E1,1.8E1,6.9E1,2.6E1,1.081E3,2.92E2,2E1,3.32E2,2.6E2,7.5E1,2.3E1,6.2E1],"tree_param":{"num_deleted":"0","num_feature":"2","num_nodes":"31","size_leaf_vector":"1"}},{"base_weights":[-8.639355E-3,2.3812576E-1,-2.0150328E0,-1.7076609E0,6.173854E-1,-3.1810138E-1,-1.1314834E0,-2.3349707E0,-8.802345E-1,9.5099777E-1,-7.124953E-1,4.726605E-1,-3.557933E0,-2.5927684E-1,-1.8660556E-1,-4.274243E-3,-1.4293934E-1,1.2626332E-1,1.3815989E-2,-3.3573215E-3,-3.4367883E-1,-1.8744116E-1,1.3712074E-1,-2.622858E-1,-3.9021054E-1],"categories":[],"categories_nodes":[],"categories_segments":[],"categories_sizes":[],"default_left":[0,0,0,0,0,0,0,0,0,0,0,0,0,0,0,0,0,0,0,0,0,0,0,0,0],"id":15,"left_children":[1,3,5,7,9,-1,11,13,15,17,19,21,23,-1,-1,-1,-1,-1,-1,-1,-1,-1,-1,-1,-1],"loss_changes":[1.2432006E3,1.651129E3,2.797063E2,1.8739905E2,8.3121783E2,0E0,6.166769E2,2.0184937E1,7.30656E1,3.7902942E2,6.9532764E2,2.050298E2,1.0040344E1,0E0,0E0,0E0,0E0,0E0,0E0,0E0,0E0,0E0,0E0,0E0,0E0],"parents":[2147483647,0,0,1,1,2,2,3,3,4,4,6,6,7,7,8,8,9,9,10,10,11,11,12,12],"right_children":[2,4,6,8,10,-1,12,14,16,18,20,22,24,-1,-1,-1,-1,-1,-1,-1,-1,-1,-1,-1,-1],"split_conditions":[2.2E1,5E0,4E0,3E0,7E0,-3.1810138E-1,7E0,5E0,3E0,1.8E1,2E1,5E0,2.3E1,-2.5927684E-1,-1.8660556E-1,-4.274243E-3,-1.4293934E-1,1.2626332E-1,1.3815989E-2,-3.3573215E-3,-3.4367883E-1,-1.8744116E-1,1.3712074E-1,-2.622858E-1,-3.9021054E-1],"split_indices":[1,1,0,1,0,0,0,0,0,1,1,0,1,0,0,0,0,0,0,0,0,0,0,0,0],"split_type":[0,0,0,0,0,0,0,0,0,0,0,0,0,0,0,0,0,0,0,0,0,0,0,0,0],"sum_hessian":[2.509E3,2.235E3,2.74E2,3.64E2,1.871E3,1.17E2,1.57E2,2.06E2,1.58E2,1.496E3,3.75E2,9.5E1,6.2E1,1.3E2,7.6E1,6.3E1,9.5E1,1.081E3,4.15E2,3.01E2,7.4E1,2.6E1,6.9E1,1.9E1,4.3E1],"tree_param":{"num_deleted":"0","num_feature":"2","num_nodes":"25","size_leaf_vector":"1"}},{"base_weights":[-8.500647E-3,2.1395567E-1,-1.8172419E0,-1.5385196E0,5.555366E-1,-2.865608E-1,-1.0227834E0,-2.1036277E0,-7.931367E-1,8.559921E-1,-6.421691E-1,4.2487E-1,-3.2124968E0,-2.2836843E-1,-1.5511775E-1,-3.7959993E-2,-1.7415322E-1,1.1364873E-1,1.2437723E-2,-3.0227397E-3,-3.0976924E-1,-1.6939124E-1,1.2360451E-1,-2.3736858E-1,-3.5207632E-1],"categories":[],"categories_nodes":[],"categories_segments":[],"categories_sizes":[],"default_left":[0,0,0,0,0,0,0,0,0,0,0,0,0,0,0,0,0,0,0,0,0,0,0,0,0],"id":16,"left_children":[1,3,5,7,9,-1,11,13,15,17,19,21,23,-1,-1,-1,-1,-1,-1,-1,-1,-1,-1,-1,-1],"loss_changes":[1.0103272E3,1.3393517E3,2.26112E2,1.5207758E2,6.7420233E2,0E0,5.0221637E2,1.704834E1,6.169815E1,3.070647E2,5.6489795E2,1.670893E2,7.9331665E0,0E0,0E0,0E0,0E0,0E0,0E0,0E0,0E0,0E0,0E0,0E0,0E0],"parents":[2147483647,0,0,1,1,2,2,3,3,4,4,6,6,7,7,8,8,9,9,10,10,11,11,12,12],"right_children":[2,4,6,8,10,-1,12,14,16,18,20,22,24,-1,-1,-1,-1,-1,-1,-1,-1,-1,-1,-1,-1],"split_conditions":[2.2E1,5E0,4E0,3E0,7E0,-2.865608E-1,7E0,6E0,6E0,1.8E1,2E1,5E0,2.3E1,-2.2836843E-1,-1.5511775E-1,-3.7959993E-2,-1.7415322E-1,1.1364873E-1,1.2437723E-2,-3.0227397E-3,-3.0976924E-1,-1.6939124E-1,1.2360451E-1,-2.3736858E-1,-3.5207632E-1],"split_indices":[1,1,0,1,0,0,0,0,0,1,1,0,1,0,0,0,0,0,0,0,0,0,0,0,0],"split_type":[0,0,0,0,0,0,0,0,0,0,0,0,0,0,0,0,0,0,0,0,0,0,0,0,0],"sum_hessian":[2.509E3,2.235E3,2.74E2,3.64E2,1.871E3,1.17E2,1.57E2,2.06E2,1.58E2,1.496E3,3.75E2,9.5E1,6.2E1,1.53E2,5.3E1,1.11E2,4.7E1,1.081E3,4.15E2,3.01E2,7.4E1,2.6E1,6.9E1,1.9E1,4.3E1],"tree_param":{"num_deleted":"0","num_feature":"2","num_nodes":"25","size_leaf_vector":"1"}},{"base_weights":[-8.329716E-3,2.5015673E-1,-1.2915325E0,-7.023101E-1,8.7313133E-1,-7.804094E-1,-3.2734606E0,-4.100279E-1,-3.1213462E0,1.6153663E0,9.711046E-2,-1.6971581E0,2.3781674E0,-4.1158175E-1,-2.900603E0,-1.3862996E-1,5.4130316E-2,-1.2224177E0,5.0093583E-3,2.96965E-1,9.925398E-2,-7.10936E-2,5.4758586E-2,-2.0133932E-1,-4.7096186E-3,4.773245E-1,1.2487327E-1,-2.1481858E-1,-3.1766883E-1],"categories":[],"categories_nodes":[],"categories_segments":[],"categories_sizes":[],"default_left":[0,0,0,0,0,0,0,0,0,0,0,0,0,0,0,0,0,0,0,0,0,0,0,0,0,0,0,0,0],"id":17,"left_children":[1,3,5,7,9,11,13,15,17,19,21,23,25,-1,27,-1,-1,-1,-1,-1,-1,-1,-1,-1,-1,-1,-1,-1,-1],"loss_changes":[8.328664E2,1.2407412E3,4.2392218E2,5.8344324E2,7.278943E2,9.769649E2,1.5072388E1,6.871022E2,2.569961E3,5.41943E2,2.2570839E2,1.3609692E2,1.996258E2,0E0,6.2629395E0,0E0,0E0,0E0,0E0,0E0,0E0,0E0,0E0,0E0,0E0,0E0,0E0,0E0,0E0],"parents":[2147483647,0,0,1,1,2,2,3,3,4,4,5,5,6,6,7,7,8,8,9,9,10,10,11,11,12,12,14,14],"right_children":[2,4,6,8,10,12,14,16,18,20,22,24,26,-1,28,-1,-1,-1,-1,-1,-1,-1,-1,-1,-1,-1,-1,-1,-1],"split_conditions":[2.1E1,1.1E1,7E0,1E1,1.7E1,6E0,2.2E1,5E0,3E0,3E0,4E0,5E0,2.2E1,-4.1158175E-1,2.3E1,-1.3862996E-1,5.4130316E-2,-1.2224177E0,5.0093583E-3,2.96965E-1,9.925398E-2,-7.10936E-2,5.4758586E-2,-2.0133932E-1,-4.7096186E-3,4.773245E-1,1.2487327E-1,-2.1481858E-1,-3.1766883E-1],"split_indices":[1,1,0,1,1,0,1,1,0,0,0,0,1,0,1,0,0,0,0,0,0,0,0,0,0,0,0,0,0],"split_type":[0,0,0,0,0,0,0,0,0,0,0,0,0,0,0,0,0,0,0,0,0,0,0,0,0,0,0,0,0],"sum_hessian":[2.509E3,2.089E3,4.2E2,8.26E2,1.263E3,3.35E2,8.5E1,7.38E2,8.8E1,6.45E2,6.18E2,2.6E2,7.5E1,2.3E1,6.2E1,3.64E2,3.74E2,2.2E1,6.6E1,2.02E2,4.43E2,2.21E2,3.97E2,2.18E2,4.2E1,2.3E1,5.2E1,1.9E1,4.3E1],"tree_param":{"num_deleted":"0","num_feature":"2","num_nodes":"29","size_leaf_vector":"1"}},{"base_weights":[-8.082463E-3,-1.7571573E0,1.490645E-1,-1.867514E0,-1.0153989E-1,4.4233233E-1,-1.1636807E0,-1.9712739E0,-1.5520023E-1,-2.5813174E-1,7.861186E-1,-7.011894E-1,-2.957092E0,-1.6307364E-1,-2.1247557E-1,1.706143E-2,-2.82289E-1,1.4544427E-1,8.7373005E-3,-1.5282318E-1,2.1482742E-1,-3.7213847E-1,-2.618995E-1],"categories":[],"categories_nodes":[],"categories_segments":[],"categories_sizes":[],"default_left":[0,0,0,0,0,0,0,0,0,0,0,0,0,0,0,0,0,0,0,0,0,0,0],"id":18,"left_children":[1,3,5,7,-1,9,11,13,-1,15,17,19,21,-1,-1,-1,-1,-1,-1,-1,-1,-1,-1],"loss_changes":[6.9016504E2,1.504834E1,8.875224E2,2.800537E0,0E0,4.538888E2,3.4711945E2,3.3819885E0,0E0,6.833518E2,5.9014655E2,7.9510974E2,1.24765625E1,0E0,0E0,0E0,0E0,0E0,0E0,0E0,0E0,0E0,0E0],"parents":[2147483647,0,0,1,1,2,2,3,3,5,5,6,6,7,7,9,9,10,10,11,11,12,12],"right_children":[2,4,6,8,-1,10,12,14,-1,16,18,20,22,-1,-1,-1,-1,-1,-1,-1,-1,-1,-1],"split_conditions":[3E0,7E0,2.1E1,5E0,-1.0153989E-1,1.1E1,7E0,2E0,-1.5520023E-1,1E1,1.7E1,6E0,2.2E1,-1.6307364E-1,-2.1247557E-1,1.706143E-2,-2.82289E-1,1.4544427E-1,8.7373005E-3,-1.5282318E-1,2.1482742E-1,-3.7213847E-1,-2.618995E-1],"split_indices":[1,0,1,0,0,1,0,0,0,1,1,0,1,0,0,0,0,0,0,0,0,0,0],"split_type":[0,0,0,0,0,0,0,0,0,0,0,0,0,0,0,0,0,0,0,0,0,0,0],"sum_hessian":[2.509E3,2.06E2,2.303E3,1.78E2,2.8E1,1.883E3,4.2E2,1.3E2,4.8E1,6.2E2,1.263E3,3.35E2,8.5E1,4.4E1,8.6E1,5.32E2,8.8E1,6.45E2,6.18E2,2.6E2,7.5E1,2.3E1,6.2E1],"tree_param":{"num_deleted":"0","num_feature":"2","num_nodes":"23","size_leaf_vector":"1"}},{"base_weights":[-7.798467E-3,1.6166238E-1,-1.3856409E0,-1.1575146E0,4.1878733E-1,-2.2303147E0,-7.460387E-1,-1.5844961E0,-5.9435296E-1,6.8204683E-1,-6.3046336E-1,-1.937798E-1,-2.4099599E-1,3.2171664E-1,-2.3612525E0,-1.6837278E-1,-9.173601E-2,1.1850125E-2,-1.0633979E-1,4.1671284E-2,1.2055564E-1,-4.815223E-1,-3.818386E-2,-1.1897498E-1,9.001149E-2,-1.6953033E-1,-2.610292E-1],"categories":[],"categories_nodes":[],"categories_segments":[],"categories_sizes":[],"default_left":[0,0,0,0,0,0,0,0,0,0,0,0,0,0,0,0,0,0,0,0,0,0,0,0,0,0,0],"id":19,"left_children":[1,3,5,7,9,11,13,15,17,19,21,-1,-1,23,25,-1,-1,-1,-1,-1,-1,-1,-1,-1,-1,-1,-1],"loss_changes":[5.862848E2,7.58921E2,1.4690631E2,8.682602E1,5.175237E2,1.5307617E0,2.7325485E2,1.2158997E1,5.3289356E1,2.0743823E2,3.8936484E2,0E0,0E0,8.4996956E1,6.023163E0,0E0,0E0,0E0,0E0,0E0,0E0,0E0,0E0,0E0,0E0,0E0,0E0],"parents":[2147483647,0,0,1,1,2,2,3,3,4,4,5,5,6,6,7,7,8,8,9,9,10,10,13,13,14,14],"right_children":[2,4,6,8,10,12,14,16,18,20,22,-1,-1,24,26,-1,-1,-1,-1,-1,-1,-1,-1,-1,-1,-1,-1],"split_conditions":[2.2E1,5E0,4E0,3E0,7E0,2E0,7E0,7E0,3E0,5E0,8E0,-1.937798E-1,-2.4099599E-1,5E0,2.3E1,-1.6837278E-1,-9.173601E-2,1.1850125E-2,-1.0633979E-1,4.1671284E-2,1.2055564E-1,-4.815223E-1,-3.818386E-2,-1.1897498E-1,9.001149E-2,-1.6953033E-1,-2.610292E-1],"split_indices":[1,1,0,1,0,0,0,0,0,0,1,0,0,0,1,0,0,0,0,0,0,0,0,0,0,0,0],"split_type":[0,0,0,0,0,0,0,0,0,0,0,0,0,0,0,0,0,0,0,0,0,0,0,0,0,0,0],"sum_hessian":[2.509E3,2.235E3,2.74E2,3.64E2,1.871E3,1.17E2,1.57E2,2.06E2,1.58E2,1.496E3,3.75E2,4.9E1,6.8E1,9.5E1,6.2E1,1.78E2,2.8E1,6.3E1,9.5E1,9.94E2,5.02E2,2E1,3.55E2,2.6E1,6.9E1,1.9E1,4.3E1],"tree_param":{"num_deleted":"0","num_feature":"2","num_nodes":"27","size_leaf_vector":"1"}},{"base_weights":[-7.6588644E-3,1.880813E-1,-9.793674E-1,-5.355834E-1,6.6140616E-1,-5.896555E-1,-2.4905744E0,-2.8796625E-1,-2.5856225E0,1.2586423E0,3.7050795E-2,-1.2943587E0,1.8382024E0,-3.3281595E-1,-2.1319616E0,-1.04273476E-1,4.4744294E-2,-1.0824754E0,2.8132726E-2,2.4879535E-1,6.937577E-2,-6.903445E-2,4.4269077E-2,-1.5428072E-1,1.096415E-4,3.9943996E-1,8.271281E-2,-1.5342495E-1,-2.3551951E-1],"categories":[],"categories_nodes":[],"categories_segments":[],"categories_sizes":[],"default_left":[0,0,0,0,0,0,0,0,0,0,0,0,0,0,0,0,0,0,0,0,0,0,0,0,0,0,0,0,0],"id":20,"left_children":[1,3,5,7,9,11,13,15,17,19,21,23,25,-1,27,-1,-1,-1,-1,-1,-1,-1,-1,-1,-1,-1,-1,-1,-1],"loss_changes":[4.7759213E2,7.162388E2,2.464732E2,4.190611E2,4.7128333E2,5.7724817E2,1.8736145E1,4.1065857E2,2.1053298E3,4.4686865E2,1.829481E2,8.400552E1,1.6238187E2,0E0,4.792572E0,0E0,0E0,0E0,0E0,0E0,0E0,0E0,0E0,0E0,0E0,0E0,0E0,0E0,0E0],"parents":[2147483647,0,0,1,1,2,2,3,3,4,4,5,5,6,6,7,7,8,8,9,9,10,10,11,11,12,12,14,14],"right_children":[2,4,6,8,10,12,14,16,18,20,22,24,26,-1,28,-1,-1,-1,-1,-1,-1,-1,-1,-1,-1,-1,-1,-1,-1],"split_conditions":[2.1E1,1.1E1,7E0,1E1,1.7E1,6E0,2.2E1,5E0,3E0,3E0,4E0,5E0,2.2E1,-3.3281595E-1,2.3E1,-1.04273476E-1,4.4744294E-2,-1.0824754E0,2.8132726E-2,2.4879535E-1,6.937577E-2,-6.903445E-2,4.4269077E-2,-1.5428072E-1,1.096415E-4,3.9943996E-1,8.271281E-2,-1.5342495E-1,-2.3551951E-1],"split_indices":[1,1,0,1,1,0,1,1,0,0,0,0,1,0,1,0,0,0,0,0,0,0,0,0,0,0,0,0,0],"split_type":[0,0,0,0,0,0,0,0,0,0,0,0,0,0,0,0,0,0,0,0,0,0,0,0,0,0,0,0,0],"sum_hessian":[2.509E3,2.089E3,4.2E2,8.26E2,1.263E3,3.35E2,8.5E1,7.38E2,8.8E1,6.45E2,6.18E2,2.6E2,7.5E1,2.3E1,6.2E1,3.64E2,3.74E2,2.2E1,6.6E1,2.02E2,4.43E2,2.21E2,3.97E2,2.18E2,4.2E1,2.3E1,5.2E1,1.9E1,4.3E1],"tree_param":{"num_deleted":"0","num_feature":"2","num_nodes":"29","size_leaf_vector":"1"}},{"base_weights":[-7.376688E-3,1.9328605E-1,-8.3081305E-1,-1.4126046E0,3.4932142E-1,-2.8397417E-1,-2.2457314E0,-1.5064483E0,-1.1328876E-1,5.125036E-1,-9.003176E-1,-2.0709856E0,1.9230177E-1,-2.4852538E0,-1.9249392E0,-1.2046992E-1,-1.64521E-1,9.502072E-3,8.730351E-2,-1.6962636E-1,7.499186E-2,-1.14435986E-1,-4.399244E-1,6.738153E-2,-1.5321883E-2,-2.1956344E-1,-3.0092105E-1,-1.388496E-1,-2.1250284E-1],"categories":[],"categories_nodes":[],"categories_segments":[],"categories_sizes":[],"default_left":[0,0,0,0,0,0,0,0,0,0,0,0,0,0,0,0,0,0,0,0,0,0,0,0,0,0,0,0,0],"id":21,"left_children":[1,3,5,7,9,11,13,15,-1,17,19,21,23,25,27,-1,-1,-1,-1,-1,-1,-1,-1,-1,-1,-1,-1,-1,-1],"loss_changes":[4.148954E2,5.0640588E2,3.8003857E2,2.9920654E0,3.7587598E2,3.033936E2,5.742676E0,3.5031128E0,0E0,2.4510724E2,2.810473E2,1.5677249E2,4.7020386E1,4.773987E0,3.8116302E0,0E0,0E0,0E0,0E0,0E0,0E0,0E0,0E0,0E0,0E0,0E0,0E0,0E0,0E0],"parents":[2147483647,0,0,1,1,2,2,3,3,4,4,5,5,6,6,7,7,9,9,10,10,11,11,12,12,13,13,14,14],"right_children":[2,4,6,8,10,12,14,16,-1,18,20,22,24,26,28,-1,-1,-1,-1,-1,-1,-1,-1,-1,-1,-1,-1,-1,-1],"split_conditions":[7E0,3E0,2E1,5E0,2.2E1,8E0,2.2E1,2E0,-1.1328876E-1,1.3E1,5E0,5E0,1.5E1,2.1E1,2.3E1,-1.2046992E-1,-1.64521E-1,9.502072E-3,8.730351E-2,-1.6962636E-1,7.499186E-2,-1.14435986E-1,-4.399244E-1,6.738153E-2,-1.5321883E-2,-2.1956344E-1,-3.0092105E-1,-1.388496E-1,-2.1250284E-1],"split_indices":[0,1,1,0,1,1,1,0,0,1,0,1,1,1,1,0,0,0,0,0,0,0,0,0,0,0,0,0,0],"split_type":[0,0,0,0,0,0,0,0,0,0,0,0,0,0,0,0,0,0,0,0,0,0,0,0,0,0,0,0,0],"sum_hessian":[2.509E3,2.018E3,4.91E2,1.78E2,1.84E3,3.55E2,1.36E2,1.3E2,4.8E1,1.628E3,2.12E2,7.4E1,2.81E2,7.4E1,6.2E1,4.4E1,8.6E1,7.55E2,8.73E2,1.43E2,6.9E1,5.4E1,2E1,1.17E2,1.64E2,5.1E1,2.3E1,1.9E1,4.3E1],"tree_param":{"num_deleted":"0","num_feature":"2","num_nodes":"29","size_leaf_vector":"1"}},{"base_weights":[-7.3442818E-3,1.7376126E-1,-7.5052464E-1,-1.2735691E0,3.1439045E-1,-2.569877E-1,-2.0275218E0,-1.3579789E0,-1.0219108E-1,6.232961E-1,-2.832621E-1,-1.8712783E0,1.732562E-1,-2.243668E0,-1.7380222E0,-1.0869064E-1,-1.48258E-1,8.553088E-3,1.5076691E-1,-1.16808556E-1,1.1234256E-1,-1.0320043E-1,-3.9802685E-1,6.0700502E-2,-1.3798997E-2,-1.9802932E-1,-2.7208275E-1,-1.2565887E-1,-1.917355E-1],"categories":[],"categories_nodes":[],"categories_segments":[],"categories_sizes":[],"default_left":[0,0,0,0,0,0,0,0,0,0,0,0,0,0,0,0,0,0,0,0,0,0,0,0,0,0,0,0,0],"id":22,"left_children":[1,3,5,7,9,11,13,15,-1,17,19,21,23,25,27,-1,-1,-1,-1,-1,-1,-1,-1,-1,-1,-1,-1,-1,-1],"loss_changes":[3.3796158E2,4.1134143E2,3.0955963E2,2.4146729E0,3.4005875E2,2.4757996E2,4.6730957E0,2.8132172E0,0E0,5.772312E2,7.8296515E2,1.2864392E2,3.815451E1,4.0373535E0,3.029892E0,0E0,0E0,0E0,0E0,0E0,0E0,0E0,0E0,0E0,0E0,0E0,0E0,0E0,0E0],"parents":[2147483647,0,0,1,1,2,2,3,3,4,4,5,5,6,6,7,7,9,9,10,10,11,11,12,12,13,13,14,14],"right_children":[2,4,6,8,10,12,14,16,-1,18,20,22,24,26,28,-1,-1,-1,-1,-1,-1,-1,-1,-1,-1,-1,-1,-1,-1],"split_conditions":[7E0,3E0,2E1,5E0,1.8E1,8E0,2.2E1,2E0,-1.0219108E-1,1.3E1,5E0,5E0,1.5E1,2.1E1,2.3E1,-1.0869064E-1,-1.48258E-1,8.553088E-3,1.5076691E-1,-1.16808556E-1,1.1234256E-1,-1.0320043E-1,-3.9802685E-1,6.0700502E-2,-1.3798997E-2,-1.9802932E-1,-2.7208275E-1,-1.2565887E-1,-1.917355E-1],"split_indices":[0,1,1,0,1,1,1,0,0,1,0,1,1,1,1,0,0,0,0,0,0,0,0,0,0,0,0,0,0],"split_type":[0,0,0,0,0,0,0,0,0,0,0,0,0,0,0,0,0,0,0,0,0,0,0,0,0,0,0,0,0],"sum_hessian":[2.509E3,2.018E3,4.91E2,1.78E2,1.84E3,3.55E2,1.36E2,1.3E2,4.8E1,1.213E3,6.27E2,7.4E1,2.81E2,7.4E1,6.2E1,4.4E1,8.6E1,7.55E2,4.58E2,3.85E2,2.42E2,5.4E1,2E1,1.17E2,1.64E2,5.1E1,2.3E1,1.9E1,4.3E1],"tree_param":{"num_deleted":"0","num_feature":"2","num_nodes":"29","size_leaf_vector":"1"}},{"base_weights":[-7.1858186E-3,1.4219555E-1,-7.4875325E-1,-4.0992388E-1,5.0331944E-1,-4.6821395E-1,-1.8361073E0,-1.7163038E-1,-2.3839571E0,1.0047256E0,-2.0770498E-2,-1.0314245E0,1.4721304E0,-2.4600819E-1,-1.5692581E0,-7.834206E-2,4.2430308E-2,-9.8066133E-1,1.9970015E-2,2.1086179E-1,4.9775515E-2,-7.079563E-2,3.6258634E-2,-1.6496249E-1,-7.779676E-2,3.420276E-1,5.6217533E-2,-1.1372127E-1,-1.7299776E-1],"categories":[],"categories_nodes":[],"categories_segments":[],"categories_sizes":[],"default_left":[0,0,0,0,0,0,0,0,0,0,0,0,0,0,0,0,0,0,0,0,0,0,0,0,0,0,0,0,0],"id":23,"left_children":[1,3,5,7,9,11,13,15,17,19,21,23,25,-1,27,-1,-1,-1,-1,-1,-1,-1,-1,-1,-1,-1,-1,-1,-1],"loss_changes":[2.7815512E2,4.1691785E2,1.2756447E2,3.8861105E2,3.321771E2,3.6870676E2,1.0459076E1,2.6976166E2,1.7087646E3,3.6047833E2,1.6332442E2,3.9612E1,1.3280429E2,0E0,2.407257E0,0E0,0E0,0E0,0E0,0E0,0E0,0E0,0E0,0E0,0E0,0E0,0E0,0E0,0E0],"parents":[2147483647,0,0,1,1,2,2,3,3,4,4,5,5,6,6,7,7,8,8,9,9,10,10,11,11,12,12,14,14],"right_children":[2,4,6,8,10,12,14,16,18,20,22,24,26,-1,28,-1,-1,-1,-1,-1,-1,-1,-1,-1,-1,-1,-1,-1,-1],"split_conditions":[2.1E1,1.1E1,7E0,1E1,1.7E1,6E0,2.2E1,5E0,3E0,3E0,4E0,2E0,2.2E1,-2.4600819E-1,2.3E1,-7.834206E-2,4.2430308E-2,-9.8066133E-1,1.9970015E-2,2.1086179E-1,4.9775515E-2,-7.079563E-2,3.6258634E-2,-1.6496249E-1,-7.779676E-2,3.420276E-1,5.6217533E-2,-1.1372127E-1,-1.7299776E-1],"split_indices":[1,1,0,1,1,0,1,1,0,0,0,0,1,0,1,0,0,0,0,0,0,0,0,0,0,0,0,0,0],"split_type":[0,0,0,0,0,0,0,0,0,0,0,0,0,0,0,0,0,0,0,0,0,0,0,0,0,0,0,0,0],"sum_hessian":[2.509E3,2.089E3,4.2E2,8.26E2,1.263E3,3.35E2,8.5E1,7.38E2,8.8E1,6.45E2,6.18E2,2.6E2,7.5E1,2.3E1,6.2E1,3.64E2,3.74E2,2.2E1,6.6E1,2.02E2,4.43E2,2.21E2,3.97E2,7.4E1,1.86E2,2.3E1,5.2E1,1.9E1,4.3E1],"tree_param":{"num_deleted":"0","num_feature":"2","num_nodes":"29","size_leaf_vector":"1"}},{"base_weights":[-6.9246097E-3,1.540493E-1,-6.674925E-1,-1.0703143E0,2.7301022E-1,-2.557133E-1,-1.732645E0,-1.1463985E0,-8.450622E-2,5.305059E-1,-2.2519484E-1,-1.645742E0,1.1488195E-1,-1.974783E-1,-1.4168833E0,-1.00663066E-1,-1.3747787E-1,6.393718E-3,1.2978163E-1,-9.719508E-2,9.619369E-2,-8.537627E-2,-3.641605E-1,-1.5520877E-2,6.743651E-2,-1.0291773E-1,-1.5609115E-1],"categories":[],"categories_nodes":[],"categories_segments":[],"categories_sizes":[],"default_left":[0,0,0,0,0,0,0,0,0,0,0,0,0,0,0,0,0,0,0,0,0,0,0,0,0,0,0],"id":24,"left_children":[1,3,5,7,9,11,13,15,-1,17,19,21,23,-1,25,-1,-1,-1,-1,-1,-1,-1,-1,-1,-1,-1,-1],"loss_changes":[2.6700165E2,2.9436237E2,2.153519E2,2.0989685E0,2.3629335E2,1.8357822E2,7.676697E0,2.7976532E0,0E0,4.3453268E2,5.576555E2,1.1544211E2,4.271802E1,0E0,1.9115067E0,0E0,0E0,0E0,0E0,0E0,0E0,0E0,0E0,0E0,0E0,0E0,0E0],"parents":[2147483647,0,0,1,1,2,2,3,3,4,4,5,5,6,6,7,7,9,9,10,10,11,11,12,12,14,14],"right_children":[2,4,6,8,10,12,14,16,-1,18,20,22,24,-1,26,-1,-1,-1,-1,-1,-1,-1,-1,-1,-1,-1,-1],"split_conditions":[7E0,3E0,2E1,5E0,1.8E1,8E0,2.2E1,3E0,-8.450622E-2,1.3E1,5E0,5E0,1.8E1,-1.974783E-1,2.3E1,-1.00663066E-1,-1.3747787E-1,6.393718E-3,1.2978163E-1,-9.719508E-2,9.619369E-2,-8.537627E-2,-3.641605E-1,-1.5520877E-2,6.743651E-2,-1.0291773E-1,-1.5609115E-1],"split_indices":[0,1,1,0,1,1,1,0,0,1,0,1,1,0,1,0,0,0,0,0,0,0,0,0,0,0,0],"split_type":[0,0,0,0,0,0,0,0,0,0,0,0,0,0,0,0,0,0,0,0,0,0,0,0,0,0,0],"sum_hessian":[2.509E3,2.018E3,4.91E2,1.78E2,1.84E3,3.55E2,1.36E2,1.3E2,4.8E1,1.213E3,6.27E2,7.4E1,2.81E2,7.4E1,6.2E1,8.4E1,4.6E1,7.55E2,4.58E2,3.85E2,2.42E2,5.4E1,2E1,1.9E2,9.1E1,1.9E1,4.3E1],"tree_param":{"num_deleted":"0","num_feature":"2","num_nodes":"27","size_leaf_vector":"1"}},{"base_weights":[-6.647076E-3,1.3855161E-1,-6.024794E-1,-9.650853E-1,2.457827E-1,-2.3125911E-1,-1.5627126E0,-1.0335765E0,-7.6228075E-2,3.6535463E-1,-6.6984373E-1,-1.4871616E0,1.0357759E-1,-1.7799376E-1,-1.2793063E0,-9.0715185E-2,-1.24022596E-1,5.7552205E-3,6.311822E-2,-1.2083806E-1,4.475728E-2,-7.699387E-2,-3.2947856E-1,5.1971763E-2,-1.9465333E-2,-9.314055E-2,-1.4083678E-1],"categories":[],"categories_nodes":[],"categories_segments":[],"categories_sizes":[],"default_left":[0,0,0,0,0,0,0,0,0,0,0,0,0,0,0,0,0,0,0,0,0,0,0,0,0,0,0],"id":25,"left_children":[1,3,5,7,9,11,13,15,-1,17,19,21,23,-1,25,-1,-1,-1,-1,-1,-1,-1,-1,-1,-1,-1,-1],"loss_changes":[2.1723378E2,2.3917418E2,1.7501593E2,1.6984863E0,2.0180331E2,1.4985995E2,6.157074E0,2.2973785E0,0E0,1.3325232E2,1.2871783E2,9.4698425E1,3.509901E1,0E0,1.5169678E0,0E0,0E0,0E0,0E0,0E0,0E0,0E0,0E0,0E0,0E0,0E0,0E0],"parents":[2147483647,0,0,1,1,2,2,3,3,4,4,5,5,6,6,7,7,9,9,10,10,11,11,12,12,14,14],"right_children":[2,4,6,8,10,12,14,16,-1,18,20,22,24,-1,26,-1,-1,-1,-1,-1,-1,-1,-1,-1,-1,-1,-1],"split_conditions":[7E0,3E0,2E1,5E0,2.2E1,8E0,2.2E1,3E0,-7.6228075E-2,1.3E1,5E0,5E0,1.5E1,-1.7799376E-1,2.3E1,-9.0715185E-2,-1.24022596E-1,5.7552205E-3,6.311822E-2,-1.2083806E-1,4.475728E-2,-7.699387E-2,-3.2947856E-1,5.1971763E-2,-1.9465333E-2,-9.314055E-2,-1.4083678E-1],"split_indices":[0,1,1,0,1,1,1,0,0,1,0,1,1,0,1,0,0,0,0,0,0,0,0,0,0,0,0],"split_type":[0,0,0,0,0,0,0,0,0,0,0,0,0,0,0,0,0,0,0,0,0,0,0,0,0,0,0],"sum_hessian":[2.509E3,2.018E3,4.91E2,1.78E2,1.84E3,3.55E2,1.36E2,1.3E2,4.8E1,1.628E3,2.12E2,7.4E1,2.81E2,7.4E1,6.2E1,8.4E1,4.6E1,7.55E2,8.73E2,1.43E2,6.9E1,5.4E1,2E1,1.17E2,1.64E2,1.9E1,4.3E1],"tree_param":{"num_deleted":"0","num_feature":"2","num_nodes":"27","size_leaf_vector":"1"}},{"base_weights":[-6.41402E-3,1.245491E-1,-5.438289E-1,-8.702023E-1,2.2120088E-1,-2.0918368E-1,-1.4094484E0,-9.3185806E-1,-6.876083E-2,4.501765E-1,-2.2178894E-1,-1.3438652E0,9.3335085E-2,-1.6043171E0,-1.1550896E0,-7.1690455E-2,-1.03232995E-1,5.180516E-3,1.1053368E-1,-1.02973334E-1,6.0505386E-2,-6.9434464E-2,-2.9809967E-1,-1.6416628E-2,6.269158E-2,-1.453382E-1,-1.8644969E-1,-8.4292196E-2,-1.270732E-1],"categories":[],"categories_nodes":[],"categories_segments":[],"categories_sizes":[],"default_left":[0,0,0,0,0,0,0,0,0,0,0,0,0,0,0,0,0,0,0,0,0,0,0,0,0,0,0,0,0],"id":26,"left_children":[1,3,5,7,9,11,13,15,-1,17,19,21,23,25,27,-1,-1,-1,-1,-1,-1,-1,-1,-1,-1,-1,-1,-1,-1],"loss_changes":[1.7672537E2,1.9430826E2,1.4222546E2,1.3744049E0,1.8683961E2,1.2232685E2,4.9375E0,2.0891037E0,0E0,3.167932E2,4.2015402E2,7.768144E1,3.884908E1,2.3544312E-1,1.2031555E0,0E0,0E0,0E0,0E0,0E0,0E0,0E0,0E0,0E0,0E0,0E0,0E0,0E0,0E0],"parents":[2147483647,0,0,1,1,2,2,3,3,4,4,5,5,6,6,7,7,9,9,10,10,11,11,12,12,13,13,14,14],"right_children":[2,4,6,8,10,12,14,16,-1,18,20,22,24,26,28,-1,-1,-1,-1,-1,-1,-1,-1,-1,-1,-1,-1,-1,-1],"split_conditions":[7E0,3E0,2E1,5E0,1.8E1,8E0,2.2E1,2E0,-6.876083E-2,1.3E1,4E0,5E0,1.8E1,2.1E1,2.3E1,-7.1690455E-2,-1.03232995E-1,5.180516E-3,1.1053368E-1,-1.02973334E-1,6.0505386E-2,-6.9434464E-2,-2.9809967E-1,-1.6416628E-2,6.269158E-2,-1.453382E-1,-1.8644969E-1,-8.4292196E-2,-1.270732E-1],"split_indices":[0,1,1,0,1,1,1,0,0,1,0,1,1,1,1,0,0,0,0,0,0,0,0,0,0,0,0,0,0],"split_type":[0,0,0,0,0,0,0,0,0,0,0,0,0,0,0,0,0,0,0,0,0,0,0,0,0,0,0,0,0],"sum_hessian":[2.509E3,2.018E3,4.91E2,1.78E2,1.84E3,3.55E2,1.36E2,1.3E2,4.8E1,1.213E3,6.27E2,7.4E1,2.81E2,7.4E1,6.2E1,4.4E1,8.6E1,7.55E2,4.58E2,3.17E2,3.1E2,5.4E1,2E1,1.9E2,9.1E1,5.1E1,2.3E1,1.9E1,4.3E1],"tree_param":{"num_deleted":"0","num_feature":"2","num_nodes":"29","size_leaf_vector":"1"}},{"base_weights":[-6.184679E-3,1.1201007E-1,-4.9120298E-1,-7.8454334E-1,1.9912091E-1,-1.8916781E-1,-1.2724681E0,-8.400075E-1,-6.2025066E-2,4.0525463E-1,-1.996776E-1,-1.214379E0,8.416554E-2,-1.4483092E0,-1.0429355E0,-7.318132E-2,-1.01780556E-1,4.663165E-3,9.9504486E-2,-7.959057E-2,7.4823886E-2,-6.261725E-2,-2.6970923E-1,4.8446395E-2,-2.0261854E-2,-1.3108389E-1,-1.6858156E-1,-7.6284416E-2,-1.14654675E-1],"categories":[],"categories_nodes":[],"categories_segments":[],"categories_sizes":[],"default_left":[0,0,0,0,0,0,0,0,0,0,0,0,0,0,0,0,0,0,0,0,0,0,0,0,0,0,0,0,0],"id":27,"left_children":[1,3,5,7,9,11,13,15,-1,17,19,21,23,25,27,-1,-1,-1,-1,-1,-1,-1,-1,-1,-1,-1,-1,-1,-1],"loss_changes":[1.4394482E2,1.5783916E2,1.1585631E2,1.1100998E0,1.5142184E2,9.98621E1,4.018997E0,1.7751694E0,0E0,2.5672955E2,3.555251E2,6.3721794E1,3.2471535E1,2.3892212E-1,9.536667E-1,0E0,0E0,0E0,0E0,0E0,0E0,0E0,0E0,0E0,0E0,0E0,0E0,0E0,0E0],"parents":[2147483647,0,0,1,1,2,2,3,3,4,4,5,5,6,6,7,7,9,9,10,10,11,11,12,12,13,13,14,14],"right_children":[2,4,6,8,10,12,14,16,-1,18,20,22,24,26,28,-1,-1,-1,-1,-1,-1,-1,-1,-1,-1,-1,-1,-1,-1],"split_conditions":[7E0,3E0,2E1,5E0,1.8E1,8E0,2.2E1,3E0,-6.2025066E-2,1.3E1,5E0,5E0,1.5E1,2.1E1,2.3E1,-7.318132E-2,-1.01780556E-1,4.663165E-3,9.9504486E-2,-7.959057E-2,7.4823886E-2,-6.261725E-2,-2.6970923E-1,4.8446395E-2,-2.0261854E-2,-1.3108389E-1,-1.6858156E-1,-7.6284416E-2,-1.14654675E-1],"split_indices":[0,1,1,0,1,1,1,0,0,1,0,1,1,1,1,0,0,0,0,0,0,0,0,0,0,0,0,0,0],"split_type":[0,0,0,0,0,0,0,0,0,0,0,0,0,0,0,0,0,0,0,0,0,0,0,0,0,0,0,0,0],"sum_hessian":[2.509E3,2.018E3,4.91E2,1.78E2,1.84E3,3.55E2,1.36E2,1.3E2,4.8E1,1.213E3,6.27E2,7.4E1,2.81E2,7.4E1,6.2E1,8.4E1,4.6E1,7.55E2,4.58E2,3.85E2,2.42E2,5.4E1,2E1,1.17E2,1.64E2,5.1E1,2.3E1,1.9E1,4.3E1],"tree_param":{"num_deleted":"0","num_feature":"2","num_nodes":"29","size_leaf_vector":"1"}},{"base_weights":[-5.937766E-3,4.8137818E-2,-9.2868125E-1,-4.9171743E-1,1.462449E-1,-1.1271991E-1,-7.109502E-1,-2.7187577E-1,-6.387121E-1,1.3641016E0,8.8387124E-2,-1.3606409E-2,-1.0344978E-1,-6.5949276E-2,2.4717605E-2,-8.222108E-2,-5.463667E-2,2.4536157E-1,9.37207E-2,-4.270638E-2,2.1269167E-2],"categories":[],"categories_nodes":[],"categories_segments":[],"categories_sizes":[],"default_left":[0,0,0,0,0,0,0,0,0,0,0,0,0,0,0,0,0,0,0,0,0],"id":28,"left_children":[1,3,5,7,9,-1,11,13,15,17,19,-1,-1,-1,-1,-1,-1,-1,-1,-1,-1],"loss_changes":[1.25288414E2,1.2570164E2,5.206688E0,1.1621529E1,1.413681E2,0E0,1.2693447E1,2.9939617E1,3.2448425E0,4.002527E1,1.2298262E2,0E0,0E0,0E0,0E0,0E0,0E0,0E0,0E0,0E0,0E0],"parents":[2147483647,0,0,1,1,2,2,3,3,4,4,6,6,7,7,8,8,9,9,10,10],"right_children":[2,4,6,8,10,-1,12,14,16,18,20,-1,-1,-1,-1,-1,-1,-1,-1,-1,-1],"split_conditions":[2.3E1,5E0,4E0,3E0,7E0,-1.1271991E-1,7E0,3E0,5E0,3E0,1.1E1,-1.3606409E-2,-1.0344978E-1,-6.5949276E-2,2.4717605E-2,-8.222108E-2,-5.463667E-2,2.4536157E-1,9.37207E-2,-4.270638E-2,2.1269167E-2],"split_indices":[1,1,0,0,1,0,0,1,0,0,1,0,0,0,0,0,0,0,0,0,0],"split_type":[0,0,0,0,0,0,0,0,0,0,0,0,0,0,0,0,0,0,0,0,0],"sum_hessian":[2.509E3,2.371E3,1.38E2,3.64E2,2.007E3,7E1,6.8E1,1.47E2,2.17E2,9E1,1.917E3,2.5E1,4.3E1,8.4E1,6.3E1,7E1,1.47E2,2.4E1,6.6E1,3.72E2,1.545E3],"tree_param":{"num_deleted":"0","num_feature":"2","num_nodes":"21","size_leaf_vector":"1"}},{"base_weights":[-5.379846E-3,9.992413E-2,-4.3750048E-1,-6.4068407E-1,1.7187902E-1,-1.6947933E-1,-1.1307708E0,-6.861827E-1,-5.0596982E-2,3.561584E-1,-1.8462905E-1,-6.577059E-1,2.7030668E-1,-1.3284593E0,-8.7747864E-2,-5.107683E-2,-7.690271E-2,4.0958878E-3,8.745347E-2,-7.1343645E-2,6.5612935E-2,-1.0466453E-1,-3.4372527E-2,3.5172865E-1,-2.036195E-2,-1.203136E-1,-1.5446405E-1],"categories":[],"categories_nodes":[],"categories_segments":[],"categories_sizes":[],"default_left":[0,0,0,0,0,0,0,0,0,0,0,0,0,0,0,0,0,0,0,0,0,0,0,0,0,0,0],"id":29,"left_children":[1,3,5,7,9,11,13,15,-1,17,19,21,23,25,-1,-1,-1,-1,-1,-1,-1,-1,-1,-1,-1,-1,-1],"loss_changes":[1.1425881E2,1.077034E2,9.1227425E1,7.499542E-1,1.210141E2,7.661641E1,5.6943054E0,1.5109177E0,0E0,1.9832204E2,2.7967642E2,2.027842E1,2.9001602E2,1.7352295E-1,0E0,0E0,0E0,0E0,0E0,0E0,0E0,0E0,0E0,0E0,0E0,0E0,0E0],"parents":[2147483647,0,0,1,1,2,2,3,3,4,4,5,5,6,6,7,7,9,9,10,10,11,11,12,12,13,13],"right_children":[2,4,6,8,10,12,14,16,-1,18,20,22,24,26,-1,-1,-1,-1,-1,-1,-1,-1,-1,-1,-1,-1,-1],"split_conditions":[7E0,3E0,2E1,5E0,1.8E1,1.3E1,2.2E1,2E0,-5.0596982E-2,1.3E1,5E0,8E0,1.5E1,2.1E1,-8.7747864E-2,-5.107683E-2,-7.690271E-2,4.0958878E-3,8.745347E-2,-7.1343645E-2,6.5612935E-2,-1.0466453E-1,-3.4372527E-2,3.5172865E-1,-2.036195E-2,-1.203136E-1,-1.5446405E-1],"split_indices":[0,1,1,0,1,1,1,0,0,1,0,1,1,1,0,0,0,0,0,0,0,0,0,0,0,0,0],"split_type":[0,0,0,0,0,0,0,0,0,0,0,0,0,0,0,0,0,0,0,0,0,0,0,0,0,0,0],"sum_hessian":[2.509E3,2.018E3,4.91E2,1.78E2,1.84E3,3.55E2,1.36E2,1.3E2,4.8E1,1.213E3,6.27E2,1.68E2,1.87E2,7.4E1,6.2E1,4.4E1,8.6E1,7.55E2,4.58E2,3.85E2,2.42E2,7.4E1,9.4E1,2.3E1,1.64E2,5.1E1,2.3E1],"tree_param":{"num_deleted":"0","num_feature":"2","num_nodes":"27","size_leaf_vector":"1"}},{"base_weights":[-4.946504E-3,1.6107078E-1,-2.401462E-1,-1.594337E-1,1.1126472E0,-7.181133E-1,7.633706E-2,2.1530943E-2,-5.2639365E-1,2.0263977E0,-2.6237977E-1,-6.2979656E-1,-9.343163E-1,5.6829107E-1,-6.560403E-1,-3.980997E-2,4.29914E-2,-1.334915E-1,7.1811736E-2,2.8323376E-1,1.2852448E-1,-1.4376299E-1,9.808618E-2,-7.20266E-2,-3.5240363E-2,-6.4567655E-2,-1.1299347E-1,2.49186E-2,9.238483E-2,-3.1707275E-1,-3.774297E-2],"categories":[],"categories_nodes":[],"categories_segments":[],"categories_sizes":[],"default_left":[0,0,0,0,0,0,0,0,0,0,0,0,0,0,0,0,0,0,0,0,0,0,0,0,0,0,0,0,0,0,0],"id":30,"left_children":[1,3,5,7,9,11,13,15,17,19,21,23,25,27,29,-1,-1,-1,-1,-1,-1,-1,-1,-1,-1,-1,-1,-1,-1,-1,-1],"loss_changes":[9.804719E1,4.4911456E2,1.5722289E2,7.319161E1,4.666678E2,7.3166046E0,2.2591812E2,1.268136E2,3.6722037E2,1.2956311E2,2.1911694E2,7.1995697E0,5.933098E0,4.2317345E1,1.7535913E2,0E0,0E0,0E0,0E0,0E0,0E0,0E0,0E0,0E0,0E0,0E0,0E0,0E0,0E0,0E0,0E0],"parents":[2147483647,0,0,1,1,2,2,3,3,4,4,5,5,6,6,7,7,8,8,9,9,10,10,11,11,12,12,13,13,14,14],"right_children":[2,4,6,8,10,12,14,16,18,20,22,24,26,28,30,-1,-1,-1,-1,-1,-1,-1,-1,-1,-1,-1,-1,-1,-1,-1,-1],"split_conditions":[1.7E1,1.3E1,4E0,1E1,6E0,2.2E1,7E0,5E0,6E0,3E0,7E0,3E0,2E0,6E0,1.8E1,-3.980997E-2,4.29914E-2,-1.334915E-1,7.1811736E-2,2.8323376E-1,1.2852448E-1,-1.4376299E-1,9.808618E-2,-7.20266E-2,-3.5240363E-2,-6.4567655E-2,-1.1299347E-1,2.49186E-2,9.238483E-2,-3.1707275E-1,-3.774297E-2],"split_indices":[1,1,0,1,0,1,0,1,0,0,0,0,0,0,1,0,0,0,0,0,0,0,0,0,0,0,0,0,0,0,0],"split_type":[0,0,0,0,0,0,0,0,0,0,0,0,0,0,0,0,0,0,0,0,0,0,0,0,0,0,0,0,0,0,0],"sum_hessian":[2.509E3,1.471E3,1.038E3,1.101E3,3.7E2,4.13E2,6.25E2,7.38E2,3.63E2,2.22E2,1.48E2,2.96E2,1.17E2,3.74E2,2.51E2,3.64E2,3.74E2,2.2E2,1.43E2,1.05E2,1.17E2,7.6E1,7.2E1,2.22E2,7.4E1,4.9E1,6.8E1,1.98E2,1.76E2,2.4E1,2.27E2],"tree_param":{"num_deleted":"0","num_feature":"2","num_nodes":"31","size_leaf_vector":"1"}},{"base_weights":[-4.5374753E-3,8.828443E-2,-3.854377E-1,-5.3802574E-1,1.4913248E-1,-1.5444323E-1,-9.828726E-1,-5.7903534E-1,-4.1740775E-2,2.2966896E-1,-4.6750167E-1,-4.2320365E-1,6.213823E-2,-1.1620377E0,-7.5397974E-1,-4.9234856E-2,-7.234894E-2,-3.6789326E-3,3.5856348E-2,-8.423895E-2,-1.8322865E-4,-1.6801048E-2,-2.8663376E-1,-1.0481193E-1,-1.3604428E-1,-5.9136327E-2,-8.107604E-2],"categories":[],"categories_nodes":[],"categories_segments":[],"categories_sizes":[],"default_left":[0,0,0,0,0,0,0,0,0,0,0,0,0,0,0,0,0,0,0,0,0,0,0,0,0,0,0],"id":31,"left_children":[1,3,5,7,9,11,13,15,-1,17,19,21,-1,23,25,-1,-1,-1,-1,-1,-1,-1,-1,-1,-1,-1,-1],"loss_changes":[8.8777306E1,7.70238E1,6.774625E1,6.4373016E-1,9.153429E1,7.449295E1,4.742157E0,1.2842102E0,0E0,5.596118E1,3.7182663E1,1.6473824E2,0E0,2.6924896E-1,1.0225296E-1,0E0,0E0,0E0,0E0,0E0,0E0,0E0,0E0,0E0,0E0,0E0,0E0],"parents":[2147483647,0,0,1,1,2,2,3,3,4,4,5,5,6,6,7,7,9,9,10,10,11,11,13,13,14,14],"right_children":[2,4,6,8,10,12,14,16,-1,18,20,22,-1,24,26,-1,-1,-1,-1,-1,-1,-1,-1,-1,-1,-1,-1],"split_conditions":[7E0,3E0,2E1,5E0,2.2E1,1.8E1,2.2E1,3E0,-4.1740775E-2,1.1E1,4E0,1.7E1,6.213823E-2,2.1E1,2.3E1,-4.9234856E-2,-7.234894E-2,-3.6789326E-3,3.5856348E-2,-8.423895E-2,-1.8322865E-4,-1.6801048E-2,-2.8663376E-1,-1.0481193E-1,-1.3604428E-1,-5.9136327E-2,-8.107604E-2],"split_indices":[0,1,1,0,1,1,1,0,0,1,0,1,0,1,1,0,0,0,0,0,0,0,0,0,0,0,0],"split_type":[0,0,0,0,0,0,0,0,0,0,0,0,0,0,0,0,0,0,0,0,0,0,0,0,0,0,0],"sum_hessian":[2.509E3,2.018E3,4.91E2,1.78E2,1.84E3,3.55E2,1.36E2,1.3E2,4.8E1,1.628E3,2.12E2,2.64E2,9.1E1,7.4E1,6.2E1,8.4E1,4.6E1,5.31E2,1.097E3,1.17E2,9.5E1,2.4E2,2.4E1,5.1E1,2.3E1,1.9E1,4.3E1],"tree_param":{"num_deleted":"0","num_feature":"2","num_nodes":"27","size_leaf_vector":"1"}},{"base_weights":[-4.4174474E-3,1.4295551E-1,-2.1320337E-1,-1.3790658E-1,9.76829E-1,-6.4881974E-1,7.5228535E-2,3.6667988E-2,-4.9195245E-1,1.7899089E0,-2.4661824E-1,-5.560725E-1,-7.1709925E-1,4.8514402E-1,-5.3506327E-1,-3.2864455E-2,3.921411E-2,-2.1068385E-1,3.0572193E-3,2.5162584E-1,1.1222569E-1,-1.3311248E-1,9.006917E-2,2.248586E-3,-1.0404018E-1,-1.04442574E-1,-3.8924795E-2,1.965038E-2,8.0691956E-2,-2.5911695E-1,-3.0726627E-2],"categories":[],"categories_nodes":[],"categories_segments":[],"categories_sizes":[],"default_left":[0,0,0,0,0,0,0,0,0,0,0,0,0,0,0,0,0,0,0,0,0,0,0,0,0,0,0,0,0,0,0],"id":32,"left_children":[1,3,5,7,9,11,13,15,17,19,21,23,25,27,29,-1,-1,-1,-1,-1,-1,-1,-1,-1,-1,-1,-1,-1,-1,-1,-1],"loss_changes":[7.726167E1,3.4488214E2,1.3059464E2,6.812979E1,3.6949744E2,2.2230072E0,1.5686479E2,9.609451E1,3.0721405E2,1.053197E2,1.8659445E2,5.0461693E1,2.4812347E1,3.467044E1,1.1723428E2,0E0,0E0,0E0,0E0,0E0,0E0,0E0,0E0,0E0,0E0,0E0,0E0,0E0,0E0,0E0,0E0],"parents":[2147483647,0,0,1,1,2,2,3,3,4,4,5,5,6,6,7,7,8,8,9,9,10,10,11,11,12,12,13,13,14,14],"right_children":[2,4,6,8,10,12,14,16,18,20,22,24,26,28,30,-1,-1,-1,-1,-1,-1,-1,-1,-1,-1,-1,-1,-1,-1,-1,-1],"split_conditions":[1.7E1,1.3E1,4E0,1E1,6E0,2E1,7E0,5E0,1.1E1,3E0,7E0,2E0,2E0,6E0,1.8E1,-3.2864455E-2,3.921411E-2,-2.1068385E-1,3.0572193E-3,2.5162584E-1,1.1222569E-1,-1.3311248E-1,9.006917E-2,2.248586E-3,-1.0404018E-1,-1.04442574E-1,-3.8924795E-2,1.965038E-2,8.0691956E-2,-2.5911695E-1,-3.0726627E-2],"split_indices":[1,1,0,1,0,1,0,1,1,0,0,0,0,0,1,0,0,0,0,0,0,0,0,0,0,0,0,0,0,0,0],"split_type":[0,0,0,0,0,0,0,0,0,0,0,0,0,0,0,0,0,0,0,0,0,0,0,0,0,0,0,0,0,0,0],"sum_hessian":[2.509E3,1.471E3,1.038E3,1.101E3,3.7E2,4.13E2,6.25E2,7.38E2,3.63E2,2.22E2,1.48E2,1.79E2,2.34E2,3.74E2,2.51E2,3.64E2,3.74E2,8.8E1,2.75E2,1.05E2,1.17E2,7.6E1,7.2E1,8.2E1,9.7E1,1.16E2,1.18E2,1.98E2,1.76E2,2.4E1,2.27E2],"tree_param":{"num_deleted":"0","num_feature":"2","num_nodes":"31","size_leaf_vector":"1"}},{"base_weights":[-4.101169E-3,5.262646E-2,-4.6533346E-1,-1.24298304E-1,2.243608E-1,-6.930629E-1,-2.923119E-1,3.3010256E-2,-4.4332778E-1,1.5162469E0,1.0803835E-2,-3.9749235E-1,-8.9720005E-1,-5.416118E-2,-6.5056837E-1,-2.9587004E-2,3.530324E-2,-1.1914849E-1,7.079643E-2,1.2444329E-1,3.0160007E-1,1.4153138E-2,-3.9236356E-2,-2.3467774E-2,-5.3875666E-2,-1.07192114E-1,-7.865369E-2,5.578486E-3,-3.523153E-2,-5.0599355E-2,-7.014986E-2],"categories":[],"categories_nodes":[],"categories_segments":[],"categories_sizes":[],"default_left":[0,0,0,0,0,0,0,0,0,0,0,0,0,0,0,0,0,0,0,0,0,0,0,0,0,0,0,0,0,0,0],"id":33,"left_children":[1,3,5,7,9,11,13,15,17,19,21,23,25,27,29,-1,-1,-1,-1,-1,-1,-1,-1,-1,-1,-1,-1,-1,-1,-1,-1],"loss_changes":[6.569768E1,6.796664E1,1.0632992E1,5.531968E1,3.131202E2,6.7631264E0,1.3445174E1,7.788343E1,3.1437402E2,6.187912E1,5.1442986E1,1.023561E0,4.9102402E-1,3.1666172E0,1.0892677E-1,0E0,0E0,0E0,0E0,0E0,0E0,0E0,0E0,0E0,0E0,0E0,0E0,0E0,0E0,0E0,0E0],"parents":[2147483647,0,0,1,1,2,2,3,3,4,4,5,5,6,6,7,7,8,8,9,9,10,10,11,11,12,12,13,13,14,14],"right_children":[2,4,6,8,10,12,14,16,18,20,22,24,26,28,30,-1,-1,-1,-1,-1,-1,-1,-1,-1,-1,-1,-1,-1,-1,-1,-1],"split_conditions":[2.2E1,1.3E1,4E0,1E1,1.5E1,2E0,7E0,5E0,6E0,7E0,7E0,2.3E1,2.3E1,2.3E1,2.3E1,-2.9587004E-2,3.530324E-2,-1.1914849E-1,7.079643E-2,1.2444329E-1,3.0160007E-1,1.4153138E-2,-3.9236356E-2,-2.3467774E-2,-5.3875666E-2,-1.07192114E-1,-7.865369E-2,5.578486E-3,-3.523153E-2,-5.0599355E-2,-7.014986E-2],"split_indices":[1,1,0,1,1,0,0,1,0,0,0,1,1,1,1,0,0,0,0,0,0,0,0,0,0,0,0,0,0,0,0],"split_type":[0,0,0,0,0,0,0,0,0,0,0,0,0,0,0,0,0,0,0,0,0,0,0,0,0,0,0,0,0,0,0],"sum_hessian":[2.509E3,2.235E3,2.74E2,1.101E3,1.134E3,1.17E2,1.57E2,7.38E2,3.63E2,1.6E2,9.74E2,4.9E1,6.8E1,9.5E1,6.2E1,3.64E2,3.74E2,2.2E2,1.43E2,1.37E2,2.3E1,7.36E2,2.38E2,2.4E1,2.5E1,2.3E1,4.5E1,7E1,2.5E1,1.9E1,4.3E1],"tree_param":{"num_deleted":"0","num_feature":"2","num_nodes":"31","size_leaf_vector":"1"}},{"base_weights":[-3.7130683E-3,7.39268E-2,-3.2231304E-1,-7.425225E-2,2.5824526E-1,-1.3502489E-1,-8.0663615E-1,2.193879E-1,-5.755308E-1,-3.0747244E-1,4.0108582E-1,-3.9980382E-1,6.291213E-2,-9.800158E-1,-5.874281E-1,-2.2030463E-2,1.8675004E-1,-6.871979E-2,-5.313263E-2,2.805818E-3,-3.0266735E-1,1.7384455E-1,3.070933E-2,-2.0053633E-2,-2.3047505E-1,-8.767062E-2,-1.1630193E-1,-4.5792397E-2,-6.32943E-2],"categories":[],"categories_nodes":[],"categories_segments":[],"categories_sizes":[],"default_left":[0,0,0,0,0,0,0,0,0,0,0,0,0,0,0,0,0,0,0,0,0,0,0,0,0,0,0,0,0],"id":34,"left_children":[1,3,5,7,9,11,13,15,17,19,21,23,-1,25,27,-1,-1,-1,-1,-1,-1,-1,-1,-1,-1,-1,-1,-1,-1],"loss_changes":[6.2111336E1,5.5162373E1,4.4519413E1,1.6498524E2,7.285001E1,7.228093E1,4.6311646E0,5.127479E2,1.6784515E0,1.661372E2,8.9845764E1,1.0013021E2,0E0,3.9832306E-1,8.150673E-2,0E0,0E0,0E0,0E0,0E0,0E0,0E0,0E0,0E0,0E0,0E0,0E0,0E0,0E0],"parents":[2147483647,0,0,1,1,2,2,3,3,4,4,5,5,6,6,7,7,8,8,9,9,10,10,11,11,13,13,14,14],"right_children":[2,4,6,8,10,12,14,16,18,20,22,24,-1,26,28,-1,-1,-1,-1,-1,-1,-1,-1,-1,-1,-1,-1,-1,-1],"split_conditions":[7E0,4E0,2E1,1.7E1,8E0,1.8E1,2.2E1,1.3E1,1.9E1,7E0,1E1,1.7E1,6.291213E-2,2.1E1,2.3E1,-2.2030463E-2,1.8675004E-1,-6.871979E-2,-5.313263E-2,2.805818E-3,-3.0266735E-1,1.7384455E-1,3.070933E-2,-2.0053633E-2,-2.3047505E-1,-8.767062E-2,-1.1630193E-1,-4.5792397E-2,-6.32943E-2],"split_indices":[0,0,1,1,1,1,1,1,1,1,1,1,0,1,1,0,0,0,0,0,0,0,0,0,0,0,0,0,0],"split_type":[0,0,0,0,0,0,0,0,0,0,0,0,0,0,0,0,0,0,0,0,0,0,0,0,0,0,0,0,0],"sum_hessian":[2.509E3,2.018E3,4.91E2,1.119E3,8.99E2,3.55E2,1.36E2,7.06E2,4.13E2,1.81E2,7.18E2,2.64E2,9.1E1,7.4E1,6.2E1,5.58E2,1.48E2,1.13E2,3E2,1.62E2,1.9E1,4.6E1,6.72E2,2.4E2,2.4E1,5.1E1,2.3E1,1.9E1,4.3E1],"tree_param":{"num_deleted":"0","num_feature":"2","num_nodes":"29","size_leaf_vector":"1"}},{"base_weights":[-3.5623093E-3,6.650789E-2,-2.9109925E-1,-4.1111553E-1,1.1291098E-1,-1.22049205E-1,-7.282578E-1,-2.9115582E-2,-4.4805682E-1,5.357706E-1,3.285237E-2,-5.8705044E-1,2.9660642E-1,-8.8473415E-1,-5.3041667E-1,-5.161063E-2,-3.1809017E-2,1.3550521E-1,-2.0239647E-2,-7.096047E-2,1.6884996E-2,1.3005892E-2,-7.303776E-2,2.7461863E-1,-6.1493707E-3,-7.907218E-2,-1.0515638E-1,-4.1442104E-2,-5.7108708E-2],"categories":[],"categories_nodes":[],"categories_segments":[],"categories_sizes":[],"default_left":[0,0,0,0,0,0,0,0,0,0,0,0,0,0,0,0,0,0,0,0,0,0,0,0,0,0,0,0,0],"id":35,"left_children":[1,3,5,7,9,11,13,-1,15,17,19,21,23,25,27,-1,-1,-1,-1,-1,-1,-1,-1,-1,-1,-1,-1,-1,-1],"loss_changes":[5.0590263E1,4.4793922E1,3.6270737E1,6.6277885E-1,6.2306793E1,6.947855E1,3.7718887E0,0E0,1.0297947E0,1.7747087E2,1.5652603E2,1.746502E1,1.6508151E2,3.448105E-1,6.053734E-2,0E0,0E0,0E0,0E0,0E0,0E0,0E0,0E0,0E0,0E0,0E0,0E0,0E0,0E0],"parents":[2147483647,0,0,1,1,2,2,3,3,4,4,5,5,6,6,8,8,9,9,10,10,11,11,12,12,13,13,14,14],"right_children":[2,4,6,8,10,12,14,-1,16,18,20,22,24,26,28,-1,-1,-1,-1,-1,-1,-1,-1,-1,-1,-1,-1,-1,-1],"split_conditions":[7E0,3E0,2E1,2E0,8E0,1.3E1,2.2E1,-2.9115582E-2,5E0,3E0,1.1E1,1E0,1.5E1,2.1E1,2.3E1,-5.161063E-2,-3.1809017E-2,1.3550521E-1,-2.0239647E-2,-7.096047E-2,1.6884996E-2,1.3005892E-2,-7.303776E-2,2.7461863E-1,-6.1493707E-3,-7.907218E-2,-1.0515638E-1,-4.1442104E-2,-5.7108708E-2],"split_indices":[0,1,1,0,1,1,1,0,0,0,1,1,1,1,1,0,0,0,0,0,0,0,0,0,0,0,0,0,0],"split_type":[0,0,0,0,0,0,0,0,0,0,0,0,0,0,0,0,0,0,0,0,0,0,0,0,0,0,0,0,0],"sum_hessian":[2.509E3,2.018E3,4.91E2,1.78E2,1.84E3,3.55E2,1.36E2,4.4E1,1.34E2,2.92E2,1.548E3,1.68E2,1.87E2,7.4E1,6.2E1,8.6E1,4.8E1,1.38E2,1.54E2,2.39E2,1.309E3,2.8E1,1.4E2,2.3E1,1.64E2,5.1E1,2.3E1,1.9E1,4.3E1],"tree_param":{"num_deleted":"0","num_feature":"2","num_nodes":"29","size_leaf_vector":"1"}},{"base_weights":[-3.2563407E-3,4.510549E-2,-3.9647016E-1,-1.4796506E-1,1.5831417E-1,-5.5724716E-1,-2.1807347E-1,5.2501943E-2,-1.8108544E0,4.3724024E-1,-7.743034E-2,-3.2376745E-1,-6.7426544E-1,5.2433133E-2,-4.6581766E-1,-2.481519E-2,3.4499835E-2,-5.7844925E-1,2.029383E-1,1.2745675E-1,5.3423424E-3,-5.114903E-2,1.9760853E-2,-1.7735107E-2,-4.5209985E-2,-7.744513E-2,-3.9326232E-2,2.4126098E-2,-3.7505116E-2,-3.642023E-2,-5.1527638E-2],"categories":[],"categories_nodes":[],"categories_segments":[],"categories_sizes":[],"default_left":[0,0,0,0,0,0,0,0,0,0,0,0,0,0,0,0,0,0,0,0,0,0,0,0,0,0,0,0,0,0,0],"id":36,"left_children":[1,3,5,7,9,11,13,15,17,19,21,23,25,27,29,-1,-1,-1,-1,-1,-1,-1,-1,-1,-1,-1,-1,-1,-1,-1,-1],"loss_changes":[4.7749393E1,4.8896267E1,7.766056E0,2.757792E2,9.27488E1,3.7159767E0,8.870594E0,6.50734E1,1.3698534E3,2.0754358E2,9.142933E1,8.593178E-1,2.3699265E0,5.256625E0,1.5911388E-1,0E0,0E0,0E0,0E0,0E0,0E0,0E0,0E0,0E0,0E0,0E0,0E0,0E0,0E0,0E0,0E0],"parents":[2147483647,0,0,1,1,2,2,3,3,4,4,5,5,6,6,7,7,8,8,9,9,10,10,11,11,12,12,13,13,14,14],"right_children":[2,4,6,8,10,12,14,16,18,20,22,24,26,28,30,-1,-1,-1,-1,-1,-1,-1,-1,-1,-1,-1,-1,-1,-1,-1,-1],"split_conditions":[2.2E1,1.1E1,5E0,1E1,1.7E1,2E0,2.3E1,5E0,5E0,3E0,4E0,2.3E1,4E0,7E0,7E0,-2.481519E-2,3.4499835E-2,-5.7844925E-1,2.029383E-1,1.2745675E-1,5.3423424E-3,-5.114903E-2,1.9760853E-2,-1.7735107E-2,-4.5209985E-2,-7.744513E-2,-3.9326232E-2,2.4126098E-2,-3.7505116E-2,-3.642023E-2,-5.1527638E-2],"split_indices":[1,1,0,1,1,0,1,1,0,0,0,1,0,0,0,0,0,0,0,0,0,0,0,0,0,0,0,0,0,0,0],"split_type":[0,0,0,0,0,0,0,0,0,0,0,0,0,0,0,0,0,0,0,0,0,0,0,0,0,0,0,0,0,0,0],"sum_hessian":[2.509E3,2.235E3,2.74E2,8.26E2,1.409E3,1.43E2,1.31E2,7.38E2,8.8E1,6.45E2,7.64E2,4.9E1,9.4E1,6.3E1,6.8E1,3.64E2,3.74E2,4.3E1,4.5E1,2.02E2,4.43E2,2.96E2,4.68E2,2.4E1,2.5E1,6.8E1,2.6E1,4.4E1,1.9E1,2.5E1,4.3E1],"tree_param":{"num_deleted":"0","num_feature":"2","num_nodes":"31","size_leaf_vector":"1"}},{"base_weights":[-3.1480382E-3,6.293923E-2,-2.7434123E-1,-7.442157E-2,2.3380718E-1,-1.302384E-1,-6.467957E-1,1.643898E-1,-4.8206705E-1,-2.4723566E-1,3.5524806E-1,-5.5717134E-1,2.5423983E-1,-8.1821483E-1,-4.3245864E-1,-2.115977E-2,1.5738706E-1,-5.851176E-2,-4.414364E-2,6.16985E-3,-2.7526873E-1,1.6039841E-1,2.675128E-2,1.4146107E-2,-6.969102E-2,2.4778906E-1,-7.074115E-3,-7.3255144E-2,-9.697267E-2,-3.3942133E-2,-4.6491973E-2],"categories":[],"categories_nodes":[],"categories_segments":[],"categories_sizes":[],"default_left":[0,0,0,0,0,0,0,0,0,0,0,0,0,0,0,0,0,0,0,0,0,0,0,0,0,0,0,0,0,0,0],"id":37,"left_children":[1,3,5,7,9,11,13,15,17,19,21,23,25,27,29,-1,-1,-1,-1,-1,-1,-1,-1,-1,-1,-1,-1,-1,-1,-1,-1],"loss_changes":[4.5002533E1,4.7404457E1,2.6322258E1,1.09111664E2,5.266426E1,5.8577778E1,4.679737E0,3.7500565E2,1.4751282E0,1.4104141E2,7.834325E1,1.659739E1,1.360324E2,2.6305008E-1,3.2463074E-2,0E0,0E0,0E0,0E0,0E0,0E0,0E0,0E0,0E0,0E0,0E0,0E0,0E0,0E0,0E0,0E0],"parents":[2147483647,0,0,1,1,2,2,3,3,4,4,5,5,6,6,7,7,8,8,9,9,10,10,11,11,12,12,13,13,14,14],"right_children":[2,4,6,8,10,12,14,16,18,20,22,24,26,28,30,-1,-1,-1,-1,-1,-1,-1,-1,-1,-1,-1,-1,-1,-1,-1,-1],"split_conditions":[7E0,4E0,2E1,1.7E1,8E0,1.3E1,2.2E1,1.3E1,1.9E1,7E0,1E1,1E0,1.5E1,2.1E1,2.3E1,-2.115977E-2,1.5738706E-1,-5.851176E-2,-4.414364E-2,6.16985E-3,-2.7526873E-1,1.6039841E-1,2.675128E-2,1.4146107E-2,-6.969102E-2,2.4778906E-1,-7.074115E-3,-7.3255144E-2,-9.697267E-2,-3.3942133E-2,-4.6491973E-2],"split_indices":[0,0,1,1,1,1,1,1,1,1,1,1,1,1,1,0,0,0,0,0,0,0,0,0,0,0,0,0,0,0,0],"split_type":[0,0,0,0,0,0,0,0,0,0,0,0,0,0,0,0,0,0,0,0,0,0,0,0,0,0,0,0,0,0,0],"sum_hessian":[2.509E3,2.018E3,4.91E2,1.119E3,8.99E2,3.55E2,1.36E2,7.06E2,4.13E2,1.81E2,7.18E2,1.68E2,1.87E2,7.4E1,6.2E1,5.58E2,1.48E2,1.13E2,3E2,1.62E2,1.9E1,4.6E1,6.72E2,2.8E1,1.4E2,2.3E1,1.64E2,5.1E1,2.3E1,1.9E1,4.3E1],"tree_param":{"num_deleted":"0","num_feature":"2","num_nodes":"31","size_leaf_vector":"1"}},{"base_weights":[-2.878429E-3,5.6621544E-2,-2.4704015E-1,-6.6949256E-2,2.1033563E-1,-7.7865005E-1,-1.510646E-1,4.4254985E-1,-2.4467222E-1,-3.5587287E-1,2.95396E-1,-1.9368951E-1,-2.2736111E-1,5.9771445E-2,-5.8394563E-1,-1.2432431E-2,1.5717359E-1,-1.5807432E-1,4.9543786E-3,-6.0418375E-2,-2.8604686E-2,1.1097894E-1,2.442341E-2,1.2780251E-2,-5.318221E-2,-1.8169483E-2,5.604268E-2,-7.386628E-2,-3.904895E-2],"categories":[],"categories_nodes":[],"categories_segments":[],"categories_sizes":[],"default_left":[0,0,0,0,0,0,0,0,0,0,0,0,0,0,0,0,0,0,0,0,0,0,0,0,0,0,0,0,0],"id":38,"left_children":[1,3,5,7,9,11,13,15,17,19,21,23,-1,25,27,-1,-1,-1,-1,-1,-1,-1,-1,-1,-1,-1,-1,-1,-1],"loss_changes":[3.6478302E1,3.8364124E1,2.4984978E1,1.0152395E2,4.345083E1,6.5146614E1,3.8184475E1,1.8582625E2,3.26739E2,1.8731241E0,3.235337E1,6.0468493E0,0E0,3.4193195E1,3.812107E0,0E0,0E0,0E0,0E0,0E0,0E0,0E0,0E0,0E0,0E0,0E0,0E0,0E0,0E0],"parents":[2147483647,0,0,1,1,2,2,3,3,4,4,5,5,6,6,7,7,8,8,9,9,10,10,11,11,13,13,14,14],"right_children":[2,4,6,8,10,12,14,16,18,20,22,24,-1,26,28,-1,-1,-1,-1,-1,-1,-1,-1,-1,-1,-1,-1,-1,-1],"split_conditions":[7E0,4E0,8E0,8E0,5E0,5E0,2E1,5E0,1.1E1,5E0,7E0,1E0,-2.2736111E-1,1.8E1,2.2E1,-1.2432431E-2,1.5717359E-1,-1.5807432E-1,4.9543786E-3,-6.0418375E-2,-2.8604686E-2,1.1097894E-1,2.442341E-2,1.2780251E-2,-5.318221E-2,-1.8169483E-2,5.604268E-2,-7.386628E-2,-3.904895E-2],"split_indices":[0,0,1,1,1,1,1,1,1,0,1,1,0,1,1,0,0,0,0,0,0,0,0,0,0,0,0,0,0],"split_type":[0,0,0,0,0,0,0,0,0,0,0,0,0,0,0,0,0,0,0,0,0,0,0,0,0,0,0,0,0],"sum_hessian":[2.509E3,2.018E3,4.91E2,1.119E3,8.99E2,7.4E1,4.17E2,2.89E2,8.3E2,1.17E2,7.82E2,5.4E1,2E1,2.81E2,1.36E2,1.93E2,9.6E1,1.49E2,6.81E2,2.4E1,9.3E1,4.5E1,7.37E2,2.8E1,2.6E1,1.9E2,9.1E1,7.4E1,6.2E1],"tree_param":{"num_deleted":"0","num_feature":"2","num_nodes":"29","size_leaf_vector":"1"}},{"base_weights":[-2.7122633E-3,3.882425E-2,-3.40432E-1,9.6493326E-2,-2.036103E-1,-4.801691E-1,-1.854125E-1,-3.1277397E-1,1.4140576E-1,-7.043553E-1,-9.7544335E-2,-2.5424412E-1,-5.940226E-1,3.3467278E-2,-3.8574427E-2,-2.0557778E-2,-3.461892E-2,4.4205677E-2,7.5413133E-3,-1.750551E-2,-2.057077E-1,5.3928527E-3,-6.657817E-2,-1.2270369E-2,-3.7094668E-2,-6.595073E-2,-4.046719E-2,1.6763322E-2,-2.7007947E-2],"categories":[],"categories_nodes":[],"categories_segments":[],"categories_sizes":[],"default_left":[0,0,0,0,0,0,0,0,0,0,0,0,0,0,0,0,0,0,0,0,0,0,0,0,0,0,0,0,0],"id":39,"left_children":[1,3,5,7,9,11,13,15,17,19,21,23,25,27,-1,-1,-1,-1,-1,-1,-1,-1,-1,-1,-1,-1,-1,-1,-1],"loss_changes":[3.5222744E1,3.1281113E1,5.8680115E0,3.3259037E1,2.2769455E1,3.55299E0,5.8009224E0,5.700073E-1,3.2287247E1,5.333958E1,3.0677727E1,7.22039E-1,9.110756E-1,2.651715E0,0E0,0E0,0E0,0E0,0E0,0E0,0E0,0E0,0E0,0E0,0E0,0E0,0E0,0E0,0E0],"parents":[2147483647,0,0,1,1,2,2,3,3,4,4,5,5,6,6,7,7,8,8,9,9,10,10,11,11,12,12,13,13],"right_children":[2,4,6,8,10,12,14,16,18,20,22,24,26,28,-1,-1,-1,-1,-1,-1,-1,-1,-1,-1,-1,-1,-1,-1,-1],"split_conditions":[2.2E1,7E0,5E0,3E0,8E0,2E0,2.3E1,2E0,8E0,5E0,2E1,2.3E1,4E0,7E0,-3.8574427E-2,-2.0557778E-2,-3.461892E-2,4.4205677E-2,7.5413133E-3,-1.750551E-2,-2.057077E-1,5.3928527E-3,-6.657817E-2,-1.2270369E-2,-3.7094668E-2,-6.595073E-2,-4.046719E-2,1.6763322E-2,-2.7007947E-2],"split_indices":[1,0,0,1,1,0,1,0,1,1,1,1,0,0,0,0,0,0,0,0,0,0,0,0,0,0,0,0,0],"split_type":[0,0,0,0,0,0,0,0,0,0,0,0,0,0,0,0,0,0,0,0,0,0,0,0,0,0,0,0,0],"sum_hessian":[2.509E3,2.235E3,2.74E2,1.806E3,4.29E2,1.43E2,1.31E2,1.78E2,1.628E3,7.4E1,3.55E2,4.9E1,9.4E1,6.3E1,6.8E1,4.4E1,1.34E2,2.92E2,1.336E3,5.4E1,2E1,2.81E2,7.4E1,2.4E1,2.5E1,6.8E1,2.6E1,4.4E1,1.9E1],"tree_param":{"num_deleted":"0","num_feature":"2","num_nodes":"29","size_leaf_vector":"1"}},{"base_weights":[-2.6374394E-3,3.4812864E-2,-3.0713287E-1,-1.09328926E-1,1.1933091E-1,-4.3323404E-1,-1.6724122E-1,7.0367925E-2,-1.60019E0,3.3297294E-1,-6.1233893E-2,-2.29807E-1,-5.357405E-1,2.996026E-2,-3.4772895E-2,-1.878811E-2,3.2154266E-2,-7.59952E-1,4.831649E-2,1.0640073E-1,-2.0111832E-4,-4.2350568E-2,1.6830971E-2,-1.1092408E-2,-3.3527877E-2,-5.945124E-2,-3.6570344E-2,1.5124206E-2,-2.4442181E-2],"categories":[],"categories_nodes":[],"categories_segments":[],"categories_sizes":[],"default_left":[0,0,0,0,0,0,0,0,0,0,0,0,0,0,0,0,0,0,0,0,0,0,0,0,0,0,0,0,0],"id":40,"left_children":[1,3,5,7,9,11,13,15,17,19,21,23,25,27,-1,-1,-1,-1,-1,-1,-1,-1,-1,-1,-1,-1,-1,-1,-1],"loss_changes":[2.8633343E1,2.7253302E1,4.7786846E0,2.2166843E2,5.4412876E1,2.8796558E0,4.708621E0,4.7996113E1,1.1160591E3,1.5819778E2,6.3686512E1,5.897491E-1,7.319565E-1,2.1667304E0,0E0,0E0,0E0,0E0,0E0,0E0,0E0,0E0,0E0,0E0,0E0,0E0,0E0,0E0,0E0],"parents":[2147483647,0,0,1,1,2,2,3,3,4,4,5,5,6,6,7,7,8,8,9,9,10,10,11,11,12,12,13,13],"right_children":[2,4,6,8,10,12,14,16,18,20,22,24,26,28,-1,-1,-1,-1,-1,-1,-1,-1,-1,-1,-1,-1,-1,-1,-1],"split_conditions":[2.2E1,1.1E1,5E0,1E1,1.7E1,2E0,2.3E1,5E0,3E0,3E0,4E0,2.3E1,4E0,7E0,-3.4772895E-2,-1.878811E-2,3.2154266E-2,-7.59952E-1,4.831649E-2,1.0640073E-1,-2.0111832E-4,-4.2350568E-2,1.6830971E-2,-1.1092408E-2,-3.3527877E-2,-5.945124E-2,-3.6570344E-2,1.5124206E-2,-2.4442181E-2],"split_indices":[1,1,0,1,1,0,1,1,0,0,0,1,0,0,0,0,0,0,0,0,0,0,0,0,0,0,0,0,0],"split_type":[0,0,0,0,0,0,0,0,0,0,0,0,0,0,0,0,0,0,0,0,0,0,0,0,0,0,0,0,0],"sum_hessian":[2.509E3,2.235E3,2.74E2,8.26E2,1.409E3,1.43E2,1.31E2,7.38E2,8.8E1,6.45E2,7.64E2,4.9E1,9.4E1,6.3E1,6.8E1,3.64E2,3.74E2,2.2E1,6.6E1,2.02E2,4.43E2,2.96E2,4.68E2,2.4E1,2.5E1,6.8E1,2.6E1,4.4E1,1.9E1],"tree_param":{"num_deleted":"0","num_feature":"2","num_nodes":"29","size_leaf_vector":"1"}},{"base_weights":[-2.6935437E-3,4.6999626E-2,-2.0661187E-1,-5.6094106E-2,1.7524183E-1,-6.3194275E-1,-1.2980223E-1,3.8327858E-1,-2.0935762E-1,-2.4340509E-1,2.8096992E-1,-1.3942106E-1,-1.891788E-1,3.561469E-2,-4.69348E-1,-9.736254E-3,1.3406096E-1,-1.3469791E-1,4.1159354E-3,4.5636925E-3,-2.586927E-1,1.3842432E-1,2.0350363E-2,1.5050548E-2,-4.456599E-2,-1.8007124E-2,4.8301034E-2,-6.1669823E-2,-2.8648118E-2],"categories":[],"categories_nodes":[],"categories_segments":[],"categories_sizes":[],"default_left":[0,0,0,0,0,0,0,0,0,0,0,0,0,0,0,0,0,0,0,0,0,0,0,0,0,0,0,0,0],"id":41,"left_children":[1,3,5,7,9,11,13,15,17,19,21,23,-1,25,27,-1,-1,-1,-1,-1,-1,-1,-1,-1,-1,-1,-1,-1,-1],"loss_changes":[2.5444414E1,2.670296E1,1.5991369E1,7.550083E1,3.9904854E1,4.627382E1,2.3494364E1,1.33569E2,2.3688504E2,1.2340054E2,6.1168705E1,4.950347E0,0E0,2.7299112E1,3.5148525E0,0E0,0E0,0E0,0E0,0E0,0E0,0E0,0E0,0E0,0E0,0E0,0E0,0E0,0E0],"parents":[2147483647,0,0,1,1,2,2,3,3,4,4,5,5,6,6,7,7,8,8,9,9,10,10,11,11,13,13,14,14],"right_children":[2,4,6,8,10,12,14,16,18,20,22,24,-1,26,28,-1,-1,-1,-1,-1,-1,-1,-1,-1,-1,-1,-1,-1,-1],"split_conditions":[7E0,4E0,8E0,8E0,8E0,5E0,2E1,5E0,1.1E1,7E0,1E1,1E0,-1.891788E-1,1.8E1,2.2E1,-9.736254E-3,1.3406096E-1,-1.3469791E-1,4.1159354E-3,4.5636925E-3,-2.586927E-1,1.3842432E-1,2.0350363E-2,1.5050548E-2,-4.456599E-2,-1.8007124E-2,4.8301034E-2,-6.1669823E-2,-2.8648118E-2],"split_indices":[0,0,1,1,1,1,1,1,1,1,1,1,0,1,1,0,0,0,0,0,0,0,0,0,0,0,0,0,0],"split_type":[0,0,0,0,0,0,0,0,0,0,0,0,0,0,0,0,0,0,0,0,0,0,0,0,0,0,0,0,0],"sum_hessian":[2.509E3,2.018E3,4.91E2,1.119E3,8.99E2,7.4E1,4.17E2,2.89E2,8.3E2,1.81E2,7.18E2,5.4E1,2E1,2.81E2,1.36E2,1.93E2,9.6E1,1.49E2,6.81E2,1.62E2,1.9E1,4.6E1,6.72E2,2.8E1,2.6E1,1.9E2,9.1E1,7.4E1,6.2E1],"tree_param":{"num_deleted":"0","num_feature":"2","num_nodes":"29","size_leaf_vector":"1"}},{"base_weights":[-2.5756864E-3,8.074359E-2,-1.2061553E-1,-6.785282E-2,5.219093E-1,-3.920528E-1,5.9089985E-2,7.528844E-2,-3.582746E-1,1.1390817E0,-4.0528098E-1,-4.5839033E-1,-3.137161E-1,2.848509E-1,-2.7709824E-1,-3.680529E-2,2.063732E-2,-9.851088E-2,6.0622968E-2,8.196946E-2,2.2565036E-1,-1.3839078E-1,6.325211E-2,-2.019695E-2,-7.8078024E-2,-6.749924E-2,-8.33847E-3,-3.799007E-3,5.2791346E-2,-2.0763758E-1,-7.859371E-3],"categories":[],"categories_nodes":[],"categories_segments":[],"categories_sizes":[],"default_left":[0,0,0,0,0,0,0,0,0,0,0,0,0,0,0,0,0,0,0,0,0,0,0,0,0,0,0,0,0,0,0],"id":42,"left_children":[1,3,5,7,9,11,13,15,17,19,21,23,25,27,29,-1,-1,-1,-1,-1,-1,-1,-1,-1,-1,-1,-1,-1,-1,-1,-1],"loss_changes":[2.4695574E1,9.653332E1,5.070431E1,4.5838593E1,2.1276128E2,2.0076141E0,4.7591183E1,4.3023155E1,2.2066583E2,7.773688E1,1.5220284E2,1.8194496E1,1.6003881E1,2.9446514E1,8.984233E1,0E0,0E0,0E0,0E0,0E0,0E0,0E0,0E0,0E0,0E0,0E0,0E0,0E0,0E0,0E0,0E0],"parents":[2147483647,0,0,1,1,2,2,3,3,4,4,5,5,6,6,7,7,8,8,9,9,10,10,11,11,12,12,13,13,14,14],"right_children":[2,4,6,8,10,12,14,16,18,20,22,24,26,28,30,-1,-1,-1,-1,-1,-1,-1,-1,-1,-1,-1,-1,-1,-1,-1,-1],"split_conditions":[1.7E1,1.3E1,4E0,1E1,6E0,2.1E1,7E0,2E0,6E0,1.6E1,7E0,2E0,2E0,2E1,1.8E1,-3.680529E-2,2.063732E-2,-9.851088E-2,6.0622968E-2,8.196946E-2,2.2565036E-1,-1.3839078E-1,6.325211E-2,-2.019695E-2,-7.8078024E-2,-6.749924E-2,-8.33847E-3,-3.799007E-3,5.2791346E-2,-2.0763758E-1,-7.859371E-3],"split_indices":[1,1,0,1,0,1,0,0,0,1,0,0,0,1,1,0,0,0,0,0,0,0,0,0,0,0,0,0,0,0,0],"split_type":[0,0,0,0,0,0,0,0,0,0,0,0,0,0,0,0,0,0,0,0,0,0,0,0,0,0,0,0,0,0,0],"sum_hessian":[2.509E3,1.471E3,1.038E3,1.101E3,3.7E2,4.13E2,6.25E2,7.38E2,3.63E2,2.22E2,1.48E2,2.21E2,1.92E2,3.74E2,2.51E2,1.68E2,5.7E2,2.2E2,1.43E2,1.74E2,4.8E1,7.6E1,7.2E1,1.24E2,9.7E1,7.4E1,1.18E2,1.61E2,2.13E2,2.4E1,2.27E2],"tree_param":{"num_deleted":"0","num_feature":"2","num_nodes":"31","size_leaf_vector":"1"}},{"base_weights":[-2.3827914E-3,3.1981844E-2,-2.8178987E-1,8.393237E-2,-1.8640555E-1,-3.805314E-1,-1.7193708E-1,-1.736643E-1,1.3739172E-1,-4.4081515E-1,-2.1590179E-2,-1.4560306E-1,-5.001723E-1,-1.262854E-2,-3.1720966E-1,4.1859914E-4,-3.331044E-2,6.894993E-2,7.080479E-3,-2.6265984E-2,-8.366135E-2,2.2095037E-1,-2.4554273E-2,-3.942732E-3,-2.42095E-2,-5.5175763E-2,-4.3322798E-2,6.493717E-3,-1.8651996E-2,-3.7819292E-2,-2.7396483E-2],"categories":[],"categories_nodes":[],"categories_segments":[],"categories_sizes":[],"default_left":[0,0,0,0,0,0,0,0,0,0,0,0,0,0,0,0,0,0,0,0,0,0,0,0,0,0,0,0,0,0,0],"id":43,"left_children":[1,3,5,7,9,11,13,15,17,19,21,23,25,27,29,-1,-1,-1,-1,-1,-1,-1,-1,-1,-1,-1,-1,-1,-1,-1,-1],"loss_changes":[2.4109337E1,2.5383825E1,2.9175072E0,2.4907965E1,1.8020645E1,3.9745865E0,3.0508916E0,8.820256E0,5.498562E1,1.1697052E1,1.3145322E2,5.0271E-1,8.902931E-2,8.7534475E-1,7.8356266E-2,0E0,0E0,0E0,0E0,0E0,0E0,0E0,0E0,0E0,0E0,0E0,0E0,0E0,0E0,0E0,0E0],"parents":[2147483647,0,0,1,1,2,2,3,3,4,4,5,5,6,6,7,7,8,8,9,9,10,10,11,11,12,12,13,13,14,14],"right_children":[2,4,6,8,10,12,14,16,18,20,22,24,26,28,30,-1,-1,-1,-1,-1,-1,-1,-1,-1,-1,-1,-1,-1,-1,-1,-1],"split_conditions":[2.2E1,7E0,5E0,5E0,1.3E1,2E0,2.3E1,3E0,8E0,1.1E1,1.5E1,2.3E1,2.3E1,7E0,7E0,4.1859914E-4,-3.331044E-2,6.894993E-2,7.080479E-3,-2.6265984E-2,-8.366135E-2,2.2095037E-1,-2.4554273E-2,-3.942732E-3,-2.42095E-2,-5.5175763E-2,-4.3322798E-2,6.493717E-3,-1.8651996E-2,-3.7819292E-2,-2.7396483E-2],"split_indices":[1,0,0,1,1,0,1,0,1,1,1,1,1,0,0,0,0,0,0,0,0,0,0,0,0,0,0,0,0,0,0],"split_type":[0,0,0,0,0,0,0,0,0,0,0,0,0,0,0,0,0,0,0,0,0,0,0,0,0,0,0,0,0,0,0],"sum_hessian":[2.509E3,2.235E3,2.74E2,1.806E3,4.29E2,1.43E2,1.31E2,3.1E2,1.496E3,1.68E2,2.61E2,4.9E1,9.4E1,6.3E1,6.8E1,1.47E2,1.63E2,1.6E2,1.336E3,1.17E2,5.1E1,2.3E1,2.38E2,2.4E1,2.5E1,4.9E1,4.5E1,4.4E1,1.9E1,2.5E1,4.3E1],"tree_param":{"num_deleted":"0","num_feature":"2","num_nodes":"31","size_leaf_vector":"1"}},{"base_weights":[-2.1739432E-3,2.884187E-2,-2.543528E-1,7.556325E-2,-1.6756366E-1,-3.4335774E-1,-1.5532959E-1,-7.213941E-2,1.7100345E-1,-3.973837E-1,-1.8681413E-2,-1.3160577E-1,-4.5119184E-1,-1.1555612E-2,-2.86434E-1,1.2631881E-2,-1.9786315E-1,3.0574152E-2,-5.062422E-3,1.4140862E-2,-5.053808E-2,1.9977587E-1,-2.2109097E-2,-3.564228E-3,-2.188166E-2,-4.851153E-2,-3.4778774E-2,5.858784E-3,-1.688006E-2,-3.4182858E-2,-2.47191E-2],"categories":[],"categories_nodes":[],"categories_segments":[],"categories_sizes":[],"default_left":[0,0,0,0,0,0,0,0,0,0,0,0,0,0,0,0,0,0,0,0,0,0,0,0,0,0,0,0,0,0,0],"id":44,"left_children":[1,3,5,7,9,11,13,15,17,19,21,23,25,27,29,-1,-1,-1,-1,-1,-1,-1,-1,-1,-1,-1,-1,-1,-1,-1,-1],"loss_changes":[1.9639383E1,2.0530956E1,2.3703957E0,2.5485203E1,1.4705509E1,3.2287292E0,2.4848113E0,2.6888483E2,3.2803608E1,9.905241E0,1.0737614E2,4.1065365E-1,1.645279E-1,7.157908E-1,6.549883E-2,0E0,0E0,0E0,0E0,0E0,0E0,0E0,0E0,0E0,0E0,0E0,0E0,0E0,0E0,0E0,0E0],"parents":[2147483647,0,0,1,1,2,2,3,3,4,4,5,5,6,6,7,7,8,8,9,9,10,10,11,11,12,12,13,13,14,14],"right_children":[2,4,6,8,10,12,14,16,18,20,22,24,26,28,30,-1,-1,-1,-1,-1,-1,-1,-1,-1,-1,-1,-1,-1,-1,-1,-1],"split_conditions":[2.2E1,7E0,5E0,1.1E1,1.3E1,2E0,2.3E1,1E1,1.8E1,1E0,1.5E1,2.3E1,4E0,7E0,7E0,1.2631881E-2,-1.9786315E-1,3.0574152E-2,-5.062422E-3,1.4140862E-2,-5.053808E-2,1.9977587E-1,-2.2109097E-2,-3.564228E-3,-2.188166E-2,-4.851153E-2,-3.4778774E-2,5.858784E-3,-1.688006E-2,-3.4182858E-2,-2.47191E-2],"split_indices":[1,0,0,1,1,0,1,1,1,1,1,1,0,0,0,0,0,0,0,0,0,0,0,0,0,0,0,0,0,0,0],"split_type":[0,0,0,0,0,0,0,0,0,0,0,0,0,0,0,0,0,0,0,0,0,0,0,0,0,0,0,0,0,0,0],"sum_hessian":[2.509E3,2.235E3,2.74E2,1.806E3,4.29E2,1.43E2,1.31E2,7.09E2,1.097E3,1.68E2,2.61E2,4.9E1,9.4E1,6.3E1,6.8E1,6.43E2,6.6E1,6.82E2,4.15E2,2.8E1,1.4E2,2.3E1,2.38E2,2.4E1,2.5E1,6.8E1,2.6E1,4.4E1,1.9E1,2.5E1,4.3E1],"tree_param":{"num_deleted":"0","num_feature":"2","num_nodes":"31","size_leaf_vector":"1"}},{"base_weights":[-2.035339E-3,2.5949143E-2,-2.2956721E-1,6.791815E-2,-1.5047865E-1,-3.0977717E-1,-1.4032629E-1,1.2026464E-2,3.305888E-1,-5.403935E-1,-6.791098E-2,-1.18954256E-1,-4.069495E-1,-1.0571972E-2,-2.5864443E-1,1.0481963E-2,-3.333431E-2,-5.9216544E-3,2.4133337E-1,-1.0379754E-2,-1.658126E-1,4.779379E-3,-5.020554E-2,-3.2220804E-3,-1.9777665E-2,-4.572852E-2,-3.4339003E-2,5.2859667E-3,-1.5276456E-2,-3.0896071E-2,-2.230338E-2],"categories":[],"categories_nodes":[],"categories_segments":[],"categories_sizes":[],"default_left":[0,0,0,0,0,0,0,0,0,0,0,0,0,0,0,0,0,0,0,0,0,0,0,0,0,0,0,0,0,0,0],"id":45,"left_children":[1,3,5,7,9,11,13,15,17,19,21,23,25,27,29,-1,-1,-1,-1,-1,-1,-1,-1,-1,-1,-1,-1,-1,-1,-1,-1],"loss_changes":[1.5988035E1,1.656668E1,1.924983E0,2.6524784E1,1.3806874E1,2.6217403E0,2.0237677E0,4.7818405E1,2.5750412E2,3.64277E1,1.7906796E1,3.3545434E-1,1.469078E-1,5.853237E-1,5.4725647E-2,0E0,0E0,0E0,0E0,0E0,0E0,0E0,0E0,0E0,0E0,0E0,0E0,0E0,0E0,0E0,0E0],"parents":[2147483647,0,0,1,1,2,2,3,3,4,4,5,5,6,6,7,7,8,8,9,9,10,10,11,11,12,12,13,13,14,14],"right_children":[2,4,6,8,10,12,14,16,18,20,22,24,26,28,30,-1,-1,-1,-1,-1,-1,-1,-1,-1,-1,-1,-1,-1,-1,-1,-1],"split_conditions":[2.2E1,7E0,5E0,6E0,8E0,2E0,2.3E1,1.8E1,2E1,5E0,2E1,2.3E1,2.3E1,7E0,7E0,1.0481963E-2,-3.333431E-2,-5.9216544E-3,2.4133337E-1,-1.0379754E-2,-1.658126E-1,4.779379E-3,-5.020554E-2,-3.2220804E-3,-1.9777665E-2,-4.572852E-2,-3.4339003E-2,5.2859667E-3,-1.5276456E-2,-3.0896071E-2,-2.230338E-2],"split_indices":[1,0,0,0,1,0,1,1,1,1,1,1,1,0,0,0,0,0,0,0,0,0,0,0,0,0,0,0,0,0,0],"split_type":[0,0,0,0,0,0,0,0,0,0,0,0,0,0,0,0,0,0,0,0,0,0,0,0,0,0,0,0,0,0,0],"sum_hessian":[2.509E3,2.235E3,2.74E2,1.806E3,4.29E2,1.43E2,1.31E2,1.49E3,3.16E2,7.4E1,3.55E2,4.9E1,9.4E1,6.3E1,6.8E1,1.175E3,3.15E2,2.67E2,4.9E1,5.4E1,2E1,2.81E2,7.4E1,2.4E1,2.5E1,4.9E1,4.5E1,4.4E1,1.9E1,2.5E1,4.3E1],"tree_param":{"num_deleted":"0","num_feature":"2","num_nodes":"31","size_leaf_vector":"1"}},{"base_weights":[-1.9018721E-3,2.3349933E-2,-2.0721509E-1,-8.794448E-2,8.861031E-2,-2.7951518E-1,-1.2677246E-1,5.1857978E-2,-1.247788E0,3.1537765E-1,-1.2886286E-2,-1.0751876E-1,-3.6709735E-1,-9.6710175E-3,-2.33551E-1,-3.678573E-2,1.7599111E-2,-4.4743392E-1,1.8656039E-1,9.972254E-3,1.1433438E-1,-4.4499554E-2,4.3708417E-3,-2.9127635E-3,-1.787595E-2,-3.9966907E-2,-2.7026221E-2,4.7690985E-3,-1.3825198E-2,-2.7925286E-2,-2.0123739E-2],"categories":[],"categories_nodes":[],"categories_segments":[],"categories_sizes":[],"default_left":[0,0,0,0,0,0,0,0,0,0,0,0,0,0,0,0,0,0,0,0,0,0,0,0,0,0,0,0,0,0,0],"id":46,"left_children":[1,3,5,7,9,11,13,15,17,19,21,23,25,27,29,-1,-1,-1,-1,-1,-1,-1,-1,-1,-1,-1,-1,-1,-1,-1,-1],"loss_changes":[1.3018006E1,1.6248117E1,1.5639687E0,1.341619E2,3.2456783E1,2.1297197E0,1.6482592E0,3.8567066E1,9.023984E2,7.773602E1,2.3863165E1,2.7402526E-1,1.9162273E-1,4.786357E-1,4.5702457E-2,0E0,0E0,0E0,0E0,0E0,0E0,0E0,0E0,0E0,0E0,0E0,0E0,0E0,0E0,0E0,0E0],"parents":[2147483647,0,0,1,1,2,2,3,3,4,4,5,5,6,6,7,7,8,8,9,9,10,10,11,11,12,12,13,13,14,14],"right_children":[2,4,6,8,10,12,14,16,18,20,22,24,26,28,30,-1,-1,-1,-1,-1,-1,-1,-1,-1,-1,-1,-1,-1,-1,-1,-1],"split_conditions":[2.2E1,1.1E1,5E0,1E1,1.5E1,2E0,2.3E1,2E0,5E0,1.4E1,1.6E1,2.3E1,4E0,7E0,7E0,-3.678573E-2,1.7599111E-2,-4.4743392E-1,1.8656039E-1,9.972254E-3,1.1433438E-1,-4.4499554E-2,4.3708417E-3,-2.9127635E-3,-1.787595E-2,-3.9966907E-2,-2.7026221E-2,4.7690985E-3,-1.3825198E-2,-2.7925286E-2,-2.0123739E-2],"split_indices":[1,1,0,1,1,0,1,0,0,1,1,1,0,0,0,0,0,0,0,0,0,0,0,0,0,0,0,0,0,0,0],"split_type":[0,0,0,0,0,0,0,0,0,0,0,0,0,0,0,0,0,0,0,0,0,0,0,0,0,0,0,0,0,0,0],"sum_hessian":[2.509E3,2.235E3,2.74E2,8.26E2,1.409E3,1.43E2,1.31E2,7.38E2,8.8E1,4.35E2,9.74E2,4.9E1,9.4E1,6.3E1,6.8E1,1.68E2,5.7E2,4.3E1,4.5E1,3.46E2,8.9E1,1.12E2,8.62E2,2.4E1,2.5E1,6.8E1,2.6E1,4.4E1,1.9E1,2.5E1,4.3E1],"tree_param":{"num_deleted":"0","num_feature":"2","num_nodes":"31","size_leaf_vector":"1"}},{"base_weights":[-1.8474037E-3,3.620273E-2,-1.579884E-1,-2.731237E-1,6.62588E-2,-3.7476793E-1,-4.4427507E-2,-1.0864013E-2,-3.2592845E-1,1.521559E-1,-9.989619E-2,-2.196933E-1,-7.1946096E-1,1.6921562E-1,-1.8274505E-1,-3.864069E-2,-2.1189675E-2,8.56158E-3,4.304622E-2,-2.7880052E-2,4.5734797E-2,-5.0606783E-2,2.734381E-2,-1.0417038E-1,-3.8250636E-2,-7.3544376E-2,-2.5588842E-4],"categories":[],"categories_nodes":[],"categories_segments":[],"categories_sizes":[],"default_left":[0,0,0,0,0,0,0,0,0,0,0,0,0,0,0,0,0,0,0,0,0,0,0,0,0,0,0],"id":47,"left_children":[1,3,5,7,9,11,13,-1,15,17,19,21,23,-1,25,-1,-1,-1,-1,-1,-1,-1,-1,-1,-1,-1,-1],"loss_changes":[1.4918095E1,1.8789019E1,1.2095246E1,1.5192966E0,2.629038E1,8.875523E0,7.813404E1,0E0,8.4914494E-1,2.2444641E1,6.2734955E1,1.680237E1,5.2477665E0,0E0,2.9974306E1,0E0,0E0,0E0,0E0,0E0,0E0,0E0,0E0,0E0,0E0,0E0,0E0],"parents":[2147483647,0,0,1,1,2,2,3,3,4,4,5,5,6,6,8,8,9,9,10,10,11,11,12,12,14,14],"right_children":[2,4,6,8,10,12,14,-1,16,18,20,22,24,-1,26,-1,-1,-1,-1,-1,-1,-1,-1,-1,-1,-1,-1],"split_conditions":[7E0,3E0,1.3E1,2E0,1.8E1,1.1E1,1.5E1,-1.0864013E-2,5E0,1.6E1,6E0,8E0,1.2E1,1.6921562E-1,1.8E1,-3.864069E-2,-2.1189675E-2,8.56158E-3,4.304622E-2,-2.7880052E-2,4.5734797E-2,-5.0606783E-2,2.734381E-2,-1.0417038E-1,-3.8250636E-2,-7.3544376E-2,-2.5588842E-4],"split_indices":[0,1,1,0,1,1,1,0,0,1,0,1,1,0,1,0,0,0,0,0,0,0,0,0,0,0,0],"split_type":[0,0,0,0,0,0,0,0,0,0,0,0,0,0,0,0,0,0,0,0,0,0,0,0,0,0,0],"sum_hessian":[2.509E3,2.018E3,4.91E2,1.78E2,1.84E3,1.68E2,3.23E2,4.4E1,1.34E2,1.213E3,6.27E2,1.17E2,5.1E1,2.3E1,3E2,8.6E1,4.8E1,9.8E2,2.33E2,4.75E2,1.52E2,7.4E1,4.3E1,2.5E1,2.6E1,7.3E1,2.27E2],"tree_param":{"num_deleted":"0","num_feature":"2","num_nodes":"27","size_leaf_vector":"1"}},{"base_weights":[-1.6914168E-3,3.2581575E-2,-1.4233263E-1,-2.4620627E-1,5.967035E-2,-3.3827168E-1,-3.9690547E-2,-9.801756E-3,-2.9377875E-1,1.3698241E-1,-8.9878224E-2,1.6964642E-2,-4.4033802E-1,1.5299909E-1,-1.6471599E-1,-3.482103E-2,-1.9113952E-2,7.7062617E-3,3.8759924E-2,-2.5097927E-2,4.119125E-2,-8.325518E-2,-2.416603E-2,-6.628937E-2,-2.3042937E-4],"categories":[],"categories_nodes":[],"categories_segments":[],"categories_sizes":[],"default_left":[0,0,0,0,0,0,0,0,0,0,0,0,0,0,0,0,0,0,0,0,0,0,0,0,0],"id":48,"left_children":[1,3,5,7,9,11,13,-1,15,17,19,-1,21,-1,23,-1,-1,-1,-1,-1,-1,-1,-1,-1,-1],"loss_changes":[1.2103326E1,1.5262224E1,9.881478E0,1.2331018E0,2.1297783E1,8.835888E0,6.3837048E1,0E0,6.876621E-1,1.8200659E1,5.087028E1,0E0,1.0786106E1,0E0,2.4352352E1,0E0,0E0,0E0,0E0,0E0,0E0,0E0,0E0,0E0,0E0],"parents":[2147483647,0,0,1,1,2,2,3,3,4,4,5,5,6,6,8,8,9,9,10,10,12,12,14,14],"right_children":[2,4,6,8,10,12,14,-1,16,18,20,-1,22,-1,24,-1,-1,-1,-1,-1,-1,-1,-1,-1,-1],"split_conditions":[7E0,3E0,1.3E1,2E0,1.8E1,1E0,1.5E1,-9.801756E-3,5E0,1.6E1,6E0,1.6964642E-2,8E0,1.5299909E-1,1.8E1,-3.482103E-2,-1.9113952E-2,7.7062617E-3,3.8759924E-2,-2.5097927E-2,4.119125E-2,-8.325518E-2,-2.416603E-2,-6.628937E-2,-2.3042937E-4],"split_indices":[0,1,1,0,1,1,1,0,0,1,0,0,1,0,1,0,0,0,0,0,0,0,0,0,0],"split_type":[0,0,0,0,0,0,0,0,0,0,0,0,0,0,0,0,0,0,0,0,0,0,0,0,0],"sum_hessian":[2.509E3,2.018E3,4.91E2,1.78E2,1.84E3,1.68E2,3.23E2,4.4E1,1.34E2,1.213E3,6.27E2,2.8E1,1.4E2,2.3E1,3E2,8.6E1,4.8E1,9.8E2,2.33E2,4.75E2,1.52E2,4.6E1,9.4E1,7.3E1,2.27E2],"tree_param":{"num_deleted":"0","num_feature":"2","num_nodes":"25","size_leaf_vector":"1"}},{"base_weights":[-1.5240969E-3,5.5322815E-2,-8.2060315E-2,-5.0554376E-2,3.6966607E-1,-2.9640347E-1,5.9824865E-2,5.832407E-2,-2.7146265E-1,9.2459714E-1,-4.6334937E-1,-5.5789816E-1,-1.9638087E-1,5.6193066E-1,-2.4438346E-2,-3.3784512E-2,1.7547691E-2,-8.276394E-2,5.8399927E-2,6.451136E-2,1.9038835E-1,-1.3077223E-1,4.3363784E-2,-3.8069904E-2,-1.4818102E-1,8.042343E-3,-2.744639E-2,2.718172E-1,-1.3371055E-2,-8.364192E-2,9.309174E-3],"categories":[],"categories_nodes":[],"categories_segments":[],"categories_sizes":[],"default_left":[0,0,0,0,0,0,0,0,0,0,0,0,0,0,0,0,0,0,0,0,0,0,0,0,0,0,0,0,0,0,0],"id":49,"left_children":[1,3,5,7,9,11,13,15,17,19,21,23,25,27,29,-1,-1,-1,-1,-1,-1,-1,-1,-1,-1,-1,-1,-1,-1,-1,-1],"loss_changes":[1.1495911E1,4.9009468E1,3.1615921E1,2.65213E1,1.7192917E2,1.0718765E1,2.6499195E1,3.435801E1,1.7367018E2,5.980565E1,1.1341845E2,1.8099548E1,6.5278015E0,1.3536078E2,5.132494E1,0E0,0E0,0E0,0E0,0E0,0E0,0E0,0E0,0E0,0E0,0E0,0E0,0E0,0E0,0E0,0E0],"parents":[2147483647,0,0,1,1,2,2,3,3,4,4,5,5,6,6,7,7,8,8,9,9,10,10,11,11,12,12,13,13,14,14],"right_children":[2,4,6,8,10,12,14,16,18,20,22,24,26,28,30,-1,-1,-1,-1,-1,-1,-1,-1,-1,-1,-1,-1,-1,-1,-1,-1],"split_conditions":[1.7E1,1.3E1,4E0,1E1,6E0,1.9E1,5E0,2E0,6E0,1.6E1,7E0,1.8E1,2E1,1.8E1,1.8E1,-3.3784512E-2,1.7547691E-2,-8.276394E-2,5.8399927E-2,6.451136E-2,1.9038835E-1,-1.3077223E-1,4.3363784E-2,-3.8069904E-2,-1.4818102E-1,8.042343E-3,-2.744639E-2,2.718172E-1,-1.3371055E-2,-8.364192E-2,9.309174E-3],"split_indices":[1,1,0,1,0,1,0,0,0,1,0,1,1,1,1,0,0,0,0,0,0,0,0,0,0,0,0,0,0,0,0],"split_type":[0,0,0,0,0,0,0,0,0,0,0,0,0,0,0,0,0,0,0,0,0,0,0,0,0,0,0,0,0,0,0],"sum_hessian":[2.509E3,1.471E3,1.038E3,1.101E3,3.7E2,4.13E2,6.25E2,7.38E2,3.63E2,2.22E2,1.48E2,1.13E2,3E2,8.9E1,5.36E2,1.68E2,5.7E2,2.2E2,1.43E2,1.74E2,4.8E1,7.6E1,7.2E1,9.6E1,1.7E1,6.6E1,2.34E2,2.1E1,6.8E1,6.7E1,4.69E2],"tree_param":{"num_deleted":"0","num_feature":"2","num_nodes":"31","size_leaf_vector":"1"}}]},"name":"gbtree"},"learner_model_param":{"base_score":"[1.3840176E1]","boost_from_average":"1","num_class":"0","num_feature":"2","num_target":"1"},"objective":{"name":"reg:squarederror","reg_loss_param":{"scale_pos_weight":"1"}}},"version":[3,2,0]}