{"learner":{"attributes":{},"feature_names":["day_of_week","hour_of_day"],"feature_types":[],"gradient_booster":{"model":{"cats":{"enc":[],"feature_segments":[],"sorted_idx":[]},"gbtree_model_param":{"num_parallel_tree":"1","num_trees":"50"},"iteration_indptr":[0,1,2,3,4,5,6,7,8,9,10,11,12,13,14,15,16,17,18,19,20,21,22,23,24,25,26,27,28,29,30,31,32,33,34,35,36,37,38,39,40,41,42,43,44,45,46,47,48,49,50],"tree_info":[0,0,0,0,0,0,0,0,0,0,0,0,0,0,0,0,0,0,0,0,0,0,0,0,0,0,0,0,0,0,0,0,0,0,0,0,0,0,0,0,0,0,0,0,0,0,0,0,0,0],"trees":[{"base_weights":[7.4505806E-8,1.5554338E0,-5.1156483E0,-7.8298426E-1,3.1689823E0,-2.4662064E-1,-7.3311514E-1,5.882723E-2,3.7646012E0,8.2781696E-1,2.4364941E-1],"categories":[],"categories_nodes":[],"categories_segments":[],"categories_sizes":[],"default_left":[0,0,0,0,0,0,0,0,0,0,0],"id":0,"left_children":[1,3,5,-1,7,-1,-1,-1,9,-1,-1],"loss_changes":[1.535711E3,2.2660652E3,2.4606299E2,0E0,1.9299963E2,0E0,0E0,0E0,5.9726404E2,0E0,0E0],"parents":[2147483647,0,0,1,1,2,2,4,4,8,8],"right_children":[2,4,6,-1,8,-1,-1,-1,10,-1,-1],"split_conditions":[2.2E1,4E0,2.3E1,-7.8298426E-1,7E0,-2.4662064E-1,-7.3311514E-1,5.882723E-2,9E0,8.2781696E-1,2.4364941E-1],"split_indices":[1,1,1,0,1,0,0,0,1,0,0],"split_type":[0,0,0,0,0,0,0,0,0,0,0],"sum_hessian":[1.91E2,1.47E2,4.4E1,2.1E1,1.26E2,2.1E1,2.3E1,2.4E1,1.02E2,2.2E1,8E1],"tree_param":{"num_deleted":"0","num_feature":"2","num_nodes":"11","size_leaf_vector":"1"}},{"base_weights":[-3.2937874E-3,1.4022372E0,-4.625856E0,-7.0824486E-1,2.8609838E0,-2.2307964E-1,-6.628583E-1,5.317981E-2,3.3985438E0,7.486345E-1,2.1958528E-1],"categories":[],"categories_nodes":[],"categories_segments":[],"categories_sizes":[],"default_left":[0,0,0,0,0,0,0,0,0,0,0],"id":1,"left_children":[1,3,5,-1,7,-1,-1,-1,9,-1,-1],"loss_changes":[1.2539401E3,1.85206E3,2.010622E2,0E0,1.572063E2,0E0,0E0,0E0,4.899464E2,0E0,0E0],"parents":[2147483647,0,0,1,1,2,2,4,4,8,8],"right_children":[2,4,6,-1,8,-1,-1,-1,10,-1,-1],"split_conditions":[2.2E1,4E0,2.3E1,-7.0824486E-1,7E0,-2.2307964E-1,-6.628583E-1,5.317981E-2,9E0,7.486345E-1,2.1958528E-1],"split_indices":[1,1,1,0,1,0,0,0,1,0,0],"split_type":[0,0,0,0,0,0,0,0,0,0,0],"sum_hessian":[1.91E2,1.47E2,4.4E1,2.1E1,1.26E2,2.1E1,2.3E1,2.4E1,1.02E2,2.2E1,8E1],"tree_param":{"num_deleted":"0","num_feature":"2","num_nodes":"11","size_leaf_vector":"1"}},{"base_weights":[-5.9476844E-3,1.2641294E0,-4.1829576E0,-6.406396E-1,2.582928E0,-2.0178567E-1,-5.993344E-1,4.807454E-2,3.0680895E0,6.77026E-1,1.9789784E-1],"categories":[],"categories_nodes":[],"categories_segments":[],"categories_sizes":[],"default_left":[0,0,0,0,0,0,0,0,0,0,0],"id":2,"left_children":[1,3,5,-1,7,-1,-1,-1,9,-1,-1],"loss_changes":[1.02387177E3,1.5136971E3,1.6429144E2,0E0,1.2805212E2,0E0,0E0,0E0,4.0190552E2,0E0,0E0],"parents":[2147483647,0,0,1,1,2,2,4,4,8,8],"right_children":[2,4,6,-1,8,-1,-1,-1,10,-1,-1],"split_conditions":[2.2E1,4E0,2.3E1,-6.406396E-1,7E0,-2.0178567E-1,-5.993344E-1,4.807454E-2,9E0,6.77026E-1,1.9789784E-1],"split_indices":[1,1,1,0,1,0,0,0,1,0,0],"split_type":[0,0,0,0,0,0,0,0,0,0,0],"sum_hessian":[1.91E2,1.47E2,4.4E1,2.1E1,1.26E2,2.1E1,2.3E1,2.4E1,1.02E2,2.2E1,8E1],"tree_param":{"num_deleted":"0","num_feature":"2","num_nodes":"11","size_leaf_vector":"1"}},{"base_weights":[-8.054748E-3,1.1396242E0,-3.7824643E0,-5.794877E-1,2.331903E0,-1.8252426E-1,-5.418982E-1,4.3459397E-2,2.769775E0,6.12267E-1,1.7835234E-1],"categories":[],"categories_nodes":[],"categories_segments":[],"categories_sizes":[],"default_left":[0,0,0,0,0,0,0,0,0,0,0],"id":3,"left_children":[1,3,5,-1,7,-1,-1,-1,9,-1,-1],"loss_changes":[8.360182E2,1.237156E3,1.3424518E2,0E0,1.04305176E2,0E0,0E0,0E0,3.296803E2,0E0,0E0],"parents":[2147483647,0,0,1,1,2,2,4,4,8,8],"right_children":[2,4,6,-1,8,-1,-1,-1,10,-1,-1],"split_conditions":[2.2E1,4E0,2.3E1,-5.794877E-1,7E0,-1.8252426E-1,-5.418982E-1,4.3459397E-2,9E0,6.12267E-1,1.7835234E-1],"split_indices":[1,1,1,0,1,0,0,0,1,0,0],"split_type":[0,0,0,0,0,0,0,0,0,0,0],"sum_hessian":[1.91E2,1.47E2,4.4E1,2.1E1,1.26E2,2.1E1,2.3E1,2.4E1,1.02E2,2.2E1,8E1],"tree_param":{"num_deleted":"0","num_feature":"2","num_nodes":"11","size_leaf_vector":"1"}},{"base_weights":[-9.696302E-3,1.0273819E0,-3.420316E0,-5.2417296E-1,2.1052802E0,-1.6510145E-1,-4.8996624E-1,3.928731E-2,2.5004733E0,5.537023E-1,1.607373E-1],"categories":[],"categories_nodes":[],"categories_segments":[],"categories_sizes":[],"default_left":[0,0,0,0,0,0,0,0,0,0,0],"id":4,"left_children":[1,3,5,-1,7,-1,-1,-1,9,-1,-1],"loss_changes":[6.826332E2,1.01113995E3,1.0969403E2,0E0,8.496246E1,0E0,0E0,0E0,2.704301E2,0E0,0E0],"parents":[2147483647,0,0,1,1,2,2,4,4,8,8],"right_children":[2,4,6,-1,8,-1,-1,-1,10,-1,-1],"split_conditions":[2.2E1,4E0,2.3E1,-5.2417296E-1,7E0,-1.6510145E-1,-4.8996624E-1,3.928731E-2,9E0,5.537023E-1,1.607373E-1],"split_indices":[1,1,1,0,1,0,0,0,1,0,0],"split_type":[0,0,0,0,0,0,0,0,0,0,0],"sum_hessian":[1.91E2,1.47E2,4.4E1,2.1E1,1.26E2,2.1E1,2.3E1,2.4E1,1.02E2,2.2E1,8E1],"tree_param":{"num_deleted":"0","num_feature":"2","num_nodes":"11","size_leaf_vector":"1"}},{"base_weights":[-1.0942809E-2,9.261949E-1,-3.0928416E0,-4.7413826E-1,1.9006871E0,-1.493418E-1,-4.4301113E-1,3.5515703E-2,2.2573626E0,5.007395E-1,1.4486204E-1],"categories":[],"categories_nodes":[],"categories_segments":[],"categories_sizes":[],"default_left":[0,0,0,0,0,0,0,0,0,0,0],"id":5,"left_children":[1,3,5,-1,7,-1,-1,-1,9,-1,-1],"loss_changes":[5.5739197E2,8.264173E2,8.963275E1,0E0,6.92074E1,0E0,0E0,0E0,2.2182507E2,0E0,0E0],"parents":[2147483647,0,0,1,1,2,2,4,4,8,8],"right_children":[2,4,6,-1,8,-1,-1,-1,10,-1,-1],"split_conditions":[2.2E1,4E0,2.3E1,-4.7413826E-1,7E0,-1.493418E-1,-4.4301113E-1,3.5515703E-2,9E0,5.007395E-1,1.4486204E-1],"split_indices":[1,1,1,0,1,0,0,0,1,0,0],"split_type":[0,0,0,0,0,0,0,0,0,0,0],"sum_hessian":[1.91E2,1.47E2,4.4E1,2.1E1,1.26E2,2.1E1,2.3E1,2.4E1,1.02E2,2.2E1,8E1],"tree_param":{"num_deleted":"0","num_feature":"2","num_nodes":"11","size_leaf_vector":"1"}},{"base_weights":[-1.1855739E-2,8.349739E-1,-2.7967207E0,-4.288796E-1,1.7159815E0,-1.3508648E-1,-4.005559E-1,3.2106202E-2,2.037894E0,4.5284268E-1,1.3055466E-1],"categories":[],"categories_nodes":[],"categories_segments":[],"categories_sizes":[],"default_left":[0,0,0,0,0,0,0,0,0,0,0],"id":6,"left_children":[1,3,5,-1,7,-1,-1,-1,9,-1,-1],"loss_changes":[4.5512997E2,6.7544336E2,7.3240295E1,0E0,5.6374084E1,0E0,0E0,0E0,1.8195322E2,0E0,0E0],"parents":[2147483647,0,0,1,1,2,2,4,4,8,8],"right_children":[2,4,6,-1,8,-1,-1,-1,10,-1,-1],"split_conditions":[2.2E1,4E0,2.3E1,-4.288796E-1,7E0,-1.3508648E-1,-4.005559E-1,3.2106202E-2,9E0,4.5284268E-1,1.3055466E-1],"split_indices":[1,1,1,0,1,0,0,0,1,0,0],"split_type":[0,0,0,0,0,0,0,0,0,0,0],"sum_hessian":[1.91E2,1.47E2,4.4E1,2.1E1,1.26E2,2.1E1,2.3E1,2.4E1,1.02E2,2.2E1,8E1],"tree_param":{"num_deleted":"0","num_feature":"2","num_nodes":"11","size_leaf_vector":"1"}},{"base_weights":[-1.2487809E-2,7.527377E-1,-2.528952E0,-3.879411E-1,1.54923E0,-1.221919E-1,-3.6216927E-1,2.9023988E-2,1.8397691E0,4.095273E-1,1.17660426E-1],"categories":[],"categories_nodes":[],"categories_segments":[],"categories_sizes":[],"default_left":[0,0,0,0,0,0,0,0,0,0,0],"id":7,"left_children":[1,3,5,-1,7,-1,-1,-1,9,-1,-1],"loss_changes":[3.7163086E2,5.5205176E2,5.9845764E1,0E0,4.5920837E1,0E0,0E0,0E0,1.4924588E2,0E0,0E0],"parents":[2147483647,0,0,1,1,2,2,4,4,8,8],"right_children":[2,4,6,-1,8,-1,-1,-1,10,-1,-1],"split_conditions":[2.2E1,4E0,2.3E1,-3.879411E-1,7E0,-1.221919E-1,-3.6216927E-1,2.9023988E-2,9E0,4.095273E-1,1.17660426E-1],"split_indices":[1,1,1,0,1,0,0,0,1,0,0],"split_type":[0,0,0,0,0,0,0,0,0,0,0],"sum_hessian":[1.91E2,1.47E2,4.4E1,2.1E1,1.26E2,2.1E1,2.3E1,2.4E1,1.02E2,2.2E1,8E1],"tree_param":{"num_deleted":"0","num_feature":"2","num_nodes":"11","size_leaf_vector":"1"}},{"base_weights":[-1.2885411E-2,-3.5091037E-1,4.3699577E-1,1.3986866E0,-2.2868207E0,2.623767E-2,1.6609105E0,-1.1052817E-1,-3.2746136E-1,3.7035516E-1,1.06039636E-1],"categories":[],"categories_nodes":[],"categories_segments":[],"categories_sizes":[],"default_left":[0,0,0,0,0,0,0,0,0,0,0],"id":8,"left_children":[1,-1,3,5,7,-1,9,-1,-1,-1,-1],"loss_changes":[3.0352695E2,0E0,4.5112778E2,3.7406097E1,4.8900864E1,0E0,1.224162E2,0E0,0E0,0E0,0E0],"parents":[2147483647,0,0,2,2,3,3,4,4,6,6],"right_children":[2,-1,4,6,8,-1,10,-1,-1,-1,-1],"split_conditions":[4E0,-3.5091037E-1,2.2E1,7E0,2.3E1,2.623767E-2,9E0,-1.1052817E-1,-3.2746136E-1,3.7035516E-1,1.06039636E-1],"split_indices":[1,0,1,1,1,0,1,0,0,0,0],"split_type":[0,0,0,0,0,0,0,0,0,0,0],"sum_hessian":[1.91E2,2.1E1,1.7E2,1.26E2,4.4E1,2.4E1,1.02E2,2.1E1,2.3E1,2.2E1,8E1],"tree_param":{"num_deleted":"0","num_feature":"2","num_nodes":"11","size_leaf_vector":"1"}},{"base_weights":[-1.3088043E-2,-3.1741437E-1,3.9367402E-1,1.2627755E0,-2.0678718E0,2.3718873E-2,1.4994444E0,-9.997777E-2,-2.9607967E-1,3.3492985E-1,9.5566556E-2],"categories":[],"categories_nodes":[],"categories_segments":[],"categories_sizes":[],"default_left":[0,0,0,0,0,0,0,0,0,0,0],"id":9,"left_children":[1,-1,3,5,7,-1,9,-1,-1,-1,-1],"loss_changes":[2.4812273E2,0E0,3.684372E2,3.0470367E1,3.9957596E1,0E0,1.0040805E2,0E0,0E0,0E0,0E0],"parents":[2147483647,0,0,2,2,3,3,4,4,6,6],"right_children":[2,-1,4,6,8,-1,10,-1,-1,-1,-1],"split_conditions":[4E0,-3.1741437E-1,2.2E1,7E0,2.3E1,2.3718873E-2,9E0,-9.997777E-2,-2.9607967E-1,3.3492985E-1,9.5566556E-2],"split_indices":[1,0,1,1,1,0,1,0,0,0,0],"split_type":[0,0,0,0,0,0,0,0,0,0,0],"sum_hessian":[1.91E2,2.1E1,1.7E2,1.26E2,4.4E1,2.4E1,1.02E2,2.1E1,2.3E1,2.2E1,8E1],"tree_param":{"num_deleted":"0","num_feature":"2","num_nodes":"11","size_leaf_vector":"1"}},{"base_weights":[-1.3129647E-2,-2.8711575E-1,3.5464662E-1,1.1400744E0,-1.869886E0,2.1441849E-2,1.3536794E0,-9.043446E-2,-2.6770538E-1,3.0289313E-1,8.6127855E-2],"categories":[],"categories_nodes":[],"categories_segments":[],"categories_sizes":[],"default_left":[0,0,0,0,0,0,0,0,0,0,0],"id":10,"left_children":[1,-1,3,5,7,-1,9,-1,-1,-1,-1],"loss_changes":[2.0283228E2,0E0,3.0090466E2,2.4820786E1,3.264995E1,0E0,8.23555E1,0E0,0E0,0E0,0E0],"parents":[2147483647,0,0,2,2,3,3,4,4,6,6],"right_children":[2,-1,4,6,8,-1,10,-1,-1,-1,-1],"split_conditions":[4E0,-2.8711575E-1,2.2E1,7E0,2.3E1,2.1441849E-2,9E0,-9.043446E-2,-2.6770538E-1,3.0289313E-1,8.6127855E-2],"split_indices":[1,0,1,1,1,0,1,0,0,0,0],"split_type":[0,0,0,0,0,0,0,0,0,0,0],"sum_hessian":[1.91E2,2.1E1,1.7E2,1.26E2,4.4E1,2.4E1,1.02E2,2.1E1,2.3E1,2.2E1,8E1],"tree_param":{"num_deleted":"0","num_feature":"2","num_nodes":"11","size_leaf_vector":"1"}},{"base_weights":[-1.3039775E-2,-2.5970927E-1,3.1948772E-1,1.0292987E0,-1.6908562E0,1.9383484E-2,1.222088E0,-8.180212E-2,-2.4205028E-1,2.7392069E-1,7.762136E-2],"categories":[],"categories_nodes":[],"categories_segments":[],"categories_sizes":[],"default_left":[0,0,0,0,0,0,0,0,0,0,0],"id":11,"left_children":[1,-1,3,5,7,-1,9,-1,-1,-1,-1],"loss_changes":[1.658093E2,0E0,2.4575125E2,2.0218826E1,2.667871E1,0E0,6.754755E1,0E0,0E0,0E0,0E0],"parents":[2147483647,0,0,2,2,3,3,4,4,6,6],"right_children":[2,-1,4,6,8,-1,10,-1,-1,-1,-1],"split_conditions":[4E0,-2.5970927E-1,2.2E1,7E0,2.3E1,1.9383484E-2,9E0,-8.180212E-2,-2.4205028E-1,2.7392069E-1,7.762136E-2],"split_indices":[1,0,1,1,1,0,1,0,0,0,0],"split_type":[0,0,0,0,0,0,0,0,0,0,0],"sum_hessian":[1.91E2,2.1E1,1.7E2,1.26E2,4.4E1,2.4E1,1.02E2,2.1E1,2.3E1,2.2E1,8E1],"tree_param":{"num_deleted":"0","num_feature":"2","num_nodes":"11","size_leaf_vector":"1"}},{"base_weights":[-1.2843239E-2,-2.3491882E-1,2.8781426E-1,9.2928946E-1,-1.5289673E0,1.0982121E0,1.1771679E-2,-7.3993705E-2,-2.1885379E-1,1.7522661E-2,1.3695261E-1],"categories":[],"categories_nodes":[],"categories_segments":[],"categories_sizes":[],"default_left":[0,0,0,0,0,0,0,0,0,0,0],"id":12,"left_children":[1,-1,3,5,7,9,-1,-1,-1,-1,-1],"loss_changes":[1.3554454E2,0E0,2.0070773E2,1.728154E1,2.1799568E1,2.6053993E1,0E0,0E0,0E0,0E0,0E0],"parents":[2147483647,0,0,2,2,3,3,4,4,5,5],"right_children":[2,-1,4,6,8,10,-1,-1,-1,-1,-1],"split_conditions":[4E0,-2.3491882E-1,2.2E1,2E1,2.3E1,7E0,1.1771679E-2,-7.3993705E-2,-2.1885379E-1,1.7522661E-2,1.3695261E-1],"split_indices":[1,0,1,1,1,1,0,0,0,0,0],"split_type":[0,0,0,0,0,0,0,0,0,0,0],"sum_hessian":[1.91E2,2.1E1,1.7E2,1.26E2,4.4E1,1.04E2,2.2E1,2.1E1,2.3E1,2.4E1,8E1],"tree_param":{"num_deleted":"0","num_feature":"2","num_nodes":"11","size_leaf_vector":"1"}},{"base_weights":[-1.3441754E-2,-2.1249476E-1,2.582926E-1,8.376697E-1,-1.3825781E0,9.8986214E-1,1.06457425E-2,-6.6930674E-2,-1.978803E-1,1.58405E-2,1.2342643E-1],"categories":[],"categories_nodes":[],"categories_segments":[],"categories_sizes":[],"default_left":[0,0,0,0,0,0,0,0,0,0,0],"id":13,"left_children":[1,-1,3,5,7,9,-1,-1,-1,-1,-1],"loss_changes":[1.1071244E2,0E0,1.6372491E2,1.4027824E1,1.7812729E1,2.1141525E1,0E0,0E0,0E0,0E0,0E0],"parents":[2147483647,0,0,2,2,3,3,4,4,5,5],"right_children":[2,-1,4,6,8,10,-1,-1,-1,-1,-1],"split_conditions":[4E0,-2.1249476E-1,2.2E1,2E1,2.3E1,7E0,1.06457425E-2,-6.6930674E-2,-1.978803E-1,1.58405E-2,1.2342643E-1],"split_indices":[1,0,1,1,1,1,0,0,0,0,0],"split_type":[0,0,0,0,0,0,0,0,0,0,0],"sum_hessian":[1.91E2,2.1E1,1.7E2,1.26E2,4.4E1,1.04E2,2.2E1,2.1E1,2.3E1,2.4E1,8E1],"tree_param":{"num_deleted":"0","num_feature":"2","num_nodes":"11","size_leaf_vector":"1"}},{"base_weights":[-1.3802797E-2,-1.9221117E-1,2.3179135E-1,7.55083E-1,-1.250205E0,1.1665341E0,5.070178E-1,-6.0541827E-2,-1.7891677E-1,1.4319779E-2,2.2281373E-1,-8.2430565E-1,8.328812E-2],"categories":[],"categories_nodes":[],"categories_segments":[],"categories_sizes":[],"default_left":[0,0,0,0,0,0,0,0,0,0,0,0,0],"id":14,"left_children":[1,-1,3,5,7,9,11,-1,-1,-1,-1,-1,-1],"loss_changes":[9.043006E1,0E0,1.335573E2,1.2371025E1,1.4555023E1,5.074066E1,2.3782307E2,0E0,0E0,0E0,0E0,0E0,0E0],"parents":[2147483647,0,0,2,2,3,3,4,4,5,5,6,6],"right_children":[2,-1,4,6,8,10,12,-1,-1,-1,-1,-1,-1],"split_conditions":[4E0,-1.9221117E-1,2.2E1,9E0,2.3E1,7E0,4E0,-6.0541827E-2,-1.7891677E-1,1.4319779E-2,2.2281373E-1,-8.2430565E-1,8.328812E-2],"split_indices":[1,0,1,1,1,1,0,0,0,0,0,0,0],"split_type":[0,0,0,0,0,0,0,0,0,0,0,0,0],"sum_hessian":[1.91E2,2.1E1,1.7E2,1.26E2,4.4E1,4.6E1,8E1,2.1E1,2.3E1,2.4E1,2.2E1,2E0,7.8E1],"tree_param":{"num_deleted":"0","num_feature":"2","num_nodes":"13","size_leaf_vector":"1"}},{"base_weights":[-1.7295217E-2,-1.7386375E-1,2.0426515E-1,6.75607E-1,-1.1305056E0,1.0020738E0,3.6829248E-1,-5.476281E-2,-1.6177057E-1,5.4083597E-2,2.6635027E-1,5.3985834E-2,1.6607409E-3],"categories":[],"categories_nodes":[],"categories_segments":[],"categories_sizes":[],"default_left":[0,0,0,0,0,0,0,0,0,0,0,0,0],"id":15,"left_children":[1,-1,3,5,7,9,11,-1,-1,-1,-1,-1,-1],"loss_changes":[7.358034E1,0E0,1.0834557E2,1.2372601E1,1.1893101E1,4.530462E1,4.0336237E0,0E0,0E0,0E0,0E0,0E0,0E0],"parents":[2147483647,0,0,2,2,3,3,4,4,5,5,6,6],"right_children":[2,-1,4,6,8,10,12,-1,-1,-1,-1,-1,-1],"split_conditions":[4E0,-1.7386375E-1,2.2E1,7E0,2.3E1,4E0,2E1,-5.476281E-2,-1.6177057E-1,5.4083597E-2,2.6635027E-1,5.3985834E-2,1.6607409E-3],"split_indices":[1,0,1,0,1,0,1,0,0,0,0,0,0],"split_type":[0,0,0,0,0,0,0,0,0,0,0,0,0],"sum_hessian":[1.91E2,2.1E1,1.7E2,1.26E2,4.4E1,6E1,6.6E1,2.1E1,2.3E1,4.8E1,1.2E1,4.4E1,2.2E1],"tree_param":{"num_deleted":"0","num_feature":"2","num_nodes":"13","size_leaf_vector":"1"}},{"base_weights":[-1.5640082E-2,-1.5726767E-1,1.8477187E-1,6.110079E-1,-1.022267E0,1.0019934E0,3.7659648E-1,-4.953545E-2,-1.4626756E-1,7.7530975E-3,1.963279E-1,-7.729575E-1,6.796587E-2],"categories":[],"categories_nodes":[],"categories_segments":[],"categories_sizes":[],"default_left":[0,0,0,0,0,0,0,0,0,0,0,0,0],"id":16,"left_children":[1,-1,3,5,7,9,11,-1,-1,-1,-1,-1,-1],"loss_changes":[6.020394E1,0E0,8.860128E1,1.12623825E1,9.718014E0,4.1615387E1,2.0424408E2,0E0,0E0,0E0,0E0,0E0,0E0],"parents":[2147483647,0,0,2,2,3,3,4,4,5,5,6,6],"right_children":[2,-1,4,6,8,10,12,-1,-1,-1,-1,-1,-1],"split_conditions":[4E0,-1.5726767E-1,2.2E1,9E0,2.3E1,7E0,4E0,-4.953545E-2,-1.4626756E-1,7.7530975E-3,1.963279E-1,-7.729575E-1,6.796587E-2],"split_indices":[1,0,1,1,1,1,0,0,0,0,0,0,0],"split_type":[0,0,0,0,0,0,0,0,0,0,0,0,0],"sum_hessian":[1.91E2,2.1E1,1.7E2,1.26E2,4.4E1,4.6E1,8E1,2.1E1,2.3E1,2.4E1,2.2E1,2E0,7.8E1],"tree_param":{"num_deleted":"0","num_feature":"2","num_nodes":"13","size_leaf_vector":"1"}},{"base_weights":[-1.8523758E-2,-1.4225577E-1,1.6222051E-1,5.459631E-1,-9.243914E-1,8.452351E-1,2.6534295E-1,-4.4807035E-2,-1.3225028E-1,4.2746108E-2,2.3549037E-1,4.2061724E-2,-4.9991235E-3],"categories":[],"categories_nodes":[],"categories_segments":[],"categories_sizes":[],"default_left":[0,0,0,0,0,0,0,0,0,0,0,0,0],"id":17,"left_children":[1,-1,3,5,7,9,11,-1,-1,-1,-1,-1,-1],"loss_changes":[4.8954815E1,0E0,7.180814E1,1.044141E1,7.9407234E0,3.7466087E1,3.301568E0,0E0,0E0,0E0,0E0,0E0,0E0],"parents":[2147483647,0,0,2,2,3,3,4,4,5,5,6,6],"right_children":[2,-1,4,6,8,10,12,-1,-1,-1,-1,-1,-1],"split_conditions":[4E0,-1.4225577E-1,2.2E1,7E0,2.3E1,4E0,2E1,-4.4807035E-2,-1.3225028E-1,4.2746108E-2,2.3549037E-1,4.2061724E-2,-4.9991235E-3],"split_indices":[1,0,1,0,1,0,1,0,0,0,0,0,0],"split_type":[0,0,0,0,0,0,0,0,0,0,0,0,0],"sum_hessian":[1.91E2,2.1E1,1.7E2,1.26E2,4.4E1,6E1,6.6E1,2.1E1,2.3E1,4.8E1,1.2E1,4.4E1,2.2E1],"tree_param":{"num_deleted":"0","num_feature":"2","num_nodes":"13","size_leaf_vector":"1"}},{"base_weights":[-1.6692223E-2,-1.286768E-1,1.4680696E-1,4.9384952E-1,-8.3588666E-1,8.642997E-1,2.7280003E-1,-4.0529963E-2,-1.1957629E-1,2.9050903E-3,1.7346005E-1,-7.242767E-1,5.5474818E-2],"categories":[],"categories_nodes":[],"categories_segments":[],"categories_sizes":[],"default_left":[0,0,0,0,0,0,0,0,0,0,0,0,0],"id":18,"left_children":[1,-1,3,5,7,9,11,-1,-1,-1,-1,-1,-1],"loss_changes":[4.0058926E1,0E0,5.873004E1,1.0163973E1,6.488468E0,3.411474E1,1.756569E2,0E0,0E0,0E0,0E0,0E0,0E0],"parents":[2147483647,0,0,2,2,3,3,4,4,5,5,6,6],"right_children":[2,-1,4,6,8,10,12,-1,-1,-1,-1,-1,-1],"split_conditions":[4E0,-1.286768E-1,2.2E1,9E0,2.3E1,7E0,4E0,-4.0529963E-2,-1.1957629E-1,2.9050903E-3,1.7346005E-1,-7.242767E-1,5.5474818E-2],"split_indices":[1,0,1,1,1,1,0,0,0,0,0,0,0],"split_type":[0,0,0,0,0,0,0,0,0,0,0,0,0],"sum_hessian":[1.91E2,2.1E1,1.7E2,1.26E2,4.4E1,4.6E1,8E1,2.1E1,2.3E1,2.4E1,2.2E1,2E0,7.8E1],"tree_param":{"num_deleted":"0","num_feature":"2","num_nodes":"13","size_leaf_vector":"1"}},{"base_weights":[-1.9091997E-2,-1.16394006E-1,1.2831004E-1,5.5442667E-1,-5.413998E-1,2.6262207E-3,7.105956E-1,-2.3467566E-1,-1.081169E-1,1.5686823E-1,3.640433E-2,-9.82727E-3,-3.666117E-2],"categories":[],"categories_nodes":[],"categories_segments":[],"categories_sizes":[],"default_left":[0,0,0,0,0,0,0,0,0,0,0,0,0],"id":19,"left_children":[1,-1,3,5,7,-1,9,11,-1,-1,-1,-1,-1],"loss_changes":[3.2549908E1,0E0,4.9099205E1,8.64204E0,1.083881E1,0E0,2.3516064E1,7.558167E-1,0E0,0E0,0E0,0E0,0E0],"parents":[2147483647,0,0,2,2,3,3,4,4,6,6,7,7],"right_children":[2,-1,4,6,8,-1,10,12,-1,-1,-1,-1,-1],"split_conditions":[4E0,-1.16394006E-1,2E1,7E0,2.3E1,2.6262207E-3,9E0,2.2E1,-1.081169E-1,1.5686823E-1,3.640433E-2,-9.82727E-3,-3.666117E-2],"split_indices":[1,0,1,1,1,0,1,1,0,0,0,0,0],"split_type":[0,0,0,0,0,0,0,0,0,0,0,0,0],"sum_hessian":[1.91E2,2.1E1,1.7E2,1.04E2,6.6E1,2.4E1,8E1,4.3E1,2.3E1,2.2E1,5.8E1,2.2E1,2.1E1],"tree_param":{"num_deleted":"0","num_feature":"2","num_nodes":"13","size_leaf_vector":"1"}},{"base_weights":[-1.7573977E-2,-1.0528367E-1,1.1572048E-1,5.008496E-1,-4.8956722E-1,2.3740844E-3,6.4192206E-1,-2.1226448E-1,-9.775569E-2,1.4186347E-1,3.282557E-2,-8.887233E-3,-3.3161696E-2],"categories":[],"categories_nodes":[],"categories_segments":[],"categories_sizes":[],"default_left":[0,0,0,0,0,0,0,0,0,0,0,0,0],"id":20,"left_children":[1,-1,3,5,7,-1,9,11,-1,-1,-1,-1,-1],"loss_changes":[2.6616833E1,0E0,4.0107674E1,7.051985E0,8.858999E0,0E0,1.9268242E1,6.185235E-1,0E0,0E0,0E0,0E0,0E0],"parents":[2147483647,0,0,2,2,3,3,4,4,6,6,7,7],"right_children":[2,-1,4,6,8,-1,10,12,-1,-1,-1,-1,-1],"split_conditions":[4E0,-1.0528367E-1,2E1,7E0,2.3E1,2.3740844E-3,9E0,2.2E1,-9.775569E-2,1.4186347E-1,3.282557E-2,-8.887233E-3,-3.3161696E-2],"split_indices":[1,0,1,1,1,0,1,1,0,0,0,0,0],"split_type":[0,0,0,0,0,0,0,0,0,0,0,0,0],"sum_hessian":[1.91E2,2.1E1,1.7E2,1.04E2,6.6E1,2.4E1,8E1,4.3E1,2.3E1,2.2E1,5.8E1,2.2E1,2.1E1],"tree_param":{"num_deleted":"0","num_feature":"2","num_nodes":"13","size_leaf_vector":"1"}},{"base_weights":[-1.61707E-2,-9.523385E-2,1.0436651E-1,4.5245117E-1,-4.4269702E-1,2.1461945E-3,5.7988673E-1,-1.9199347E-1,-8.8387445E-2,1.2829398E-1,2.9598663E-2,-8.037149E-3,-2.9996222E-2],"categories":[],"categories_nodes":[],"categories_segments":[],"categories_sizes":[],"default_left":[0,0,0,0,0,0,0,0,0,0,0,0,0],"id":21,"left_children":[1,-1,3,5,7,-1,9,11,-1,-1,-1,-1,-1],"loss_changes":[2.1765259E1,0E0,3.2762875E1,5.754505E0,7.24082E0,0E0,1.5787611E1,5.0616574E-1,0E0,0E0,0E0,0E0,0E0],"parents":[2147483647,0,0,2,2,3,3,4,4,6,6,7,7],"right_children":[2,-1,4,6,8,-1,10,12,-1,-1,-1,-1,-1],"split_conditions":[4E0,-9.523385E-2,2E1,7E0,2.3E1,2.1461945E-3,9E0,2.2E1,-8.8387445E-2,1.2829398E-1,2.9598663E-2,-8.037149E-3,-2.9996222E-2],"split_indices":[1,0,1,1,1,0,1,1,0,0,0,0,0],"split_type":[0,0,0,0,0,0,0,0,0,0,0,0,0],"sum_hessian":[1.91E2,2.1E1,1.7E2,1.04E2,6.6E1,2.4E1,8E1,4.3E1,2.3E1,2.2E1,5.8E1,2.2E1,2.1E1],"tree_param":{"num_deleted":"0","num_feature":"2","num_nodes":"13","size_leaf_vector":"1"}},{"base_weights":[-1.4874298E-2,-8.6143345E-2,9.412672E-2,4.0873063E-1,-4.0031412E-1,1.3658772E-1,6.3550735E-1,-1.7365846E-1,-7.991698E-2,5.7808947E-2,-6.825802E-1,1.9950937E-1,2.2861555E-2,-7.268338E-3,-2.7132977E-2],"categories":[],"categories_nodes":[],"categories_segments":[],"categories_sizes":[],"default_left":[0,0,0,0,0,0,0,0,0,0,0,0,0,0,0],"id":22,"left_children":[1,-1,3,5,7,9,11,13,-1,-1,-1,-1,-1,-1,-1],"loss_changes":[1.7798038E1,0E0,2.676319E1,6.393341E0,5.91821E0,1.5456735E2,3.107655E1,4.1422307E-1,0E0,0E0,0E0,0E0,0E0,0E0,0E0],"parents":[2147483647,0,0,2,2,3,3,4,4,5,5,6,6,7,7],"right_children":[2,-1,4,6,8,10,12,14,-1,-1,-1,-1,-1,-1,-1],"split_conditions":[4E0,-8.6143345E-2,2E1,4E0,2.3E1,9E0,7E0,2.2E1,-7.991698E-2,5.7808947E-2,-6.825802E-1,1.9950937E-1,2.2861555E-2,-7.268338E-3,-2.7132977E-2],"split_indices":[1,0,1,0,1,1,0,1,0,0,0,0,0,0,0],"split_type":[0,0,0,0,0,0,0,0,0,0,0,0,0,0,0],"sum_hessian":[1.91E2,2.1E1,1.7E2,1.04E2,6.6E1,4.8E1,5.6E1,4.3E1,2.3E1,4.6E1,2E0,1.2E1,4.4E1,2.2E1,2.1E1],"tree_param":{"num_deleted":"0","num_feature":"2","num_nodes":"15","size_leaf_vector":"1"}},{"base_weights":[-1.6526926E-2,-7.792058E-2,8.1692144E-2,3.64025E-1,-3.6198908E-1,1.1017807E-1,5.758579E-1,-1.5707463E-1,-7.225827E-2,5.2151002E-2,-6.370749E-1,1.8109311E-1,2.062621E-2,-6.5731383E-3,-2.4543008E-2],"categories":[],"categories_nodes":[],"categories_segments":[],"categories_sizes":[],"default_left":[0,0,0,0,0,0,0,0,0,0,0,0,0,0,0],"id":23,"left_children":[1,-1,3,5,7,9,11,13,-1,-1,-1,-1,-1,-1,-1],"loss_changes":[1.44463E1,0E0,2.1552223E1,5.582733E0,4.837187E0,1.339472E2,2.5645714E1,3.3897722E-1,0E0,0E0,0E0,0E0,0E0,0E0,0E0],"parents":[2147483647,0,0,2,2,3,3,4,4,5,5,6,6,7,7],"right_children":[2,-1,4,6,8,10,12,14,-1,-1,-1,-1,-1,-1,-1],"split_conditions":[4E0,-7.792058E-2,2E1,4E0,2.3E1,9E0,7E0,2.2E1,-7.225827E-2,5.2151002E-2,-6.370749E-1,1.8109311E-1,2.062621E-2,-6.5731383E-3,-2.4543008E-2],"split_indices":[1,0,1,0,1,1,0,1,0,0,0,0,0,0,0],"split_type":[0,0,0,0,0,0,0,0,0,0,0,0,0,0,0],"sum_hessian":[1.91E2,2.1E1,1.7E2,1.04E2,6.6E1,4.8E1,5.6E1,4.3E1,2.3E1,4.6E1,2E0,1.2E1,4.4E1,2.2E1,2.1E1],"tree_param":{"num_deleted":"0","num_feature":"2","num_nodes":"15","size_leaf_vector":"1"}},{"base_weights":[-1.7814325E-2,-7.048269E-2,7.067744E-2,3.2397306E-1,-3.2733327E-1,-8.615906E-3,4.4655737E-1,-1.4207464E-1,-6.533352E-2,1.0550441E-1,2.0178191E-2,-5.944443E-3,-2.2200285E-2],"categories":[],"categories_nodes":[],"categories_segments":[],"categories_sizes":[],"default_left":[0,0,0,0,0,0,0,0,0,0,0,0,0],"id":24,"left_children":[1,-1,3,5,7,-1,9,11,-1,-1,-1,-1,-1],"loss_changes":[1.1722447E1,0E0,1.7345304E1,5.3174305E0,3.95362E0,0E0,1.1851461E1,2.7740043E-1,0E0,0E0,0E0,0E0,0E0],"parents":[2147483647,0,0,2,2,3,3,4,4,6,6,7,7],"right_children":[2,-1,4,6,8,-1,10,12,-1,-1,-1,-1,-1],"split_conditions":[4E0,-7.048269E-2,2E1,7E0,2.3E1,-8.615906E-3,9E0,2.2E1,-6.533352E-2,1.0550441E-1,2.0178191E-2,-5.944443E-3,-2.2200285E-2],"split_indices":[1,0,1,1,1,0,1,1,0,0,0,0,0],"split_type":[0,0,0,0,0,0,0,0,0,0,0,0,0],"sum_hessian":[1.91E2,2.1E1,1.7E2,1.04E2,6.6E1,2.4E1,8E1,4.3E1,2.3E1,2.2E1,5.8E1,2.2E1,2.1E1],"tree_param":{"num_deleted":"0","num_feature":"2","num_nodes":"13","size_leaf_vector":"1"}},{"base_weights":[-1.6277133E-2,-6.37548E-2,6.374764E-2,2.926907E-1,-2.959952E-1,4.3249946E-2,5.019873E-1,-1.2850697E-1,-5.9072383E-2,4.2548295E-2,-5.959484E-1,1.6251425E-1,1.6636498E-2,-5.375858E-3,-2.0081181E-2],"categories":[],"categories_nodes":[],"categories_segments":[],"categories_sizes":[],"default_left":[0,0,0,0,0,0,0,0,0,0,0,0,0,0,0],"id":25,"left_children":[1,-1,3,5,7,9,11,13,-1,-1,-1,-1,-1,-1,-1],"loss_changes":[9.586317E0,0E0,1.4170302E1,5.4600353E0,3.2314467E0,1.1496338E2,2.1216122E1,2.2701013E-1,0E0,0E0,0E0,0E0,0E0,0E0,0E0],"parents":[2147483647,0,0,2,2,3,3,4,4,5,5,6,6,7,7],"right_children":[2,-1,4,6,8,10,12,14,-1,-1,-1,-1,-1,-1,-1],"split_conditions":[4E0,-6.37548E-2,2E1,4E0,2.3E1,9E0,7E0,2.2E1,-5.9072383E-2,4.2548295E-2,-5.959484E-1,1.6251425E-1,1.6636498E-2,-5.375858E-3,-2.0081181E-2],"split_indices":[1,0,1,0,1,1,0,1,0,0,0,0,0,0,0],"split_type":[0,0,0,0,0,0,0,0,0,0,0,0,0,0,0],"sum_hessian":[1.91E2,2.1E1,1.7E2,1.04E2,6.6E1,4.8E1,5.6E1,4.3E1,2.3E1,4.6E1,2E0,1.2E1,4.4E1,2.2E1,2.1E1],"tree_param":{"num_deleted":"0","num_feature":"2","num_nodes":"15","size_leaf_vector":"1"}},{"base_weights":[-1.737118E-2,-5.766911E-2,5.4689694E-2,2.5985694E-1,-2.6765734E-1,2.7630689E-2,4.5493117E-1,-1.1623495E-1,-5.341127E-2,3.8383957E-2,-5.5621856E-1,1.4751288E-1,1.5009783E-2,-4.861649E-3,-1.8164357E-2],"categories":[],"categories_nodes":[],"categories_segments":[],"categories_sizes":[],"default_left":[0,0,0,0,0,0,0,0,0,0,0,0,0,0,0],"id":26,"left_children":[1,-1,3,5,7,9,11,13,-1,-1,-1,-1,-1,-1,-1],"loss_changes":[7.7701144E0,0E0,1.1378648E1,4.744072E0,2.6411862E0,9.970095E1,1.7505028E1,1.8577361E-1,0E0,0E0,0E0,0E0,0E0,0E0,0E0],"parents":[2147483647,0,0,2,2,3,3,4,4,5,5,6,6,7,7],"right_children":[2,-1,4,6,8,10,12,14,-1,-1,-1,-1,-1,-1,-1],"split_conditions":[4E0,-5.766911E-2,2E1,4E0,2.3E1,9E0,7E0,2.2E1,-5.341127E-2,3.8383957E-2,-5.5621856E-1,1.4751288E-1,1.5009783E-2,-4.861649E-3,-1.8164357E-2],"split_indices":[1,0,1,0,1,1,0,1,0,0,0,0,0,0,0],"split_type":[0,0,0,0,0,0,0,0,0,0,0,0,0,0,0],"sum_hessian":[1.91E2,2.1E1,1.7E2,1.04E2,6.6E1,4.8E1,5.6E1,4.3E1,2.3E1,4.6E1,2E0,1.2E1,4.4E1,2.2E1,2.1E1],"tree_param":{"num_deleted":"0","num_feature":"2","num_nodes":"15","size_leaf_vector":"1"}},{"base_weights":[-1.8182999E-2,-5.2164327E-2,4.6696004E-2,2.3048756E-1,-2.420325E-1,-1.555827E-2,3.4679952E-1,-1.051348E-1,-4.8292693E-2,8.767124E-2,1.3434532E-2,-4.3966044E-3,-1.643051E-2],"categories":[],"categories_nodes":[],"categories_segments":[],"categories_sizes":[],"default_left":[0,0,0,0,0,0,0,0,0,0,0,0,0],"id":27,"left_children":[1,-1,3,5,7,-1,9,11,-1,-1,-1,-1,-1],"loss_changes":[6.295847E0,0E0,9.130047E0,4.7689376E0,2.1587465E0,0E0,9.001378E0,1.5202862E-1,0E0,0E0,0E0,0E0,0E0],"parents":[2147483647,0,0,2,2,3,3,4,4,6,6,7,7],"right_children":[2,-1,4,6,8,-1,10,12,-1,-1,-1,-1,-1],"split_conditions":[4E0,-5.2164327E-2,2E1,7E0,2.3E1,-1.555827E-2,9E0,2.2E1,-4.8292693E-2,8.767124E-2,1.3434532E-2,-4.3966044E-3,-1.643051E-2],"split_indices":[1,0,1,1,1,0,1,1,0,0,0,0,0],"split_type":[0,0,0,0,0,0,0,0,0,0,0,0,0],"sum_hessian":[1.91E2,2.1E1,1.7E2,1.04E2,6.6E1,2.4E1,8E1,4.3E1,2.3E1,2.2E1,5.8E1,2.2E1,2.1E1],"tree_param":{"num_deleted":"0","num_feature":"2","num_nodes":"13","size_leaf_vector":"1"}},{"base_weights":[-1.6550818E-2,-4.718501E-2,4.2122483E-2,2.0825362E-1,-2.1886098E-1,-1.7990462E-2,3.990906E-1,-9.509479E-2,-4.3664645E-2,3.131799E-2,-5.2003294E-1,1.3265623E-1,1.2228563E-2,-3.976076E-3,-1.4862152E-2],"categories":[],"categories_nodes":[],"categories_segments":[],"categories_sizes":[],"default_left":[0,0,0,0,0,0,0,0,0,0,0,0,0,0,0],"id":28,"left_children":[1,-1,3,5,7,9,11,13,-1,-1,-1,-1,-1,-1,-1],"loss_changes":[5.1489463E0,0E0,7.4597077E0,4.5406327E0,1.7644277E0,8.572425E1,1.4471322E1,1.2441206E-1,0E0,0E0,0E0,0E0,0E0,0E0,0E0],"parents":[2147483647,0,0,2,2,3,3,4,4,5,5,6,6,7,7],"right_children":[2,-1,4,6,8,10,12,14,-1,-1,-1,-1,-1,-1,-1],"split_conditions":[4E0,-4.718501E-2,2E1,4E0,2.3E1,9E0,7E0,2.2E1,-4.3664645E-2,3.131799E-2,-5.2003294E-1,1.3265623E-1,1.2228563E-2,-3.976076E-3,-1.4862152E-2],"split_indices":[1,0,1,0,1,1,0,1,0,0,0,0,0,0,0],"split_type":[0,0,0,0,0,0,0,0,0,0,0,0,0,0,0],"sum_hessian":[1.91E2,2.1E1,1.7E2,1.04E2,6.6E1,4.8E1,5.6E1,4.3E1,2.3E1,4.6E1,2E0,1.2E1,4.4E1,2.2E1,2.1E1],"tree_param":{"num_deleted":"0","num_feature":"2","num_nodes":"15","size_leaf_vector":"1"}},{"base_weights":[-1.725799E-2,-2.9690453E-1,7.036786E-2,-4.268099E-2,-1.7071167E-2,7.62896E-2,-5.7620265E-2,-4.8536405E-1,5.98243E-2,1.2041105E-1,-7.4730166E-3],"categories":[],"categories_nodes":[],"categories_segments":[],"categories_sizes":[],"default_left":[0,0,0,0,0,0,0,0,0,0,0],"id":29,"left_children":[1,3,5,-1,-1,-1,7,-1,9,-1,-1],"loss_changes":[4.725712E0,6.8122244E-1,1.3073359E1,0E0,0E0,0E0,7.0698685E1,0E0,1.9028147E1,0E0,0E0],"parents":[2147483647,0,0,1,1,2,2,6,6,8,8],"right_children":[2,4,6,-1,-1,-1,8,-1,10,-1,-1],"split_conditions":[7E0,4E0,9E0,-4.268099E-2,-1.7071167E-2,7.62896E-2,4E0,-4.8536405E-1,7E0,1.2041105E-1,-7.4730166E-3],"split_indices":[1,1,1,0,0,0,0,0,0,0,0],"split_type":[0,0,0,0,0,0,0,0,0,0,0],"sum_hessian":[1.91E2,4.5E1,1.46E2,2.1E1,2.4E1,2.2E1,1.24E2,2E0,1.22E2,1.2E1,1.1E2],"tree_param":{"num_deleted":"0","num_feature":"2","num_nodes":"11","size_leaf_vector":"1"}},{"base_weights":[-1.7385896E-2,-2.6851326E-1,6.131645E-2,-3.8606893E-2,-1.5432373E-2,6.899228E-2,-5.4837655E-2,-4.5300648E-1,5.4760054E-2,1.092962E-1,-6.73245E-3],"categories":[],"categories_nodes":[],"categories_segments":[],"categories_sizes":[],"default_left":[0,0,0,0,0,0,0,0,0,0,0],"id":30,"left_children":[1,3,5,-1,-1,-1,7,-1,9,-1,-1],"loss_changes":[3.8112123E0,5.579076E-1,1.07710705E1,0E0,0E0,0E0,6.1557392E1,0E0,1.5663639E1,0E0,0E0],"parents":[2147483647,0,0,1,1,2,2,6,6,8,8],"right_children":[2,4,6,-1,-1,-1,8,-1,10,-1,-1],"split_conditions":[7E0,4E0,9E0,-3.8606893E-2,-1.5432373E-2,6.899228E-2,4E0,-4.5300648E-1,7E0,1.092962E-1,-6.73245E-3],"split_indices":[1,1,1,0,0,0,0,0,0,0,0],"split_type":[0,0,0,0,0,0,0,0,0,0,0],"sum_hessian":[1.91E2,4.5E1,1.46E2,2.1E1,2.4E1,2.2E1,1.24E2,2E0,1.22E2,1.2E1,1.1E2],"tree_param":{"num_deleted":"0","num_feature":"2","num_nodes":"11","size_leaf_vector":"1"}},{"base_weights":[-1.7394817E-2,3.437099E-2,-3.811876E-2,-2.4283673E-1,1.3692893E-1,-3.4921695E-2,-1.3950867E-2,6.239299E-2,2.5772538E-2,-4.2280602E-1,1.531298E-2],"categories":[],"categories_nodes":[],"categories_segments":[],"categories_sizes":[],"default_left":[0,0,0,0,0,0,0,0,0,0,0],"id":31,"left_children":[1,3,-1,5,7,-1,-1,-1,9,-1,-1],"loss_changes":[3.628851E0,4.8378963E0,0E0,4.569161E-1,6.6964455E0,0E0,0E0,0E0,5.5906612E1,0E0,0E0],"parents":[2147483647,0,0,1,1,3,3,4,4,8,8],"right_children":[2,4,-1,6,8,-1,-1,-1,10,-1,-1],"split_conditions":[2.3E1,7E0,-3.811876E-2,4E0,9E0,-3.4921695E-2,-1.3950867E-2,6.239299E-2,4E0,-4.2280602E-1,1.531298E-2],"split_indices":[1,1,0,1,1,0,0,0,0,0,0],"split_type":[0,0,0,0,0,0,0,0,0,0,0],"sum_hessian":[1.91E2,1.68E2,2.3E1,4.5E1,1.23E2,2.1E1,2.4E1,2.2E1,1.01E2,2E0,9.9E1],"tree_param":{"num_deleted":"0","num_feature":"2","num_nodes":"11","size_leaf_vector":"1"}},{"base_weights":[-1.7905815E-2,5.2801907E-2,-2.5005776E-1,-2.1961524E-1,1.7395128E-1,-1.3549231E-2,-3.44657E-2,-3.1588268E-2,-1.2611531E-2,5.6424946E-2,6.0978334E-2,-3.94619E-1,2.123774E-2],"categories":[],"categories_nodes":[],"categories_segments":[],"categories_sizes":[],"default_left":[0,0,0,0,0,0,0,0,0,0,0,0,0],"id":32,"left_children":[1,3,5,7,9,-1,-1,-1,-1,-1,11,-1,-1],"loss_changes":[3.1648707E0,4.9226713E0,4.4100285E-1,3.7420797E-1,4.507186E0,0E0,0E0,0E0,0E0,0E0,4.9979286E1,0E0,0E0],"parents":[2147483647,0,0,1,1,2,2,3,3,4,4,10,10],"right_children":[2,4,6,8,10,-1,-1,-1,-1,-1,12,-1,-1],"split_conditions":[2.2E1,7E0,2.3E1,4E0,9E0,-1.3549231E-2,-3.44657E-2,-3.1588268E-2,-1.2611531E-2,5.6424946E-2,4E0,-3.94619E-1,2.123774E-2],"split_indices":[1,1,1,1,1,0,0,0,0,0,0,0,0],"split_type":[0,0,0,0,0,0,0,0,0,0,0,0,0],"sum_hessian":[1.91E2,1.47E2,4.4E1,4.5E1,1.02E2,2.1E1,2.3E1,2.1E1,2.4E1,2.2E1,8E1,2E0,7.8E1],"tree_param":{"num_deleted":"0","num_feature":"2","num_nodes":"13","size_leaf_vector":"1"}},{"base_weights":[-1.824622E-2,4.5081597E-2,-2.2611889E-1,-1.9861464E-1,1.5347913E-1,-1.225589E-2,-3.1162728E-2,-2.857302E-2,-1.14008365E-2,5.1027764E-2,5.0271165E-2,-3.6831105E-1,1.9140882E-2],"categories":[],"categories_nodes":[],"categories_segments":[],"categories_sizes":[],"default_left":[0,0,0,0,0,0,0,0,0,0,0,0,0],"id":33,"left_children":[1,3,5,7,9,-1,-1,-1,-1,-1,11,-1,-1],"loss_changes":[2.5377054E0,3.9400616E0,3.6029363E-1,3.064685E-1,3.7672656E0,0E0,0E0,0E0,0E0,0E0,4.338556E1,0E0,0E0],"parents":[2147483647,0,0,1,1,2,2,3,3,4,4,10,10],"right_children":[2,4,6,8,10,-1,-1,-1,-1,-1,12,-1,-1],"split_conditions":[2.2E1,7E0,2.3E1,4E0,9E0,-1.225589E-2,-3.1162728E-2,-2.857302E-2,-1.14008365E-2,5.1027764E-2,4E0,-3.6831105E-1,1.9140882E-2],"split_indices":[1,1,1,1,1,0,0,0,0,0,0,0,0],"split_type":[0,0,0,0,0,0,0,0,0,0,0,0,0],"sum_hessian":[1.91E2,1.47E2,4.4E1,4.5E1,1.02E2,2.1E1,2.3E1,2.1E1,2.4E1,2.2E1,8E1,2E0,7.8E1],"tree_param":{"num_deleted":"0","num_feature":"2","num_nodes":"13","size_leaf_vector":"1"}},{"base_weights":[-1.840881E-2,5.8781616E-2,-1.6329814E-1,-1.13736264E-1,2.6961443E-1,-9.49696E-2,-2.8176306E-2,3.457605E-2,-3.43757E-1,9.406661E-2,6.976363E-2,-7.564068E-3,-1.1086031E-2,-1.7962202E-2,4.6146892E-2,-1.495703E-3,1.590151E-2],"categories":[],"categories_nodes":[],"categories_segments":[],"categories_sizes":[],"default_left":[0,0,0,0,0,0,0,0,0,0,0,0,0,0,0,0,0],"id":34,"left_children":[1,3,5,7,9,11,-1,13,-1,-1,15,-1,-1,-1,-1,-1,-1],"loss_changes":[2.15694E0,4.6135907E0,5.1557493E-1,3.4626442E1,7.578657E0,5.129069E-3,0E0,6.300785E0,0E0,0E0,3.4264332E-1,0E0,0E0,0E0,0E0,0E0,0E0],"parents":[2147483647,0,0,1,1,2,2,3,3,4,4,5,5,7,7,10,10],"right_children":[2,4,6,8,10,12,-1,14,-1,-1,16,-1,-1,-1,-1,-1,-1],"split_conditions":[2E1,4E0,2.3E1,9E0,7E0,2.2E1,-2.8176306E-2,7E0,-3.43757E-1,9.406661E-2,1.9E1,-7.564068E-3,-1.1086031E-2,-1.7962202E-2,4.6146892E-2,-1.495703E-3,1.590151E-2],"split_indices":[1,0,1,1,0,1,0,1,0,0,1,0,0,0,0,0,0],"split_type":[0,0,0,0,0,0,0,0,0,0,0,0,0,0,0,0,0],"sum_hessian":[1.91E2,1.25E2,6.6E1,6.9E1,5.6E1,4.3E1,2.3E1,6.7E1,2E0,1.2E1,4.4E1,2.2E1,2.1E1,4.5E1,2.2E1,2.3E1,2.1E1],"tree_param":{"num_deleted":"0","num_feature":"2","num_nodes":"17","size_leaf_vector":"1"}},{"base_weights":[-1.7890507E-2,5.125984E-2,-1.4766742E-1,-1.06870614E-1,2.4455585E-1,-8.5896805E-2,-2.5476074E-2,3.153313E-2,-3.2083985E-1,8.5383534E-2,6.310719E-2,-6.840598E-3,-1.0027827E-2,-1.6205026E-2,4.173289E-2,-1.3523976E-3,1.4383632E-2],"categories":[],"categories_nodes":[],"categories_segments":[],"categories_sizes":[],"default_left":[0,0,0,0,0,0,0,0,0,0,0,0,0,0,0,0,0],"id":35,"left_children":[1,3,5,7,9,11,-1,13,-1,-1,15,-1,-1,-1,-1,-1,-1],"loss_changes":[1.7306002E0,3.8774498E0,4.2133677E-1,3.0149584E1,6.247635E0,4.2082965E-3,0E0,5.146116E0,0E0,0E0,2.803318E-1,0E0,0E0,0E0,0E0,0E0,0E0],"parents":[2147483647,0,0,1,1,2,2,3,3,4,4,5,5,7,7,10,10],"right_children":[2,4,6,8,10,12,-1,14,-1,-1,16,-1,-1,-1,-1,-1,-1],"split_conditions":[2E1,4E0,2.3E1,9E0,7E0,2.2E1,-2.5476074E-2,7E0,-3.2083985E-1,8.5383534E-2,1.9E1,-6.840598E-3,-1.0027827E-2,-1.6205026E-2,4.173289E-2,-1.3523976E-3,1.4383632E-2],"split_indices":[1,0,1,1,0,1,0,1,0,0,1,0,0,0,0,0,0],"split_type":[0,0,0,0,0,0,0,0,0,0,0,0,0,0,0,0,0],"sum_hessian":[1.91E2,1.25E2,6.6E1,6.9E1,5.6E1,4.3E1,2.3E1,6.7E1,2E0,1.2E1,4.4E1,2.2E1,2.1E1,4.5E1,2.2E1,2.3E1,2.1E1],"tree_param":{"num_deleted":"0","num_feature":"2","num_nodes":"17","size_leaf_vector":"1"}},{"base_weights":[-1.7347472E-2,4.4571187E-2,-1.335326E-1,-1.0040232E-1,2.2182687E-1,-7.7690355E-2,-2.303462E-2,2.8755203E-2,-2.9945052E-1,7.7501975E-2,5.7086118E-2,-6.1862655E-3,-9.070612E-3,-1.4619759E-2,3.7741058E-2,-1.2228092E-3,1.301068E-2],"categories":[],"categories_nodes":[],"categories_segments":[],"categories_sizes":[],"default_left":[0,0,0,0,0,0,0,0,0,0,0,0,0,0,0,0,0],"id":36,"left_children":[1,3,5,7,9,11,-1,13,-1,-1,15,-1,-1,-1,-1,-1,-1],"loss_changes":[1.387205E0,3.2601414E0,3.4432566E-1,2.6251766E1,5.150361E0,3.453076E-3,0E0,4.203056E0,0E0,0E0,2.2935264E-1,0E0,0E0,0E0,0E0,0E0,0E0],"parents":[2147483647,0,0,1,1,2,2,3,3,4,4,5,5,7,7,10,10],"right_children":[2,4,6,8,10,12,-1,14,-1,-1,16,-1,-1,-1,-1,-1,-1],"split_conditions":[2E1,4E0,2.3E1,9E0,7E0,2.2E1,-2.303462E-2,7E0,-2.9945052E-1,7.7501975E-2,1.9E1,-6.1862655E-3,-9.070612E-3,-1.4619759E-2,3.7741058E-2,-1.2228092E-3,1.301068E-2],"split_indices":[1,0,1,1,0,1,0,1,0,0,1,0,0,0,0,0,0],"split_type":[0,0,0,0,0,0,0,0,0,0,0,0,0,0,0,0,0],"sum_hessian":[1.91E2,1.25E2,6.6E1,6.9E1,5.6E1,4.3E1,2.3E1,6.7E1,2E0,1.2E1,4.4E1,2.2E1,2.1E1,4.5E1,2.2E1,2.3E1,2.1E1],"tree_param":{"num_deleted":"0","num_feature":"2","num_nodes":"17","size_leaf_vector":"1"}},{"base_weights":[-1.678634E-2,3.8629644E-2,-1.20750934E-1,-9.430941E-2,2.0121042E-1,-7.0268124E-2,-2.0827148E-2,2.6219944E-2,-2.7948716E-1,7.0347905E-2,5.163926E-2,-5.594519E-3,-8.204809E-3,-1.3189546E-2,3.4131076E-2,-1.1056344E-3,1.1768723E-2],"categories":[],"categories_nodes":[],"categories_segments":[],"categories_sizes":[],"default_left":[0,0,0,0,0,0,0,0,0,0,0,0,0,0,0,0,0],"id":37,"left_children":[1,3,5,7,9,11,-1,13,-1,-1,15,-1,-1,-1,-1,-1,-1],"loss_changes":[1.1108344E0,2.7422564E0,2.8139007E-1,2.2858072E1,4.2457924E0,2.8336644E-3,0E0,3.4328256E0,0E0,0E0,1.8764246E-1,0E0,0E0,0E0,0E0,0E0,0E0],"parents":[2147483647,0,0,1,1,2,2,3,3,4,4,5,5,7,7,10,10],"right_children":[2,4,6,8,10,12,-1,14,-1,-1,16,-1,-1,-1,-1,-1,-1],"split_conditions":[2E1,4E0,2.3E1,9E0,7E0,2.2E1,-2.0827148E-2,7E0,-2.7948716E-1,7.0347905E-2,1.9E1,-5.594519E-3,-8.204809E-3,-1.3189546E-2,3.4131076E-2,-1.1056344E-3,1.1768723E-2],"split_indices":[1,0,1,1,0,1,0,1,0,0,1,0,0,0,0,0,0],"split_type":[0,0,0,0,0,0,0,0,0,0,0,0,0,0,0,0,0],"sum_hessian":[1.91E2,1.25E2,6.6E1,6.9E1,5.6E1,4.3E1,2.3E1,6.7E1,2E0,1.2E1,4.4E1,2.2E1,2.1E1,4.5E1,2.2E1,2.3E1,2.1E1],"tree_param":{"num_deleted":"0","num_feature":"2","num_nodes":"17","size_leaf_vector":"1"}},{"base_weights":[-1.621288E-2,3.3357445E-2,-1.0919271E-1,-8.8572435E-2,1.8251067E-1,-6.355498E-2,-1.8831218E-2,2.3905445E-2,-2.608547E-1,6.385428E-2,4.6712283E-2,-5.0594164E-3,-7.421606E-3,-1.1899289E-2,3.0866275E-2,-9.99713E-4,1.0645381E-2],"categories":[],"categories_nodes":[],"categories_segments":[],"categories_sizes":[],"default_left":[0,0,0,0,0,0,0,0,0,0,0,0,0,0,0,0,0],"id":38,"left_children":[1,3,5,7,9,11,-1,13,-1,-1,15,-1,-1,-1,-1,-1,-1],"loss_changes":[8.885781E-1,2.3076313E0,2.299577E-1,1.9903254E1,3.500093E0,2.3248494E-3,0E0,2.80374E0,0E0,0E0,1.5352005E-1,0E0,0E0,0E0,0E0,0E0,0E0],"parents":[2147483647,0,0,1,1,2,2,3,3,4,4,5,5,7,7,10,10],"right_children":[2,4,6,8,10,12,-1,14,-1,-1,16,-1,-1,-1,-1,-1,-1],"split_conditions":[2E1,4E0,2.3E1,9E0,7E0,2.2E1,-1.8831218E-2,7E0,-2.608547E-1,6.385428E-2,1.9E1,-5.0594164E-3,-7.421606E-3,-1.1899289E-2,3.0866275E-2,-9.99713E-4,1.0645381E-2],"split_indices":[1,0,1,1,0,1,0,1,0,0,1,0,0,0,0,0,0],"split_type":[0,0,0,0,0,0,0,0,0,0,0,0,0,0,0,0,0],"sum_hessian":[1.91E2,1.25E2,6.6E1,6.9E1,5.6E1,4.3E1,2.3E1,6.7E1,2E0,1.2E1,4.4E1,2.2E1,2.1E1,4.5E1,2.2E1,2.3E1,2.1E1],"tree_param":{"num_deleted":"0","num_feature":"2","num_nodes":"17","size_leaf_vector":"1"}},{"base_weights":[-1.563177E-2,-1.8793799E-2,6.627696E-3,7.379976E-2,-9.8740876E-2,-3.4435254E-2,1.6554916E-1,-5.7483304E-2,-1.7026557E-2,1.1950221E-2,-2.4346438E-1,5.796004E-2,4.225549E-3,-4.5754933E-3,-6.7131906E-3],"categories":[],"categories_nodes":[],"categories_segments":[],"categories_sizes":[],"default_left":[0,0,0,0,0,0,0,0,0,0,0,0,0,0,0],"id":39,"left_children":[1,-1,3,5,7,9,11,13,-1,-1,-1,-1,-1,-1,-1],"loss_changes":[7.37651E-1,0E0,1.2175951E0,1.048403E0,1.8792516E-1,1.8395563E1,2.885353E0,1.9075423E-3,0E0,0E0,0E0,0E0,0E0,0E0,0E0],"parents":[2147483647,0,0,2,2,3,3,4,4,5,5,6,6,7,7],"right_children":[2,-1,4,6,8,10,12,14,-1,-1,-1,-1,-1,-1,-1],"split_conditions":[4E0,-1.8793799E-2,2E1,4E0,2.3E1,9E0,7E0,2.2E1,-1.7026557E-2,1.1950221E-2,-2.4346438E-1,5.796004E-2,4.225549E-3,-4.5754933E-3,-6.7131906E-3],"split_indices":[1,0,1,0,1,1,0,1,0,0,0,0,0,0,0],"split_type":[0,0,0,0,0,0,0,0,0,0,0,0,0,0,0],"sum_hessian":[1.91E2,2.1E1,1.7E2,1.04E2,6.6E1,4.8E1,5.6E1,4.3E1,2.3E1,4.6E1,2E0,1.2E1,4.4E1,2.2E1,2.1E1],"tree_param":{"num_deleted":"0","num_feature":"2","num_nodes":"15","size_leaf_vector":"1"}},{"base_weights":[-1.5195798E-2,-1.6999846E-2,4.8092E-3,6.480712E-2,-8.928917E-2,-3.571627E-2,1.50085E-1,-5.1991258E-2,-1.5394829E-2,1.0780649E-2,-2.2723341E-1,5.260984E-2,3.8123683E-3,-4.137806E-3,-6.072363E-3],"categories":[],"categories_nodes":[],"categories_segments":[],"categories_sizes":[],"default_left":[0,0,0,0,0,0,0,0,0,0,0,0,0,0,0],"id":40,"left_children":[1,-1,3,5,7,9,11,13,-1,-1,-1,-1,-1,-1,-1],"loss_changes":[5.954083E-1,0E0,9.7120243E-1,9.0546477E-1,1.5357661E-1,1.5974244E1,2.3795834E0,1.5652254E-3,0E0,0E0,0E0,0E0,0E0,0E0,0E0],"parents":[2147483647,0,0,2,2,3,3,4,4,5,5,6,6,7,7],"right_children":[2,-1,4,6,8,10,12,14,-1,-1,-1,-1,-1,-1,-1],"split_conditions":[4E0,-1.6999846E-2,2E1,4E0,2.3E1,9E0,7E0,2.2E1,-1.5394829E-2,1.0780649E-2,-2.2723341E-1,5.260984E-2,3.8123683E-3,-4.137806E-3,-6.072363E-3],"split_indices":[1,0,1,0,1,1,0,1,0,0,0,0,0,0,0],"split_type":[0,0,0,0,0,0,0,0,0,0,0,0,0,0,0],"sum_hessian":[1.91E2,2.1E1,1.7E2,1.04E2,6.6E1,4.8E1,5.6E1,4.3E1,2.3E1,4.6E1,2E0,1.2E1,4.4E1,2.2E1,2.1E1],"tree_param":{"num_deleted":"0","num_feature":"2","num_nodes":"15","size_leaf_vector":"1"}},{"base_weights":[-1.4731559E-2,-1.5377122E-2,3.2427353E-3,5.6802314E-2,-8.0742314E-2,-3.6561754E-2,1.3606612E-1,-4.7024056E-2,-1.3919487E-2,9.725552E-3,-2.1208452E-1,4.77536E-2,3.439558E-3,-3.7420024E-3,-5.4927175E-3],"categories":[],"categories_nodes":[],"categories_segments":[],"categories_sizes":[],"default_left":[0,0,0,0,0,0,0,0,0,0,0,0,0,0,0],"id":41,"left_children":[1,-1,3,5,7,9,11,13,-1,-1,-1,-1,-1,-1,-1],"loss_changes":[4.8033348E-1,0E0,7.737793E-1,7.820159E-1,1.2550598E-1,1.3873008E1,1.9624681E0,1.2843013E-3,0E0,0E0,0E0,0E0,0E0,0E0,0E0],"parents":[2147483647,0,0,2,2,3,3,4,4,5,5,6,6,7,7],"right_children":[2,-1,4,6,8,10,12,14,-1,-1,-1,-1,-1,-1,-1],"split_conditions":[4E0,-1.5377122E-2,2E1,4E0,2.3E1,9E0,7E0,2.2E1,-1.3919487E-2,9.725552E-3,-2.1208452E-1,4.77536E-2,3.439558E-3,-3.7420024E-3,-5.4927175E-3],"split_indices":[1,0,1,0,1,1,0,1,0,0,0,0,0,0,0],"split_type":[0,0,0,0,0,0,0,0,0,0,0,0,0,0,0],"sum_hessian":[1.91E2,2.1E1,1.7E2,1.04E2,6.6E1,4.8E1,5.6E1,4.3E1,2.3E1,4.6E1,2E0,1.2E1,4.4E1,2.2E1,2.1E1],"tree_param":{"num_deleted":"0","num_feature":"2","num_nodes":"15","size_leaf_vector":"1"}},{"base_weights":[-1.42464945E-2,-1.0092563E-1,1.2974503E-2,-1.3909315E-2,-6.33012E-3,2.4809381E-2,-3.0391244E-2,-1.9794555E-1,1.739399E-2,4.334558E-2,-3.1490678E-3],"categories":[],"categories_nodes":[],"categories_segments":[],"categories_sizes":[],"default_left":[0,0,0,0,0,0,0,0,0,0,0],"id":42,"left_children":[1,3,5,-1,-1,-1,7,-1,9,-1,-1],"loss_changes":[4.5433205E-1,5.7252616E-2,1.5063702E0,0E0,0E0,0E0,1.1676491E1,0E0,2.5153522E0,0E0,0E0],"parents":[2147483647,0,0,1,1,2,2,6,6,8,8],"right_children":[2,4,6,-1,-1,-1,8,-1,10,-1,-1],"split_conditions":[7E0,4E0,9E0,-1.3909315E-2,-6.33012E-3,2.4809381E-2,4E0,-1.9794555E-1,7E0,4.334558E-2,-3.1490678E-3],"split_indices":[1,1,1,0,0,0,0,0,0,0,0],"split_type":[0,0,0,0,0,0,0,0,0,0,0],"sum_hessian":[1.91E2,4.5E1,1.46E2,2.1E1,2.4E1,2.2E1,1.24E2,2E0,1.22E2,1.2E1,1.1E2],"tree_param":{"num_deleted":"0","num_feature":"2","num_nodes":"11","size_leaf_vector":"1"}},{"base_weights":[-1.3619513E-2,-9.1272704E-2,1.0772775E-2,-1.2581601E-2,-5.72237E-3,2.2436358E-2,-2.8614115E-2,-1.8474917E-1,1.598139E-2,3.9344482E-2,-2.8370013E-3],"categories":[],"categories_nodes":[],"categories_segments":[],"categories_sizes":[],"default_left":[0,0,0,0,0,0,0,0,0,0,0],"id":43,"left_children":[1,3,5,-1,-1,-1,7,-1,9,-1,-1],"loss_changes":[3.6465794E-1,4.6903968E-2,1.2430835E0,0E0,0E0,0E0,1.0168746E1,0E0,2.070309E0,0E0,0E0],"parents":[2147483647,0,0,1,1,2,2,6,6,8,8],"right_children":[2,4,6,-1,-1,-1,8,-1,10,-1,-1],"split_conditions":[7E0,4E0,9E0,-1.2581601E-2,-5.72237E-3,2.2436358E-2,4E0,-1.8474917E-1,7E0,3.9344482E-2,-2.8370013E-3],"split_indices":[1,1,1,0,0,0,0,0,0,0,0],"split_type":[0,0,0,0,0,0,0,0,0,0,0],"sum_hessian":[1.91E2,4.5E1,1.46E2,2.1E1,2.4E1,2.2E1,1.24E2,2E0,1.22E2,1.2E1,1.1E2],"tree_param":{"num_deleted":"0","num_feature":"2","num_nodes":"11","size_leaf_vector":"1"}},{"base_weights":[-1.3008073E-2,2.2798742E-3,-1.201187E-2,-6.1474465E-2,4.6885114E-2,1.2790652E-2,-1.7243257E-1,3.5712656E-2,5.212101E-4,-8.254354E-3,2.0290291E-2,3.6885347E-3,-3.6681232E-3],"categories":[],"categories_nodes":[],"categories_segments":[],"categories_sizes":[],"default_left":[0,0,0,0,0,0,0,0,0,0,0,0,0],"id":44,"left_children":[1,3,-1,5,7,9,-1,-1,11,-1,-1,-1,-1],"loss_changes":[3.1467414E-1,4.8348066E-1,0E0,8.666484E0,1.4382143E0,1.2491939E0,0E0,0E0,1.2040243E-1,0E0,0E0,0E0,0E0],"parents":[2147483647,0,0,1,1,3,3,4,4,5,5,8,8],"right_children":[2,4,-1,6,8,10,-1,-1,12,-1,-1,-1,-1],"split_conditions":[2.3E1,4E0,-1.201187E-2,9E0,7E0,7E0,-1.7243257E-1,3.5712656E-2,2E1,-8.254354E-3,2.0290291E-2,3.6885347E-3,-3.6681232E-3],"split_indices":[1,0,0,1,0,1,0,0,1,0,0,0,0],"split_type":[0,0,0,0,0,0,0,0,0,0,0,0,0],"sum_hessian":[1.91E2,1.68E2,2.3E1,6.9E1,9.9E1,6.7E1,2E0,1.2E1,8.7E1,4.5E1,2.2E1,4.4E1,4.3E1],"tree_param":{"num_deleted":"0","num_feature":"2","num_nodes":"13","size_leaf_vector":"1"}},{"base_weights":[-1.2419275E-2,1.3140729E-3,-1.0860747E-2,-5.7618577E-2,4.2553786E-2,1.1688401E-2,-1.6093706E-1,3.2416124E-2,4.6912106E-4,-7.446886E-3,1.8349474E-2,3.3278507E-3,-3.3096597E-3],"categories":[],"categories_nodes":[],"categories_segments":[],"categories_sizes":[],"default_left":[0,0,0,0,0,0,0,0,0,0,0,0,0],"id":45,"left_children":[1,3,-1,5,7,9,-1,-1,11,-1,-1,-1,-1],"loss_changes":[2.53772E-1,4.131837E-1,0E0,7.547117E0,1.1849835E0,1.0202253E0,0E0,0E0,9.8013215E-2,0E0,0E0,0E0,0E0],"parents":[2147483647,0,0,1,1,3,3,4,4,5,5,8,8],"right_children":[2,4,-1,6,8,10,-1,-1,12,-1,-1,-1,-1],"split_conditions":[2.3E1,4E0,-1.0860747E-2,9E0,7E0,7E0,-1.6093706E-1,3.2416124E-2,2E1,-7.446886E-3,1.8349474E-2,3.3278507E-3,-3.3096597E-3],"split_indices":[1,0,0,1,0,1,0,0,1,0,0,0,0],"split_type":[0,0,0,0,0,0,0,0,0,0,0,0,0],"sum_hessian":[1.91E2,1.68E2,2.3E1,6.9E1,9.9E1,6.7E1,2E0,1.2E1,8.7E1,4.5E1,2.2E1,4.4E1,4.3E1],"tree_param":{"num_deleted":"0","num_feature":"2","num_nodes":"13","size_leaf_vector":"1"}},{"base_weights":[-1.1846431E-2,4.8679148E-4,-9.819928E-3,-5.399962E-2,3.8622413E-2,1.0680353E-2,-1.5020792E-1,2.9423831E-2,4.2208217E-4,-6.7183557E-3,1.6594382E-2,3.0024105E-3,-2.9862307E-3],"categories":[],"categories_nodes":[],"categories_segments":[],"categories_sizes":[],"default_left":[0,0,0,0,0,0,0,0,0,0,0,0,0],"id":46,"left_children":[1,3,-1,5,7,9,-1,-1,11,-1,-1,-1,-1],"loss_changes":[2.0452948E-1,3.5324615E-1,0E0,6.5723653E0,9.763371E-1,8.3322924E-1,0E0,0E0,7.978676E-2,0E0,0E0,0E0,0E0],"parents":[2147483647,0,0,1,1,3,3,4,4,5,5,8,8],"right_children":[2,4,-1,6,8,10,-1,-1,12,-1,-1,-1,-1],"split_conditions":[2.3E1,4E0,-9.819928E-3,9E0,7E0,7E0,-1.5020792E-1,2.9423831E-2,2E1,-6.7183557E-3,1.6594382E-2,3.0024105E-3,-2.9862307E-3],"split_indices":[1,0,0,1,0,1,0,0,1,0,0,0,0],"split_type":[0,0,0,0,0,0,0,0,0,0,0,0,0],"sum_hessian":[1.91E2,1.68E2,2.3E1,6.9E1,9.9E1,6.7E1,2E0,1.2E1,8.7E1,4.5E1,2.2E1,4.4E1,4.3E1],"tree_param":{"num_deleted":"0","num_feature":"2","num_nodes":"13","size_leaf_vector":"1"}},{"base_weights":[-1.1290346E-2,-5.0604187E-2,1.1175175E-2,9.757771E-3,-1.4019404E-1,2.6707811E-2,-1.8896116E-2,-6.0611144E-2,1.5007135E-2,2.7088653E-2,-4.9499378E-2,-9.240567E-3,-3.020752E-3,-2.3904562E-3,8.148632E-3,-2.6943989E-3,-8.878845E-3],"categories":[],"categories_nodes":[],"categories_segments":[],"categories_sizes":[],"default_left":[0,0,0,0,0,0,0,0,0,0,0,0,0,0,0,0,0],"id":47,"left_children":[1,3,5,7,-1,-1,9,11,-1,13,15,-1,-1,-1,-1,-1,-1],"loss_changes":[1.7014106E-1,5.723531E0,9.515725E-1,6.8050855E-1,0E0,0E0,1.5754938E-1,4.1675404E-2,0E0,1.2677391E-1,5.6981787E-2,0E0,0E0,0E0,0E0,0E0,0E0],"parents":[2147483647,0,0,1,1,2,2,3,3,6,6,7,7,9,9,10,10],"right_children":[2,4,6,8,-1,-1,10,12,-1,14,16,-1,-1,-1,-1,-1,-1],"split_conditions":[4E0,9E0,7E0,7E0,-1.4019404E-1,2.6707811E-2,2E1,4E0,1.5007135E-2,1.9E1,2.3E1,-9.240567E-3,-3.020752E-3,-2.3904562E-3,8.148632E-3,-2.6943989E-3,-8.878845E-3],"split_indices":[0,1,0,1,0,0,1,1,0,1,1,0,0,0,0,0,0],"split_type":[0,0,0,0,0,0,0,0,0,0,0,0,0,0,0,0,0],"sum_hessian":[1.91E2,6.9E1,1.22E2,6.7E1,2E0,1.2E1,1.1E2,4.5E1,2.2E1,4.4E1,6.6E1,2.1E1,2.4E1,2.3E1,2.1E1,4.3E1,2.3E1],"tree_param":{"num_deleted":"0","num_feature":"2","num_nodes":"17","size_leaf_vector":"1"}},{"base_weights":[-1.0768257E-2,-4.7507387E-2,1.0227736E-2,8.8223005E-3,-1.3084778E-1,2.4242504E-2,-1.7058684E-2,-5.4816745E-2,1.3571681E-2,1.0965547E-2,-5.840457E-2,-8.358514E-3,-2.7307894E-3,-2.161328E-3,2.8486599E-3,-3.188634E-3,-8.027942E-3],"categories":[],"categories_nodes":[],"categories_segments":[],"categories_sizes":[],"default_left":[0,0,0,0,0,0,0,0,0,0,0,0,0,0,0,0,0],"id":48,"left_children":[1,3,5,7,-1,-1,9,11,-1,13,15,-1,-1,-1,-1,-1,-1],"loss_changes":[1.4858979E-1,4.9836483E0,7.8344285E-1,5.565698E-1,0E0,0E0,1.2925465E-1,3.4121186E-2,0E0,3.8860317E-2,2.354388E-2,0E0,0E0,0E0,0E0,0E0,0E0],"parents":[2147483647,0,0,1,1,2,2,3,3,6,6,7,7,9,9,10,10],"right_children":[2,4,6,8,-1,-1,10,12,-1,14,16,-1,-1,-1,-1,-1,-1],"split_conditions":[4E0,9E0,7E0,7E0,-1.3084778E-1,2.4242504E-2,2.2E1,4E0,1.3571681E-2,1.9E1,2.3E1,-8.358514E-3,-2.7307894E-3,-2.161328E-3,2.8486599E-3,-3.188634E-3,-8.027942E-3],"split_indices":[0,1,0,1,0,0,1,1,0,1,1,0,0,0,0,0,0],"split_type":[0,0,0,0,0,0,0,0,0,0,0,0,0,0,0,0,0],"sum_hessian":[1.91E2,6.9E1,1.22E2,6.7E1,2E0,1.2E1,1.1E2,4.5E1,2.2E1,6.6E1,4.4E1,2.1E1,2.4E1,2.3E1,4.3E1,2.1E1,2.3E1],"tree_param":{"num_deleted":"0","num_feature":"2","num_nodes":"17","size_leaf_vector":"1"}},{"base_weights":[-1.02885775E-2,-4.4590373E-2,9.3164155E-3,7.976644E-3,-1.2212459E-1,2.2004744E-2,-1.54477265E-2,-4.957647E-2,1.2273606E-2,2.4283346E-2,-4.190221E-2,-7.5606606E-3,-2.468689E-3,-1.9542298E-3,7.098935E-3,-2.4213337E-3,-7.258589E-3],"categories":[],"categories_nodes":[],"categories_segments":[],"categories_sizes":[],"default_left":[0,0,0,0,0,0,0,0,0,0,0,0,0,0,0,0,0],"id":49,"left_children":[1,3,5,7,-1,-1,9,11,-1,13,15,-1,-1,-1,-1,-1,-1],"loss_changes":[1.2953281E-1,4.3394704E0,6.452837E-1,4.552086E-1,0E0,0E0,1.1768574E-1,2.793596E-2,0E0,9.3498714E-2,3.460736E-2,0E0,0E0,0E0,0E0,0E0,0E0],"parents":[2147483647,0,0,1,1,2,2,3,3,6,6,7,7,9,9,10,10],"right_children":[2,4,6,8,-1,-1,10,12,-1,14,16,-1,-1,-1,-1,-1,-1],"split_conditions":[4E0,9E0,7E0,7E0,-1.2212459E-1,2.2004744E-2,2E1,4E0,1.2273606E-2,1.9E1,2.3E1,-7.5606606E-3,-2.468689E-3,-1.9542298E-3,7.098935E-3,-2.4213337E-3,-7.258589E-3],"split_indices":[0,1,0,1,0,0,1,1,0,1,1,0,0,0,0,0,0],"split_type":[0,0,0,0,0,0,0,0,0,0,0,0,0,0,0,0,0],"sum_hessian":[1.91E2,6.9E1,1.22E2,6.7E1,2E0,1.2E1,1.1E2,4.5E1,2.2E1,4.4E1,6.6E1,2.1E1,2.4E1,2.3E1,2.1E1,4.3E1,2.3E1],"tree_param":{"num_deleted":"0","num_feature":"2","num_nodes":"17","size_leaf_vector":"1"}}]},"name":"gbtree"},"learner_model_param":{"base_score":"[1.034555E1]","boost_from_average":"1","num_class":"0","num_feature":"2","num_target":"1"},"objective":{"name":"reg:squarederror","reg_loss_param":{"scale_pos_weight":"1"}}},"version":[3,2,0]}